{"learner":{"attributes":{"scikit_learn":"{\"_estimator_type\": \"regressor\"}"},"feature_names":["vwap","volatility_5","BBL_20_2.0","BBB_20_2.0","BBP_20_2.0","sma_10","MACDh_12_26_9","rsi_14","open","BBU_20_2.0"],"feature_types":["float","float","float","float","float","float","float","float","float","float"],"gradient_booster":{"model":{"gbtree_model_param":{"num_parallel_tree":"1","num_trees":"100"},"iteration_indptr":[0,1,2,3,4,5,6,7,8,9,10,11,12,13,14,15,16,17,18,19,20,21,22,23,24,25,26,27,28,29,30,31,32,33,34,35,36,37,38,39,40,41,42,43,44,45,46,47,48,49,50,51,52,53,54,55,56,57,58,59,60,61,62,63,64,65,66,67,68,69,70,71,72,73,74,75,76,77,78,79,80,81,82,83,84,85,86,87,88,89,90,91,92,93,94,95,96,97,98,99,100],"tree_info":[0,0,0,0,0,0,0,0,0,0,0,0,0,0,0,0,0,0,0,0,0,0,0,0,0,0,0,0,0,0,0,0,0,0,0,0,0,0,0,0,0,0,0,0,0,0,0,0,0,0,0,0,0,0,0,0,0,0,0,0,0,0,0,0,0,0,0,0,0,0,0,0,0,0,0,0,0,0,0,0,0,0,0,0,0,0,0,0,0,0,0,0,0,0,0,0,0,0,0,0],"trees":[{"base_weights":[1.1146148E-11,1.1838545E-3,-1.484516E-3,1.9251173E-3,-3.115289E-3,-2.360009E-3,3.3915977E-3,-6.176966E-4,3.3261452E-3,2.7574501E-6,-4.845274E-3,-1.2555375E-3,-4.4992E-3,6.009361E-5,-2.0373878E-3,-1.491826E-3,1.8431826E-3,7.2044493E-3,2.2641763E-3,-5.5173954E-5,-7.0212434E-7,6.233353E-4,-2.4263007E-3,-4.655819E-3,-9.183371E-6,-6.1182805E-6,-3.1570336E-5,-2.9980634E-5,-5.6601915E-4,3.5833673E-5,4.304353E-6,4.7528643E-5,1.052333E-4,-7.006251E-4,3.970396E-3,-8.3242176E-4,1.434456E-3,-3.2920372E-5,-1.6346104E-3,-2.8889745E-3,-5.3569183E-5,-9.2781085E-4,9.4922325E-6,-2.304081E-3,1.2319854E-3,6.8866727E-3,1.603741E-3,-1.3407088E-5,-2.43101E-6,1.9682134E-3,1.4176669E-6,-5.284813E-6,-2.0242138E-5,-3.6979355E-7,-3.3581437E-5,1.2804896E-6,-1.3397643E-5,-3.293447E-5,4.4267763E-6,1.8712095E-5,-2.4405024E-6,1.2724853E-5,7.369084E-5,8.431581E-6,2.8041582E-5,4.296459E-6,2.4977111E-5],"categories":[],"categories_nodes":[],"categories_segments":[],"categories_sizes":[],"default_left":[0,0,0,0,0,0,0,0,0,0,0,0,0,0,0,0,0,0,0,0,0,0,0,0,0,0,0,0,0,0,0,0,0,0,0,0,0,0,0,0,0,0,0,0,0,0,0,0,0,0,0,0,0,0,0,0,0,0,0,0,0,0,0,0,0,0,0],"id":0,"left_children":[1,3,5,7,9,11,13,15,17,-1,19,21,23,-1,25,27,29,31,33,-1,-1,35,37,39,-1,-1,-1,-1,41,-1,-1,-1,-1,43,45,47,49,-1,51,53,-1,55,-1,57,59,61,63,-1,-1,65,-1,-1,-1,-1,-1,-1,-1,-1,-1,-1,-1,-1,-1,-1,-1,-1,-1],"loss_changes":[2.4955804E-4,2.5775412E-4,2.7695144E-4,2.443082E-4,7.1733324E-5,1.2193553E-4,1.543614E-4,5.6527875E-5,1.6490798E-4,0E0,2.5287998E-5,8.290185E-5,5.819369E-6,0E0,4.452926E-6,2.479825E-5,1.5666681E-5,2.3212662E-5,1.8489141E-4,0E0,0E0,1.8905992E-5,1.0382893E-5,5.582464E-6,0E0,0E0,0E0,0E0,8.007327E-6,0E0,0E0,0E0,0E0,4.6222573E-5,1.4769746E-4,1.4713373E-6,6.6207976E-6,0E0,4.963571E-6,9.2423E-6,0E0,4.9561722E-6,0E0,2.3198329E-5,7.061293E-6,1.770645E-5,1.04178835E-5,0E0,0E0,4.6295463E-6,0E0,0E0,0E0,0E0,0E0,0E0,0E0,0E0,0E0,0E0,0E0,0E0,0E0,0E0,0E0,0E0,0E0],"parents":[2147483647,0,0,1,1,2,2,3,3,4,4,5,5,6,6,7,7,8,8,10,10,11,11,12,12,14,14,15,15,16,16,17,17,18,18,21,21,22,22,23,23,28,28,33,33,34,34,35,35,36,36,38,38,39,39,41,41,43,43,44,44,45,45,46,46,49,49],"right_children":[2,4,6,8,10,12,14,16,18,-1,20,22,24,-1,26,28,30,32,34,-1,-1,36,38,40,-1,-1,-1,-1,42,-1,-1,-1,-1,44,46,48,50,-1,52,54,-1,56,-1,58,60,62,64,-1,-1,66,-1,-1,-1,-1,-1,-1,-1,-1,-1,-1,-1,-1,-1,-1,-1,-1,-1],"split_conditions":[1.17798555E5,8.512043E1,1.1945847E5,6.276133E1,1.0642453E5,3.7364944E1,1.2109367E5,1.1752392E5,2.4823312E-4,2.7574501E-6,1.0880262E5,1.1775145E5,1.1186126E0,6.009361E-5,1.2120695E5,7.978313E-1,1.1716301E5,1.0888441E5,3.1416647E1,-5.5173954E-5,-7.0212434E-7,1.1797221E5,1.1803507E5,5.9886295E1,-9.183371E-6,-6.1182805E-6,-3.1570336E-5,-2.9980634E-5,3.2831624E-4,3.5833673E-5,4.304353E-6,4.7528643E-5,1.052333E-4,7.094288E1,1.1143915E5,1.17841E5,1.1803973E5,-3.2920372E-5,1.1833012E5,1.182076E5,-5.3569183E-5,5.5542233E1,9.4922325E-6,1.11150195E5,3.80195E-4,4.0418007E1,1.0956023E0,-1.3407088E-5,-2.43101E-6,3.2553068E-4,1.4176669E-6,-5.284813E-6,-2.0242138E-5,-3.6979355E-7,-3.3581437E-5,1.2804896E-6,-1.3397643E-5,-3.293447E-5,4.4267763E-6,1.8712095E-5,-2.4405024E-6,1.2724853E-5,7.369084E-5,8.431581E-6,2.8041582E-5,4.296459E-6,2.4977111E-5],"split_indices":[9,7,0,7,0,6,0,9,1,0,2,2,4,0,0,4,5,0,6,0,0,9,2,7,0,0,0,0,1,0,0,0,0,7,0,8,0,0,0,0,0,7,0,0,1,6,4,0,0,1,0,0,0,0,0,0,0,0,0,0,0,0,0,0,0,0,0],"split_type":[0,0,0,0,0,0,0,0,0,0,0,0,0,0,0,0,0,0,0,0,0,0,0,0,0,0,0,0,0,0,0,0,0,0,0,0,0,0,0,0,0,0,0,0,0,0,0,0,0,0,0,0,0,0,0,0,0,0,0,0,0,0,0,0,0,0,0],"sum_hessian":[1.4E2,7.8E1,6.2E1,6.7E1,1.1E1,5.3E1,9E0,2.4E1,4.3E1,4E0,7E0,3.6E1,1.7E1,6E0,3E0,1.8E1,6E0,8E0,3.5E1,6E0,1E0,1.4E1,2.2E1,1.6E1,1E0,2E0,1E0,6E0,1.2E1,2E0,4E0,6E0,2E0,1.3E1,2.2E1,5E0,9E0,9E0,1.3E1,6E0,1E1,1E1,2E0,7E0,6E0,9E0,1.3E1,2E0,3E0,6E0,3E0,4E0,9E0,1E0,5E0,3E0,7E0,5E0,2E0,4E0,2E0,1E0,8E0,9E0,4E0,2E0,4E0],"tree_param":{"num_deleted":"0","num_feature":"10","num_nodes":"67","size_leaf_vector":"1"}},{"base_weights":[7.0876496E-7,1.1747733E-3,-1.4715422E-3,1.9098506E-3,-3.0885627E-3,-2.339007E-3,3.3599222E-3,-6.112184E-4,3.2988705E-3,2.7353904E-6,-4.803806E-3,-1.2441603E-3,-4.4595804E-3,5.9578524E-5,-2.0264362E-3,-1.4786238E-3,1.8304848E-3,7.1493783E-3,2.2446082E-3,-5.4701035E-5,-6.9861386E-7,6.1809213E-4,-2.404579E-3,-4.614409E-3,-9.137455E-6,-6.077492E-6,-3.1412485E-5,-2.9723658E-5,-5.605609E-4,3.559478E-5,4.269918E-6,4.7121255E-5,1.0453175E-4,-6.944929E-4,3.9360346E-3,-8.2673726E-4,1.4231806E-3,-3.2624088E-5,-1.6200875E-3,-2.8649347E-3,-5.3082193E-5,-9.1963424E-4,9.428952E-6,-2.284604E-3,1.22199E-3,6.826448E-3,1.5903087E-3,-1.3317709E-5,-2.4127776E-6,1.9527131E-3,1.4070346E-6,-5.2425344E-6,-2.0059959E-5,-3.6794458E-7,-3.330159E-5,1.2708858E-6,-1.3280414E-5,-3.2660017E-5,4.3972645E-6,1.85624E-5,-2.4242322E-6,1.26612285E-5,7.303581E-5,8.355697E-6,2.781725E-5,4.2678157E-6,2.4777293E-5],"categories":[],"categories_nodes":[],"categories_segments":[],"categories_sizes":[],"default_left":[0,0,0,0,0,0,0,0,0,0,0,0,0,0,0,0,0,0,0,0,0,0,0,0,0,0,0,0,0,0,0,0,0,0,0,0,0,0,0,0,0,0,0,0,0,0,0,0,0,0,0,0,0,0,0,0,0,0,0,0,0,0,0,0,0,0,0],"id":1,"left_children":[1,3,5,7,9,11,13,15,17,-1,19,21,23,-1,25,27,29,31,33,-1,-1,35,37,39,-1,-1,-1,-1,41,-1,-1,-1,-1,43,45,47,49,-1,51,53,-1,55,-1,57,59,61,63,-1,-1,65,-1,-1,-1,-1,-1,-1,-1,-1,-1,-1,-1,-1,-1,-1,-1,-1,-1],"loss_changes":[2.4544972E-4,2.5347536E-4,2.7189977E-4,2.4013975E-4,7.05159E-5,1.19823526E-4,1.5200704E-4,5.565527E-5,1.6256806E-4,0E0,2.4851586E-5,8.144298E-5,5.6655554E-6,0E0,4.4171884E-6,2.4389446E-5,1.546654E-5,2.3212982E-5,1.8169943E-4,0E0,0E0,1.8624827E-5,1.0192685E-5,5.426933E-6,0E0,0E0,0E0,0E0,7.885183E-6,0E0,0E0,0E0,0E0,4.5455647E-5,1.4508652E-4,1.4527336E-6,6.5163804E-6,0E0,4.8688344E-6,9.087511E-6,0E0,4.871158E-6,0E0,2.2825356E-5,6.9516245E-6,1.728296E-5,1.0264594E-5,0E0,0E0,4.550524E-6,0E0,0E0,0E0,0E0,0E0,0E0,0E0,0E0,0E0,0E0,0E0,0E0,0E0,0E0,0E0,0E0,0E0],"parents":[2147483647,0,0,1,1,2,2,3,3,4,4,5,5,6,6,7,7,8,8,10,10,11,11,12,12,14,14,15,15,16,16,17,17,18,18,21,21,22,22,23,23,28,28,33,33,34,34,35,35,36,36,38,38,39,39,41,41,43,43,44,44,45,45,46,46,49,49],"right_children":[2,4,6,8,10,12,14,16,18,-1,20,22,24,-1,26,28,30,32,34,-1,-1,36,38,40,-1,-1,-1,-1,42,-1,-1,-1,-1,44,46,48,50,-1,52,54,-1,56,-1,58,60,62,64,-1,-1,66,-1,-1,-1,-1,-1,-1,-1,-1,-1,-1,-1,-1,-1,-1,-1,-1,-1],"split_conditions":[1.17798555E5,8.512043E1,1.1945847E5,6.276133E1,1.0642453E5,3.7364944E1,1.2109367E5,1.1752392E5,2.4823312E-4,2.7353904E-6,1.0880262E5,1.1775145E5,1.1186126E0,5.9578524E-5,1.2120695E5,7.978313E-1,1.1716301E5,1.0888441E5,3.1416647E1,-5.4701035E-5,-6.9861386E-7,1.1797221E5,1.1803507E5,5.9886295E1,-9.137455E-6,-6.077492E-6,-3.1412485E-5,-2.9723658E-5,3.2831624E-4,3.559478E-5,4.269918E-6,4.7121255E-5,1.0453175E-4,7.094288E1,1.1143915E5,1.17841E5,1.1803973E5,-3.2624088E-5,1.1833012E5,1.182076E5,-5.3082193E-5,5.5542233E1,9.428952E-6,1.11150195E5,3.80195E-4,4.0418007E1,1.0956023E0,-1.3317709E-5,-2.4127776E-6,3.2553068E-4,1.4070346E-6,-5.2425344E-6,-2.0059959E-5,-3.6794458E-7,-3.330159E-5,1.2708858E-6,-1.3280414E-5,-3.2660017E-5,4.3972645E-6,1.85624E-5,-2.4242322E-6,1.26612285E-5,7.303581E-5,8.355697E-6,2.781725E-5,4.2678157E-6,2.4777293E-5],"split_indices":[9,7,0,7,0,6,0,9,1,0,2,2,4,0,0,4,5,0,6,0,0,9,2,7,0,0,0,0,1,0,0,0,0,7,0,8,0,0,0,0,0,7,0,0,1,6,4,0,0,1,0,0,0,0,0,0,0,0,0,0,0,0,0,0,0,0,0],"split_type":[0,0,0,0,0,0,0,0,0,0,0,0,0,0,0,0,0,0,0,0,0,0,0,0,0,0,0,0,0,0,0,0,0,0,0,0,0,0,0,0,0,0,0,0,0,0,0,0,0,0,0,0,0,0,0,0,0,0,0,0,0,0,0,0,0,0,0],"sum_hessian":[1.4E2,7.8E1,6.2E1,6.7E1,1.1E1,5.3E1,9E0,2.4E1,4.3E1,4E0,7E0,3.6E1,1.7E1,6E0,3E0,1.8E1,6E0,8E0,3.5E1,6E0,1E0,1.4E1,2.2E1,1.6E1,1E0,2E0,1E0,6E0,1.2E1,2E0,4E0,6E0,2E0,1.3E1,2.2E1,5E0,9E0,9E0,1.3E1,6E0,1E1,1E1,2E0,7E0,6E0,9E0,1.3E1,2E0,3E0,6E0,3E0,4E0,9E0,1E0,5E0,3E0,7E0,5E0,2E0,4E0,2E0,1E0,8E0,9E0,4E0,2E0,4E0],"tree_param":{"num_deleted":"0","num_feature":"10","num_nodes":"67","size_leaf_vector":"1"}},{"base_weights":[1.4058467E-6,1.1657635E-3,-1.458684E-3,1.8947074E-3,-3.0620657E-3,-2.3181927E-3,3.3285317E-3,-6.0480373E-4,3.2718226E-3,2.7135072E-6,-4.762693E-3,-1.2328865E-3,-4.4203117E-3,5.9067846E-5,-2.0155443E-3,-1.4655378E-3,1.8178748E-3,7.094735E-3,2.2252107E-3,-5.423217E-5,-6.9512083E-7,6.128927E-4,-2.3830517E-3,-4.573368E-3,-9.091767E-6,-6.0369753E-6,-3.1255422E-5,-2.9468883E-5,-5.5515376E-4,3.5357483E-5,4.2357588E-6,4.671736E-5,1.03834864E-4,-6.88414E-4,3.901973E-3,-8.2109164E-4,1.411994E-3,-3.233047E-5,-1.6056941E-3,-2.8410954E-3,-5.2599626E-5,-9.115297E-4,9.366092E-6,-2.2652906E-3,1.2120756E-3,6.766753E-3,1.5769894E-3,-1.3228923E-5,-2.3946818E-6,1.9373352E-3,1.3964816E-6,-5.200595E-6,-1.987942E-5,-3.6610493E-7,-3.302408E-5,1.261354E-6,-1.3164209E-5,-3.238785E-5,4.3679497E-6,1.84139E-5,-2.4080707E-6,1.2597922E-5,7.2386596E-5,8.280496E-6,2.7594713E-5,4.2393635E-6,2.4579076E-5],"categories":[],"categories_nodes":[],"categories_segments":[],"categories_sizes":[],"default_left":[0,0,0,0,0,0,0,0,0,0,0,0,0,0,0,0,0,0,0,0,0,0,0,0,0,0,0,0,0,0,0,0,0,0,0,0,0,0,0,0,0,0,0,0,0,0,0,0,0,0,0,0,0,0,0,0,0,0,0,0,0,0,0,0,0,0,0],"id":2,"left_children":[1,3,5,7,9,11,13,15,17,-1,19,21,23,-1,25,27,29,31,33,-1,-1,35,37,39,-1,-1,-1,-1,41,-1,-1,-1,-1,43,45,47,49,-1,51,53,-1,55,-1,57,59,61,63,-1,-1,65,-1,-1,-1,-1,-1,-1,-1,-1,-1,-1,-1,-1,-1,-1,-1,-1,-1],"loss_changes":[2.4140989E-4,2.492679E-4,2.6693937E-4,2.3604262E-4,6.931913E-5,1.1774819E-4,1.4968921E-4,5.4796208E-5,1.6026138E-4,0E0,2.4422698E-5,8.000973E-5,5.515234E-6,0E0,4.3817054E-6,2.3987388E-5,1.5268944E-5,2.320882E-5,1.785626E-4,0E0,0E0,1.8347857E-5,1.000597E-5,5.275215E-6,0E0,0E0,0E0,0E0,7.764916E-6,0E0,0E0,0E0,0E0,4.4701428E-5,1.4252192E-4,1.4343636E-6,6.413611E-6,0E0,4.7758913E-6,8.935302E-6,0E0,4.7876056E-6,0E0,2.2458404E-5,6.843661E-6,1.686858E-5,1.01135265E-5,0E0,0E0,4.4728404E-6,0E0,0E0,0E0,0E0,0E0,0E0,0E0,0E0,0E0,0E0,0E0,0E0,0E0,0E0,0E0,0E0,0E0],"parents":[2147483647,0,0,1,1,2,2,3,3,4,4,5,5,6,6,7,7,8,8,10,10,11,11,12,12,14,14,15,15,16,16,17,17,18,18,21,21,22,22,23,23,28,28,33,33,34,34,35,35,36,36,38,38,39,39,41,41,43,43,44,44,45,45,46,46,49,49],"right_children":[2,4,6,8,10,12,14,16,18,-1,20,22,24,-1,26,28,30,32,34,-1,-1,36,38,40,-1,-1,-1,-1,42,-1,-1,-1,-1,44,46,48,50,-1,52,54,-1,56,-1,58,60,62,64,-1,-1,66,-1,-1,-1,-1,-1,-1,-1,-1,-1,-1,-1,-1,-1,-1,-1,-1,-1],"split_conditions":[1.17798555E5,8.512043E1,1.1945847E5,6.276133E1,1.0642453E5,3.7364944E1,1.2109367E5,1.1752392E5,2.4823312E-4,2.7135072E-6,1.0880262E5,1.1775145E5,1.1186126E0,5.9067846E-5,1.2120695E5,7.978313E-1,1.1716301E5,1.0888441E5,3.1416647E1,-5.423217E-5,-6.9512083E-7,1.1797221E5,1.1803507E5,5.9886295E1,-9.091767E-6,-6.0369753E-6,-3.1255422E-5,-2.9468883E-5,3.2831624E-4,3.5357483E-5,4.2357588E-6,4.671736E-5,1.03834864E-4,7.094288E1,1.1143915E5,1.17841E5,1.1803973E5,-3.233047E-5,1.1833012E5,1.182076E5,-5.2599626E-5,5.5542233E1,9.366092E-6,1.11150195E5,3.80195E-4,4.0418007E1,1.0956023E0,-1.3228923E-5,-2.3946818E-6,3.2553068E-4,1.3964816E-6,-5.200595E-6,-1.987942E-5,-3.6610493E-7,-3.302408E-5,1.261354E-6,-1.3164209E-5,-3.238785E-5,4.3679497E-6,1.84139E-5,-2.4080707E-6,1.2597922E-5,7.2386596E-5,8.280496E-6,2.7594713E-5,4.2393635E-6,2.4579076E-5],"split_indices":[9,7,0,7,0,6,0,9,1,0,2,2,4,0,0,4,5,0,6,0,0,9,2,7,0,0,0,0,1,0,0,0,0,7,0,8,0,0,0,0,0,7,0,0,1,6,4,0,0,1,0,0,0,0,0,0,0,0,0,0,0,0,0,0,0,0,0],"split_type":[0,0,0,0,0,0,0,0,0,0,0,0,0,0,0,0,0,0,0,0,0,0,0,0,0,0,0,0,0,0,0,0,0,0,0,0,0,0,0,0,0,0,0,0,0,0,0,0,0,0,0,0,0,0,0,0,0,0,0,0,0,0,0,0,0,0,0],"sum_hessian":[1.4E2,7.8E1,6.2E1,6.7E1,1.1E1,5.3E1,9E0,2.4E1,4.3E1,4E0,7E0,3.6E1,1.7E1,6E0,3E0,1.8E1,6E0,8E0,3.5E1,6E0,1E0,1.4E1,2.2E1,1.6E1,1E0,2E0,1E0,6E0,1.2E1,2E0,4E0,6E0,2E0,1.3E1,2.2E1,5E0,9E0,9E0,1.3E1,6E0,1E1,1E1,2E0,7E0,6E0,9E0,1.3E1,2E0,3E0,6E0,3E0,4E0,9E0,1E0,5E0,3E0,7E0,5E0,2E0,4E0,2E0,1E0,8E0,9E0,4E0,2E0,4E0],"tree_param":{"num_deleted":"0","num_feature":"10","num_nodes":"67","size_leaf_vector":"1"}},{"base_weights":[2.0914154E-6,1.1568245E-3,-1.4459403E-3,1.8796866E-3,-3.0357963E-3,-2.2975646E-3,3.2974242E-3,-5.984522E-4,3.2449998E-3,2.691799E-6,-4.7219316E-3,-1.2217148E-3,-4.3813908E-3,5.8561553E-5,-2.004712E-3,-1.4525669E-3,1.8053523E-3,7.0405155E-3,2.205982E-3,-5.376732E-5,-6.9164525E-7,6.0773647E-4,-2.3617172E-3,-4.5326925E-3,-9.046308E-6,-5.9967288E-6,-3.1099145E-5,-2.9216291E-5,-5.497974E-4,3.5121764E-5,4.2018723E-6,4.6316924E-5,1.03142644E-4,-6.82388E-4,3.868208E-3,-8.154847E-4,1.4008955E-3,-3.2039497E-5,-1.5914285E-3,-2.8174545E-3,-5.212145E-5,-9.0349646E-4,9.3036515E-6,-2.2461403E-3,1.2022414E-3,6.7075836E-3,1.563782E-3,-1.31407305E-5,-2.376722E-6,1.9220789E-3,1.3860082E-6,-5.1589896E-6,-1.9700503E-5,-3.642743E-7,-3.2748878E-5,1.2518938E-6,-1.3049023E-5,-3.211795E-5,4.33883E-6,1.826659E-5,-2.392017E-6,1.2534933E-5,7.174317E-5,8.2059705E-6,2.7373952E-5,4.211101E-6,2.4382443E-5],"categories":[],"categories_nodes":[],"categories_segments":[],"categories_sizes":[],"default_left":[0,0,0,0,0,0,0,0,0,0,0,0,0,0,0,0,0,0,0,0,0,0,0,0,0,0,0,0,0,0,0,0,0,0,0,0,0,0,0,0,0,0,0,0,0,0,0,0,0,0,0,0,0,0,0,0,0,0,0,0,0,0,0,0,0,0,0],"id":3,"left_children":[1,3,5,7,9,11,13,15,17,-1,19,21,23,-1,25,27,29,31,33,-1,-1,35,37,39,-1,-1,-1,-1,41,-1,-1,-1,-1,43,45,47,49,-1,51,53,-1,55,-1,57,59,61,63,-1,-1,65,-1,-1,-1,-1,-1,-1,-1,-1,-1,-1,-1,-1,-1,-1,-1,-1,-1],"loss_changes":[2.3743743E-4,2.4513056E-4,2.6206858E-4,2.320156E-4,6.81427E-5,1.15708914E-4,1.474073E-4,5.3950513E-5,1.5798752E-4,0E0,2.4001187E-5,7.860172E-5,5.368318E-6,0E0,4.3464806E-6,2.3591969E-5,1.50738615E-5,2.320041E-5,1.7548008E-4,0E0,0E0,1.807502E-5,9.822674E-6,5.1271927E-6,0E0,0E0,0E0,0E0,7.6465E-6,0E0,0E0,0E0,0E0,4.3959713E-5,1.4000284E-4,1.4162247E-6,6.312468E-6,0E0,4.68472E-6,8.78565E-6,0E0,4.7054864E-6,0E0,2.209736E-5,6.7373767E-6,1.6463076E-5,9.964664E-6,0E0,0E0,4.39647E-6,0E0,0E0,0E0,0E0,0E0,0E0,0E0,0E0,0E0,0E0,0E0,0E0,0E0,0E0,0E0,0E0,0E0],"parents":[2147483647,0,0,1,1,2,2,3,3,4,4,5,5,6,6,7,7,8,8,10,10,11,11,12,12,14,14,15,15,16,16,17,17,18,18,21,21,22,22,23,23,28,28,33,33,34,34,35,35,36,36,38,38,39,39,41,41,43,43,44,44,45,45,46,46,49,49],"right_children":[2,4,6,8,10,12,14,16,18,-1,20,22,24,-1,26,28,30,32,34,-1,-1,36,38,40,-1,-1,-1,-1,42,-1,-1,-1,-1,44,46,48,50,-1,52,54,-1,56,-1,58,60,62,64,-1,-1,66,-1,-1,-1,-1,-1,-1,-1,-1,-1,-1,-1,-1,-1,-1,-1,-1,-1],"split_conditions":[1.17798555E5,8.512043E1,1.1945847E5,6.276133E1,1.0642453E5,3.7364944E1,1.2109367E5,1.1752392E5,2.4823312E-4,2.691799E-6,1.0880262E5,1.1775145E5,1.1186126E0,5.8561553E-5,1.2120695E5,7.978313E-1,1.1716301E5,1.0888441E5,3.1416647E1,-5.376732E-5,-6.9164525E-7,1.1797221E5,1.1803507E5,5.9886295E1,-9.046308E-6,-5.9967288E-6,-3.1099145E-5,-2.9216291E-5,3.2831624E-4,3.5121764E-5,4.2018723E-6,4.6316924E-5,1.03142644E-4,7.094288E1,1.1143915E5,1.17841E5,1.1803973E5,-3.2039497E-5,1.1833012E5,1.182076E5,-5.212145E-5,5.5542233E1,9.3036515E-6,1.11150195E5,3.80195E-4,4.0418007E1,1.0956023E0,-1.31407305E-5,-2.376722E-6,3.2553068E-4,1.3860082E-6,-5.1589896E-6,-1.9700503E-5,-3.642743E-7,-3.2748878E-5,1.2518938E-6,-1.3049023E-5,-3.211795E-5,4.33883E-6,1.826659E-5,-2.392017E-6,1.2534933E-5,7.174317E-5,8.2059705E-6,2.7373952E-5,4.211101E-6,2.4382443E-5],"split_indices":[9,7,0,7,0,6,0,9,1,0,2,2,4,0,0,4,5,0,6,0,0,9,2,7,0,0,0,0,1,0,0,0,0,7,0,8,0,0,0,0,0,7,0,0,1,6,4,0,0,1,0,0,0,0,0,0,0,0,0,0,0,0,0,0,0,0,0],"split_type":[0,0,0,0,0,0,0,0,0,0,0,0,0,0,0,0,0,0,0,0,0,0,0,0,0,0,0,0,0,0,0,0,0,0,0,0,0,0,0,0,0,0,0,0,0,0,0,0,0,0,0,0,0,0,0,0,0,0,0,0,0,0,0,0,0,0,0],"sum_hessian":[1.4E2,7.8E1,6.2E1,6.7E1,1.1E1,5.3E1,9E0,2.4E1,4.3E1,4E0,7E0,3.6E1,1.7E1,6E0,3E0,1.8E1,6E0,8E0,3.5E1,6E0,1E0,1.4E1,2.2E1,1.6E1,1E0,2E0,1E0,6E0,1.2E1,2E0,4E0,6E0,2E0,1.3E1,2.2E1,5E0,9E0,9E0,1.3E1,6E0,1E1,1E1,2E0,7E0,6E0,9E0,1.3E1,2E0,3E0,6E0,3E0,4E0,9E0,1E0,5E0,3E0,7E0,5E0,2E0,4E0,2E0,1E0,8E0,9E0,4E0,2E0,4E0],"tree_param":{"num_deleted":"0","num_feature":"10","num_nodes":"67","size_leaf_vector":"1"}},{"base_weights":[2.7655715E-6,1.1479557E-3,-1.4333103E-3,1.8647871E-3,-3.0097521E-3,-2.2771207E-3,3.2665965E-3,-5.921632E-4,3.2184E-3,2.6702644E-6,-4.6815197E-3,-1.2106446E-3,-4.342815E-3,5.80596E-5,-1.9939388E-3,-1.7032293E-3,1.244759E-3,6.986717E-3,2.186921E-3,-5.330646E-5,-6.8818713E-7,6.026233E-4,-2.3405738E-3,-4.4923793E-3,-9.001077E-6,-5.9567506E-6,-3.0943647E-5,-5.286798E-4,-2.8116938E-5,3.488762E-5,2.4766289E-6,4.5919925E-5,1.02455015E-4,-6.7641446E-4,3.8347372E-3,-8.0991606E-4,1.3898845E-3,-3.175114E-5,-1.5772899E-3,-2.7940103E-3,-5.1647614E-5,5.2700934E-6,-1.478633E-5,-2.2271513E-3,1.1924867E-3,6.6489354E-3,1.5506856E-3,-1.3053126E-5,-2.3588964E-6,1.9069428E-3,1.3756134E-6,-5.1177176E-6,-1.9523199E-5,-3.62453E-7,-3.247597E-5,-3.18503E-5,4.309904E-6,1.8120456E-5,-2.37607E-6,1.2472257E-5,7.1105445E-5,8.132118E-6,2.715496E-5,4.183027E-6,2.4187382E-5],"categories":[],"categories_nodes":[],"categories_segments":[],"categories_sizes":[],"default_left":[0,0,0,0,0,0,0,0,0,0,0,0,0,0,0,0,0,0,0,0,0,0,0,0,0,0,0,0,0,0,0,0,0,0,0,0,0,0,0,0,0,0,0,0,0,0,0,0,0,0,0,0,0,0,0,0,0,0,0,0,0,0,0,0,0],"id":4,"left_children":[1,3,5,7,9,11,13,15,17,-1,19,21,23,-1,25,27,29,31,33,-1,-1,35,37,39,-1,-1,-1,41,-1,-1,-1,-1,-1,43,45,47,49,-1,51,53,-1,-1,-1,55,57,59,61,-1,-1,63,-1,-1,-1,-1,-1,-1,-1,-1,-1,-1,-1,-1,-1,-1,-1],"loss_changes":[2.3353114E-4,2.4106225E-4,2.5728572E-4,2.2805748E-4,6.698625E-5,1.13705115E-4,1.4516086E-4,5.314366E-5,1.5574595E-4,0E0,2.3586937E-5,7.7218465E-5,5.2246905E-6,0E0,4.311507E-6,1.9344665E-5,2.1510828E-5,2.318775E-5,1.724509E-4,0E0,0E0,1.7806251E-5,9.642725E-6,4.9828377E-6,0E0,0E0,0E0,9.804951E-6,0E0,0E0,0E0,0E0,0E0,4.323028E-5,1.3752835E-4,1.3983149E-6,6.2129184E-6,0E0,4.5952766E-6,8.638486E-6,0E0,0E0,0E0,2.1742137E-5,6.6327457E-6,1.6066362E-5,9.81797E-6,0E0,0E0,4.321393E-6,0E0,0E0,0E0,0E0,0E0,0E0,0E0,0E0,0E0,0E0,0E0,0E0,0E0,0E0,0E0],"parents":[2147483647,0,0,1,1,2,2,3,3,4,4,5,5,6,6,7,7,8,8,10,10,11,11,12,12,14,14,15,15,16,16,17,17,18,18,21,21,22,22,23,23,27,27,33,33,34,34,35,35,36,36,38,38,39,39,43,43,44,44,45,45,46,46,49,49],"right_children":[2,4,6,8,10,12,14,16,18,-1,20,22,24,-1,26,28,30,32,34,-1,-1,36,38,40,-1,-1,-1,42,-1,-1,-1,-1,-1,44,46,48,50,-1,52,54,-1,-1,-1,56,58,60,62,-1,-1,64,-1,-1,-1,-1,-1,-1,-1,-1,-1,-1,-1,-1,-1,-1,-1],"split_conditions":[1.17798555E5,8.512043E1,1.1945847E5,6.276133E1,1.0642453E5,3.7364944E1,1.2109367E5,1.1610839E5,2.4823312E-4,2.6702644E-6,1.0880262E5,1.1775145E5,1.1186126E0,5.80596E-5,1.2120695E5,1.08E5,1.1716301E5,1.0888441E5,3.1416647E1,-5.330646E-5,-6.8818713E-7,1.1797221E5,1.1803507E5,5.9886295E1,-9.001077E-6,-5.9567506E-6,-3.0943647E-5,4.8060942E-1,-2.8116938E-5,3.488762E-5,2.4766289E-6,4.5919925E-5,1.02455015E-4,7.094288E1,1.1143915E5,1.17841E5,1.1803973E5,-3.175114E-5,1.1833012E5,1.182076E5,-5.1647614E-5,5.2700934E-6,-1.478633E-5,1.11150195E5,3.80195E-4,4.0418007E1,1.0956023E0,-1.3053126E-5,-2.3588964E-6,3.2553068E-4,1.3756134E-6,-5.1177176E-6,-1.9523199E-5,-3.62453E-7,-3.247597E-5,-3.18503E-5,4.309904E-6,1.8120456E-5,-2.37607E-6,1.2472257E-5,7.1105445E-5,8.132118E-6,2.715496E-5,4.183027E-6,2.4187382E-5],"split_indices":[9,7,0,7,0,6,0,0,1,0,2,2,4,0,0,8,5,0,6,0,0,9,2,7,0,0,0,3,0,0,0,0,0,7,0,8,0,0,0,0,0,0,0,0,1,6,4,0,0,1,0,0,0,0,0,0,0,0,0,0,0,0,0,0,0],"split_type":[0,0,0,0,0,0,0,0,0,0,0,0,0,0,0,0,0,0,0,0,0,0,0,0,0,0,0,0,0,0,0,0,0,0,0,0,0,0,0,0,0,0,0,0,0,0,0,0,0,0,0,0,0,0,0,0,0,0,0,0,0,0,0,0,0],"sum_hessian":[1.4E2,7.8E1,6.2E1,6.7E1,1.1E1,5.3E1,9E0,2.4E1,4.3E1,4E0,7E0,3.6E1,1.7E1,6E0,3E0,1.5E1,9E0,8E0,3.5E1,6E0,1E0,1.4E1,2.2E1,1.6E1,1E0,2E0,1E0,8E0,7E0,2E0,7E0,6E0,2E0,1.3E1,2.2E1,5E0,9E0,9E0,1.3E1,6E0,1E1,4E0,4E0,7E0,6E0,9E0,1.3E1,2E0,3E0,6E0,3E0,4E0,9E0,1E0,5E0,5E0,2E0,4E0,2E0,1E0,8E0,9E0,4E0,2E0,4E0],"tree_param":{"num_deleted":"0","num_feature":"10","num_nodes":"65","size_leaf_vector":"1"}},{"base_weights":[3.3724157E-6,1.1390565E-3,-1.4207929E-3,1.8498919E-3,-2.9839317E-3,-2.2568596E-3,3.2360463E-3,-5.8625225E-4,3.1920217E-3,2.6489022E-6,-4.641454E-3,-1.1996749E-3,-4.3045804E-3,5.7561945E-5,-1.9832244E-3,-1.4277389E-3,1.7815334E-3,6.933336E-3,2.1680258E-3,-5.2849548E-5,-6.8474617E-7,5.9755263E-4,-2.31962E-3,-4.4524255E-3,-8.956072E-6,-5.9170393E-6,-3.078893E-5,-2.8743909E-5,-5.3894636E-4,3.4655037E-5,4.148444E-6,4.5526325E-5,1.01771984E-4,-6.7049294E-4,3.8015577E-3,-8.043856E-4,1.3789603E-3,-3.146538E-5,-1.5632771E-3,-2.7707615E-3,-5.1178093E-5,-8.882767E-4,9.215804E-6,-2.2083223E-3,1.182811E-3,6.590804E-3,1.5376993E-3,-1.2966106E-5,-2.3412044E-6,1.8919264E-3,1.3652962E-6,-5.0767762E-6,-1.934749E-5,-3.6064068E-7,-3.2205335E-5,1.2029789E-6,-1.2815294E-5,-3.158488E-5,4.281171E-6,1.7975492E-5,-2.3602292E-6,1.2409896E-5,7.04734E-5,8.058929E-6,2.693772E-5,4.1551402E-6,2.3993884E-5],"categories":[],"categories_nodes":[],"categories_segments":[],"categories_sizes":[],"default_left":[0,0,0,0,0,0,0,0,0,0,0,0,0,0,0,0,0,0,0,0,0,0,0,0,0,0,0,0,0,0,0,0,0,0,0,0,0,0,0,0,0,0,0,0,0,0,0,0,0,0,0,0,0,0,0,0,0,0,0,0,0,0,0,0,0,0,0],"id":5,"left_children":[1,3,5,7,9,11,13,15,17,-1,19,21,23,-1,25,27,29,31,33,-1,-1,35,37,39,-1,-1,-1,-1,41,-1,-1,-1,-1,43,45,47,49,-1,51,53,-1,55,-1,57,59,61,63,-1,-1,65,-1,-1,-1,-1,-1,-1,-1,-1,-1,-1,-1,-1,-1,-1,-1,-1,-1],"loss_changes":[2.2967203E-4,2.3705044E-4,2.525893E-4,2.2420559E-4,6.584941E-5,1.11736124E-4,1.4294918E-4,5.235507E-5,1.5353636E-4,0E0,2.3179833E-5,7.5859556E-5,5.084352E-6,0E0,4.276788E-6,2.2880555E-5,1.46726E-5,2.3171044E-5,1.6947411E-4,0E0,0E0,1.7541493E-5,9.4660645E-6,4.8420043E-6,0E0,0E0,0E0,0E0,7.451301E-6,0E0,0E0,0E0,0E0,4.251294E-5,1.3509789E-4,1.3806293E-6,6.114944E-6,0E0,4.507525E-6,8.493793E-6,0E0,4.5170373E-6,0E0,2.1392643E-5,6.5297427E-6,1.5678175E-5,9.6734075E-6,0E0,0E0,4.247582E-6,0E0,0E0,0E0,0E0,0E0,0E0,0E0,0E0,0E0,0E0,0E0,0E0,0E0,0E0,0E0,0E0,0E0],"parents":[2147483647,0,0,1,1,2,2,3,3,4,4,5,5,6,6,7,7,8,8,10,10,11,11,12,12,14,14,15,15,16,16,17,17,18,18,21,21,22,22,23,23,28,28,33,33,34,34,35,35,36,36,38,38,39,39,41,41,43,43,44,44,45,45,46,46,49,49],"right_children":[2,4,6,8,10,12,14,16,18,-1,20,22,24,-1,26,28,30,32,34,-1,-1,36,38,40,-1,-1,-1,-1,42,-1,-1,-1,-1,44,46,48,50,-1,52,54,-1,56,-1,58,60,62,64,-1,-1,66,-1,-1,-1,-1,-1,-1,-1,-1,-1,-1,-1,-1,-1,-1,-1,-1,-1],"split_conditions":[1.17798555E5,8.512043E1,1.1945847E5,6.276133E1,1.0642453E5,3.7364944E1,1.2109367E5,1.1752392E5,2.4823312E-4,2.6489022E-6,1.0880262E5,1.1775145E5,1.1186126E0,5.7561945E-5,1.2120695E5,7.978313E-1,1.1716301E5,1.0888441E5,3.1416647E1,-5.2849548E-5,-6.8474617E-7,1.1797221E5,1.1803507E5,5.9886295E1,-8.956072E-6,-5.9170393E-6,-3.078893E-5,-2.8743909E-5,3.2831624E-4,3.4655037E-5,4.148444E-6,4.5526325E-5,1.01771984E-4,7.094288E1,1.1143915E5,1.17841E5,1.1803973E5,-3.146538E-5,1.1833012E5,1.182076E5,-5.1178093E-5,5.5542233E1,9.215804E-6,1.11150195E5,3.80195E-4,4.0418007E1,1.0956023E0,-1.2966106E-5,-2.3412044E-6,3.2553068E-4,1.3652962E-6,-5.0767762E-6,-1.934749E-5,-3.6064068E-7,-3.2205335E-5,1.2029789E-6,-1.2815294E-5,-3.158488E-5,4.281171E-6,1.7975492E-5,-2.3602292E-6,1.2409896E-5,7.04734E-5,8.058929E-6,2.693772E-5,4.1551402E-6,2.3993884E-5],"split_indices":[9,7,0,7,0,6,0,9,1,0,2,2,4,0,0,4,5,0,6,0,0,9,2,7,0,0,0,0,1,0,0,0,0,7,0,8,0,0,0,0,0,7,0,0,1,6,4,0,0,1,0,0,0,0,0,0,0,0,0,0,0,0,0,0,0,0,0],"split_type":[0,0,0,0,0,0,0,0,0,0,0,0,0,0,0,0,0,0,0,0,0,0,0,0,0,0,0,0,0,0,0,0,0,0,0,0,0,0,0,0,0,0,0,0,0,0,0,0,0,0,0,0,0,0,0,0,0,0,0,0,0,0,0,0,0,0,0],"sum_hessian":[1.4E2,7.8E1,6.2E1,6.7E1,1.1E1,5.3E1,9E0,2.4E1,4.3E1,4E0,7E0,3.6E1,1.7E1,6E0,3E0,1.8E1,6E0,8E0,3.5E1,6E0,1E0,1.4E1,2.2E1,1.6E1,1E0,2E0,1E0,6E0,1.2E1,2E0,4E0,6E0,2E0,1.3E1,2.2E1,5E0,9E0,9E0,1.3E1,6E0,1E1,1E1,2E0,7E0,6E0,9E0,1.3E1,2E0,3E0,6E0,3E0,4E0,9E0,1E0,5E0,3E0,7E0,5E0,2E0,4E0,2E0,1E0,8E0,9E0,4E0,2E0,4E0],"tree_param":{"num_deleted":"0","num_feature":"10","num_nodes":"67","size_leaf_vector":"1"}},{"base_weights":[4.0247946E-6,1.1303276E-3,-1.408387E-3,1.8352334E-3,-2.958333E-3,-2.2367795E-3,3.2057716E-3,-5.8008323E-4,3.1658625E-3,2.627711E-6,-4.6017314E-3,-1.1888047E-3,-4.2666844E-3,5.7068555E-5,-1.972569E-3,-1.6745669E-3,1.2290989E-3,6.880369E-3,2.1492953E-3,-5.239655E-5,-6.813224E-7,5.9252424E-4,-2.2988538E-3,-4.4128275E-3,-8.911291E-6,-5.8775922E-6,-3.0634987E-5,-5.184098E-4,-2.7659225E-5,3.4424003E-5,2.4547346E-6,4.51361E-5,1.0109351E-4,-6.646229E-4,3.7686673E-3,-7.988929E-4,1.3681221E-3,-3.1182193E-5,-1.549389E-3,-2.7477061E-3,-5.0712835E-5,5.202283E-6,-1.453366E-5,-2.189652E-3,1.1732136E-3,6.533184E-3,1.524822E-3,-1.2879665E-5,-2.3236453E-6,1.8770284E-3,1.3550563E-6,-5.036162E-6,-1.9173363E-5,-3.588374E-7,-3.1936957E-5,-3.1321673E-5,4.2526303E-6,1.7831688E-5,-2.3444948E-6,1.2347847E-5,6.9846974E-5,7.9863985E-6,2.6722219E-5,4.1274393E-6,2.3801931E-5],"categories":[],"categories_nodes":[],"categories_segments":[],"categories_sizes":[],"default_left":[0,0,0,0,0,0,0,0,0,0,0,0,0,0,0,0,0,0,0,0,0,0,0,0,0,0,0,0,0,0,0,0,0,0,0,0,0,0,0,0,0,0,0,0,0,0,0,0,0,0,0,0,0,0,0,0,0,0,0,0,0,0,0,0,0],"id":6,"left_children":[1,3,5,7,9,11,13,15,17,-1,19,21,23,-1,25,27,29,31,33,-1,-1,35,37,39,-1,-1,-1,41,-1,-1,-1,-1,-1,43,45,47,49,-1,51,53,-1,-1,-1,55,57,59,61,-1,-1,63,-1,-1,-1,-1,-1,-1,-1,-1,-1,-1,-1,-1,-1,-1,-1],"loss_changes":[2.2589522E-4,2.3311676E-4,2.479777E-4,2.2038101E-4,6.473189E-5,1.0980139E-4,1.4077182E-4,5.1561212E-5,1.5135808E-4,0E0,2.2779743E-5,7.452454E-5,4.9472146E-6,0E0,4.2423217E-6,1.8754581E-5,2.0925578E-5,2.315035E-5,1.6654884E-4,0E0,0E0,1.7280685E-5,9.2926275E-6,4.704576E-6,0E0,0E0,0E0,9.495812E-6,0E0,0E0,0E0,0E0,0E0,4.180749E-5,1.327105E-4,1.3631666E-6,6.0185157E-6,0E0,4.4214503E-6,8.351515E-6,0E0,0E0,0E0,2.1048781E-5,6.428344E-6,1.5298341E-5,9.530959E-6,0E0,0E0,4.1750263E-6,0E0,0E0,0E0,0E0,0E0,0E0,0E0,0E0,0E0,0E0,0E0,0E0,0E0,0E0,0E0],"parents":[2147483647,0,0,1,1,2,2,3,3,4,4,5,5,6,6,7,7,8,8,10,10,11,11,12,12,14,14,15,15,16,16,17,17,18,18,21,21,22,22,23,23,27,27,33,33,34,34,35,35,36,36,38,38,39,39,43,43,44,44,45,45,46,46,49,49],"right_children":[2,4,6,8,10,12,14,16,18,-1,20,22,24,-1,26,28,30,32,34,-1,-1,36,38,40,-1,-1,-1,42,-1,-1,-1,-1,-1,44,46,48,50,-1,52,54,-1,-1,-1,56,58,60,62,-1,-1,64,-1,-1,-1,-1,-1,-1,-1,-1,-1,-1,-1,-1,-1,-1,-1],"split_conditions":[1.17798555E5,8.512043E1,1.1945847E5,6.276133E1,1.0642453E5,3.7364944E1,1.2109367E5,1.1610839E5,2.4823312E-4,2.627711E-6,1.0880262E5,1.1775145E5,1.1186126E0,5.7068555E-5,1.2120695E5,1.08E5,1.1716301E5,1.0888441E5,3.1416647E1,-5.239655E-5,-6.813224E-7,1.1797221E5,1.1803507E5,5.9886295E1,-8.911291E-6,-5.8775922E-6,-3.0634987E-5,4.8060942E-1,-2.7659225E-5,3.4424003E-5,2.4547346E-6,4.51361E-5,1.0109351E-4,7.094288E1,1.1143915E5,1.17841E5,1.1803973E5,-3.1182193E-5,1.1833012E5,1.182076E5,-5.0712835E-5,5.202283E-6,-1.453366E-5,1.11150195E5,3.80195E-4,4.0418007E1,1.0956023E0,-1.2879665E-5,-2.3236453E-6,3.2553068E-4,1.3550563E-6,-5.036162E-6,-1.9173363E-5,-3.588374E-7,-3.1936957E-5,-3.1321673E-5,4.2526303E-6,1.7831688E-5,-2.3444948E-6,1.2347847E-5,6.9846974E-5,7.9863985E-6,2.6722219E-5,4.1274393E-6,2.3801931E-5],"split_indices":[9,7,0,7,0,6,0,0,1,0,2,2,4,0,0,8,5,0,6,0,0,9,2,7,0,0,0,3,0,0,0,0,0,7,0,8,0,0,0,0,0,0,0,0,1,6,4,0,0,1,0,0,0,0,0,0,0,0,0,0,0,0,0,0,0],"split_type":[0,0,0,0,0,0,0,0,0,0,0,0,0,0,0,0,0,0,0,0,0,0,0,0,0,0,0,0,0,0,0,0,0,0,0,0,0,0,0,0,0,0,0,0,0,0,0,0,0,0,0,0,0,0,0,0,0,0,0,0,0,0,0,0,0],"sum_hessian":[1.4E2,7.8E1,6.2E1,6.7E1,1.1E1,5.3E1,9E0,2.4E1,4.3E1,4E0,7E0,3.6E1,1.7E1,6E0,3E0,1.5E1,9E0,8E0,3.5E1,6E0,1E0,1.4E1,2.2E1,1.6E1,1E0,2E0,1E0,8E0,7E0,2E0,7E0,6E0,2E0,1.3E1,2.2E1,5E0,9E0,9E0,1.3E1,6E0,1E1,4E0,4E0,7E0,6E0,9E0,1.3E1,2E0,3E0,6E0,3E0,4E0,9E0,1E0,5E0,5E0,2E0,4E0,2E0,1E0,8E0,9E0,4E0,2E0,4E0],"tree_param":{"num_deleted":"0","num_feature":"10","num_nodes":"65","size_leaf_vector":"1"}},{"base_weights":[4.610888E-6,1.1215685E-3,-1.3960917E-3,1.8205787E-3,-2.9329536E-3,-2.216879E-3,3.1757695E-3,-5.742869E-4,3.139921E-3,2.6066891E-6,-4.5623486E-3,-1.1780332E-3,-4.2291246E-3,5.6579396E-5,-1.9619712E-3,-1.1502261E-3,2.7369503E-3,6.827813E-3,2.130728E-3,-5.1947434E-5,-6.779158E-7,5.875377E-4,-2.2782737E-3,-4.373582E-3,-8.866735E-6,-5.838409E-6,-3.048181E-5,-3.1398224E-5,-6.708255E-4,3.419451E-5,3.4472419E-6,4.474922E-5,1.00419544E-4,-6.5880385E-4,3.7360636E-3,-7.934379E-4,1.3573692E-3,-3.0901552E-5,-1.5356243E-3,-2.7248426E-3,-5.0251812E-5,-1.2586097E-3,2.9470396E-4,-2.171139E-3,1.1636941E-3,6.4760717E-3,1.5120531E-3,-1.27938E-5,-2.306218E-6,1.8622479E-3,1.3448932E-6,-4.995872E-6,-1.9000803E-5,-3.5704318E-7,-3.1670814E-5,-7.114034E-7,-1.8434517E-5,-7.3784704E-6,5.4761795E-6,-3.106066E-5,4.2242796E-6,1.7689035E-5,-2.3288646E-6,1.2286108E-5,6.92261E-5,7.914521E-6,2.6508444E-5,4.099923E-6,2.3611516E-5],"categories":[],"categories_nodes":[],"categories_segments":[],"categories_sizes":[],"default_left":[0,0,0,0,0,0,0,0,0,0,0,0,0,0,0,0,0,0,0,0,0,0,0,0,0,0,0,0,0,0,0,0,0,0,0,0,0,0,0,0,0,0,0,0,0,0,0,0,0,0,0,0,0,0,0,0,0,0,0,0,0,0,0,0,0,0,0,0,0],"id":7,"left_children":[1,3,5,7,9,11,13,15,17,-1,19,21,23,-1,25,27,29,31,33,-1,-1,35,37,39,-1,-1,-1,-1,41,-1,-1,-1,-1,43,45,47,49,-1,51,53,-1,55,57,59,61,63,65,-1,-1,67,-1,-1,-1,-1,-1,-1,-1,-1,-1,-1,-1,-1,-1,-1,-1,-1,-1,-1,-1],"loss_changes":[2.2216387E-4,2.2923772E-4,2.4344945E-4,2.1665925E-4,6.3633335E-5,1.0790024E-4,1.386282E-4,5.0824892E-5,1.492108E-4,0E0,2.238655E-5,7.3213014E-5,4.8132206E-6,0E0,4.208103E-6,1.8877628E-5,5.352016E-6,2.3125758E-5,1.6367418E-4,0E0,0E0,1.7023767E-5,9.122385E-6,4.570582E-6,0E0,0E0,0E0,0E0,1.1153853E-5,0E0,0E0,0E0,0E0,4.1113726E-5,1.303654E-4,1.3459237E-6,5.923608E-6,0E0,4.337002E-6,8.211613E-6,0E0,8.20264E-6,2.4932315E-6,2.0710457E-5,6.3285206E-6,1.4926773E-5,9.39058E-6,0E0,0E0,4.1036965E-6,0E0,0E0,0E0,0E0,0E0,0E0,0E0,0E0,0E0,0E0,0E0,0E0,0E0,0E0,0E0,0E0,0E0,0E0,0E0],"parents":[2147483647,0,0,1,1,2,2,3,3,4,4,5,5,6,6,7,7,8,8,10,10,11,11,12,12,14,14,15,15,16,16,17,17,18,18,21,21,22,22,23,23,28,28,33,33,34,34,35,35,36,36,38,38,39,39,41,41,42,42,43,43,44,44,45,45,46,46,49,49],"right_children":[2,4,6,8,10,12,14,16,18,-1,20,22,24,-1,26,28,30,32,34,-1,-1,36,38,40,-1,-1,-1,-1,42,-1,-1,-1,-1,44,46,48,50,-1,52,54,-1,56,58,60,62,64,66,-1,-1,68,-1,-1,-1,-1,-1,-1,-1,-1,-1,-1,-1,-1,-1,-1,-1,-1,-1,-1,-1],"split_conditions":[1.17798555E5,8.512043E1,1.1945847E5,6.276133E1,1.0642453E5,3.7364944E1,1.2109367E5,6.86897E-1,2.4823312E-4,2.6066891E-6,1.0880262E5,1.1775145E5,1.1186126E0,5.6579396E-5,1.2120695E5,-3.267704E0,6.5071345E-4,1.0888441E5,3.1416647E1,-5.1947434E-5,-6.779158E-7,1.1797221E5,1.1803507E5,5.9886295E1,-8.866735E-6,-5.838409E-6,-3.048181E-5,-3.1398224E-5,3.1959856E-4,3.419451E-5,3.4472419E-6,4.474922E-5,1.00419544E-4,7.094288E1,1.1143915E5,1.17841E5,1.1803973E5,-3.0901552E-5,1.1833012E5,1.182076E5,-5.0251812E-5,5.7795155E1,1.0760518E5,1.11150195E5,3.80195E-4,4.0418007E1,1.0956023E0,-1.27938E-5,-2.306218E-6,3.2553068E-4,1.3448932E-6,-4.995872E-6,-1.9000803E-5,-3.5704318E-7,-3.1670814E-5,-7.114034E-7,-1.8434517E-5,-7.3784704E-6,5.4761795E-6,-3.106066E-5,4.2242796E-6,1.7689035E-5,-2.3288646E-6,1.2286108E-5,6.92261E-5,7.914521E-6,2.6508444E-5,4.099923E-6,2.3611516E-5],"split_indices":[9,7,0,7,0,6,0,3,1,0,2,2,4,0,0,6,1,0,6,0,0,9,2,7,0,0,0,0,1,0,0,0,0,7,0,8,0,0,0,0,0,7,2,0,1,6,4,0,0,1,0,0,0,0,0,0,0,0,0,0,0,0,0,0,0,0,0,0,0],"split_type":[0,0,0,0,0,0,0,0,0,0,0,0,0,0,0,0,0,0,0,0,0,0,0,0,0,0,0,0,0,0,0,0,0,0,0,0,0,0,0,0,0,0,0,0,0,0,0,0,0,0,0,0,0,0,0,0,0,0,0,0,0,0,0,0,0,0,0,0,0],"sum_hessian":[1.4E2,7.8E1,6.2E1,6.7E1,1.1E1,5.3E1,9E0,2.4E1,4.3E1,4E0,7E0,3.6E1,1.7E1,6E0,3E0,2.1E1,3E0,8E0,3.5E1,6E0,1E0,1.4E1,2.2E1,1.6E1,1E0,2E0,1E0,3E0,1.8E1,2E0,1E0,6E0,2E0,1.3E1,2.2E1,5E0,9E0,9E0,1.3E1,6E0,1E1,1.1E1,7E0,7E0,6E0,9E0,1.3E1,2E0,3E0,6E0,3E0,4E0,9E0,1E0,5E0,4E0,7E0,1E0,6E0,5E0,2E0,4E0,2E0,1E0,8E0,9E0,4E0,2E0,4E0],"tree_param":{"num_deleted":"0","num_feature":"10","num_nodes":"69","size_leaf_vector":"1"}},{"base_weights":[5.082315E-6,1.112692E-3,-1.3839058E-3,1.8058262E-3,-2.9077923E-3,-2.1971564E-3,3.1460377E-3,-5.6913623E-4,3.114195E-3,2.5858353E-6,-4.5233034E-3,-1.1673594E-3,-4.191897E-3,5.6094428E-5,-1.9514315E-3,-1.1411078E-3,2.7189911E-3,6.775665E-3,2.1123223E-3,-5.150217E-5,-6.7452606E-7,5.825928E-4,-2.2578777E-3,-4.3346863E-3,-8.8224015E-6,-5.7994857E-6,-3.0329402E-5,-3.1162737E-5,-6.6522503E-4,3.3966546E-5,3.4300056E-6,4.4365654E-5,9.975008E-5,-6.530356E-4,3.7037435E-3,-7.8802014E-4,1.3467013E-3,-3.062344E-5,-1.5219821E-3,-2.7021698E-3,-4.9794977E-5,-1.247619E-3,2.9151913E-4,-2.1527824E-3,1.1542514E-3,6.419462E-3,1.4993913E-3,-1.2708508E-5,-2.288921E-6,1.8475843E-3,1.3348066E-6,-4.9559053E-6,-1.8829796E-5,-3.5525792E-7,-3.1406897E-5,-7.057121E-7,-1.8273215E-5,-7.3415786E-6,5.429241E-6,-3.080182E-5,4.196117E-6,1.7547522E-5,-2.3133389E-6,1.2224677E-5,6.861076E-5,7.84329E-6,2.6296375E-5,4.07259E-6,2.3422625E-5],"categories":[],"categories_nodes":[],"categories_segments":[],"categories_sizes":[],"default_left":[0,0,0,0,0,0,0,0,0,0,0,0,0,0,0,0,0,0,0,0,0,0,0,0,0,0,0,0,0,0,0,0,0,0,0,0,0,0,0,0,0,0,0,0,0,0,0,0,0,0,0,0,0,0,0,0,0,0,0,0,0,0,0,0,0,0,0,0,0],"id":8,"left_children":[1,3,5,7,9,11,13,15,17,-1,19,21,23,-1,25,27,29,31,33,-1,-1,35,37,39,-1,-1,-1,-1,41,-1,-1,-1,-1,43,45,47,49,-1,51,53,-1,55,57,59,61,63,65,-1,-1,67,-1,-1,-1,-1,-1,-1,-1,-1,-1,-1,-1,-1,-1,-1,-1,-1,-1,-1,-1],"loss_changes":[2.1846227E-4,2.2540303E-4,2.39003E-4,2.1307064E-4,6.255344E-5,1.0603215E-4,1.3651777E-4,5.0120543E-5,1.4709402E-4,0E0,2.2000066E-5,7.192456E-5,4.6822533E-6,0E0,4.174134E-6,1.8605817E-5,5.2754312E-6,2.309744E-5,1.6084926E-4,0E0,0E0,1.6770682E-5,8.955249E-6,4.4398766E-6,0E0,0E0,0E0,0E0,1.09505445E-5,0E0,0E0,0E0,0E0,4.043147E-5,1.2806192E-4,1.328897E-6,5.8301994E-6,0E0,4.254165E-6,8.074057E-6,0E0,8.059094E-6,2.4614742E-6,2.0377589E-5,6.230249E-6,1.45632075E-5,9.25225E-6,0E0,0E0,4.0335763E-6,0E0,0E0,0E0,0E0,0E0,0E0,0E0,0E0,0E0,0E0,0E0,0E0,0E0,0E0,0E0,0E0,0E0,0E0,0E0],"parents":[2147483647,0,0,1,1,2,2,3,3,4,4,5,5,6,6,7,7,8,8,10,10,11,11,12,12,14,14,15,15,16,16,17,17,18,18,21,21,22,22,23,23,28,28,33,33,34,34,35,35,36,36,38,38,39,39,41,41,42,42,43,43,44,44,45,45,46,46,49,49],"right_children":[2,4,6,8,10,12,14,16,18,-1,20,22,24,-1,26,28,30,32,34,-1,-1,36,38,40,-1,-1,-1,-1,42,-1,-1,-1,-1,44,46,48,50,-1,52,54,-1,56,58,60,62,64,66,-1,-1,68,-1,-1,-1,-1,-1,-1,-1,-1,-1,-1,-1,-1,-1,-1,-1,-1,-1,-1,-1],"split_conditions":[1.17798555E5,8.512043E1,1.1945847E5,6.276133E1,1.0642453E5,3.7364944E1,1.2109367E5,6.86897E-1,2.4823312E-4,2.5858353E-6,1.0880262E5,1.1775145E5,1.1186126E0,5.6094428E-5,1.2120695E5,-3.267704E0,6.5071345E-4,1.0888441E5,3.1416647E1,-5.150217E-5,-6.7452606E-7,1.1797221E5,1.1803507E5,5.9886295E1,-8.8224015E-6,-5.7994857E-6,-3.0329402E-5,-3.1162737E-5,3.1959856E-4,3.3966546E-5,3.4300056E-6,4.4365654E-5,9.975008E-5,7.094288E1,1.1143915E5,1.17841E5,1.1803973E5,-3.062344E-5,1.1833012E5,1.182076E5,-4.9794977E-5,5.7795155E1,1.0760518E5,1.11150195E5,3.80195E-4,4.0418007E1,1.0956023E0,-1.2708508E-5,-2.288921E-6,3.2553068E-4,1.3348066E-6,-4.9559053E-6,-1.8829796E-5,-3.5525792E-7,-3.1406897E-5,-7.057121E-7,-1.8273215E-5,-7.3415786E-6,5.429241E-6,-3.080182E-5,4.196117E-6,1.7547522E-5,-2.3133389E-6,1.2224677E-5,6.861076E-5,7.84329E-6,2.6296375E-5,4.07259E-6,2.3422625E-5],"split_indices":[9,7,0,7,0,6,0,3,1,0,2,2,4,0,0,6,1,0,6,0,0,9,2,7,0,0,0,0,1,0,0,0,0,7,0,8,0,0,0,0,0,7,2,0,1,6,4,0,0,1,0,0,0,0,0,0,0,0,0,0,0,0,0,0,0,0,0,0,0],"split_type":[0,0,0,0,0,0,0,0,0,0,0,0,0,0,0,0,0,0,0,0,0,0,0,0,0,0,0,0,0,0,0,0,0,0,0,0,0,0,0,0,0,0,0,0,0,0,0,0,0,0,0,0,0,0,0,0,0,0,0,0,0,0,0,0,0,0,0,0,0],"sum_hessian":[1.4E2,7.8E1,6.2E1,6.7E1,1.1E1,5.3E1,9E0,2.4E1,4.3E1,4E0,7E0,3.6E1,1.7E1,6E0,3E0,2.1E1,3E0,8E0,3.5E1,6E0,1E0,1.4E1,2.2E1,1.6E1,1E0,2E0,1E0,3E0,1.8E1,2E0,1E0,6E0,2E0,1.3E1,2.2E1,5E0,9E0,9E0,1.3E1,6E0,1E1,1.1E1,7E0,7E0,6E0,9E0,1.3E1,2E0,3E0,6E0,3E0,4E0,9E0,1E0,5E0,4E0,7E0,1E0,6E0,5E0,2E0,4E0,2E0,1E0,8E0,9E0,4E0,2E0,4E0],"tree_param":{"num_deleted":"0","num_feature":"10","num_nodes":"69","size_leaf_vector":"1"}},{"base_weights":[5.5455453E-6,1.1038876E-3,-1.3718285E-3,1.7911952E-3,-2.882847E-3,-2.1776098E-3,3.116574E-3,-5.640311E-4,3.0886831E-3,2.565149E-6,-4.4845925E-3,-1.1567824E-3,-4.154999E-3,5.5613622E-5,-1.9409495E-3,-1.1320628E-3,2.7011505E-3,6.7239213E-3,2.094077E-3,-5.1060724E-5,-6.7115354E-7,5.7768903E-4,-2.2376645E-3,-4.2961366E-3,-8.778289E-6,-5.7608227E-6,-3.0177755E-5,-3.0929015E-5,-6.596723E-4,3.3740103E-5,3.4128557E-6,4.3985376E-5,9.908508E-5,-6.4731756E-4,3.671705E-3,-7.826395E-4,1.3361172E-3,-3.0347825E-5,-1.5084613E-3,-2.6796856E-3,-4.9342292E-5,-1.2367244E-3,2.8836488E-4,-2.1345802E-3,1.1448852E-3,6.3633514E-3,1.4868359E-3,-1.2623784E-5,-2.2717543E-6,1.8330363E-3,1.3247954E-6,-4.9162586E-6,-1.8660328E-5,-3.5348174E-7,-3.114517E-5,-7.0006644E-7,-1.8113325E-5,-7.3048705E-6,5.3827043E-6,-3.054514E-5,4.168143E-6,1.7407143E-5,-2.2979166E-6,1.2163555E-5,6.800089E-5,7.772701E-6,2.6086003E-5,4.0454393E-6,2.3235243E-5],"categories":[],"categories_nodes":[],"categories_segments":[],"categories_sizes":[],"default_left":[0,0,0,0,0,0,0,0,0,0,0,0,0,0,0,0,0,0,0,0,0,0,0,0,0,0,0,0,0,0,0,0,0,0,0,0,0,0,0,0,0,0,0,0,0,0,0,0,0,0,0,0,0,0,0,0,0,0,0,0,0,0,0,0,0,0,0,0,0],"id":9,"left_children":[1,3,5,7,9,11,13,15,17,-1,19,21,23,-1,25,27,29,31,33,-1,-1,35,37,39,-1,-1,-1,-1,41,-1,-1,-1,-1,43,45,47,49,-1,51,53,-1,55,57,59,61,63,65,-1,-1,67,-1,-1,-1,-1,-1,-1,-1,-1,-1,-1,-1,-1,-1,-1,-1,-1,-1,-1,-1],"loss_changes":[2.1482306E-4,2.2163271E-4,2.3463697E-4,2.0954179E-4,6.1491875E-5,1.04196515E-4,1.3444008E-4,4.942603E-5,1.4500739E-4,0E0,2.162029E-5,7.065876E-5,4.554313E-6,0E0,4.140411E-6,1.8337892E-5,5.1999286E-6,2.3065513E-5,1.580732E-4,0E0,0E0,1.6521371E-5,8.791147E-6,4.3123728E-6,0E0,0E0,0E0,0E0,1.07509E-5,0E0,0E0,0E0,0E0,3.9760518E-5,1.257993E-4,1.312085E-6,5.7382676E-6,0E0,4.1728927E-6,7.938797E-6,0E0,7.918061E-6,2.430134E-6,2.005008E-5,6.1335095E-6,1.4207588E-5,9.1159345E-6,0E0,0E0,3.96464E-6,0E0,0E0,0E0,0E0,0E0,0E0,0E0,0E0,0E0,0E0,0E0,0E0,0E0,0E0,0E0,0E0,0E0,0E0,0E0],"parents":[2147483647,0,0,1,1,2,2,3,3,4,4,5,5,6,6,7,7,8,8,10,10,11,11,12,12,14,14,15,15,16,16,17,17,18,18,21,21,22,22,23,23,28,28,33,33,34,34,35,35,36,36,38,38,39,39,41,41,42,42,43,43,44,44,45,45,46,46,49,49],"right_children":[2,4,6,8,10,12,14,16,18,-1,20,22,24,-1,26,28,30,32,34,-1,-1,36,38,40,-1,-1,-1,-1,42,-1,-1,-1,-1,44,46,48,50,-1,52,54,-1,56,58,60,62,64,66,-1,-1,68,-1,-1,-1,-1,-1,-1,-1,-1,-1,-1,-1,-1,-1,-1,-1,-1,-1,-1,-1],"split_conditions":[1.17798555E5,8.512043E1,1.1945847E5,6.276133E1,1.0642453E5,3.7364944E1,1.2109367E5,6.86897E-1,2.4823312E-4,2.565149E-6,1.0880262E5,1.1775145E5,1.1186126E0,5.5613622E-5,1.2120695E5,-3.267704E0,6.5071345E-4,1.0888441E5,3.1416647E1,-5.1060724E-5,-6.7115354E-7,1.1797221E5,1.1803507E5,5.9886295E1,-8.778289E-6,-5.7608227E-6,-3.0177755E-5,-3.0929015E-5,3.1959856E-4,3.3740103E-5,3.4128557E-6,4.3985376E-5,9.908508E-5,7.094288E1,1.1143915E5,1.17841E5,1.1803973E5,-3.0347825E-5,1.1833012E5,1.182076E5,-4.9342292E-5,5.7795155E1,1.0760518E5,1.11150195E5,3.80195E-4,4.0418007E1,1.0956023E0,-1.2623784E-5,-2.2717543E-6,3.2553068E-4,1.3247954E-6,-4.9162586E-6,-1.8660328E-5,-3.5348174E-7,-3.114517E-5,-7.0006644E-7,-1.8113325E-5,-7.3048705E-6,5.3827043E-6,-3.054514E-5,4.168143E-6,1.7407143E-5,-2.2979166E-6,1.2163555E-5,6.800089E-5,7.772701E-6,2.6086003E-5,4.0454393E-6,2.3235243E-5],"split_indices":[9,7,0,7,0,6,0,3,1,0,2,2,4,0,0,6,1,0,6,0,0,9,2,7,0,0,0,0,1,0,0,0,0,7,0,8,0,0,0,0,0,7,2,0,1,6,4,0,0,1,0,0,0,0,0,0,0,0,0,0,0,0,0,0,0,0,0,0,0],"split_type":[0,0,0,0,0,0,0,0,0,0,0,0,0,0,0,0,0,0,0,0,0,0,0,0,0,0,0,0,0,0,0,0,0,0,0,0,0,0,0,0,0,0,0,0,0,0,0,0,0,0,0,0,0,0,0,0,0,0,0,0,0,0,0,0,0,0,0,0,0],"sum_hessian":[1.4E2,7.8E1,6.2E1,6.7E1,1.1E1,5.3E1,9E0,2.4E1,4.3E1,4E0,7E0,3.6E1,1.7E1,6E0,3E0,2.1E1,3E0,8E0,3.5E1,6E0,1E0,1.4E1,2.2E1,1.6E1,1E0,2E0,1E0,3E0,1.8E1,2E0,1E0,6E0,2E0,1.3E1,2.2E1,5E0,9E0,9E0,1.3E1,6E0,1E1,1.1E1,7E0,7E0,6E0,9E0,1.3E1,2E0,3E0,6E0,3E0,4E0,9E0,1E0,5E0,4E0,7E0,1E0,6E0,5E0,2E0,4E0,2E0,1E0,8E0,9E0,4E0,2E0,4E0],"tree_param":{"num_deleted":"0","num_feature":"10","num_nodes":"69","size_leaf_vector":"1"}},{"base_weights":[6.000691E-6,1.0951544E-3,-1.3598587E-3,1.7766851E-3,-2.8581158E-3,-2.158238E-3,3.0873758E-3,-5.589713E-4,3.0633833E-3,2.5446275E-6,-4.446213E-3,-1.1463015E-3,-4.1184276E-3,5.5136934E-5,-1.9305246E-3,-1.1230905E-3,2.6834272E-3,6.6725784E-3,2.0759907E-3,-5.062306E-5,-6.6779785E-7,5.7282613E-4,-2.2176325E-3,-4.2579304E-3,-8.734398E-6,-5.722417E-6,-3.0026866E-5,-3.0697047E-5,-6.541669E-4,3.351517E-5,3.3957915E-6,4.3608357E-5,9.842451E-5,-6.416491E-4,3.6399455E-3,-7.7729573E-4,1.3256166E-3,-3.0074696E-5,-1.4950607E-3,-2.6573883E-3,-4.8893726E-5,-1.2259249E-3,2.85241E-4,-2.1165314E-3,1.1355948E-3,6.3077346E-3,1.4743861E-3,-1.2539626E-5,-2.2547163E-6,1.8186033E-3,1.3148593E-6,-4.876928E-6,-1.8492385E-5,-3.5171425E-7,-3.0885625E-5,-6.944659E-7,-1.7954833E-5,-7.268346E-6,5.3365675E-6,-3.0290596E-5,4.1403555E-6,1.7267885E-5,-2.282597E-6,1.2102737E-5,6.739644E-5,7.702746E-6,2.5877316E-5,4.0184696E-6,2.3049362E-5],"categories":[],"categories_nodes":[],"categories_segments":[],"categories_sizes":[],"default_left":[0,0,0,0,0,0,0,0,0,0,0,0,0,0,0,0,0,0,0,0,0,0,0,0,0,0,0,0,0,0,0,0,0,0,0,0,0,0,0,0,0,0,0,0,0,0,0,0,0,0,0,0,0,0,0,0,0,0,0,0,0,0,0,0,0,0,0,0,0],"id":10,"left_children":[1,3,5,7,9,11,13,15,17,-1,19,21,23,-1,25,27,29,31,33,-1,-1,35,37,39,-1,-1,-1,-1,41,-1,-1,-1,-1,43,45,47,49,-1,51,53,-1,55,57,59,61,63,65,-1,-1,67,-1,-1,-1,-1,-1,-1,-1,-1,-1,-1,-1,-1,-1,-1,-1,-1,-1,-1,-1],"loss_changes":[2.1124519E-4,2.1792571E-4,2.3034983E-4,2.0607174E-4,6.0448314E-5,1.02392776E-4,1.3239453E-4,4.8741218E-5,1.429503E-4,0E0,2.1247048E-5,6.941524E-5,4.429283E-6,0E0,4.106935E-6,1.8073797E-5,5.1254992E-6,2.3030036E-5,1.5534517E-4,0E0,0E0,1.6275779E-5,8.6300715E-6,4.1880994E-6,0E0,0E0,0E0,0E0,1.05548515E-5,0E0,0E0,0E0,0E0,3.910068E-5,1.2357684E-4,1.2954845E-6,5.647784E-6,0E0,4.0931627E-6,7.8057965E-6,0E0,7.779492E-6,2.3992043E-6,1.972785E-5,6.0382717E-6,1.3859622E-5,8.981606E-6,0E0,0E0,3.8968756E-6,0E0,0E0,0E0,0E0,0E0,0E0,0E0,0E0,0E0,0E0,0E0,0E0,0E0,0E0,0E0,0E0,0E0,0E0,0E0],"parents":[2147483647,0,0,1,1,2,2,3,3,4,4,5,5,6,6,7,7,8,8,10,10,11,11,12,12,14,14,15,15,16,16,17,17,18,18,21,21,22,22,23,23,28,28,33,33,34,34,35,35,36,36,38,38,39,39,41,41,42,42,43,43,44,44,45,45,46,46,49,49],"right_children":[2,4,6,8,10,12,14,16,18,-1,20,22,24,-1,26,28,30,32,34,-1,-1,36,38,40,-1,-1,-1,-1,42,-1,-1,-1,-1,44,46,48,50,-1,52,54,-1,56,58,60,62,64,66,-1,-1,68,-1,-1,-1,-1,-1,-1,-1,-1,-1,-1,-1,-1,-1,-1,-1,-1,-1,-1,-1],"split_conditions":[1.17798555E5,8.512043E1,1.1945847E5,6.276133E1,1.0642453E5,3.7364944E1,1.2109367E5,6.86897E-1,2.4823312E-4,2.5446275E-6,1.0880262E5,1.1775145E5,1.1186126E0,5.5136934E-5,1.2120695E5,-3.267704E0,6.5071345E-4,1.0888441E5,3.1416647E1,-5.062306E-5,-6.6779785E-7,1.1797221E5,1.1803507E5,5.9886295E1,-8.734398E-6,-5.722417E-6,-3.0026866E-5,-3.0697047E-5,3.1959856E-4,3.351517E-5,3.3957915E-6,4.3608357E-5,9.842451E-5,7.094288E1,1.1143915E5,1.17841E5,1.1803973E5,-3.0074696E-5,1.1833012E5,1.182076E5,-4.8893726E-5,5.7795155E1,1.0760518E5,1.11150195E5,3.80195E-4,4.0418007E1,1.0956023E0,-1.2539626E-5,-2.2547163E-6,3.2553068E-4,1.3148593E-6,-4.876928E-6,-1.8492385E-5,-3.5171425E-7,-3.0885625E-5,-6.944659E-7,-1.7954833E-5,-7.268346E-6,5.3365675E-6,-3.0290596E-5,4.1403555E-6,1.7267885E-5,-2.282597E-6,1.2102737E-5,6.739644E-5,7.702746E-6,2.5877316E-5,4.0184696E-6,2.3049362E-5],"split_indices":[9,7,0,7,0,6,0,3,1,0,2,2,4,0,0,6,1,0,6,0,0,9,2,7,0,0,0,0,1,0,0,0,0,7,0,8,0,0,0,0,0,7,2,0,1,6,4,0,0,1,0,0,0,0,0,0,0,0,0,0,0,0,0,0,0,0,0,0,0],"split_type":[0,0,0,0,0,0,0,0,0,0,0,0,0,0,0,0,0,0,0,0,0,0,0,0,0,0,0,0,0,0,0,0,0,0,0,0,0,0,0,0,0,0,0,0,0,0,0,0,0,0,0,0,0,0,0,0,0,0,0,0,0,0,0,0,0,0,0,0,0],"sum_hessian":[1.4E2,7.8E1,6.2E1,6.7E1,1.1E1,5.3E1,9E0,2.4E1,4.3E1,4E0,7E0,3.6E1,1.7E1,6E0,3E0,2.1E1,3E0,8E0,3.5E1,6E0,1E0,1.4E1,2.2E1,1.6E1,1E0,2E0,1E0,3E0,1.8E1,2E0,1E0,6E0,2E0,1.3E1,2.2E1,5E0,9E0,9E0,1.3E1,6E0,1E1,1.1E1,7E0,7E0,6E0,9E0,1.3E1,2E0,3E0,6E0,3E0,4E0,9E0,1E0,5E0,4E0,7E0,1E0,6E0,5E0,2E0,4E0,2E0,1E0,8E0,9E0,4E0,2E0,4E0],"tree_param":{"num_deleted":"0","num_feature":"10","num_nodes":"69","size_leaf_vector":"1"}},{"base_weights":[6.4477426E-6,1.0864919E-3,-1.3479956E-3,1.7622943E-3,-2.833597E-3,-2.1390393E-3,3.0584408E-3,-5.539563E-4,3.0382937E-3,2.524271E-6,-4.408162E-3,-1.1359156E-3,-4.0821806E-3,5.466433E-5,-1.9201568E-3,-1.1141904E-3,2.6658205E-3,6.621634E-3,2.0580615E-3,-5.0189148E-5,-6.6445875E-7,5.6800374E-4,-2.1977797E-3,-4.220065E-3,-8.690726E-6,-5.6842678E-6,-2.9876732E-5,-3.0466821E-5,-6.487085E-4,3.3291733E-5,3.3788126E-6,4.3234573E-5,9.776835E-5,-6.360302E-4,3.6084626E-3,-7.719885E-4,1.3151986E-3,-2.9804023E-5,-1.4817794E-3,-2.635277E-3,-4.8449245E-5,-1.2152197E-3,2.8214708E-4,-2.098635E-3,1.1263796E-3,6.252607E-3,1.4620408E-3,-1.2456028E-5,-2.2378058E-6,1.8042839E-3,1.304998E-6,-4.8379125E-6,-1.8325954E-5,-3.499558E-7,-3.0628245E-5,-6.889101E-7,-1.7797727E-5,-7.2320045E-6,5.290825E-6,-3.0038176E-5,4.112753E-6,1.7129742E-5,-2.2673796E-6,1.2042223E-5,6.679736E-5,7.633422E-6,2.5670297E-5,3.99168E-6,2.2864966E-5],"categories":[],"categories_nodes":[],"categories_segments":[],"categories_sizes":[],"default_left":[0,0,0,0,0,0,0,0,0,0,0,0,0,0,0,0,0,0,0,0,0,0,0,0,0,0,0,0,0,0,0,0,0,0,0,0,0,0,0,0,0,0,0,0,0,0,0,0,0,0,0,0,0,0,0,0,0,0,0,0,0,0,0,0,0,0,0,0,0],"id":11,"left_children":[1,3,5,7,9,11,13,15,17,-1,19,21,23,-1,25,27,29,31,33,-1,-1,35,37,39,-1,-1,-1,-1,41,-1,-1,-1,-1,43,45,47,49,-1,51,53,-1,55,57,59,61,63,65,-1,-1,67,-1,-1,-1,-1,-1,-1,-1,-1,-1,-1,-1,-1,-1,-1,-1,-1,-1,-1,-1],"loss_changes":[2.0772764E-4,2.1428091E-4,2.2614023E-4,2.0265942E-4,5.94225E-5,1.0062041E-4,1.3038068E-4,4.806596E-5,1.4092252E-4,0E0,2.0880238E-5,6.8193585E-5,4.307105E-6,0E0,4.0737013E-6,1.7813472E-5,5.052112E-6,2.2991182E-5,1.526643E-4,0E0,0E0,1.6033848E-5,8.471943E-6,4.066853E-6,0E0,0E0,0E0,0E0,1.0362334E-5,0E0,0E0,0E0,0E0,3.8451788E-5,1.21393765E-4,1.2790927E-6,5.5587298E-6,0E0,4.014946E-6,7.675022E-6,0E0,7.643352E-6,2.36868E-6,1.9410814E-5,5.9445174E-6,1.3519253E-5,8.84924E-6,0E0,0E0,3.8302587E-6,0E0,0E0,0E0,0E0,0E0,0E0,0E0,0E0,0E0,0E0,0E0,0E0,0E0,0E0,0E0,0E0,0E0,0E0,0E0],"parents":[2147483647,0,0,1,1,2,2,3,3,4,4,5,5,6,6,7,7,8,8,10,10,11,11,12,12,14,14,15,15,16,16,17,17,18,18,21,21,22,22,23,23,28,28,33,33,34,34,35,35,36,36,38,38,39,39,41,41,42,42,43,43,44,44,45,45,46,46,49,49],"right_children":[2,4,6,8,10,12,14,16,18,-1,20,22,24,-1,26,28,30,32,34,-1,-1,36,38,40,-1,-1,-1,-1,42,-1,-1,-1,-1,44,46,48,50,-1,52,54,-1,56,58,60,62,64,66,-1,-1,68,-1,-1,-1,-1,-1,-1,-1,-1,-1,-1,-1,-1,-1,-1,-1,-1,-1,-1,-1],"split_conditions":[1.17798555E5,8.512043E1,1.1945847E5,6.276133E1,1.0642453E5,3.7364944E1,1.2109367E5,6.86897E-1,2.4823312E-4,2.524271E-6,1.0880262E5,1.1775145E5,1.1186126E0,5.466433E-5,1.2120695E5,-3.267704E0,6.5071345E-4,1.0888441E5,3.1416647E1,-5.0189148E-5,-6.6445875E-7,1.1797221E5,1.1803507E5,5.9886295E1,-8.690726E-6,-5.6842678E-6,-2.9876732E-5,-3.0466821E-5,3.1959856E-4,3.3291733E-5,3.3788126E-6,4.3234573E-5,9.776835E-5,7.094288E1,1.1143915E5,1.17841E5,1.1803973E5,-2.9804023E-5,1.1833012E5,1.182076E5,-4.8449245E-5,5.7795155E1,1.0760518E5,1.11150195E5,3.80195E-4,4.0418007E1,1.0956023E0,-1.2456028E-5,-2.2378058E-6,3.2553068E-4,1.304998E-6,-4.8379125E-6,-1.8325954E-5,-3.499558E-7,-3.0628245E-5,-6.889101E-7,-1.7797727E-5,-7.2320045E-6,5.290825E-6,-3.0038176E-5,4.112753E-6,1.7129742E-5,-2.2673796E-6,1.2042223E-5,6.679736E-5,7.633422E-6,2.5670297E-5,3.99168E-6,2.2864966E-5],"split_indices":[9,7,0,7,0,6,0,3,1,0,2,2,4,0,0,6,1,0,6,0,0,9,2,7,0,0,0,0,1,0,0,0,0,7,0,8,0,0,0,0,0,7,2,0,1,6,4,0,0,1,0,0,0,0,0,0,0,0,0,0,0,0,0,0,0,0,0,0,0],"split_type":[0,0,0,0,0,0,0,0,0,0,0,0,0,0,0,0,0,0,0,0,0,0,0,0,0,0,0,0,0,0,0,0,0,0,0,0,0,0,0,0,0,0,0,0,0,0,0,0,0,0,0,0,0,0,0,0,0,0,0,0,0,0,0,0,0,0,0,0,0],"sum_hessian":[1.4E2,7.8E1,6.2E1,6.7E1,1.1E1,5.3E1,9E0,2.4E1,4.3E1,4E0,7E0,3.6E1,1.7E1,6E0,3E0,2.1E1,3E0,8E0,3.5E1,6E0,1E0,1.4E1,2.2E1,1.6E1,1E0,2E0,1E0,3E0,1.8E1,2E0,1E0,6E0,2E0,1.3E1,2.2E1,5E0,9E0,9E0,1.3E1,6E0,1E1,1.1E1,7E0,7E0,6E0,9E0,1.3E1,2E0,3E0,6E0,3E0,4E0,9E0,1E0,5E0,4E0,7E0,1E0,6E0,5E0,2E0,4E0,2E0,1E0,8E0,9E0,4E0,2E0,4E0],"tree_param":{"num_deleted":"0","num_feature":"10","num_nodes":"69","size_leaf_vector":"1"}},{"base_weights":[6.886915E-6,1.0778995E-3,-1.3362381E-3,1.7480223E-3,-2.8092882E-3,-2.1200124E-3,3.0297665E-3,-5.4898567E-4,3.0134127E-3,2.5040767E-6,-4.370437E-3,-1.125624E-3,-4.0462543E-3,5.419578E-5,-1.9098454E-3,-1.105362E-3,2.6483303E-3,6.5710847E-3,2.0402886E-3,-4.9758957E-5,-6.611366E-7,5.632215E-4,-2.1781048E-3,-4.1825366E-3,-8.647272E-6,-5.6463728E-6,-2.9727347E-5,-3.023832E-5,-6.432966E-4,3.306979E-5,3.3619185E-6,4.286399E-5,9.7116565E-5,-6.304601E-4,3.5772538E-3,-7.667176E-4,1.3048628E-3,-2.9535786E-5,-1.4686161E-3,-2.6133498E-3,-4.8008795E-5,-1.2046081E-3,2.7908295E-4,-2.0808892E-3,1.117239E-3,6.197965E-3,1.4497993E-3,-1.2372988E-5,-2.2210224E-6,1.7900777E-3,1.2952104E-6,-4.799209E-6,-1.816102E-5,-3.4820607E-7,-3.037301E-5,-6.8339904E-7,-1.7641998E-5,-7.195844E-6,5.2454748E-6,-2.9787856E-5,4.0853342E-6,1.6992704E-5,-2.2522638E-6,1.19820115E-5,6.62036E-5,7.564721E-6,2.5464937E-5,3.9650686E-6,2.2682047E-5],"categories":[],"categories_nodes":[],"categories_segments":[],"categories_sizes":[],"default_left":[0,0,0,0,0,0,0,0,0,0,0,0,0,0,0,0,0,0,0,0,0,0,0,0,0,0,0,0,0,0,0,0,0,0,0,0,0,0,0,0,0,0,0,0,0,0,0,0,0,0,0,0,0,0,0,0,0,0,0,0,0,0,0,0,0,0,0,0,0],"id":12,"left_children":[1,3,5,7,9,11,13,15,17,-1,19,21,23,-1,25,27,29,31,33,-1,-1,35,37,39,-1,-1,-1,-1,41,-1,-1,-1,-1,43,45,47,49,-1,51,53,-1,55,57,59,61,63,65,-1,-1,67,-1,-1,-1,-1,-1,-1,-1,-1,-1,-1,-1,-1,-1,-1,-1,-1,-1,-1,-1],"loss_changes":[2.0426934E-4,2.1069727E-4,2.2200674E-4,1.993039E-4,5.8414087E-5,9.887881E-5,1.2839798E-4,4.7400128E-5,1.3892353E-4,0E0,2.0519743E-5,6.699343E-5,4.1877793E-6,0E0,4.040713E-6,1.755687E-5,4.979769E-6,2.2948952E-5,1.5002982E-4,0E0,0E0,1.5795526E-5,8.316703E-6,3.948662E-6,0E0,0E0,0E0,0E0,1.0173289E-5,0E0,0E0,0E0,0E0,3.7813646E-5,1.19249395E-4,1.2629075E-6,5.47108E-6,0E0,3.938221E-6,7.5464377E-6,0E0,7.5095904E-6,2.3385555E-6,1.9098883E-5,5.85222E-6,1.3186276E-5,8.718798E-6,0E0,0E0,3.7647678E-6,0E0,0E0,0E0,0E0,0E0,0E0,0E0,0E0,0E0,0E0,0E0,0E0,0E0,0E0,0E0,0E0,0E0,0E0,0E0],"parents":[2147483647,0,0,1,1,2,2,3,3,4,4,5,5,6,6,7,7,8,8,10,10,11,11,12,12,14,14,15,15,16,16,17,17,18,18,21,21,22,22,23,23,28,28,33,33,34,34,35,35,36,36,38,38,39,39,41,41,42,42,43,43,44,44,45,45,46,46,49,49],"right_children":[2,4,6,8,10,12,14,16,18,-1,20,22,24,-1,26,28,30,32,34,-1,-1,36,38,40,-1,-1,-1,-1,42,-1,-1,-1,-1,44,46,48,50,-1,52,54,-1,56,58,60,62,64,66,-1,-1,68,-1,-1,-1,-1,-1,-1,-1,-1,-1,-1,-1,-1,-1,-1,-1,-1,-1,-1,-1],"split_conditions":[1.17798555E5,8.512043E1,1.1945847E5,6.276133E1,1.0642453E5,3.7364944E1,1.2109367E5,6.86897E-1,2.4823312E-4,2.5040767E-6,1.0880262E5,1.1775145E5,1.1186126E0,5.419578E-5,1.2120695E5,-3.267704E0,6.5071345E-4,1.0888441E5,3.1416647E1,-4.9758957E-5,-6.611366E-7,1.1797221E5,1.1803507E5,5.9886295E1,-8.647272E-6,-5.6463728E-6,-2.9727347E-5,-3.023832E-5,3.1959856E-4,3.306979E-5,3.3619185E-6,4.286399E-5,9.7116565E-5,7.094288E1,1.1143915E5,1.17841E5,1.1803973E5,-2.9535786E-5,1.1833012E5,1.182076E5,-4.8008795E-5,5.7795155E1,1.0760518E5,1.11150195E5,3.80195E-4,4.0418007E1,1.0956023E0,-1.2372988E-5,-2.2210224E-6,3.2553068E-4,1.2952104E-6,-4.799209E-6,-1.816102E-5,-3.4820607E-7,-3.037301E-5,-6.8339904E-7,-1.7641998E-5,-7.195844E-6,5.2454748E-6,-2.9787856E-5,4.0853342E-6,1.6992704E-5,-2.2522638E-6,1.19820115E-5,6.62036E-5,7.564721E-6,2.5464937E-5,3.9650686E-6,2.2682047E-5],"split_indices":[9,7,0,7,0,6,0,3,1,0,2,2,4,0,0,6,1,0,6,0,0,9,2,7,0,0,0,0,1,0,0,0,0,7,0,8,0,0,0,0,0,7,2,0,1,6,4,0,0,1,0,0,0,0,0,0,0,0,0,0,0,0,0,0,0,0,0,0,0],"split_type":[0,0,0,0,0,0,0,0,0,0,0,0,0,0,0,0,0,0,0,0,0,0,0,0,0,0,0,0,0,0,0,0,0,0,0,0,0,0,0,0,0,0,0,0,0,0,0,0,0,0,0,0,0,0,0,0,0,0,0,0,0,0,0,0,0,0,0,0,0],"sum_hessian":[1.4E2,7.8E1,6.2E1,6.7E1,1.1E1,5.3E1,9E0,2.4E1,4.3E1,4E0,7E0,3.6E1,1.7E1,6E0,3E0,2.1E1,3E0,8E0,3.5E1,6E0,1E0,1.4E1,2.2E1,1.6E1,1E0,2E0,1E0,3E0,1.8E1,2E0,1E0,6E0,2E0,1.3E1,2.2E1,5E0,9E0,9E0,1.3E1,6E0,1E1,1.1E1,7E0,7E0,6E0,9E0,1.3E1,2E0,3E0,6E0,3E0,4E0,9E0,1E0,5E0,4E0,7E0,1E0,6E0,5E0,2E0,4E0,2E0,1E0,8E0,9E0,4E0,2E0,4E0],"tree_param":{"num_deleted":"0","num_feature":"10","num_nodes":"69","size_leaf_vector":"1"}},{"base_weights":[7.3182864E-6,1.0693766E-3,-1.3245853E-3,1.7338679E-3,-2.7851886E-3,-2.1011552E-3,3.0013511E-3,-5.440591E-4,2.9887385E-3,2.484044E-6,-4.3330356E-3,-1.1154258E-3,-4.010646E-3,5.3731244E-5,-1.8995904E-3,-1.0966044E-3,2.6309548E-3,6.5209274E-3,2.0226708E-3,-4.9332455E-5,-6.57831E-7,5.584792E-4,-2.1586064E-3,-4.1453424E-3,-8.604035E-6,-5.6087306E-6,-2.957871E-5,-3.0011532E-5,-6.3793076E-4,3.2849322E-5,3.345109E-6,4.2496584E-5,9.646912E-5,-6.249384E-4,3.5463166E-3,-7.6148275E-4,1.2946085E-3,-2.9269966E-5,-1.4555699E-3,-2.591605E-3,-4.7572354E-5,-1.1940892E-3,2.7604832E-4,-2.0632932E-3,1.1081725E-3,6.1438037E-3,1.4376605E-3,-1.2290502E-5,-2.2043646E-6,1.7759837E-3,1.2854961E-6,-4.760815E-6,-1.799757E-5,-3.464651E-7,-3.0119903E-5,-6.7793167E-7,-1.7487631E-5,-7.1598647E-6,5.2005134E-6,-2.9539624E-5,4.058099E-6,1.6856764E-5,-2.2372487E-6,1.1922102E-5,6.561513E-5,7.4966383E-6,2.5261215E-5,3.938635E-6,2.250059E-5],"categories":[],"categories_nodes":[],"categories_segments":[],"categories_sizes":[],"default_left":[0,0,0,0,0,0,0,0,0,0,0,0,0,0,0,0,0,0,0,0,0,0,0,0,0,0,0,0,0,0,0,0,0,0,0,0,0,0,0,0,0,0,0,0,0,0,0,0,0,0,0,0,0,0,0,0,0,0,0,0,0,0,0,0,0,0,0,0,0],"id":13,"left_children":[1,3,5,7,9,11,13,15,17,-1,19,21,23,-1,25,27,29,31,33,-1,-1,35,37,39,-1,-1,-1,-1,41,-1,-1,-1,-1,43,45,47,49,-1,51,53,-1,55,57,59,61,63,65,-1,-1,67,-1,-1,-1,-1,-1,-1,-1,-1,-1,-1,-1,-1,-1,-1,-1,-1,-1,-1,-1],"loss_changes":[2.0086936E-4,2.0717378E-4,2.1794802E-4,1.9600432E-4,5.742281E-5,9.716743E-5,1.2644596E-4,4.674359E-5,1.3695296E-4,0E0,2.0165447E-5,6.581438E-5,4.0712184E-6,0E0,4.007964E-6,1.7303933E-5,4.9084447E-6,2.2903492E-5,1.4744092E-4,0E0,0E0,1.556076E-5,8.164308E-6,3.833382E-6,0E0,0E0,0E0,0E0,9.987653E-6,0E0,0E0,0E0,0E0,3.718608E-5,1.17143034E-4,1.2469266E-6,5.384816E-6,0E0,3.8629496E-6,7.4199997E-6,0E0,7.3781684E-6,2.3088257E-6,1.879198E-5,5.7613597E-6,1.2860546E-5,8.590265E-6,0E0,0E0,3.7003902E-6,0E0,0E0,0E0,0E0,0E0,0E0,0E0,0E0,0E0,0E0,0E0,0E0,0E0,0E0,0E0,0E0,0E0,0E0,0E0],"parents":[2147483647,0,0,1,1,2,2,3,3,4,4,5,5,6,6,7,7,8,8,10,10,11,11,12,12,14,14,15,15,16,16,17,17,18,18,21,21,22,22,23,23,28,28,33,33,34,34,35,35,36,36,38,38,39,39,41,41,42,42,43,43,44,44,45,45,46,46,49,49],"right_children":[2,4,6,8,10,12,14,16,18,-1,20,22,24,-1,26,28,30,32,34,-1,-1,36,38,40,-1,-1,-1,-1,42,-1,-1,-1,-1,44,46,48,50,-1,52,54,-1,56,58,60,62,64,66,-1,-1,68,-1,-1,-1,-1,-1,-1,-1,-1,-1,-1,-1,-1,-1,-1,-1,-1,-1,-1,-1],"split_conditions":[1.17798555E5,8.512043E1,1.1945847E5,6.276133E1,1.0642453E5,3.7364944E1,1.2109367E5,6.86897E-1,2.4823312E-4,2.484044E-6,1.0880262E5,1.1775145E5,1.1186126E0,5.3731244E-5,1.2120695E5,-3.267704E0,6.5071345E-4,1.0888441E5,3.1416647E1,-4.9332455E-5,-6.57831E-7,1.1797221E5,1.1803507E5,5.9886295E1,-8.604035E-6,-5.6087306E-6,-2.957871E-5,-3.0011532E-5,3.1959856E-4,3.2849322E-5,3.345109E-6,4.2496584E-5,9.646912E-5,7.094288E1,1.1143915E5,1.17841E5,1.1803973E5,-2.9269966E-5,1.1833012E5,1.182076E5,-4.7572354E-5,5.7795155E1,1.0760518E5,1.11150195E5,3.80195E-4,4.0418007E1,1.0956023E0,-1.2290502E-5,-2.2043646E-6,3.2553068E-4,1.2854961E-6,-4.760815E-6,-1.799757E-5,-3.464651E-7,-3.0119903E-5,-6.7793167E-7,-1.7487631E-5,-7.1598647E-6,5.2005134E-6,-2.9539624E-5,4.058099E-6,1.6856764E-5,-2.2372487E-6,1.1922102E-5,6.561513E-5,7.4966383E-6,2.5261215E-5,3.938635E-6,2.250059E-5],"split_indices":[9,7,0,7,0,6,0,3,1,0,2,2,4,0,0,6,1,0,6,0,0,9,2,7,0,0,0,0,1,0,0,0,0,7,0,8,0,0,0,0,0,7,2,0,1,6,4,0,0,1,0,0,0,0,0,0,0,0,0,0,0,0,0,0,0,0,0,0,0],"split_type":[0,0,0,0,0,0,0,0,0,0,0,0,0,0,0,0,0,0,0,0,0,0,0,0,0,0,0,0,0,0,0,0,0,0,0,0,0,0,0,0,0,0,0,0,0,0,0,0,0,0,0,0,0,0,0,0,0,0,0,0,0,0,0,0,0,0,0,0,0],"sum_hessian":[1.4E2,7.8E1,6.2E1,6.7E1,1.1E1,5.3E1,9E0,2.4E1,4.3E1,4E0,7E0,3.6E1,1.7E1,6E0,3E0,2.1E1,3E0,8E0,3.5E1,6E0,1E0,1.4E1,2.2E1,1.6E1,1E0,2E0,1E0,3E0,1.8E1,2E0,1E0,6E0,2E0,1.3E1,2.2E1,5E0,9E0,9E0,1.3E1,6E0,1E1,1.1E1,7E0,7E0,6E0,9E0,1.3E1,2E0,3E0,6E0,3E0,4E0,9E0,1E0,5E0,4E0,7E0,1E0,6E0,5E0,2E0,4E0,2E0,1E0,8E0,9E0,4E0,2E0,4E0],"tree_param":{"num_deleted":"0","num_feature":"10","num_nodes":"69","size_leaf_vector":"1"}},{"base_weights":[7.741927E-6,1.0609227E-3,-1.3130362E-3,1.71983E-3,-2.7612955E-3,-2.0824666E-3,2.973192E-3,-5.391762E-4,2.9642691E-3,2.4641713E-6,-4.295954E-3,-1.1053202E-3,-3.975353E-3,5.327069E-5,-1.8893913E-3,-1.0879172E-3,2.6136937E-3,6.471159E-3,2.005206E-3,-4.8909606E-5,-6.545419E-7,5.5377634E-4,-2.1392824E-3,-4.1084797E-3,-8.561015E-6,-5.571339E-6,-2.9430817E-5,-2.9786444E-5,-6.3261064E-4,3.2630327E-5,3.3283832E-6,4.2132328E-5,9.582599E-5,-6.19465E-4,3.515649E-3,-7.5628376E-4,1.2844348E-3,-2.9006535E-5,-1.4426399E-3,-2.5700412E-3,-4.7139874E-5,-1.1836621E-3,2.730429E-4,-2.0458456E-3,1.0991791E-3,6.0901195E-3,1.4256238E-3,-1.2208566E-5,-2.1878318E-6,1.7620008E-3,1.2758547E-6,-4.7227286E-6,-1.7835593E-5,-3.4473283E-7,-2.9868905E-5,-6.725082E-7,-1.7334614E-5,-7.1240656E-6,5.1559377E-6,-2.9293464E-5,4.031044E-6,1.6721908E-5,-2.2223335E-6,1.1862492E-5,6.503188E-5,7.4291693E-6,2.5059126E-5,3.9123775E-6,2.2320584E-5],"categories":[],"categories_nodes":[],"categories_segments":[],"categories_sizes":[],"default_left":[0,0,0,0,0,0,0,0,0,0,0,0,0,0,0,0,0,0,0,0,0,0,0,0,0,0,0,0,0,0,0,0,0,0,0,0,0,0,0,0,0,0,0,0,0,0,0,0,0,0,0,0,0,0,0,0,0,0,0,0,0,0,0,0,0,0,0,0,0],"id":14,"left_children":[1,3,5,7,9,11,13,15,17,-1,19,21,23,-1,25,27,29,31,33,-1,-1,35,37,39,-1,-1,-1,-1,41,-1,-1,-1,-1,43,45,47,49,-1,51,53,-1,55,57,59,61,63,65,-1,-1,67,-1,-1,-1,-1,-1,-1,-1,-1,-1,-1,-1,-1,-1,-1,-1,-1,-1,-1,-1],"loss_changes":[1.9752659E-4,2.0370947E-4,2.1396272E-4,1.9275957E-4,5.644834E-5,9.548584E-5,1.2452416E-4,4.6096215E-5,1.3501049E-4,0E0,1.9817278E-5,6.465607E-5,3.957335E-6,0E0,3.975457E-6,1.7054614E-5,4.8381335E-6,2.2854889E-5,1.448968E-4,0E0,0E0,1.5329495E-5,8.014686E-6,3.7209538E-6,0E0,0E0,0E0,0E0,9.805362E-6,0E0,0E0,0E0,0E0,3.6568923E-5,1.1507407E-4,1.2311459E-6,5.299913E-6,0E0,3.7891095E-6,7.2956755E-6,0E0,7.2490493E-6,2.2794857E-6,1.8490027E-5,5.671911E-6,1.25419465E-5,8.463599E-6,0E0,0E0,3.6370966E-6,0E0,0E0,0E0,0E0,0E0,0E0,0E0,0E0,0E0,0E0,0E0,0E0,0E0,0E0,0E0,0E0,0E0,0E0,0E0],"parents":[2147483647,0,0,1,1,2,2,3,3,4,4,5,5,6,6,7,7,8,8,10,10,11,11,12,12,14,14,15,15,16,16,17,17,18,18,21,21,22,22,23,23,28,28,33,33,34,34,35,35,36,36,38,38,39,39,41,41,42,42,43,43,44,44,45,45,46,46,49,49],"right_children":[2,4,6,8,10,12,14,16,18,-1,20,22,24,-1,26,28,30,32,34,-1,-1,36,38,40,-1,-1,-1,-1,42,-1,-1,-1,-1,44,46,48,50,-1,52,54,-1,56,58,60,62,64,66,-1,-1,68,-1,-1,-1,-1,-1,-1,-1,-1,-1,-1,-1,-1,-1,-1,-1,-1,-1,-1,-1],"split_conditions":[1.17798555E5,8.512043E1,1.1945847E5,6.276133E1,1.0642453E5,3.7364944E1,1.2109367E5,6.86897E-1,2.4823312E-4,2.4641713E-6,1.0880262E5,1.1775145E5,1.1186126E0,5.327069E-5,1.2120695E5,-3.267704E0,6.5071345E-4,1.0888441E5,3.1416647E1,-4.8909606E-5,-6.545419E-7,1.1797221E5,1.1803507E5,5.9886295E1,-8.561015E-6,-5.571339E-6,-2.9430817E-5,-2.9786444E-5,3.1959856E-4,3.2630327E-5,3.3283832E-6,4.2132328E-5,9.582599E-5,7.094288E1,1.1143915E5,1.17841E5,1.1803973E5,-2.9006535E-5,1.1833012E5,1.182076E5,-4.7139874E-5,5.7795155E1,1.0760518E5,1.11150195E5,3.80195E-4,4.0418007E1,1.0956023E0,-1.2208566E-5,-2.1878318E-6,3.2553068E-4,1.2758547E-6,-4.7227286E-6,-1.7835593E-5,-3.4473283E-7,-2.9868905E-5,-6.725082E-7,-1.7334614E-5,-7.1240656E-6,5.1559377E-6,-2.9293464E-5,4.031044E-6,1.6721908E-5,-2.2223335E-6,1.1862492E-5,6.503188E-5,7.4291693E-6,2.5059126E-5,3.9123775E-6,2.2320584E-5],"split_indices":[9,7,0,7,0,6,0,3,1,0,2,2,4,0,0,6,1,0,6,0,0,9,2,7,0,0,0,0,1,0,0,0,0,7,0,8,0,0,0,0,0,7,2,0,1,6,4,0,0,1,0,0,0,0,0,0,0,0,0,0,0,0,0,0,0,0,0,0,0],"split_type":[0,0,0,0,0,0,0,0,0,0,0,0,0,0,0,0,0,0,0,0,0,0,0,0,0,0,0,0,0,0,0,0,0,0,0,0,0,0,0,0,0,0,0,0,0,0,0,0,0,0,0,0,0,0,0,0,0,0,0,0,0,0,0,0,0,0,0,0,0],"sum_hessian":[1.4E2,7.8E1,6.2E1,6.7E1,1.1E1,5.3E1,9E0,2.4E1,4.3E1,4E0,7E0,3.6E1,1.7E1,6E0,3E0,2.1E1,3E0,8E0,3.5E1,6E0,1E0,1.4E1,2.2E1,1.6E1,1E0,2E0,1E0,3E0,1.8E1,2E0,1E0,6E0,2E0,1.3E1,2.2E1,5E0,9E0,9E0,1.3E1,6E0,1E1,1.1E1,7E0,7E0,6E0,9E0,1.3E1,2E0,3E0,6E0,3E0,4E0,9E0,1E0,5E0,4E0,7E0,1E0,6E0,5E0,2E0,4E0,2E0,1E0,8E0,9E0,4E0,2E0,4E0],"tree_param":{"num_deleted":"0","num_feature":"10","num_nodes":"69","size_leaf_vector":"1"}},{"base_weights":[8.157964E-6,1.0525372E-3,-1.30159E-3,1.7059078E-3,-2.7376073E-3,-2.0639452E-3,2.945287E-3,-5.3433655E-4,2.9400033E-3,2.444458E-6,-4.2591896E-3,-1.0953062E-3,-3.9403727E-3,5.2814088E-5,-1.879248E-3,-1.0793E-3,2.5965467E-3,6.421776E-3,1.9878934E-3,-4.8490376E-5,-6.512692E-7,5.491128E-4,-2.1201314E-3,-4.071945E-3,-8.51821E-6,-5.534197E-6,-2.9283663E-5,-2.9563047E-5,-6.2733586E-4,3.2412794E-5,3.3117415E-6,4.1771196E-5,9.5187155E-5,-6.140391E-4,3.4852482E-3,-7.511203E-4,1.2743414E-3,-2.8745479E-5,-1.4298247E-3,-2.5486571E-3,-4.671133E-5,-1.173326E-3,2.700665E-4,-2.028545E-3,1.0902588E-3,6.0369074E-3,1.4136882E-3,-1.2127175E-5,-2.171423E-6,1.7481284E-3,1.2662858E-6,-4.6849473E-6,-1.7675073E-5,-3.430093E-7,-2.9619996E-5,-6.671279E-7,-1.7182936E-5,-7.088445E-6,5.1117436E-6,-2.904935E-5,4.004171E-6,1.6588134E-5,-2.207518E-6,1.1803179E-5,6.4453816E-5,7.362307E-6,2.4858655E-5,8.445131E-6,2.6714442E-5],"categories":[],"categories_nodes":[],"categories_segments":[],"categories_sizes":[],"default_left":[0,0,0,0,0,0,0,0,0,0,0,0,0,0,0,0,0,0,0,0,0,0,0,0,0,0,0,0,0,0,0,0,0,0,0,0,0,0,0,0,0,0,0,0,0,0,0,0,0,0,0,0,0,0,0,0,0,0,0,0,0,0,0,0,0,0,0,0,0],"id":15,"left_children":[1,3,5,7,9,11,13,15,17,-1,19,21,23,-1,25,27,29,31,33,-1,-1,35,37,39,-1,-1,-1,-1,41,-1,-1,-1,-1,43,45,47,49,-1,51,53,-1,55,57,59,61,63,65,-1,-1,67,-1,-1,-1,-1,-1,-1,-1,-1,-1,-1,-1,-1,-1,-1,-1,-1,-1,-1,-1],"loss_changes":[1.9424014E-4,2.0030324E-4,2.1004952E-4,1.8956889E-4,5.5490418E-5,9.3833456E-5,1.2263207E-4,4.5457877E-5,1.3309548E-4,0E0,1.9475076E-5,6.351815E-5,3.846042E-6,0E0,3.943189E-6,1.6808857E-5,4.768812E-6,2.2803288E-5,1.4239669E-4,0E0,0E0,1.5101677E-5,7.867806E-6,3.611407E-6,0E0,0E0,0E0,0E0,9.626361E-6,0E0,0E0,0E0,0E0,3.5961988E-5,1.1304175E-4,1.2155645E-6,5.2163505E-6,0E0,3.7166737E-6,7.173432E-6,0E0,7.1221875E-6,2.2505287E-6,1.8192928E-5,5.5838536E-6,1.2230332E-5,8.338795E-6,0E0,0E0,3.5841877E-6,0E0,0E0,0E0,0E0,0E0,0E0,0E0,0E0,0E0,0E0,0E0,0E0,0E0,0E0,0E0,0E0,0E0,0E0,0E0],"parents":[2147483647,0,0,1,1,2,2,3,3,4,4,5,5,6,6,7,7,8,8,10,10,11,11,12,12,14,14,15,15,16,16,17,17,18,18,21,21,22,22,23,23,28,28,33,33,34,34,35,35,36,36,38,38,39,39,41,41,42,42,43,43,44,44,45,45,46,46,49,49],"right_children":[2,4,6,8,10,12,14,16,18,-1,20,22,24,-1,26,28,30,32,34,-1,-1,36,38,40,-1,-1,-1,-1,42,-1,-1,-1,-1,44,46,48,50,-1,52,54,-1,56,58,60,62,64,66,-1,-1,68,-1,-1,-1,-1,-1,-1,-1,-1,-1,-1,-1,-1,-1,-1,-1,-1,-1,-1,-1],"split_conditions":[1.17798555E5,8.512043E1,1.1945847E5,6.276133E1,1.0642453E5,3.7364944E1,1.2109367E5,6.86897E-1,2.4823312E-4,2.444458E-6,1.0880262E5,1.1775145E5,1.1186126E0,5.2814088E-5,1.2120695E5,-3.267704E0,6.5071345E-4,1.0888441E5,3.1416647E1,-4.8490376E-5,-6.512692E-7,1.1797221E5,1.1803507E5,5.9886295E1,-8.51821E-6,-5.534197E-6,-2.9283663E-5,-2.9563047E-5,3.1959856E-4,3.2412794E-5,3.3117415E-6,4.1771196E-5,9.5187155E-5,7.094288E1,1.1143915E5,1.17841E5,1.1803973E5,-2.8745479E-5,1.1833012E5,1.182076E5,-4.671133E-5,5.7795155E1,1.0760518E5,1.11150195E5,3.80195E-4,4.0418007E1,1.0956023E0,-1.2127175E-5,-2.171423E-6,5.8825687E1,1.2662858E-6,-4.6849473E-6,-1.7675073E-5,-3.430093E-7,-2.9619996E-5,-6.671279E-7,-1.7182936E-5,-7.088445E-6,5.1117436E-6,-2.904935E-5,4.004171E-6,1.6588134E-5,-2.207518E-6,1.1803179E-5,6.4453816E-5,7.362307E-6,2.4858655E-5,8.445131E-6,2.6714442E-5],"split_indices":[9,7,0,7,0,6,0,3,1,0,2,2,4,0,0,6,1,0,6,0,0,9,2,7,0,0,0,0,1,0,0,0,0,7,0,8,0,0,0,0,0,7,2,0,1,6,4,0,0,7,0,0,0,0,0,0,0,0,0,0,0,0,0,0,0,0,0,0,0],"split_type":[0,0,0,0,0,0,0,0,0,0,0,0,0,0,0,0,0,0,0,0,0,0,0,0,0,0,0,0,0,0,0,0,0,0,0,0,0,0,0,0,0,0,0,0,0,0,0,0,0,0,0,0,0,0,0,0,0,0,0,0,0,0,0,0,0,0,0,0,0],"sum_hessian":[1.4E2,7.8E1,6.2E1,6.7E1,1.1E1,5.3E1,9E0,2.4E1,4.3E1,4E0,7E0,3.6E1,1.7E1,6E0,3E0,2.1E1,3E0,8E0,3.5E1,6E0,1E0,1.4E1,2.2E1,1.6E1,1E0,2E0,1E0,3E0,1.8E1,2E0,1E0,6E0,2E0,1.3E1,2.2E1,5E0,9E0,9E0,1.3E1,6E0,1E1,1.1E1,7E0,7E0,6E0,9E0,1.3E1,2E0,3E0,6E0,3E0,4E0,9E0,1E0,5E0,4E0,7E0,1E0,6E0,5E0,2E0,4E0,2E0,1E0,8E0,9E0,4E0,4E0,2E0],"tree_param":{"num_deleted":"0","num_feature":"10","num_nodes":"69","size_leaf_vector":"1"}},{"base_weights":[8.631249E-6,1.0442196E-3,-1.2901006E-3,1.6921003E-3,-2.7141229E-3,-2.04542E-3,2.9176336E-3,-2.774698E-4,3.0777361E-3,2.4249025E-6,-4.2227404E-3,-1.0851364E-3,-3.9057017E-3,5.2361393E-5,-1.86916E-3,-8.0074556E-4,7.1871254E-5,4.339748E-3,1.2941803E-3,-4.8074744E-5,-6.4801276E-7,5.450968E-4,-2.1011522E-3,-4.0357355E-3,-8.475619E-6,-5.497302E-6,-2.9137245E-5,-1.7851661E-3,1.149728E-3,1.0097688E-3,6.0484186E-3,5.8861944E-4,2.3188302E-5,-7.459922E-4,1.2652406E-3,-2.8486767E-5,-1.4171237E-3,-2.527451E-3,-4.628668E-5,-6.872024E-4,-2.92877E-3,3.219671E-5,2.2978343E-6,3.016717E-3,-2.2530956E-5,6.931143E-3,3.5691424E-5,-1.8765274E-6,1.1699072E-3,-1.2046326E-5,-2.155137E-6,1.73567E-3,1.2567886E-6,-4.6474674E-6,-1.7515997E-5,-3.412942E-7,-2.9373163E-5,-9.629954E-6,1.0353636E-5,-3.181066E-5,-4.5520032E-6,9.868041E-6,3.784972E-5,3.4623296E-5,7.923158E-5,1.3629084E-5,5.9498998E-8,3.829994E-6,2.2001383E-5],"categories":[],"categories_nodes":[],"categories_segments":[],"categories_sizes":[],"default_left":[0,0,0,0,0,0,0,0,0,0,0,0,0,0,0,0,0,0,0,0,0,0,0,0,0,0,0,0,0,0,0,0,0,0,0,0,0,0,0,0,0,0,0,0,0,0,0,0,0,0,0,0,0,0,0,0,0,0,0,0,0,0,0,0,0,0,0,0,0],"id":16,"left_children":[1,3,5,7,9,11,13,15,17,-1,19,21,23,-1,25,27,-1,29,31,-1,-1,33,35,37,-1,-1,-1,39,41,43,45,47,-1,49,51,-1,53,55,-1,57,59,-1,-1,61,-1,63,-1,-1,65,-1,-1,67,-1,-1,-1,-1,-1,-1,-1,-1,-1,-1,-1,-1,-1,-1,-1,-1,-1],"loss_changes":[1.9098533E-4,1.969542E-4,2.061933E-4,1.8643327E-4,5.4548764E-5,9.222729E-5,1.2076926E-4,1.1903028E-4,8.441831E-5,0E0,1.913878E-5,6.2430016E-5,3.7373684E-6,0E0,3.9111555E-6,5.5814868E-5,0E0,1.2475872E-4,1.1648244E-5,0E0,0E0,1.4890404E-5,7.723618E-6,3.5045377E-6,0E0,0E0,0E0,2.1844422E-5,1.83025E-5,6.573254E-5,8.089526E-6,5.6343856E-6,0E0,1.2001785E-6,5.142698E-6,0E0,3.645615E-6,7.053237E-6,0E0,6.222838E-6,4.168629E-6,0E0,0E0,5.621925E-6,0E0,6.9785747E-6,0E0,0E0,1.5644073E-6,0E0,0E0,3.5552584E-6,0E0,0E0,0E0,0E0,0E0,0E0,0E0,0E0,0E0,0E0,0E0,0E0,0E0,0E0,0E0,0E0,0E0],"parents":[2147483647,0,0,1,1,2,2,3,3,4,4,5,5,6,6,7,7,8,8,10,10,11,11,12,12,14,14,15,15,17,17,18,18,21,21,22,22,23,23,27,27,28,28,29,29,30,30,31,31,33,33,34,34,36,36,37,37,39,39,40,40,43,43,45,45,48,48,51,51],"right_children":[2,4,6,8,10,12,14,16,18,-1,20,22,24,-1,26,28,-1,30,32,-1,-1,34,36,38,-1,-1,-1,40,42,44,46,48,-1,50,52,-1,54,56,-1,58,60,-1,-1,62,-1,64,-1,-1,66,-1,-1,68,-1,-1,-1,-1,-1,-1,-1,-1,-1,-1,-1,-1,-1,-1,-1,-1,-1],"split_conditions":[1.17798555E5,8.512043E1,1.1945847E5,6.5040955E1,1.0642453E5,3.7364944E1,1.2109367E5,9.701333E-1,1.1150275E5,2.4249025E-6,1.0880262E5,1.1775145E5,1.1186126E0,5.2361393E-5,1.2120695E5,1.1663827E5,7.1871254E-5,2.9326293E-1,1.16475984E5,-4.8074744E-5,-6.4801276E-7,1.1797221E5,1.1803507E5,5.9886295E1,-8.475619E-6,-5.497302E-6,-2.9137245E-5,1.08299125E5,1.1716301E5,1.034669E0,9.384129E-1,6.258318E1,2.3188302E-5,1.17841E5,1.1803973E5,-2.8486767E-5,1.1833012E5,1.182076E5,-4.628668E-5,4.5747115E-4,1.1610839E5,3.219671E-5,2.2978343E-6,1.0829794E5,-2.2530956E-5,9.911377E-1,3.5691424E-5,-1.8765274E-6,1.1553135E5,-1.2046326E-5,-2.155137E-6,3.2553068E-4,1.2567886E-6,-4.6474674E-6,-1.7515997E-5,-3.412942E-7,-2.9373163E-5,-9.629954E-6,1.0353636E-5,-3.181066E-5,-4.5520032E-6,9.868041E-6,3.784972E-5,3.4623296E-5,7.923158E-5,1.3629084E-5,5.9498998E-8,3.829994E-6,2.2001383E-5],"split_indices":[9,7,0,7,0,6,0,4,0,0,2,2,4,0,0,2,0,3,2,0,0,9,2,7,0,0,0,9,5,4,3,6,0,8,0,0,0,0,0,1,0,0,0,0,0,4,0,0,2,0,0,1,0,0,0,0,0,0,0,0,0,0,0,0,0,0,0,0,0],"split_type":[0,0,0,0,0,0,0,0,0,0,0,0,0,0,0,0,0,0,0,0,0,0,0,0,0,0,0,0,0,0,0,0,0,0,0,0,0,0,0,0,0,0,0,0,0,0,0,0,0,0,0,0,0,0,0,0,0,0,0,0,0,0,0,0,0,0,0,0,0],"sum_hessian":[1.4E2,7.8E1,6.2E1,6.7E1,1.1E1,5.3E1,9E0,2.8E1,3.9E1,4E0,7E0,3.6E1,1.7E1,6E0,3E0,2.7E1,1E0,2.2E1,1.7E1,6E0,1E0,1.4E1,2.2E1,1.6E1,1E0,2E0,1E0,1.8E1,9E0,8E0,1.4E1,1.1E1,6E0,5E0,9E0,9E0,1.3E1,6E0,1E1,1E1,8E0,2E0,7E0,5E0,3E0,9E0,5E0,5E0,6E0,2E0,3E0,6E0,3E0,4E0,9E0,1E0,5E0,9E0,1E0,7E0,1E0,2E0,3E0,3E0,6E0,5E0,1E0,2E0,4E0],"tree_param":{"num_deleted":"0","num_feature":"10","num_nodes":"69","size_leaf_vector":"1"}},{"base_weights":[9.464422E-6,1.0367414E-3,-1.2788586E-3,1.6793037E-3,-2.6908396E-3,-2.0272294E-3,2.89023E-3,-5.2334415E-4,2.8926423E-3,2.405503E-6,-4.1866037E-3,-1.0753056E-3,-3.8713377E-3,5.191258E-5,-1.859127E-3,-1.06068E-3,2.5628395E-3,6.331829E-3,1.9524944E-3,-4.7662677E-5,-6.447726E-7,5.40505E-4,-2.0823427E-3,-3.999849E-3,-8.433241E-6,-5.460653E-6,-2.8991559E-5,-2.9102745E-5,-6.154665E-4,3.1982065E-5,3.2836938E-6,4.1102558E-5,9.40489E-5,-6.052645E-4,3.4244999E-3,-7.408991E-4,1.255297E-3,-2.8230386E-5,-1.4045355E-3,-2.5064214E-3,-4.5865894E-5,-1.1515501E-3,2.6559216E-4,-1.9976522E-3,1.072502E-3,5.9302715E-3,1.3900559E-3,-1.1966017E-5,-2.1389735E-6,1.7220036E-3,1.2473628E-6,-4.6102878E-6,-1.7358352E-5,-3.3958784E-7,-2.9128387E-5,-5.8475143E-7,-1.6907781E-5,-7.004853E-6,5.0367253E-6,-2.858858E-5,3.9064366E-6,1.6323203E-5,-2.1802914E-6,1.1565706E-5,6.332175E-5,7.2361463E-6,2.4449273E-5,8.274245E-6,2.6389673E-5],"categories":[],"categories_nodes":[],"categories_segments":[],"categories_sizes":[],"default_left":[0,0,0,0,0,0,0,0,0,0,0,0,0,0,0,0,0,0,0,0,0,0,0,0,0,0,0,0,0,0,0,0,0,0,0,0,0,0,0,0,0,0,0,0,0,0,0,0,0,0,0,0,0,0,0,0,0,0,0,0,0,0,0,0,0,0,0,0,0],"id":17,"left_children":[1,3,5,7,9,11,13,15,17,-1,19,21,23,-1,25,27,29,31,33,-1,-1,35,37,39,-1,-1,-1,-1,41,-1,-1,-1,-1,43,45,47,49,-1,51,53,-1,55,57,59,61,63,65,-1,-1,67,-1,-1,-1,-1,-1,-1,-1,-1,-1,-1,-1,-1,-1,-1,-1,-1,-1,-1,-1],"loss_changes":[1.8793436E-4,1.9373975E-4,2.0242069E-4,1.8324777E-4,5.3623095E-5,9.063148E-5,1.1893525E-4,4.4176282E-5,1.2990425E-4,0E0,1.8808263E-5,6.133123E-5,3.6312558E-6,0E0,3.8793605E-6,1.6325042E-5,4.6286405E-6,2.2786757E-5,1.3761398E-4,0E0,0E0,1.466911E-5,7.5820717E-6,3.4003751E-6,0E0,0E0,0E0,0E0,9.279944E-6,0E0,0E0,0E0,0E0,3.4847904E-5,1.09007175E-4,1.1849868E-6,5.0616036E-6,0E0,3.5759003E-6,6.9350463E-6,0E0,6.974131E-6,2.192848E-6,1.757131E-5,5.4131333E-6,1.1862081E-5,8.072953E-6,0E0,0E0,3.5585308E-6,0E0,0E0,0E0,0E0,0E0,0E0,0E0,0E0,0E0,0E0,0E0,0E0,0E0,0E0,0E0,0E0,0E0,0E0,0E0],"parents":[2147483647,0,0,1,1,2,2,3,3,4,4,5,5,6,6,7,7,8,8,10,10,11,11,12,12,14,14,15,15,16,16,17,17,18,18,21,21,22,22,23,23,28,28,33,33,34,34,35,35,36,36,38,38,39,39,41,41,42,42,43,43,44,44,45,45,46,46,49,49],"right_children":[2,4,6,8,10,12,14,16,18,-1,20,22,24,-1,26,28,30,32,34,-1,-1,36,38,40,-1,-1,-1,-1,42,-1,-1,-1,-1,44,46,48,50,-1,52,54,-1,56,58,60,62,64,66,-1,-1,68,-1,-1,-1,-1,-1,-1,-1,-1,-1,-1,-1,-1,-1,-1,-1,-1,-1,-1,-1],"split_conditions":[1.17798555E5,8.512043E1,1.1945847E5,6.276133E1,1.0642453E5,3.7364944E1,1.2109367E5,6.86897E-1,2.4823312E-4,2.405503E-6,1.0880262E5,1.1775145E5,1.1186126E0,5.191258E-5,1.2120695E5,-3.267704E0,6.5071345E-4,1.0888441E5,3.1416647E1,-4.7662677E-5,-6.447726E-7,1.1797221E5,1.1803507E5,5.9886295E1,-8.433241E-6,-5.460653E-6,-2.8991559E-5,-2.9102745E-5,3.1959856E-4,3.1982065E-5,3.2836938E-6,4.1102558E-5,9.40489E-5,7.094288E1,1.1143915E5,1.17841E5,1.1803973E5,-2.8230386E-5,1.1833012E5,1.182076E5,-4.5865894E-5,5.7795155E1,1.0760518E5,1.11150195E5,3.80195E-4,4.0418007E1,1.0956023E0,-1.1966017E-5,-2.1389735E-6,5.8825687E1,1.2473628E-6,-4.6102878E-6,-1.7358352E-5,-3.3958784E-7,-2.9128387E-5,-5.8475143E-7,-1.6907781E-5,-7.004853E-6,5.0367253E-6,-2.858858E-5,3.9064366E-6,1.6323203E-5,-2.1802914E-6,1.1565706E-5,6.332175E-5,7.2361463E-6,2.4449273E-5,8.274245E-6,2.6389673E-5],"split_indices":[9,7,0,7,0,6,0,3,1,0,2,2,4,0,0,6,1,0,6,0,0,9,2,7,0,0,0,0,1,0,0,0,0,7,0,8,0,0,0,0,0,7,2,0,1,6,4,0,0,7,0,0,0,0,0,0,0,0,0,0,0,0,0,0,0,0,0,0,0],"split_type":[0,0,0,0,0,0,0,0,0,0,0,0,0,0,0,0,0,0,0,0,0,0,0,0,0,0,0,0,0,0,0,0,0,0,0,0,0,0,0,0,0,0,0,0,0,0,0,0,0,0,0,0,0,0,0,0,0,0,0,0,0,0,0,0,0,0,0,0,0],"sum_hessian":[1.4E2,7.8E1,6.2E1,6.7E1,1.1E1,5.3E1,9E0,2.4E1,4.3E1,4E0,7E0,3.6E1,1.7E1,6E0,3E0,2.1E1,3E0,8E0,3.5E1,6E0,1E0,1.4E1,2.2E1,1.6E1,1E0,2E0,1E0,3E0,1.8E1,2E0,1E0,6E0,2E0,1.3E1,2.2E1,5E0,9E0,9E0,1.3E1,6E0,1E1,1.1E1,7E0,7E0,6E0,9E0,1.3E1,2E0,3E0,6E0,3E0,4E0,9E0,1E0,5E0,4E0,7E0,1E0,6E0,5E0,2E0,4E0,2E0,1E0,8E0,9E0,4E0,4E0,2E0],"tree_param":{"num_deleted":"0","num_feature":"10","num_nodes":"69","size_leaf_vector":"1"}},{"base_weights":[9.917866E-6,1.028551E-3,-1.2675732E-3,1.6657149E-3,-2.6677565E-3,-2.0090342E-3,2.8630737E-3,-5.1864266E-4,2.86897E-3,2.386259E-6,-4.150776E-3,-1.06532E-3,-3.837278E-3,5.1467614E-5,-1.8491488E-3,-1.0522808E-3,2.5460273E-3,6.2835272E-3,1.935637E-3,-4.7254143E-5,-6.415488E-7,5.365537E-4,-2.0637019E-3,-3.964282E-3,-8.391075E-6,-2.4165869E-5,-7.341712E-7,-2.8884475E-5,-6.103361E-4,3.1768846E-5,3.2672754E-6,4.0750245E-5,9.3421906E-5,-5.999647E-4,3.3948885E-3,-7.35841E-4,1.2463351E-3,-2.7976312E-5,-1.3920594E-3,-2.485567E-3,-4.544893E-5,-1.1414923E-3,2.6269024E-4,-1.980761E-3,1.0637974E-3,5.878458E-3,1.3784185E-3,1.3326999E-6,-9.363172E-6,1.7097355E-3,1.2380074E-6,-4.573405E-6,-1.7202128E-5,-3.3788993E-7,-2.8885648E-5,1.2780611E-6,-1.5787924E-5,-6.969829E-6,4.993554E-6,-2.8350343E-5,3.880394E-6,1.6192618E-5,-2.165756E-6,1.15078765E-5,6.275889E-5,7.1710206E-6,2.4253677E-5,8.208051E-6,2.621374E-5],"categories":[],"categories_nodes":[],"categories_segments":[],"categories_sizes":[],"default_left":[0,0,0,0,0,0,0,0,0,0,0,0,0,0,0,0,0,0,0,0,0,0,0,0,0,0,0,0,0,0,0,0,0,0,0,0,0,0,0,0,0,0,0,0,0,0,0,0,0,0,0,0,0,0,0,0,0,0,0,0,0,0,0,0,0,0,0,0,0],"id":18,"left_children":[1,3,5,7,9,11,13,15,17,-1,19,21,23,-1,25,27,29,31,33,-1,-1,35,37,39,-1,-1,-1,-1,41,-1,-1,-1,-1,43,45,47,49,-1,51,53,-1,55,57,59,61,63,65,-1,-1,67,-1,-1,-1,-1,-1,-1,-1,-1,-1,-1,-1,-1,-1,-1,-1,-1,-1,-1,-1],"loss_changes":[1.8478632E-4,1.9050084E-4,1.98703E-4,1.8021505E-4,5.271314E-5,8.908044E-5,1.1712958E-4,4.3564753E-5,1.2806177E-4,0E0,1.8483464E-5,6.0280716E-5,3.5275589E-6,0E0,3.8530534E-6,1.6089727E-5,4.562273E-6,2.272593E-5,1.3523974E-4,0E0,0E0,1.4463934E-5,7.443108E-6,3.2988319E-6,0E0,0E0,0E0,0E0,9.110413E-6,0E0,0E0,0E0,0E0,3.426956E-5,1.07081985E-4,1.1701993E-6,4.990163E-6,0E0,3.5075154E-6,6.818831E-6,0E0,6.8625504E-6,2.1650117E-6,1.728893E-5,5.3291033E-6,1.1567026E-5,7.9538695E-6,0E0,0E0,3.521045E-6,0E0,0E0,0E0,0E0,0E0,0E0,0E0,0E0,0E0,0E0,0E0,0E0,0E0,0E0,0E0,0E0,0E0,0E0,0E0],"parents":[2147483647,0,0,1,1,2,2,3,3,4,4,5,5,6,6,7,7,8,8,10,10,11,11,12,12,14,14,15,15,16,16,17,17,18,18,21,21,22,22,23,23,28,28,33,33,34,34,35,35,36,36,38,38,39,39,41,41,42,42,43,43,44,44,45,45,46,46,49,49],"right_children":[2,4,6,8,10,12,14,16,18,-1,20,22,24,-1,26,28,30,32,34,-1,-1,36,38,40,-1,-1,-1,-1,42,-1,-1,-1,-1,44,46,48,50,-1,52,54,-1,56,58,60,62,64,66,-1,-1,68,-1,-1,-1,-1,-1,-1,-1,-1,-1,-1,-1,-1,-1,-1,-1,-1,-1,-1,-1],"split_conditions":[1.17798555E5,8.512043E1,1.1945847E5,6.276133E1,1.0642453E5,3.7364944E1,1.2109367E5,6.86897E-1,2.4823312E-4,2.386259E-6,1.0880262E5,1.1775145E5,1.1186126E0,5.1467614E-5,1.19631914E5,-3.267704E0,6.5071345E-4,1.0888441E5,3.1416647E1,-4.7254143E-5,-6.415488E-7,1.1797221E5,1.1803507E5,5.9886295E1,-8.391075E-6,-2.4165869E-5,-7.341712E-7,-2.8884475E-5,3.1959856E-4,3.1768846E-5,3.2672754E-6,4.0750245E-5,9.3421906E-5,7.094288E1,1.1143915E5,1.1735774E5,1.1803973E5,-2.7976312E-5,1.1833012E5,1.182076E5,-4.544893E-5,5.5542233E1,1.0760518E5,1.11150195E5,3.80195E-4,4.0418007E1,1.0956023E0,1.3326999E-6,-9.363172E-6,5.8825687E1,1.2380074E-6,-4.573405E-6,-1.7202128E-5,-3.3788993E-7,-2.8885648E-5,1.2780611E-6,-1.5787924E-5,-6.969829E-6,4.993554E-6,-2.8350343E-5,3.880394E-6,1.6192618E-5,-2.165756E-6,1.15078765E-5,6.275889E-5,7.1710206E-6,2.4253677E-5,8.208051E-6,2.621374E-5],"split_indices":[9,7,0,7,0,6,0,3,1,0,2,2,4,0,2,6,1,0,6,0,0,9,2,7,0,0,0,0,1,0,0,0,0,7,0,0,0,0,0,0,0,7,2,0,1,6,4,0,0,7,0,0,0,0,0,0,0,0,0,0,0,0,0,0,0,0,0,0,0],"split_type":[0,0,0,0,0,0,0,0,0,0,0,0,0,0,0,0,0,0,0,0,0,0,0,0,0,0,0,0,0,0,0,0,0,0,0,0,0,0,0,0,0,0,0,0,0,0,0,0,0,0,0,0,0,0,0,0,0,0,0,0,0,0,0,0,0,0,0,0,0],"sum_hessian":[1.4E2,7.8E1,6.2E1,6.7E1,1.1E1,5.3E1,9E0,2.4E1,4.3E1,4E0,7E0,3.6E1,1.7E1,6E0,3E0,2.1E1,3E0,8E0,3.5E1,6E0,1E0,1.4E1,2.2E1,1.6E1,1E0,2E0,1E0,3E0,1.8E1,2E0,1E0,6E0,2E0,1.3E1,2.2E1,5E0,9E0,9E0,1.3E1,6E0,1E1,1.1E1,7E0,7E0,6E0,9E0,1.3E1,1E0,4E0,6E0,3E0,4E0,9E0,1E0,5E0,3E0,8E0,1E0,6E0,5E0,2E0,4E0,2E0,1E0,8E0,9E0,4E0,4E0,2E0],"tree_param":{"num_deleted":"0","num_feature":"10","num_nodes":"69","size_leaf_vector":"1"}},{"base_weights":[1.0492172E-5,1.0204627E-3,-1.2561454E-3,1.6522795E-3,-2.6448714E-3,-1.9908918E-3,2.8370996E-3,-5.1386957E-4,2.8454943E-3,2.367169E-6,-4.115255E-3,-1.0552647E-3,-3.80352E-3,5.1026465E-5,-1.8368824E-3,-1.0438202E-3,2.5293264E-3,6.2356E-3,1.9189264E-3,-4.68491E-5,-6.38341E-7,5.330301E-4,-2.0452281E-3,-3.9290315E-3,-8.3491195E-6,-5.341249E-6,-2.8725774E-5,-2.866784E-5,-6.051004E-4,3.1557058E-5,3.250939E-6,4.0400962E-5,9.279909E-5,-5.94711E-4,3.3655348E-3,-7.2982104E-4,1.2374377E-3,-2.7724527E-5,-1.3796941E-3,-2.464886E-3,-4.503576E-5,-1.1312865E-3,2.5981627E-4,-1.9640122E-3,1.0551632E-3,5.8270996E-3,1.366879E-3,-1.1823823E-5,-2.0794473E-6,1.6975555E-3,1.2287222E-6,-4.5368174E-6,-1.7047309E-5,-3.3620046E-7,-2.8644938E-5,-5.56166E-7,-1.6621692E-5,-6.9349794E-6,4.950751E-6,-2.811409E-5,3.854525E-6,1.6063077E-5,-2.1513179E-6,1.1450337E-5,6.2201034E-5,7.106481E-6,2.4059647E-5,8.142387E-6,2.6038982E-5],"categories":[],"categories_nodes":[],"categories_segments":[],"categories_sizes":[],"default_left":[0,0,0,0,0,0,0,0,0,0,0,0,0,0,0,0,0,0,0,0,0,0,0,0,0,0,0,0,0,0,0,0,0,0,0,0,0,0,0,0,0,0,0,0,0,0,0,0,0,0,0,0,0,0,0,0,0,0,0,0,0,0,0,0,0,0,0,0,0],"id":19,"left_children":[1,3,5,7,9,11,13,15,17,-1,19,21,23,-1,25,27,29,31,33,-1,-1,35,37,39,-1,-1,-1,-1,41,-1,-1,-1,-1,43,45,47,49,-1,51,53,-1,55,57,59,61,63,65,-1,-1,67,-1,-1,-1,-1,-1,-1,-1,-1,-1,-1,-1,-1,-1,-1,-1,-1,-1,-1,-1],"loss_changes":[1.8165844E-4,1.8731982E-4,1.9512067E-4,1.7722051E-4,5.181862E-5,8.7567256E-5,1.1526422E-4,4.295875E-5,1.2624555E-4,0E0,1.8164254E-5,5.926726E-5,3.4262775E-6,0E0,3.862723E-6,1.5860256E-5,4.4968438E-6,2.2662396E-5,1.3290647E-4,0E0,0E0,1.4246538E-5,7.3066913E-6,3.199908E-6,0E0,0E0,0E0,0E0,8.940962E-6,0E0,0E0,0E0,0E0,3.37008E-5,1.05190964E-4,1.1712161E-6,4.9197315E-6,0E0,3.4404256E-6,6.7045585E-6,0E0,6.760214E-6,2.1375388E-6,1.7011098E-5,5.24638E-6,1.1278462E-5,7.83653E-6,0E0,0E0,3.4839195E-6,0E0,0E0,0E0,0E0,0E0,0E0,0E0,0E0,0E0,0E0,0E0,0E0,0E0,0E0,0E0,0E0,0E0,0E0,0E0],"parents":[2147483647,0,0,1,1,2,2,3,3,4,4,5,5,6,6,7,7,8,8,10,10,11,11,12,12,14,14,15,15,16,16,17,17,18,18,21,21,22,22,23,23,28,28,33,33,34,34,35,35,36,36,38,38,39,39,41,41,42,42,43,43,44,44,45,45,46,46,49,49],"right_children":[2,4,6,8,10,12,14,16,18,-1,20,22,24,-1,26,28,30,32,34,-1,-1,36,38,40,-1,-1,-1,-1,42,-1,-1,-1,-1,44,46,48,50,-1,52,54,-1,56,58,60,62,64,66,-1,-1,68,-1,-1,-1,-1,-1,-1,-1,-1,-1,-1,-1,-1,-1,-1,-1,-1,-1,-1,-1],"split_conditions":[1.17798555E5,8.512043E1,1.1945847E5,6.276133E1,1.0642453E5,3.7364944E1,1.2109367E5,6.86897E-1,2.4823312E-4,2.367169E-6,1.0880262E5,1.1775145E5,1.1186126E0,5.1026465E-5,1.2120695E5,-3.267704E0,6.5071345E-4,1.0888441E5,3.1416647E1,-4.68491E-5,-6.38341E-7,1.1797221E5,1.1803507E5,5.9886295E1,-8.3491195E-6,-5.341249E-6,-2.8725774E-5,-2.866784E-5,3.1959856E-4,3.1557058E-5,3.250939E-6,4.0400962E-5,9.279909E-5,7.094288E1,1.1143915E5,1.17841E5,1.1803973E5,-2.7724527E-5,1.1833012E5,1.182076E5,-4.503576E-5,5.7795155E1,1.0760518E5,1.11150195E5,3.80195E-4,4.0418007E1,1.0956023E0,-1.1823823E-5,-2.0794473E-6,5.8825687E1,1.2287222E-6,-4.5368174E-6,-1.7047309E-5,-3.3620046E-7,-2.8644938E-5,-5.56166E-7,-1.6621692E-5,-6.9349794E-6,4.950751E-6,-2.811409E-5,3.854525E-6,1.6063077E-5,-2.1513179E-6,1.1450337E-5,6.2201034E-5,7.106481E-6,2.4059647E-5,8.142387E-6,2.6038982E-5],"split_indices":[9,7,0,7,0,6,0,3,1,0,2,2,4,0,0,6,1,0,6,0,0,9,2,7,0,0,0,0,1,0,0,0,0,7,0,8,0,0,0,0,0,7,2,0,1,6,4,0,0,7,0,0,0,0,0,0,0,0,0,0,0,0,0,0,0,0,0,0,0],"split_type":[0,0,0,0,0,0,0,0,0,0,0,0,0,0,0,0,0,0,0,0,0,0,0,0,0,0,0,0,0,0,0,0,0,0,0,0,0,0,0,0,0,0,0,0,0,0,0,0,0,0,0,0,0,0,0,0,0,0,0,0,0,0,0,0,0,0,0,0,0],"sum_hessian":[1.4E2,7.8E1,6.2E1,6.7E1,1.1E1,5.3E1,9E0,2.4E1,4.3E1,4E0,7E0,3.6E1,1.7E1,6E0,3E0,2.1E1,3E0,8E0,3.5E1,6E0,1E0,1.4E1,2.2E1,1.6E1,1E0,2E0,1E0,3E0,1.8E1,2E0,1E0,6E0,2E0,1.3E1,2.2E1,5E0,9E0,9E0,1.3E1,6E0,1E1,1.1E1,7E0,7E0,6E0,9E0,1.3E1,2E0,3E0,6E0,3E0,4E0,9E0,1E0,5E0,4E0,7E0,1E0,6E0,5E0,2E0,4E0,2E0,1E0,8E0,9E0,4E0,4E0,2E0],"tree_param":{"num_deleted":"0","num_feature":"10","num_nodes":"69","size_leaf_vector":"1"}},{"base_weights":[1.0928529E-5,1.012404E-3,-1.2450634E-3,1.6389134E-3,-2.6221827E-3,-1.973023E-3,2.8104247E-3,-5.092518E-4,2.8222138E-3,2.3482312E-6,-4.0800385E-3,-1.0454635E-3,-3.7700606E-3,5.0589097E-5,-1.8270302E-3,-1.0355561E-3,2.5127348E-3,6.188044E-3,1.9023613E-3,-4.6447538E-5,-6.3514915E-7,5.291336E-4,-2.0269197E-3,-3.894095E-3,-8.307374E-6,-5.3056406E-6,-2.8582142E-5,-2.845283E-5,-6.0005795E-4,3.1346677E-5,3.2346843E-6,4.0054663E-5,9.2180424E-5,-5.895031E-4,3.336437E-3,-7.2484E-4,1.2286045E-3,-2.7475007E-5,-1.3674389E-3,-2.4443774E-3,-4.462634E-5,-1.1214052E-3,2.569701E-4,-1.9474046E-3,1.046599E-3,5.776194E-3,1.3554363E-3,-1.1744997E-5,-2.0638513E-6,1.685463E-3,1.2195069E-6,-4.5005236E-6,-1.6893882E-5,-3.3451943E-7,-2.8406228E-5,1.2726468E-6,-1.551769E-5,-6.900305E-6,4.9083164E-6,-2.7879807E-5,3.828828E-6,1.5934571E-5,-2.1369758E-6,1.13930855E-5,6.1648134E-5,7.042523E-6,2.3867171E-5,8.077248E-6,2.586539E-5],"categories":[],"categories_nodes":[],"categories_segments":[],"categories_sizes":[],"default_left":[0,0,0,0,0,0,0,0,0,0,0,0,0,0,0,0,0,0,0,0,0,0,0,0,0,0,0,0,0,0,0,0,0,0,0,0,0,0,0,0,0,0,0,0,0,0,0,0,0,0,0,0,0,0,0,0,0,0,0,0,0,0,0,0,0,0,0,0,0],"id":20,"left_children":[1,3,5,7,9,11,13,15,17,-1,19,21,23,-1,25,27,29,31,33,-1,-1,35,37,39,-1,-1,-1,-1,41,-1,-1,-1,-1,43,45,47,49,-1,51,53,-1,55,57,59,61,63,65,-1,-1,67,-1,-1,-1,-1,-1,-1,-1,-1,-1,-1,-1,-1,-1,-1,-1,-1,-1,-1,-1],"loss_changes":[1.7861668E-4,1.8418864E-4,1.9153561E-4,1.7428808E-4,5.093932E-5,8.606895E-5,1.1351525E-4,4.2364194E-5,1.2445505E-4,0E0,1.7850529E-5,5.8252237E-5,3.3273827E-6,0E0,3.8311155E-6,1.5631587E-5,4.432337E-6,2.259633E-5,1.3061363E-4,0E0,0E0,1.4047311E-5,7.1727773E-6,3.1034288E-6,0E0,0E0,0E0,0E0,8.777542E-6,0E0,0E0,0E0,0E0,3.314147E-5,1.0333344E-4,1.1563702E-6,4.850299E-6,0E0,3.3746146E-6,6.592207E-6,0E0,6.6460743E-6,2.1104256E-6,1.6737746E-5,5.164943E-6,1.0996242E-5,7.720897E-6,0E0,0E0,3.4471504E-6,0E0,0E0,0E0,0E0,0E0,0E0,0E0,0E0,0E0,0E0,0E0,0E0,0E0,0E0,0E0,0E0,0E0,0E0,0E0],"parents":[2147483647,0,0,1,1,2,2,3,3,4,4,5,5,6,6,7,7,8,8,10,10,11,11,12,12,14,14,15,15,16,16,17,17,18,18,21,21,22,22,23,23,28,28,33,33,34,34,35,35,36,36,38,38,39,39,41,41,42,42,43,43,44,44,45,45,46,46,49,49],"right_children":[2,4,6,8,10,12,14,16,18,-1,20,22,24,-1,26,28,30,32,34,-1,-1,36,38,40,-1,-1,-1,-1,42,-1,-1,-1,-1,44,46,48,50,-1,52,54,-1,56,58,60,62,64,66,-1,-1,68,-1,-1,-1,-1,-1,-1,-1,-1,-1,-1,-1,-1,-1,-1,-1,-1,-1,-1,-1],"split_conditions":[1.17798555E5,8.512043E1,1.1945847E5,6.276133E1,1.0642453E5,3.7364944E1,1.2109367E5,6.86897E-1,2.4823312E-4,2.3482312E-6,1.0880262E5,1.1775145E5,1.1186126E0,5.0589097E-5,1.2120695E5,-3.267704E0,6.5071345E-4,1.0888441E5,3.1416647E1,-4.6447538E-5,-6.3514915E-7,1.1797221E5,1.1803507E5,5.9886295E1,-8.307374E-6,-5.3056406E-6,-2.8582142E-5,-2.845283E-5,3.1959856E-4,3.1346677E-5,3.2346843E-6,4.0054663E-5,9.2180424E-5,7.094288E1,1.1143915E5,1.17841E5,1.1803973E5,-2.7475007E-5,1.1833012E5,1.182076E5,-4.462634E-5,5.5542233E1,1.0760518E5,1.11150195E5,3.80195E-4,4.0418007E1,1.0956023E0,-1.1744997E-5,-2.0638513E-6,5.8825687E1,1.2195069E-6,-4.5005236E-6,-1.6893882E-5,-3.3451943E-7,-2.8406228E-5,1.2726468E-6,-1.551769E-5,-6.900305E-6,4.9083164E-6,-2.7879807E-5,3.828828E-6,1.5934571E-5,-2.1369758E-6,1.13930855E-5,6.1648134E-5,7.042523E-6,2.3867171E-5,8.077248E-6,2.586539E-5],"split_indices":[9,7,0,7,0,6,0,3,1,0,2,2,4,0,0,6,1,0,6,0,0,9,2,7,0,0,0,0,1,0,0,0,0,7,0,8,0,0,0,0,0,7,2,0,1,6,4,0,0,7,0,0,0,0,0,0,0,0,0,0,0,0,0,0,0,0,0,0,0],"split_type":[0,0,0,0,0,0,0,0,0,0,0,0,0,0,0,0,0,0,0,0,0,0,0,0,0,0,0,0,0,0,0,0,0,0,0,0,0,0,0,0,0,0,0,0,0,0,0,0,0,0,0,0,0,0,0,0,0,0,0,0,0,0,0,0,0,0,0,0,0],"sum_hessian":[1.4E2,7.8E1,6.2E1,6.7E1,1.1E1,5.3E1,9E0,2.4E1,4.3E1,4E0,7E0,3.6E1,1.7E1,6E0,3E0,2.1E1,3E0,8E0,3.5E1,6E0,1E0,1.4E1,2.2E1,1.6E1,1E0,2E0,1E0,3E0,1.8E1,2E0,1E0,6E0,2E0,1.3E1,2.2E1,5E0,9E0,9E0,1.3E1,6E0,1E1,1.1E1,7E0,7E0,6E0,9E0,1.3E1,2E0,3E0,6E0,3E0,4E0,9E0,1E0,5E0,3E0,8E0,1E0,6E0,5E0,2E0,4E0,2E0,1E0,8E0,9E0,4E0,4E0,2E0],"tree_param":{"num_deleted":"0","num_feature":"10","num_nodes":"69","size_leaf_vector":"1"}},{"base_weights":[1.1376676E-5,1.0044456E-3,-1.2340809E-3,1.6256981E-3,-2.5996887E-3,-1.9553148E-3,2.7839905E-3,-5.0456356E-4,2.7991263E-3,2.3294456E-6,-4.0451237E-3,-1.0357525E-3,-3.7368976E-3,5.015547E-5,-1.817232E-3,-1.0272319E-3,2.496253E-3,6.1408565E-3,1.8859403E-3,-4.604942E-5,-6.3197336E-7,5.252658E-4,-2.0087752E-3,-3.85947E-3,-8.265837E-6,-5.27027E-6,-2.8439234E-5,-2.8239438E-5,-5.949119E-4,3.1137697E-5,3.218511E-6,3.9711344E-5,9.156589E-5,-5.843404E-4,3.3075921E-3,-7.19893E-4,1.2198346E-3,-2.7227732E-5,-1.3552927E-3,-2.4240394E-3,-4.4220647E-5,-1.1113782E-3,2.541514E-4,-1.9309368E-3,1.0381041E-3,5.7257363E-3,1.3440899E-3,-1.1666697E-5,-2.0483724E-6,1.6734573E-3,1.2103607E-6,-4.464519E-6,-1.6741838E-5,-3.328468E-7,-2.8169508E-5,-5.283172E-7,-1.6340475E-5,-6.865803E-6,4.8662455E-6,-2.7647475E-5,3.8033022E-6,1.5807094E-5,-2.1227293E-6,1.133612E-5,6.110015E-5,6.979141E-6,2.3676233E-5,3.5864484E-6,2.1276532E-5],"categories":[],"categories_nodes":[],"categories_segments":[],"categories_sizes":[],"default_left":[0,0,0,0,0,0,0,0,0,0,0,0,0,0,0,0,0,0,0,0,0,0,0,0,0,0,0,0,0,0,0,0,0,0,0,0,0,0,0,0,0,0,0,0,0,0,0,0,0,0,0,0,0,0,0,0,0,0,0,0,0,0,0,0,0,0,0,0,0],"id":21,"left_children":[1,3,5,7,9,11,13,15,17,-1,19,21,23,-1,25,27,29,31,33,-1,-1,35,37,39,-1,-1,-1,-1,41,-1,-1,-1,-1,43,45,47,49,-1,51,53,-1,55,57,59,61,63,65,-1,-1,67,-1,-1,-1,-1,-1,-1,-1,-1,-1,-1,-1,-1,-1,-1,-1,-1,-1,-1,-1],"loss_changes":[1.7563193E-4,1.8111341E-4,1.8801563E-4,1.7139256E-4,5.0074937E-5,8.459641E-5,1.1179332E-4,4.1775023E-5,1.2269005E-4,0E0,1.7542217E-5,5.7254674E-5,3.2308744E-6,0E0,3.7997443E-6,1.5408597E-5,4.368747E-6,2.2527674E-5,1.2836044E-4,0E0,0E0,1.3850877E-5,7.041308E-6,3.0093652E-6,0E0,0E0,0E0,0E0,8.614196E-6,0E0,0E0,0E0,0E0,3.2591404E-5,1.0150878E-4,1.1417123E-6,4.781851E-6,0E0,3.310055E-6,6.481725E-6,0E0,6.5529066E-6,2.0836655E-6,1.6468786E-5,5.0847702E-6,1.0720192E-5,7.6069573E-6,0E0,0E0,3.4172062E-6,0E0,0E0,0E0,0E0,0E0,0E0,0E0,0E0,0E0,0E0,0E0,0E0,0E0,0E0,0E0,0E0,0E0,0E0,0E0],"parents":[2147483647,0,0,1,1,2,2,3,3,4,4,5,5,6,6,7,7,8,8,10,10,11,11,12,12,14,14,15,15,16,16,17,17,18,18,21,21,22,22,23,23,28,28,33,33,34,34,35,35,36,36,38,38,39,39,41,41,42,42,43,43,44,44,45,45,46,46,49,49],"right_children":[2,4,6,8,10,12,14,16,18,-1,20,22,24,-1,26,28,30,32,34,-1,-1,36,38,40,-1,-1,-1,-1,42,-1,-1,-1,-1,44,46,48,50,-1,52,54,-1,56,58,60,62,64,66,-1,-1,68,-1,-1,-1,-1,-1,-1,-1,-1,-1,-1,-1,-1,-1,-1,-1,-1,-1,-1,-1],"split_conditions":[1.17798555E5,8.512043E1,1.1945847E5,6.276133E1,1.0642453E5,3.7364944E1,1.2109367E5,6.86897E-1,2.4823312E-4,2.3294456E-6,1.0880262E5,1.1775145E5,1.1186126E0,5.015547E-5,1.2120695E5,-3.267704E0,6.5071345E-4,1.0888441E5,3.1416647E1,-4.604942E-5,-6.3197336E-7,1.1797221E5,1.1803507E5,5.9886295E1,-8.265837E-6,-5.27027E-6,-2.8439234E-5,-2.8239438E-5,3.1959856E-4,3.1137697E-5,3.218511E-6,3.9711344E-5,9.156589E-5,7.094288E1,1.1143915E5,1.17841E5,1.1803973E5,-2.7227732E-5,1.1833012E5,1.182076E5,-4.4220647E-5,5.7795155E1,1.0760518E5,1.11150195E5,3.80195E-4,4.0418007E1,1.0956023E0,-1.1666697E-5,-2.0483724E-6,3.2553068E-4,1.2103607E-6,-4.464519E-6,-1.6741838E-5,-3.328468E-7,-2.8169508E-5,-5.283172E-7,-1.6340475E-5,-6.865803E-6,4.8662455E-6,-2.7647475E-5,3.8033022E-6,1.5807094E-5,-2.1227293E-6,1.133612E-5,6.110015E-5,6.979141E-6,2.3676233E-5,3.5864484E-6,2.1276532E-5],"split_indices":[9,7,0,7,0,6,0,3,1,0,2,2,4,0,0,6,1,0,6,0,0,9,2,7,0,0,0,0,1,0,0,0,0,7,0,8,0,0,0,0,0,7,2,0,1,6,4,0,0,1,0,0,0,0,0,0,0,0,0,0,0,0,0,0,0,0,0,0,0],"split_type":[0,0,0,0,0,0,0,0,0,0,0,0,0,0,0,0,0,0,0,0,0,0,0,0,0,0,0,0,0,0,0,0,0,0,0,0,0,0,0,0,0,0,0,0,0,0,0,0,0,0,0,0,0,0,0,0,0,0,0,0,0,0,0,0,0,0,0,0,0],"sum_hessian":[1.4E2,7.8E1,6.2E1,6.7E1,1.1E1,5.3E1,9E0,2.4E1,4.3E1,4E0,7E0,3.6E1,1.7E1,6E0,3E0,2.1E1,3E0,8E0,3.5E1,6E0,1E0,1.4E1,2.2E1,1.6E1,1E0,2E0,1E0,3E0,1.8E1,2E0,1E0,6E0,2E0,1.3E1,2.2E1,5E0,9E0,9E0,1.3E1,6E0,1E1,1.1E1,7E0,7E0,6E0,9E0,1.3E1,2E0,3E0,6E0,3E0,4E0,9E0,1E0,5E0,4E0,7E0,1E0,6E0,5E0,2E0,4E0,2E0,1E0,8E0,9E0,4E0,2E0,4E0],"tree_param":{"num_deleted":"0","num_feature":"10","num_nodes":"69","size_leaf_vector":"1"}},{"base_weights":[1.1734455E-5,9.965164E-4,-1.2233371E-3,1.6125508E-3,-2.577388E-3,-1.9379295E-3,2.7577952E-3,-5.00028E-4,2.7762307E-3,2.3108098E-6,-4.0105074E-3,-1.02637E-3,-3.704028E-3,4.9725568E-5,-1.807487E-3,-1.0191008E-3,2.4798794E-3,6.0940343E-3,1.8696624E-3,-4.5654706E-5,-6.2881355E-7,5.20837E-4,-1.9907933E-3,-3.8251532E-3,-8.224508E-6,-5.2351343E-6,-2.8297036E-5,-2.802764E-5,-5.899559E-4,3.0930114E-5,3.2024184E-6,3.9370956E-5,9.095546E-5,-5.7922275E-4,3.2789984E-3,-7.1497995E-4,1.2102436E-3,-2.6982681E-5,-1.3432546E-3,-2.4038707E-3,-4.3818643E-5,-1.1016701E-3,2.5135995E-4,-1.914608E-3,1.0296779E-3,5.6757224E-3,1.3328387E-3,1.3569949E-6,-9.1225575E-6,1.6602746E-3,1.2012829E-6,-4.4288026E-6,-1.6591162E-5,-3.3118266E-7,-2.7934764E-5,-5.240908E-7,-1.6197495E-5,-6.8314744E-6,4.824535E-6,-2.741708E-5,3.7779469E-6,1.5680638E-5,-2.1085777E-6,1.1279439E-5,6.0557042E-5,6.916328E-6,2.3486826E-5,7.913178E-6,2.555111E-5],"categories":[],"categories_nodes":[],"categories_segments":[],"categories_sizes":[],"default_left":[0,0,0,0,0,0,0,0,0,0,0,0,0,0,0,0,0,0,0,0,0,0,0,0,0,0,0,0,0,0,0,0,0,0,0,0,0,0,0,0,0,0,0,0,0,0,0,0,0,0,0,0,0,0,0,0,0,0,0,0,0,0,0,0,0,0,0,0,0],"id":22,"left_children":[1,3,5,7,9,11,13,15,17,-1,19,21,23,-1,25,27,29,31,33,-1,-1,35,37,39,-1,-1,-1,-1,41,-1,-1,-1,-1,43,45,47,49,-1,51,53,-1,55,57,59,61,63,65,-1,-1,67,-1,-1,-1,-1,-1,-1,-1,-1,-1,-1,-1,-1,-1,-1,-1,-1,-1,-1,-1],"loss_changes":[1.7271403E-4,1.7808634E-4,1.8457226E-4,1.6855703E-4,4.9225222E-5,8.313311E-5,1.1009797E-4,4.119697E-5,1.20950106E-4,0E0,1.7239217E-5,5.6246885E-5,3.136578E-6,0E0,3.7686095E-6,1.51863915E-5,4.306059E-6,2.2456661E-5,1.2614616E-4,0E0,0E0,1.36450035E-5,6.912247E-6,2.9177172E-6,0E0,0E0,0E0,0E0,8.456669E-6,0E0,0E0,0E0,0E0,3.205046E-5,9.971653E-5,1.1307034E-6,4.7064113E-6,0E0,3.246725E-6,6.373095E-6,0E0,6.4383175E-6,2.057256E-6,1.6204176E-5,5.0058466E-6,1.0450254E-5,7.494682E-6,0E0,0E0,3.4211134E-6,0E0,0E0,0E0,0E0,0E0,0E0,0E0,0E0,0E0,0E0,0E0,0E0,0E0,0E0,0E0,0E0,0E0,0E0,0E0],"parents":[2147483647,0,0,1,1,2,2,3,3,4,4,5,5,6,6,7,7,8,8,10,10,11,11,12,12,14,14,15,15,16,16,17,17,18,18,21,21,22,22,23,23,28,28,33,33,34,34,35,35,36,36,38,38,39,39,41,41,42,42,43,43,44,44,45,45,46,46,49,49],"right_children":[2,4,6,8,10,12,14,16,18,-1,20,22,24,-1,26,28,30,32,34,-1,-1,36,38,40,-1,-1,-1,-1,42,-1,-1,-1,-1,44,46,48,50,-1,52,54,-1,56,58,60,62,64,66,-1,-1,68,-1,-1,-1,-1,-1,-1,-1,-1,-1,-1,-1,-1,-1,-1,-1,-1,-1,-1,-1],"split_conditions":[1.17798555E5,8.512043E1,1.1945847E5,6.276133E1,1.0642453E5,3.7364944E1,1.2109367E5,6.86897E-1,2.4823312E-4,2.3108098E-6,1.0880262E5,1.1775145E5,1.1186126E0,4.9725568E-5,1.2120695E5,-3.267704E0,6.5071345E-4,1.0888441E5,3.1416647E1,-4.5654706E-5,-6.2881355E-7,1.1797221E5,1.1803507E5,5.9886295E1,-8.224508E-6,-5.2351343E-6,-2.8297036E-5,-2.802764E-5,3.1959856E-4,3.0930114E-5,3.2024184E-6,3.9370956E-5,9.095546E-5,7.094288E1,1.1143915E5,1.1735774E5,1.1803973E5,-2.6982681E-5,1.1833012E5,1.182076E5,-4.3818643E-5,5.7795155E1,1.0760518E5,1.11150195E5,3.80195E-4,4.0418007E1,1.0956023E0,1.3569949E-6,-9.1225575E-6,5.8825687E1,1.2012829E-6,-4.4288026E-6,-1.6591162E-5,-3.3118266E-7,-2.7934764E-5,-5.240908E-7,-1.6197495E-5,-6.8314744E-6,4.824535E-6,-2.741708E-5,3.7779469E-6,1.5680638E-5,-2.1085777E-6,1.1279439E-5,6.0557042E-5,6.916328E-6,2.3486826E-5,7.913178E-6,2.555111E-5],"split_indices":[9,7,0,7,0,6,0,3,1,0,2,2,4,0,0,6,1,0,6,0,0,9,2,7,0,0,0,0,1,0,0,0,0,7,0,0,0,0,0,0,0,7,2,0,1,6,4,0,0,7,0,0,0,0,0,0,0,0,0,0,0,0,0,0,0,0,0,0,0],"split_type":[0,0,0,0,0,0,0,0,0,0,0,0,0,0,0,0,0,0,0,0,0,0,0,0,0,0,0,0,0,0,0,0,0,0,0,0,0,0,0,0,0,0,0,0,0,0,0,0,0,0,0,0,0,0,0,0,0,0,0,0,0,0,0,0,0,0,0,0,0],"sum_hessian":[1.4E2,7.8E1,6.2E1,6.7E1,1.1E1,5.3E1,9E0,2.4E1,4.3E1,4E0,7E0,3.6E1,1.7E1,6E0,3E0,2.1E1,3E0,8E0,3.5E1,6E0,1E0,1.4E1,2.2E1,1.6E1,1E0,2E0,1E0,3E0,1.8E1,2E0,1E0,6E0,2E0,1.3E1,2.2E1,5E0,9E0,9E0,1.3E1,6E0,1E1,1.1E1,7E0,7E0,6E0,9E0,1.3E1,1E0,4E0,6E0,3E0,4E0,9E0,1E0,5E0,4E0,7E0,1E0,6E0,5E0,2E0,4E0,2E0,1E0,8E0,9E0,4E0,4E0,2E0],"tree_param":{"num_deleted":"0","num_feature":"10","num_nodes":"69","size_leaf_vector":"1"}},{"base_weights":[1.218934E-5,9.886513E-4,-1.2124565E-3,1.5995117E-3,-2.5552784E-3,-1.9204282E-3,2.7318364E-3,-4.9553264E-4,2.7535253E-3,2.2923236E-6,-3.9761877E-3,-1.0166767E-3,-3.6714494E-3,4.929935E-5,-1.7977951E-3,-1.011035E-3,2.4636139E-3,6.0475743E-3,1.8535261E-3,-4.5263383E-5,-6.256695E-7,5.1742204E-4,-1.9729724E-3,-3.7911418E-3,-8.183385E-6,-5.2002333E-6,-2.815555E-5,-2.7817432E-5,-5.8504206E-4,3.0723913E-5,3.1864063E-6,3.903349E-5,9.034908E-5,-5.741496E-4,3.2506539E-3,-7.0912443E-4,1.2016076E-3,-2.6739837E-5,-1.3313234E-3,-2.38387E-3,-4.3420292E-5,-1.0920468E-3,2.4859546E-4,-1.8984168E-3,1.02132E-3,5.626149E-3,1.3216819E-3,-1.1528103E-5,-1.9907893E-6,1.6484525E-3,1.1922732E-6,-4.393373E-6,-1.6441842E-5,-3.2952667E-7,-2.7701975E-5,1.270995E-6,-1.5125512E-5,-6.797317E-6,4.7831813E-6,-2.7188604E-5,3.7527607E-6,1.5555193E-5,-2.0945206E-6,1.1223042E-5,6.0018756E-5,6.854081E-6,2.329893E-5,7.849872E-6,2.538077E-5],"categories":[],"categories_nodes":[],"categories_segments":[],"categories_sizes":[],"default_left":[0,0,0,0,0,0,0,0,0,0,0,0,0,0,0,0,0,0,0,0,0,0,0,0,0,0,0,0,0,0,0,0,0,0,0,0,0,0,0,0,0,0,0,0,0,0,0,0,0,0,0,0,0,0,0,0,0,0,0,0,0,0,0,0,0,0,0,0,0],"id":23,"left_children":[1,3,5,7,9,11,13,15,17,-1,19,21,23,-1,25,27,29,31,33,-1,-1,35,37,39,-1,-1,-1,-1,41,-1,-1,-1,-1,43,45,47,49,-1,51,53,-1,55,57,59,61,63,65,-1,-1,67,-1,-1,-1,-1,-1,-1,-1,-1,-1,-1,-1,-1,-1,-1,-1,-1,-1,-1,-1],"loss_changes":[1.6980933E-4,1.7511004E-4,1.811705E-4,1.6576874E-4,4.8389928E-5,8.172169E-5,1.0842878E-4,4.062698E-5,1.1923484E-4,0E0,1.6941442E-5,5.5301793E-5,3.044508E-6,0E0,3.7377058E-6,1.4967371E-5,4.2442553E-6,2.238329E-5,1.2397018E-4,0E0,0E0,1.3439871E-5,6.7855362E-6,2.8283685E-6,0E0,0E0,0E0,0E0,8.301986E-6,0E0,0E0,0E0,0E0,3.1518488E-5,9.795609E-5,1.1282993E-6,4.640021E-6,0E0,3.1845939E-6,6.2662803E-6,0E0,6.3441184E-6,2.0311907E-6,1.594382E-5,4.9281493E-6,1.0186224E-5,7.3840474E-6,0E0,0E0,3.384759E-6,0E0,0E0,0E0,0E0,0E0,0E0,0E0,0E0,0E0,0E0,0E0,0E0,0E0,0E0,0E0,0E0,0E0,0E0,0E0],"parents":[2147483647,0,0,1,1,2,2,3,3,4,4,5,5,6,6,7,7,8,8,10,10,11,11,12,12,14,14,15,15,16,16,17,17,18,18,21,21,22,22,23,23,28,28,33,33,34,34,35,35,36,36,38,38,39,39,41,41,42,42,43,43,44,44,45,45,46,46,49,49],"right_children":[2,4,6,8,10,12,14,16,18,-1,20,22,24,-1,26,28,30,32,34,-1,-1,36,38,40,-1,-1,-1,-1,42,-1,-1,-1,-1,44,46,48,50,-1,52,54,-1,56,58,60,62,64,66,-1,-1,68,-1,-1,-1,-1,-1,-1,-1,-1,-1,-1,-1,-1,-1,-1,-1,-1,-1,-1,-1],"split_conditions":[1.17798555E5,8.512043E1,1.1945847E5,6.276133E1,1.0642453E5,3.7364944E1,1.2109367E5,6.86897E-1,2.4823312E-4,2.2923236E-6,1.0880262E5,1.1775145E5,1.1186126E0,4.929935E-5,1.2120695E5,-3.267704E0,6.5071345E-4,1.0888441E5,3.1416647E1,-4.5263383E-5,-6.256695E-7,1.1797221E5,1.1803507E5,5.9886295E1,-8.183385E-6,-5.2002333E-6,-2.815555E-5,-2.7817432E-5,3.1959856E-4,3.0723913E-5,3.1864063E-6,3.903349E-5,9.034908E-5,7.094288E1,1.1143915E5,1.17841E5,1.1803973E5,-2.6739837E-5,1.1833012E5,1.182076E5,-4.3420292E-5,5.5542233E1,1.0760518E5,1.11150195E5,3.80195E-4,4.0418007E1,1.0956023E0,-1.1528103E-5,-1.9907893E-6,5.8825687E1,1.1922732E-6,-4.393373E-6,-1.6441842E-5,-3.2952667E-7,-2.7701975E-5,1.270995E-6,-1.5125512E-5,-6.797317E-6,4.7831813E-6,-2.7188604E-5,3.7527607E-6,1.5555193E-5,-2.0945206E-6,1.1223042E-5,6.0018756E-5,6.854081E-6,2.329893E-5,7.849872E-6,2.538077E-5],"split_indices":[9,7,0,7,0,6,0,3,1,0,2,2,4,0,0,6,1,0,6,0,0,9,2,7,0,0,0,0,1,0,0,0,0,7,0,8,0,0,0,0,0,7,2,0,1,6,4,0,0,7,0,0,0,0,0,0,0,0,0,0,0,0,0,0,0,0,0,0,0],"split_type":[0,0,0,0,0,0,0,0,0,0,0,0,0,0,0,0,0,0,0,0,0,0,0,0,0,0,0,0,0,0,0,0,0,0,0,0,0,0,0,0,0,0,0,0,0,0,0,0,0,0,0,0,0,0,0,0,0,0,0,0,0,0,0,0,0,0,0,0,0],"sum_hessian":[1.4E2,7.8E1,6.2E1,6.7E1,1.1E1,5.3E1,9E0,2.4E1,4.3E1,4E0,7E0,3.6E1,1.7E1,6E0,3E0,2.1E1,3E0,8E0,3.5E1,6E0,1E0,1.4E1,2.2E1,1.6E1,1E0,2E0,1E0,3E0,1.8E1,2E0,1E0,6E0,2E0,1.3E1,2.2E1,5E0,9E0,9E0,1.3E1,6E0,1E1,1.1E1,7E0,7E0,6E0,9E0,1.3E1,2E0,3E0,6E0,3E0,4E0,9E0,1E0,5E0,3E0,8E0,1E0,6E0,5E0,2E0,4E0,2E0,1E0,8E0,9E0,4E0,4E0,2E0],"tree_param":{"num_deleted":"0","num_feature":"10","num_nodes":"69","size_leaf_vector":"1"}},{"base_weights":[1.2614005E-5,9.808842E-4,-1.2017662E-3,1.5866199E-3,-2.5333588E-3,-1.9031926E-3,2.7061126E-3,-4.909684E-4,2.7310082E-3,2.273985E-6,-3.9421623E-3,-1.0072307E-3,-3.639159E-3,4.8876784E-5,-1.7881561E-3,-1.0029104E-3,2.4474552E-3,6.001475E-3,1.8375303E-3,-4.487541E-5,-6.225411E-7,5.136414E-4,-1.9553113E-3,-3.7574335E-3,-8.142468E-6,-5.165565E-6,-2.8014774E-5,-2.7608801E-5,-5.800268E-4,3.0519088E-5,3.1704742E-6,3.869892E-5,8.974676E-5,-5.6912063E-4,3.2225556E-3,-7.042863E-4,1.1930339E-3,-2.649918E-5,-1.3194984E-3,-2.364036E-3,-4.302556E-5,-1.082281E-3,2.4585778E-4,-1.8823622E-3,1.0130298E-3,5.5770115E-3,1.3106188E-3,-1.1451249E-5,-1.9758584E-6,1.6367151E-3,1.1833312E-6,-4.3582254E-6,-1.6293865E-5,-3.278791E-7,-2.7471124E-5,-4.9727316E-7,-1.5923419E-5,-6.76333E-6,4.742183E-6,-2.6962032E-5,3.7277423E-6,1.543075E-5,-2.0805571E-6,1.1166926E-5,5.9485254E-5,6.7923943E-6,2.311254E-5,7.787074E-6,2.5211564E-5],"categories":[],"categories_nodes":[],"categories_segments":[],"categories_sizes":[],"default_left":[0,0,0,0,0,0,0,0,0,0,0,0,0,0,0,0,0,0,0,0,0,0,0,0,0,0,0,0,0,0,0,0,0,0,0,0,0,0,0,0,0,0,0,0,0,0,0,0,0,0,0,0,0,0,0,0,0,0,0,0,0,0,0,0,0,0,0,0,0],"id":24,"left_children":[1,3,5,7,9,11,13,15,17,-1,19,21,23,-1,25,27,29,31,33,-1,-1,35,37,39,-1,-1,-1,-1,41,-1,-1,-1,-1,43,45,47,49,-1,51,53,-1,55,57,59,61,63,65,-1,-1,67,-1,-1,-1,-1,-1,-1,-1,-1,-1,-1,-1,-1,-1,-1,-1,-1,-1,-1,-1],"loss_changes":[1.6697339E-4,1.7218698E-4,1.7783887E-4,1.6301544E-4,4.75688E-5,8.032397E-5,1.0678538E-4,4.0062147E-5,1.1754403E-4,0E0,1.6648803E-5,5.4354976E-5,2.9545772E-6,0E0,3.707035E-6,1.4753785E-5,4.18333E-6,2.230762E-5,1.2183184E-4,0E0,0E0,1.3252002E-5,6.6611465E-6,2.7413334E-6,0E0,0E0,0E0,0E0,8.147363E-6,0E0,0E0,0E0,0E0,3.0995325E-5,9.6226795E-5,1.113978E-6,4.5745683E-6,0E0,3.123645E-6,6.1612554E-6,0E0,6.2408E-6,2.0054658E-6,1.5687656E-5,4.85166E-6,9.928015E-6,7.275028E-6,0E0,0E0,3.3487595E-6,0E0,0E0,0E0,0E0,0E0,0E0,0E0,0E0,0E0,0E0,0E0,0E0,0E0,0E0,0E0,0E0,0E0,0E0,0E0],"parents":[2147483647,0,0,1,1,2,2,3,3,4,4,5,5,6,6,7,7,8,8,10,10,11,11,12,12,14,14,15,15,16,16,17,17,18,18,21,21,22,22,23,23,28,28,33,33,34,34,35,35,36,36,38,38,39,39,41,41,42,42,43,43,44,44,45,45,46,46,49,49],"right_children":[2,4,6,8,10,12,14,16,18,-1,20,22,24,-1,26,28,30,32,34,-1,-1,36,38,40,-1,-1,-1,-1,42,-1,-1,-1,-1,44,46,48,50,-1,52,54,-1,56,58,60,62,64,66,-1,-1,68,-1,-1,-1,-1,-1,-1,-1,-1,-1,-1,-1,-1,-1,-1,-1,-1,-1,-1,-1],"split_conditions":[1.17798555E5,8.512043E1,1.1945847E5,6.276133E1,1.0642453E5,3.7364944E1,1.2109367E5,6.86897E-1,2.4823312E-4,2.273985E-6,1.0880262E5,1.1775145E5,1.1186126E0,4.8876784E-5,1.2120695E5,-3.267704E0,6.5071345E-4,1.0888441E5,3.1416647E1,-4.487541E-5,-6.225411E-7,1.1797221E5,1.1803507E5,5.9886295E1,-8.142468E-6,-5.165565E-6,-2.8014774E-5,-2.7608801E-5,3.1959856E-4,3.0519088E-5,3.1704742E-6,3.869892E-5,8.974676E-5,7.094288E1,1.1143915E5,1.17841E5,1.1803973E5,-2.649918E-5,1.1833012E5,1.182076E5,-4.302556E-5,5.7795155E1,1.0760518E5,1.11150195E5,3.80195E-4,4.0418007E1,1.0956023E0,-1.1451249E-5,-1.9758584E-6,5.8825687E1,1.1833312E-6,-4.3582254E-6,-1.6293865E-5,-3.278791E-7,-2.7471124E-5,-4.9727316E-7,