{"learner":{"attributes":{"scikit_learn":"{\"_estimator_type\": \"regressor\"}"},"feature_names":["sma_10","vwap","low","MACDh_12_26_9","BBL_20_2.0","MACD_12_26_9","MACDs_12_26_9","ema_10","high","BBU_20_2.0"],"feature_types":["float","float","float","float","float","float","float","float","float","float"],"gradient_booster":{"model":{"gbtree_model_param":{"num_parallel_tree":"1","num_trees":"100"},"iteration_indptr":[0,1,2,3,4,5,6,7,8,9,10,11,12,13,14,15,16,17,18,19,20,21,22,23,24,25,26,27,28,29,30,31,32,33,34,35,36,37,38,39,40,41,42,43,44,45,46,47,48,49,50,51,52,53,54,55,56,57,58,59,60,61,62,63,64,65,66,67,68,69,70,71,72,73,74,75,76,77,78,79,80,81,82,83,84,85,86,87,88,89,90,91,92,93,94,95,96,97,98,99,100],"tree_info":[0,0,0,0,0,0,0,0,0,0,0,0,0,0,0,0,0,0,0,0,0,0,0,0,0,0,0,0,0,0,0,0,0,0,0,0,0,0,0,0,0,0,0,0,0,0,0,0,0,0,0,0,0,0,0,0,0,0,0,0,0,0,0,0,0,0,0,0,0,0,0,0,0,0,0,0,0,0,0,0,0,0,0,0,0,0,0,0,0,0,0,0,0,0,0,0,0,0,0,0],"trees":[{"base_weights":[2.9223432E-7,3.478289E1,-8.3638066E-1,9.426817E1,2.1264599E1,7.115311E-1,-1.7655943E1,3.3344355E-1,1.4546303E0,2.6667142E-1,-2.0700145E-1,-3.5505906E-1,1.3575117E-2,-1.9314173E-1,5.8550334E-1],"categories":[],"categories_nodes":[],"categories_segments":[],"categories_sizes":[],"default_left":[0,0,0,0,0,0,0,0,0,0,0,0,0,0,0],"id":0,"left_children":[1,3,5,7,9,11,13,-1,-1,-1,-1,-1,-1,-1,-1],"loss_changes":[5.1044375E5,3.293009E5,4.4609966E5,2.3219256E5,7.695542E4,3.6715106E5,1.8360569E5,0E0,0E0,0E0,0E0,0E0,0E0,0E0,0E0],"parents":[2147483647,0,0,1,1,2,2,3,3,4,4,5,5,6,6],"right_children":[2,4,6,8,10,12,14,-1,-1,-1,-1,-1,-1,-1,-1],"split_conditions":[1.0254195E5,-1.447871E2,1.1884E5,-3.219194E2,1.01859555E5,1.027754E5,3.8343127E2,3.3344355E-1,1.4546303E0,2.6667142E-1,-2.0700145E-1,-3.5505906E-1,1.3575117E-2,-1.9314173E-1,5.8550334E-1],"split_indices":[9,5,8,6,7,7,5,0,0,0,0,0,0,0,0],"split_type":[0,0,0,0,0,0,0,0,0,0,0,0,0,0,0],"sum_hessian":[1.7544E4,4.11E2,1.7133E4,7.5E1,3.36E2,1.569E4,1.443E3,3.5E1,4E1,2.98E2,3.8E1,2.74E2,1.5416E4,1.413E3,3E1],"tree_param":{"num_deleted":"0","num_feature":"10","num_nodes":"15","size_leaf_vector":"1"}},{"base_weights":[1.08137916E-4,3.4439545E1,-8.280142E-1,9.3349014E1,2.105213E1,7.043937E-1,-1.7479113E1,3.3020175E-1,1.4404386E0,2.6401362E-1,-2.049845E-1,-3.5152137E-1,1.3439371E-2,-1.9121167E-1,5.798372E-1],"categories":[],"categories_nodes":[],"categories_segments":[],"categories_sizes":[],"default_left":[0,0,0,0,0,0,0,0,0,0,0,0,0,0,0],"id":1,"left_children":[1,3,5,7,9,11,13,-1,-1,-1,-1,-1,-1,-1,-1],"loss_changes":[5.004131E5,3.2295678E5,4.3720816E5,2.2767912E5,7.544408E4,3.5987028E5,1.8004094E5,0E0,0E0,0E0,0E0,0E0,0E0,0E0,0E0],"parents":[2147483647,0,0,1,1,2,2,3,3,4,4,5,5,6,6],"right_children":[2,4,6,8,10,12,14,-1,-1,-1,-1,-1,-1,-1,-1],"split_conditions":[1.0254195E5,-1.447871E2,1.1884E5,-3.219194E2,1.01859555E5,1.027754E5,3.8343127E2,3.3020175E-1,1.4404386E0,2.6401362E-1,-2.049845E-1,-3.5152137E-1,1.3439371E-2,-1.9121167E-1,5.798372E-1],"split_indices":[9,5,8,6,7,7,5,0,0,0,0,0,0,0,0],"split_type":[0,0,0,0,0,0,0,0,0,0,0,0,0,0,0],"sum_hessian":[1.7544E4,4.11E2,1.7133E4,7.5E1,3.36E2,1.569E4,1.443E3,3.5E1,4E1,2.98E2,3.8E1,2.74E2,1.5416E4,1.413E3,3E1],"tree_param":{"num_deleted":"0","num_feature":"10","num_nodes":"15","size_leaf_vector":"1"}},{"base_weights":[2.1457029E-4,3.4099594E1,-8.197308E-1,9.243882E1,2.0841785E1,6.9732857E-1,-1.730405E1,3.2699147E-1,1.4263856E0,2.613823E-1,-2.0298722E-1,-3.4801894E-1,1.330499E-2,-1.8930091E-1,5.7422584E-1],"categories":[],"categories_nodes":[],"categories_segments":[],"categories_sizes":[],"default_left":[0,0,0,0,0,0,0,0,0,0,0,0,0,0,0],"id":2,"left_children":[1,3,5,7,9,11,13,-1,-1,-1,-1,-1,-1,-1,-1],"loss_changes":[4.905796E5,3.16735E5,4.2849388E5,2.2325344E5,7.396239E4,3.527338E5,1.7654538E5,0E0,0E0,0E0,0E0,0E0,0E0,0E0,0E0],"parents":[2147483647,0,0,1,1,2,2,3,3,4,4,5,5,6,6],"right_children":[2,4,6,8,10,12,14,-1,-1,-1,-1,-1,-1,-1,-1],"split_conditions":[1.0254195E5,-1.447871E2,1.1884E5,-3.219194E2,1.01859555E5,1.027754E5,3.8343127E2,3.2699147E-1,1.4263856E0,2.613823E-1,-2.0298722E-1,-3.4801894E-1,1.330499E-2,-1.8930091E-1,5.7422584E-1],"split_indices":[9,5,8,6,7,7,5,0,0,0,0,0,0,0,0],"split_type":[0,0,0,0,0,0,0,0,0,0,0,0,0,0,0],"sum_hessian":[1.7544E4,4.11E2,1.7133E4,7.5E1,3.36E2,1.569E4,1.443E3,3.5E1,4E1,2.98E2,3.8E1,2.74E2,1.5416E4,1.413E3,3E1],"tree_param":{"num_deleted":"0","num_feature":"10","num_nodes":"15","size_leaf_vector":"1"}},{"base_weights":[3.18416E-4,3.3762993E1,-8.115307E-1,9.1537506E1,2.063354E1,6.903337E-1,-1.7130743E1,3.2381237E-1,1.4124696E0,2.5877726E-1,-2.0100941E-1,-3.445514E-1,1.3171947E-2,-1.8740924E-1,5.686688E-1],"categories":[],"categories_nodes":[],"categories_segments":[],"categories_sizes":[],"default_left":[0,0,0,0,0,0,0,0,0,0,0,0,0,0,0],"id":3,"left_children":[1,3,5,7,9,11,13,-1,-1,-1,-1,-1,-1,-1,-1],"loss_changes":[4.8093934E5,3.1063294E5,4.1995322E5,2.1891388E5,7.250981E4,3.4573894E5,1.7311766E5,0E0,0E0,0E0,0E0,0E0,0E0,0E0,0E0],"parents":[2147483647,0,0,1,1,2,2,3,3,4,4,5,5,6,6],"right_children":[2,4,6,8,10,12,14,-1,-1,-1,-1,-1,-1,-1,-1],"split_conditions":[1.0254195E5,-1.447871E2,1.1884E5,-3.219194E2,1.01859555E5,1.027754E5,3.8343127E2,3.2381237E-1,1.4124696E0,2.5877726E-1,-2.0100941E-1,-3.445514E-1,1.3171947E-2,-1.8740924E-1,5.686688E-1],"split_indices":[9,5,8,6,7,7,5,0,0,0,0,0,0,0,0],"split_type":[0,0,0,0,0,0,0,0,0,0,0,0,0,0,0],"sum_hessian":[1.7544E4,4.11E2,1.7133E4,7.5E1,3.36E2,1.569E4,1.443E3,3.5E1,4E1,2.98E2,3.8E1,2.74E2,1.5416E4,1.413E3,3E1],"tree_param":{"num_deleted":"0","num_feature":"10","num_nodes":"15","size_leaf_vector":"1"}},{"base_weights":[4.2039456E-4,3.3429718E1,-8.034124E-1,9.064497E1,2.0427376E1,6.834094E-1,-1.6959173E1,3.2066417E-1,1.3986895E0,2.561981E-1,-1.9905087E-1,-3.4111843E-1,1.3040237E-2,-1.8553647E-1,5.631656E-1],"categories":[],"categories_nodes":[],"categories_segments":[],"categories_sizes":[],"default_left":[0,0,0,0,0,0,0,0,0,0,0,0,0,0,0],"id":4,"left_children":[1,3,5,7,9,11,13,-1,-1,-1,-1,-1,-1,-1,-1],"loss_changes":[4.7148844E5,3.046485E5,4.115829E5,2.1465856E5,7.108575E4,3.3888272E5,1.6975656E5,0E0,0E0,0E0,0E0,0E0,0E0,0E0,0E0],"parents":[2147483647,0,0,1,1,2,2,3,3,4,4,5,5,6,6],"right_children":[2,4,6,8,10,12,14,-1,-1,-1,-1,-1,-1,-1,-1],"split_conditions":[1.0254195E5,-1.447871E2,1.1884E5,-3.219194E2,1.01859555E5,1.027754E5,3.8343127E2,3.2066417E-1,1.3986895E0,2.561981E-1,-1.9905087E-1,-3.4111843E-1,1.3040237E-2,-1.8553647E-1,5.631656E-1],"split_indices":[9,5,8,6,7,7,5,0,0,0,0,0,0,0,0],"split_type":[0,0,0,0,0,0,0,0,0,0,0,0,0,0,0],"sum_hessian":[1.7544E4,4.11E2,1.7133E4,7.5E1,3.36E2,1.569E4,1.443E3,3.5E1,4E1,2.98E2,3.8E1,2.74E2,1.5416E4,1.413E3,3E1],"tree_param":{"num_deleted":"0","num_feature":"10","num_nodes":"15","size_leaf_vector":"1"}},{"base_weights":[5.2025163E-4,3.309973E1,-7.953754E-1,8.976115E1,2.022327E1,6.7655444E-1,-1.678932E1,3.1754664E-1,1.3850437E0,2.3880067E-1,-3.5939965E-1,-3.3771965E-1,1.2909844E-2,-1.8368241E-1,5.577156E-1],"categories":[],"categories_nodes":[],"categories_segments":[],"categories_sizes":[],"default_left":[0,0,0,0,0,0,0,0,0,0,0,0,0,0,0],"id":5,"left_children":[1,3,5,7,9,11,13,-1,-1,-1,-1,-1,-1,-1,-1],"loss_changes":[4.6222338E5,2.9877928E5,4.0337938E5,2.1048606E5,7.0070484E4,3.3216244E5,1.6646072E5,0E0,0E0,0E0,0E0,0E0,0E0,0E0,0E0],"parents":[2147483647,0,0,1,1,2,2,3,3,4,4,5,5,6,6],"right_children":[2,4,6,8,10,12,14,-1,-1,-1,-1,-1,-1,-1,-1],"split_conditions":[1.0254195E5,-1.447871E2,1.1884E5,-3.219194E2,1.0170886E5,1.027754E5,3.8343127E2,3.1754664E-1,1.3850437E0,2.3880067E-1,-3.5939965E-1,-3.3771965E-1,1.2909844E-2,-1.8368241E-1,5.577156E-1],"split_indices":[9,5,8,6,4,7,5,0,0,0,0,0,0,0,0],"split_type":[0,0,0,0,0,0,0,0,0,0,0,0,0,0,0],"sum_hessian":[1.7544E4,4.11E2,1.7133E4,7.5E1,3.36E2,1.569E4,1.443E3,3.5E1,4E1,3.16E2,2E1,2.74E2,1.5416E4,1.413E3,3E1],"tree_param":{"num_deleted":"0","num_feature":"10","num_nodes":"15","size_leaf_vector":"1"}},{"base_weights":[6.0765725E-4,3.2772575E1,-7.8741914E-1,8.888594E1,2.0020681E1,6.697678E-1,-1.6621168E1,3.1445938E-1,1.3715312E0,2.513047E-1,-1.9667724E-1,-3.3435473E-1,1.2780749E-2,-1.818469E-1,5.523184E-1],"categories":[],"categories_nodes":[],"categories_segments":[],"categories_sizes":[],"default_left":[0,0,0,0,0,0,0,0,0,0,0,0,0,0,0],"id":6,"left_children":[1,3,5,7,9,11,13,-1,-1,-1,-1,-1,-1,-1,-1],"loss_changes":[4.5312872E5,2.9302778E5,3.9533934E5,2.0639456E5,6.883766E4,3.2557544E5,1.632289E5,0E0,0E0,0E0,0E0,0E0,0E0,0E0,0E0],"parents":[2147483647,0,0,1,1,2,2,3,3,4,4,5,5,6,6],"right_children":[2,4,6,8,10,12,14,-1,-1,-1,-1,-1,-1,-1,-1],"split_conditions":[1.0254195E5,-1.447871E2,1.1884E5,-3.219194E2,1.01859555E5,1.027754E5,3.8343127E2,3.1445938E-1,1.3715312E0,2.513047E-1,-1.9667724E-1,-3.3435473E-1,1.2780749E-2,-1.818469E-1,5.523184E-1],"split_indices":[9,5,8,6,7,7,5,0,0,0,0,0,0,0,0],"split_type":[0,0,0,0,0,0,0,0,0,0,0,0,0,0,0],"sum_hessian":[1.7544E4,4.11E2,1.7133E4,7.5E1,3.36E2,1.569E4,1.443E3,3.5E1,4E1,2.98E2,3.8E1,2.74E2,1.5416E4,1.413E3,3E1],"tree_param":{"num_deleted":"0","num_feature":"10","num_nodes":"15","size_leaf_vector":"1"}},{"base_weights":[7.038112E-4,3.2449074E1,-7.7954185E-1,8.8019264E1,1.9820637E1,6.630499E-1,-1.6454699E1,3.114021E-1,1.3581502E0,2.3419772E-1,-3.5453027E-1,-3.3102334E-1,1.2652952E-2,-1.800297E-1,5.4697335E-1],"categories":[],"categories_nodes":[],"categories_segments":[],"categories_sizes":[],"default_left":[0,0,0,0,0,0,0,0,0,0,0,0,0,0,0],"id":7,"left_children":[1,3,5,7,9,11,13,-1,-1,-1,-1,-1,-1,-1,-1],"loss_changes":[4.4422438E5,2.8738247E5,3.874595E5,2.0238262E5,6.787225E4,3.1911912E5,1.6005978E5,0E0,0E0,0E0,0E0,0E0,0E0,0E0,0E0],"parents":[2147483647,0,0,1,1,2,2,3,3,4,4,5,5,6,6],"right_children":[2,4,6,8,10,12,14,-1,-1,-1,-1,-1,-1,-1,-1],"split_conditions":[1.0254195E5,-1.447871E2,1.1884E5,-3.219194E2,1.0170886E5,1.027754E5,3.8343127E2,3.114021E-1,1.3581502E0,2.3419772E-1,-3.5453027E-1,-3.3102334E-1,1.2652952E-2,-1.800297E-1,5.4697335E-1],"split_indices":[9,5,8,6,4,7,5,0,0,0,0,0,0,0,0],"split_type":[0,0,0,0,0,0,0,0,0,0,0,0,0,0,0],"sum_hessian":[1.7544E4,4.11E2,1.7133E4,7.5E1,3.36E2,1.569E4,1.443E3,3.5E1,4E1,3.16E2,2E1,2.74E2,1.5416E4,1.413E3,3E1],"tree_param":{"num_deleted":"0","num_feature":"10","num_nodes":"15","size_leaf_vector":"1"}},{"base_weights":[7.8793603E-4,3.212834E1,-7.717435E-1,8.716104E1,1.9622072E1,6.563992E-1,-1.6289898E1,3.083746E-1,1.3449E0,2.4650529E-1,-1.9432561E-1,-3.2772514E-1,1.2526432E-2,-1.782307E-1,5.4168004E-1],"categories":[],"categories_nodes":[],"categories_segments":[],"categories_sizes":[],"default_left":[0,0,0,0,0,0,0,0,0,0,0,0,0,0,0],"id":8,"left_children":[1,3,5,7,9,11,13,-1,-1,-1,-1,-1,-1,-1,-1],"loss_changes":[4.3548375E5,2.8185025E5,3.7973675E5,1.9844875E5,6.6660625E4,3.127908E5,1.5695225E5,0E0,0E0,0E0,0E0,0E0,0E0,0E0,0E0],"parents":[2147483647,0,0,1,1,2,2,3,3,4,4,5,5,6,6],"right_children":[2,4,6,8,10,12,14,-1,-1,-1,-1,-1,-1,-1,-1],"split_conditions":[1.0254195E5,-1.447871E2,1.1884E5,-3.219194E2,1.01859555E5,1.027754E5,3.8343127E2,3.083746E-1,1.3449E0,2.4650529E-1,-1.9432561E-1,-3.2772514E-1,1.2526432E-2,-1.782307E-1,5.4168004E-1],"split_indices":[9,5,8,6,7,7,5,0,0,0,0,0,0,0,0],"split_type":[0,0,0,0,0,0,0,0,0,0,0,0,0,0,0],"sum_hessian":[1.7544E4,4.11E2,1.7133E4,7.5E1,3.36E2,1.569E4,1.443E3,3.5E1,4E1,2.98E2,3.8E1,2.74E2,1.5416E4,1.413E3,3E1],"tree_param":{"num_deleted":"0","num_feature":"10","num_nodes":"15","size_leaf_vector":"1"}},{"base_weights":[8.799738E-4,3.18112E1,-7.640233E-1,8.631118E1,1.9426006E1,6.49815E-1,-1.6126747E1,3.0537653E-1,1.3317791E0,2.2968398E-1,-3.4972292E-1,-2.1791957E-1,1.5218886E-2,-1.7644966E-1,5.36438E-1],"categories":[],"categories_nodes":[],"categories_segments":[],"categories_sizes":[],"default_left":[0,0,0,0,0,0,0,0,0,0,0,0,0,0,0],"id":9,"left_children":[1,3,5,7,9,11,13,-1,-1,-1,-1,-1,-1,-1,-1],"loss_changes":[4.2692603E5,2.7642044E5,3.7216797E5,1.9459119E5,6.574318E4,3.071198E5,1.53905E5,0E0,0E0,0E0,0E0,0E0,0E0,0E0,0E0],"parents":[2147483647,0,0,1,1,2,2,3,3,4,4,5,5,6,6],"right_children":[2,4,6,8,10,12,14,-1,-1,-1,-1,-1,-1,-1,-1],"split_conditions":[1.0254195E5,-1.447871E2,1.1884E5,-3.219194E2,1.0170886E5,-2.0197543E2,3.8343127E2,3.0537653E-1,1.3317791E0,2.2968398E-1,-3.4972292E-1,-2.1791957E-1,1.5218886E-2,-1.7644966E-1,5.36438E-1],"split_indices":[9,5,8,6,4,5,5,0,0,0,0,0,0,0,0],"split_type":[0,0,0,0,0,0,0,0,0,0,0,0,0,0,0],"sum_hessian":[1.7544E4,4.11E2,1.7133E4,7.5E1,3.36E2,1.569E4,1.443E3,3.5E1,4E1,3.16E2,2E1,5.86E2,1.5104E4,1.413E3,3E1],"tree_param":{"num_deleted":"0","num_feature":"10","num_nodes":"15","size_leaf_vector":"1"}},{"base_weights":[9.6672593E-4,3.1496769E1,-7.5637376E-1,8.546961E1,1.923139E1,6.792763E-1,-1.5600741E1,3.0240756E-1,1.3187861E0,2.4179807E-1,-1.9199593E-1,-2.356765E-1,1.5056487E-2,-1.7028755E-1,5.312466E-1],"categories":[],"categories_nodes":[],"categories_segments":[],"categories_sizes":[],"default_left":[0,0,0,0,0,0,0,0,0,0,0,0,0,0,0],"id":10,"left_children":[1,3,5,7,9,11,13,-1,-1,-1,-1,-1,-1,-1,-1],"loss_changes":[4.185255E5,2.7109928E5,3.651587E5,1.9080869E5,6.4552406E4,3.1309347E5,1.4919531E5,0E0,0E0,0E0,0E0,0E0,0E0,0E0,0E0],"parents":[2147483647,0,0,1,1,2,2,3,3,4,4,5,5,6,6],"right_children":[2,4,6,8,10,12,14,-1,-1,-1,-1,-1,-1,-1,-1],"split_conditions":[1.0254195E5,-1.447871E2,1.1908527E5,-3.219194E2,1.01859555E5,-2.0197543E2,3.8343127E2,3.0240756E-1,1.3187861E0,2.4179807E-1,-1.9199593E-1,-2.356765E-1,1.5056487E-2,-1.7028755E-1,5.312466E-1],"split_indices":[9,5,9,6,7,5,5,0,0,0,0,0,0,0,0],"split_type":[0,0,0,0,0,0,0,0,0,0,0,0,0,0,0],"sum_hessian":[1.7544E4,4.11E2,1.7133E4,7.5E1,3.36E2,1.5623E4,1.51E3,3.5E1,4E1,2.98E2,3.8E1,5.14E2,1.5109E4,1.48E3,3E1],"tree_param":{"num_deleted":"0","num_feature":"10","num_nodes":"15","size_leaf_vector":"1"}},{"base_weights":[1.0601596E-3,3.1185858E1,-7.4880195E-1,8.4636246E1,1.9039225E1,6.3919044E-1,-1.5830686E1,2.994675E-1,1.3059199E0,2.2525771E-1,-3.4497684E-1,-3.2367054E-1,1.2278963E-2,-1.7319968E-1,5.261056E-1],"categories":[],"categories_nodes":[],"categories_segments":[],"categories_sizes":[],"default_left":[0,0,0,0,0,0,0,0,0,0,0,0,0,0,0],"id":11,"left_children":[1,3,5,7,9,11,13,-1,-1,-1,-1,-1,-1,-1,-1],"loss_changes":[4.1030084E5,2.658764E5,3.5868538E5,1.8709969E5,6.368118E4,3.049311E5,1.4809594E5,0E0,0E0,0E0,0E0,0E0,0E0,0E0,0E0],"parents":[2147483647,0,0,1,1,2,2,3,3,4,4,5,5,6,6],"right_children":[2,4,6,8,10,12,14,-1,-1,-1,-1,-1,-1,-1,-1],"split_conditions":[1.0254195E5,-1.447871E2,1.1884E5,-3.219194E2,1.0170886E5,1.027754E5,3.8343127E2,2.994675E-1,1.3059199E0,2.2525771E-1,-3.4497684E-1,-3.2367054E-1,1.2278963E-2,-1.7319968E-1,5.261056E-1],"split_indices":[9,5,8,6,4,7,5,0,0,0,0,0,0,0,0],"split_type":[0,0,0,0,0,0,0,0,0,0,0,0,0,0,0],"sum_hessian":[1.7544E4,4.11E2,1.7133E4,7.5E1,3.36E2,1.569E4,1.443E3,3.5E1,4E1,3.16E2,2E1,2.74E2,1.5416E4,1.413E3,3E1],"tree_param":{"num_deleted":"0","num_feature":"10","num_nodes":"15","size_leaf_vector":"1"}},{"base_weights":[1.1365255E-3,3.0877605E1,-7.413116E-1,8.381101E1,1.8848476E1,6.6802955E-1,-1.5313651E1,2.96556E-1,1.2931793E0,2.3718128E-1,-1.8968818E-1,-2.330424E-1,1.4850416E-2,-1.671443E-1,5.210142E-1],"categories":[],"categories_nodes":[],"categories_segments":[],"categories_sizes":[],"default_left":[0,0,0,0,0,0,0,0,0,0,0,0,0,0,0],"id":12,"left_children":[1,3,5,7,9,11,13,-1,-1,-1,-1,-1,-1,-1,-1],"loss_changes":[4.0222756E5,2.6075828E5,3.5189797E5,1.8346288E5,6.251085E4,3.0604056E5,1.4356006E5,0E0,0E0,0E0,0E0,0E0,0E0,0E0,0E0],"parents":[2147483647,0,0,1,1,2,2,3,3,4,4,5,5,6,6],"right_children":[2,4,6,8,10,12,14,-1,-1,-1,-1,-1,-1,-1,-1],"split_conditions":[1.0254195E5,-1.447871E2,1.1908527E5,-3.219194E2,1.01859555E5,-2.0197543E2,3.8343127E2,2.96556E-1,1.2931793E0,2.3718128E-1,-1.8968818E-1,-2.330424E-1,1.4850416E-2,-1.671443E-1,5.210142E-1],"split_indices":[9,5,9,6,7,5,5,0,0,0,0,0,0,0,0],"split_type":[0,0,0,0,0,0,0,0,0,0,0,0,0,0,0],"sum_hessian":[1.7544E4,4.11E2,1.7133E4,7.5E1,3.36E2,1.5623E4,1.51E3,3.5E1,4E1,2.98E2,3.8E1,5.14E2,1.5109E4,1.48E3,3E1],"tree_param":{"num_deleted":"0","num_feature":"10","num_nodes":"15","size_leaf_vector":"1"}},{"base_weights":[1.2264402E-3,3.0572803E1,-7.3389035E-1,1.2129989E2,2.3641401E1,6.287291E-1,-1.5540073E1,1.5618651E0,5.0013906E-1,6.114712E-1,1.6089977E-1,-3.2003468E-1,1.2107636E-2,-1.7000975E-1,5.1597214E-1],"categories":[],"categories_nodes":[],"categories_segments":[],"categories_sizes":[],"default_left":[0,0,0,0,0,0,0,0,0,0,0,0,0,0,0],"id":13,"left_children":[1,3,5,7,9,11,13,-1,-1,-1,-1,-1,-1,-1,-1],"loss_changes":[3.9432312E5,2.56225E5,3.4569153E5,6.4309406E4,1.0777325E5,2.9805894E5,1.4250622E5,0E0,0E0,0E0,0E0,0E0,0E0,0E0,0E0],"parents":[2147483647,0,0,1,1,2,2,3,3,4,4,5,5,6,6],"right_children":[2,4,6,8,10,12,14,-1,-1,-1,-1,-1,-1,-1,-1],"split_conditions":[1.0254195E5,-6.142927E1,1.1884E5,-8.579128E1,-1.3923625E2,1.027754E5,3.8343127E2,1.5618651E0,5.0013906E-1,6.114712E-1,1.6089977E-1,-3.2003468E-1,1.2107636E-2,-1.7000975E-1,5.1597214E-1],"split_indices":[9,3,8,5,5,7,5,0,0,0,0,0,0,0,0],"split_type":[0,0,0,0,0,0,0,0,0,0,0,0,0,0,0],"sum_hessian":[1.7544E4,4.11E2,1.7133E4,2.8E1,3.83E2,1.569E4,1.443E3,1.8E1,1E1,6.3E1,3.2E2,2.74E2,1.5416E4,1.413E3,3E1],"tree_param":{"num_deleted":"0","num_feature":"10","num_nodes":"15","size_leaf_vector":"1"}},{"base_weights":[1.3778122E-3,3.0273954E1,-7.265493E-1,1.2015799E2,2.3407E1,6.5696496E-1,-1.5031844E1,1.5470685E0,4.955923E-1,6.05452E-1,1.5929578E-1,-2.304375E-1,1.4647221E-2,-1.6405909E-1,5.109788E-1],"categories":[],"categories_nodes":[],"categories_segments":[],"categories_sizes":[],"default_left":[0,0,0,0,0,0,0,0,0,0,0,0,0,0,0],"id":14,"left_children":[1,3,5,7,9,11,13,-1,-1,-1,-1,-1,-1,-1,-1],"loss_changes":[3.8664762E5,2.5148612E5,3.3911878E5,6.3066938E4,1.0567158E5,2.9914622E5,1.3813766E5,0E0,0E0,0E0,0E0,0E0,0E0,0E0,0E0],"parents":[2147483647,0,0,1,1,2,2,3,3,4,4,5,5,6,6],"right_children":[2,4,6,8,10,12,14,-1,-1,-1,-1,-1,-1,-1,-1],"split_conditions":[1.0254195E5,-6.142927E1,1.1908527E5,-8.579128E1,-1.3923625E2,-2.0197543E2,3.8343127E2,1.5470685E0,4.955923E-1,6.05452E-1,1.5929578E-1,-2.304375E-1,1.4647221E-2,-1.6405909E-1,5.109788E-1],"split_indices":[9,3,9,5,5,5,5,0,0,0,0,0,0,0,0],"split_type":[0,0,0,0,0,0,0,0,0,0,0,0,0,0,0],"sum_hessian":[1.7544E4,4.11E2,1.7133E4,2.8E1,3.83E2,1.5623E4,1.51E3,1.8E1,1E1,6.3E1,3.2E2,5.14E2,1.5109E4,1.48E3,3E1],"tree_param":{"num_deleted":"0","num_feature":"10","num_nodes":"15","size_leaf_vector":"1"}},{"base_weights":[1.5312675E-3,2.997803E1,-7.192764E-1,1.1902685E2,2.3174921E1,6.184348E-1,-1.5254808E1,1.532412E0,4.9108696E-1,5.994921E-1,1.577078E-1,-3.1643936E-1,1.1938731E-2,-1.668787E-1,5.060339E-1],"categories":[],"categories_nodes":[],"categories_segments":[],"categories_sizes":[],"default_left":[0,0,0,0,0,0,0,0,0,0,0,0,0,0,0],"id":15,"left_children":[1,3,5,7,9,11,13,-1,-1,-1,-1,-1,-1,-1,-1],"loss_changes":[3.7912147E5,2.4683478E5,3.331688E5,6.18485E4,1.0361084E5,2.913413E5,1.3712753E5,0E0,0E0,0E0,0E0,0E0,0E0,0E0,0E0],"parents":[2147483647,0,0,1,1,2,2,3,3,4,4,5,5,6,6],"right_children":[2,4,6,8,10,12,14,-1,-1,-1,-1,-1,-1,-1,-1],"split_conditions":[1.0254195E5,-6.142927E1,1.1884E5,-8.579128E1,-1.3923625E2,1.027754E5,3.8343127E2,1.532412E0,4.9108696E-1,5.994921E-1,1.577078E-1,-3.1643936E-1,1.1938731E-2,-1.668787E-1,5.060339E-1],"split_indices":[9,3,8,5,5,7,5,0,0,0,0,0,0,0,0],"split_type":[0,0,0,0,0,0,0,0,0,0,0,0,0,0,0],"sum_hessian":[1.7544E4,4.11E2,1.7133E4,2.8E1,3.83E2,1.569E4,1.443E3,1.8E1,1E1,6.3E1,3.2E2,2.74E2,1.5416E4,1.413E3,3E1],"tree_param":{"num_deleted":"0","num_feature":"10","num_nodes":"15","size_leaf_vector":"1"}},{"base_weights":[1.6769844E-3,2.9685E1,-7.120811E-1,1.1790636E2,2.2945143E1,6.460797E-1,-1.4755226E1,1.4912883E0,4.3670794E-1,5.9359086E-1,1.5613562E-1,-2.2786142E-1,1.4446865E-2,-1.6103086E-1,5.011368E-1],"categories":[],"categories_nodes":[],"categories_segments":[],"categories_sizes":[],"default_left":[0,0,0,0,0,0,0,0,0,0,0,0,0,0,0],"id":16,"left_children":[1,3,5,7,9,11,13,-1,-1,-1,-1,-1,-1,-1,-1],"loss_changes":[3.7174197E5,2.422695E5,3.2680372E5,6.0704094E4,1.0159033E5,2.924069E5,1.329201E5,0E0,0E0,0E0,0E0,0E0,0E0,0E0,0E0],"parents":[2147483647,0,0,1,1,2,2,3,3,4,4,5,5,6,6],"right_children":[2,4,6,8,10,12,14,-1,-1,-1,-1,-1,-1,-1,-1],"split_conditions":[1.0254195E5,-6.142927E1,1.1908527E5,-7.284142E1,-1.3923625E2,-2.0197543E2,3.8343127E2,1.4912883E0,4.3670794E-1,5.9359086E-1,1.5613562E-1,-2.2786142E-1,1.4446865E-2,-1.6103086E-1,5.011368E-1],"split_indices":[9,3,9,5,5,5,5,0,0,0,0,0,0,0,0],"split_type":[0,0,0,0,0,0,0,0,0,0,0,0,0,0,0],"sum_hessian":[1.7544E4,4.11E2,1.7133E4,2.8E1,3.83E2,1.5623E4,1.51E3,1.9E1,9E0,6.3E1,3.2E2,5.14E2,1.5109E4,1.48E3,3E1],"tree_param":{"num_deleted":"0","num_feature":"10","num_nodes":"15","size_leaf_vector":"1"}},{"base_weights":[1.8197866E-3,2.9394648E1,-7.0495313E-1,1.1679378E2,2.2717646E1,6.411239E-1,-1.4633264E1,1.5037664E0,4.8169374E-1,5.877477E-1,1.5457913E-1,-3.1288412E-1,1.2130724E-2,-1.5969405E-1,4.9628708E-1],"categories":[],"categories_nodes":[],"categories_segments":[],"categories_sizes":[],"default_left":[0,0,0,0,0,0,0,0,0,0,0,0,0,0,0],"id":17,"left_children":[1,3,5,7,9,11,13,-1,-1,-1,-1,-1,-1,-1,-1],"loss_changes":[3.6450153E5,2.3777519E5,3.212475E5,5.959003E4,9.9609234E4,2.8538253E5,1.3044572E5,0E0,0E0,0E0,0E0,0E0,0E0,0E0,0E0],"parents":[2147483647,0,0,1,1,2,2,3,3,4,4,5,5,6,6],"right_children":[2,4,6,8,10,12,14,-1,-1,-1,-1,-1,-1,-1,-1],"split_conditions":[1.0254195E5,-6.142927E1,1.1879999E5,-8.579128E1,-1.3923625E2,1.027754E5,3.8343127E2,1.5037664E0,4.8169374E-1,5.877477E-1,1.5457913E-1,-3.1288412E-1,1.2130724E-2,-1.5969405E-1,4.9628708E-1],"split_indices":[9,3,8,5,5,7,5,0,0,0,0,0,0,0,0],"split_type":[0,0,0,0,0,0,0,0,0,0,0,0,0,0,0],"sum_hessian":[1.7544E4,4.11E2,1.7133E4,2.8E1,3.83E2,1.5624E4,1.509E3,1.8E1,1E1,6.3E1,3.2E2,2.74E2,1.535E4,1.479E3,3E1],"tree_param":{"num_deleted":"0","num_feature":"10","num_nodes":"15","size_leaf_vector":"1"}},{"base_weights":[1.9590498E-3,2.9107323E1,-6.9790155E-1,1.15694305E2,2.2492401E1,6.353853E-1,-1.4483855E1,1.4633462E0,4.2844233E-1,5.8196205E-1,1.5303816E-1,-2.2531702E-1,1.424956E-2,-1.5806013E-1,4.914843E-1],"categories":[],"categories_nodes":[],"categories_segments":[],"categories_sizes":[],"default_left":[0,0,0,0,0,0,0,0,0,0,0,0,0,0,0],"id":18,"left_children":[1,3,5,7,9,11,13,-1,-1,-1,-1,-1,-1,-1,-1],"loss_changes":[3.5740666E5,2.3337738E5,3.1494288E5,5.846272E4,9.7666766E4,2.8582722E5,1.2790028E5,0E0,0E0,0E0,0E0,0E0,0E0,0E0,0E0],"parents":[2147483647,0,0,1,1,2,2,3,3,4,4,5,5,6,6],"right_children":[2,4,6,8,10,12,14,-1,-1,-1,-1,-1,-1,-1,-1],"split_conditions":[1.0254195E5,-6.142927E1,1.1908527E5,-7.284142E1,-1.3923625E2,-2.0197543E2,3.8343127E2,1.4633462E0,4.2844233E-1,5.8196205E-1,1.5303816E-1,-2.2531702E-1,1.424956E-2,-1.5806013E-1,4.914843E-1],"split_indices":[9,3,9,5,5,5,5,0,0,0,0,0,0,0,0],"split_type":[0,0,0,0,0,0,0,0,0,0,0,0,0,0,0],"sum_hessian":[1.7544E4,4.11E2,1.7133E4,2.8E1,3.83E2,1.5623E4,1.51E3,1.9E1,9E0,6.3E1,3.2E2,5.14E2,1.5109E4,1.48E3,3E1],"tree_param":{"num_deleted":"0","num_feature":"10","num_nodes":"15","size_leaf_vector":"1"}},{"base_weights":[2.0960344E-3,2.8822624E1,-6.909155E-1,1.1460259E2,2.2269392E1,5.9870994E-1,-1.470395E1,1.475657E0,4.7247893E-1,5.762333E-1,1.5151255E-1,-3.0936852E-1,1.1611853E-2,-1.6082999E-1,4.86728E-1],"categories":[],"categories_nodes":[],"categories_segments":[],"categories_sizes":[],"default_left":[0,0,0,0,0,0,0,0,0,0,0,0,0,0,0],"id":19,"left_children":[1,3,5,7,9,11,13,-1,-1,-1,-1,-1,-1,-1,-1],"loss_changes":[3.504455E5,2.2904797E5,3.0964703E5,5.7414188E4,9.576216E4,2.783625E5,1.26987875E5,0E0,0E0,0E0,0E0,0E0,0E0,0E0,0E0],"parents":[2147483647,0,0,1,1,2,2,3,3,4,4,5,5,6,6],"right_children":[2,4,6,8,10,12,14,-1,-1,-1,-1,-1,-1,-1,-1],"split_conditions":[1.0254195E5,-6.142927E1,1.1884E5,-8.579128E1,-1.3923625E2,1.027754E5,3.8343127E2,1.475657E0,4.7247893E-1,5.762333E-1,1.5151255E-1,-3.0936852E-1,1.1611853E-2,-1.6082999E-1,4.86728E-1],"split_indices":[9,3,8,5,5,7,5,0,0,0,0,0,0,0,0],"split_type":[0,0,0,0,0,0,0,0,0,0,0,0,0,0,0],"sum_hessian":[1.7544E4,4.11E2,1.7133E4,2.8E1,3.83E2,1.569E4,1.443E3,1.8E1,1E1,6.3E1,3.2E2,2.74E2,1.5416E4,1.413E3,3E1],"tree_param":{"num_deleted":"0","num_feature":"10","num_nodes":"15","size_leaf_vector":"1"}},{"base_weights":[2.22934E-3,2.8540894E1,-6.8400455E-1,1.1352374E2,2.2048592E1,6.245707E-1,-1.4224273E1,1.4616771E0,4.681837E-1,5.7056105E-1,1.5000214E-1,-3.0628607E-1,1.1844039E-2,-1.5522234E-1,4.8201773E-1],"categories":[],"categories_nodes":[],"categories_segments":[],"categories_sizes":[],"default_left":[0,0,0,0,0,0,0,0,0,0,0,0,0,0,0],"id":20,"left_children":[1,3,5,7,9,11,13,-1,-1,-1,-1,-1,-1,-1,-1],"loss_changes":[3.4362428E5,2.2481147E5,3.0359697E5,5.630497E4,9.38947E4,2.734202E5,1.2309841E5,0E0,0E0,0E0,0E0,0E0,0E0,0E0,0E0],"parents":[2147483647,0,0,1,1,2,2,3,3,4,4,5,5,6,6],"right_children":[2,4,6,8,10,12,14,-1,-1,-1,-1,-1,-1,-1,-1],"split_conditions":[1.0254195E5,-6.142927E1,1.1879999E5,-8.579128E1,-1.3923625E2,1.027754E5,3.8343127E2,1.4616771E0,4.681837E-1,5.7056105E-1,1.5000214E-1,-3.0628607E-1,1.1844039E-2,-1.5522234E-1,4.8201773E-1],"split_indices":[9,3,8,5,5,7,5,0,0,0,0,0,0,0,0],"split_type":[0,0,0,0,0,0,0,0,0,0,0,0,0,0,0],"sum_hessian":[1.7544E4,4.11E2,1.7133E4,2.8E1,3.83E2,1.5624E4,1.509E3,1.8E1,1E1,6.3E1,3.2E2,2.74E2,1.535E4,1.479E3,3E1],"tree_param":{"num_deleted":"0","num_feature":"10","num_nodes":"15","size_leaf_vector":"1"}},{"base_weights":[2.359745E-3,2.8261919E1,-6.771629E-1,1.12455055E2,2.1829983E1,6.2073076E-1,-1.40971575E1,-1.2330036E-1,1.2732756E0,5.649446E-1,1.485068E-1,-2.2253291E-1,1.4003138E-2,-1.5485075E-1,4.3199024E-1],"categories":[],"categories_nodes":[],"categories_segments":[],"categories_sizes":[],"default_left":[0,0,0,0,0,0,0,0,0,0,0,0,0,0,0],"id":21,"left_children":[1,3,5,7,9,11,13,-1,-1,-1,-1,-1,-1,-1,-1],"loss_changes":[3.369359E5,2.2065328E5,2.9844406E5,5.5390125E4,9.2063625E4,2.786415E5,1.2082719E5,0E0,0E0,0E0,0E0,0E0,0E0,0E0,0E0],"parents":[2147483647,0,0,1,1,2,2,3,3,4,4,5,5,6,6],"right_children":[2,4,6,8,10,12,14,-1,-1,-1,-1,-1,-1,-1,-1],"split_conditions":[1.0254195E5,-6.142927E1,1.1908527E5,-4.5672028E2,-1.3923625E2,-2.0197543E2,3.162349E2,-1.2330036E-1,1.2732756E0,5.649446E-1,1.485068E-1,-2.2253291E-1,1.4003138E-2,-1.5485075E-1,4.3199024E-1],"split_indices":[9,3,9,5,5,5,6,0,0,0,0,0,0,0,0],"split_type":[0,0,0,0,0,0,0,0,0,0,0,0,0,0,0],"sum_hessian":[1.7544E4,4.11E2,1.7133E4,2.8E1,3.83E2,1.5623E4,1.51E3,3E0,2.5E1,6.3E1,3.2E2,5.14E2,1.5109E4,1.475E3,3.5E1],"tree_param":{"num_deleted":"0","num_feature":"10","num_nodes":"15","size_leaf_vector":"1"}},{"base_weights":[2.4468503E-3,2.7983822E1,-6.703866E-1,7.624444E1,1.7017084E1,5.833511E-1,-1.4293467E1,2.3670954E-1,1.2054689E0,2.0432815E-1,-3.535454E-1,-3.0284062E-1,1.1339092E-2,-1.5634918E-1,4.735511E-1],"categories":[],"categories_nodes":[],"categories_segments":[],"categories_sizes":[],"default_left":[0,0,0,0,0,0,0,0,0,0,0,0,0,0,0],"id":22,"left_children":[1,3,5,7,9,11,13,-1,-1,-1,-1,-1,-1,-1,-1],"loss_changes":[3.303351E5,2.1675828E5,2.926531E5,1.7416075E5,6.100746E4,2.66692E5,1.20157125E5,0E0,0E0,0E0,0E0,0E0,0E0,0E0,0E0],"parents":[2147483647,0,0,1,1,2,2,3,3,4,4,5,5,6,6],"right_children":[2,4,6,8,10,12,14,-1,-1,-1,-1,-1,-1,-1,-1],"split_conditions":[1.0254195E5,-1.447871E2,1.1884E5,-3.219194E2,1.0170886E5,1.027754E5,3.8343127E2,2.3670954E-1,1.2054689E0,2.0432815E-1,-3.535454E-1,-3.0284062E-1,1.1339092E-2,-1.5634918E-1,4.735511E-1],"split_indices":[9,5,8,6,4,7,5,0,0,0,0,0,0,0,0],"split_type":[0,0,0,0,0,0,0,0,0,0,0,0,0,0,0],"sum_hessian":[1.7544E4,4.11E2,1.7133E4,7.5E1,3.36E2,1.569E4,1.443E3,3.5E1,4E1,3.16E2,2E1,2.74E2,1.5416E4,1.413E3,3E1],"tree_param":{"num_deleted":"0","num_feature":"10","num_nodes":"15","size_leaf_vector":"1"}},{"base_weights":[2.4972935E-3,2.770712E1,-6.636815E-1,1.10755264E2,2.1363104E1,6.104421E-1,-1.3837899E1,1.4045402E0,4.0282196E-1,5.5283016E-1,1.4533703E-1,-2.2004683E-1,1.3812019E-2,-1.0969619E-1,-4.1848212E-1],"categories":[],"categories_nodes":[],"categories_segments":[],"categories_sizes":[],"default_left":[0,0,0,0,0,0,0,0,0,0,0,0,0,0,0],"id":23,"left_children":[1,3,5,7,9,11,13,-1,-1,-1,-1,-1,-1,-1,-1],"loss_changes":[3.23833E5,2.1469981E5,2.8761262E5,5.5038156E4,8.815116E4,2.7236966E5,1.20936875E5,0E0,0E0,0E0,0E0,0E0,0E0,0E0,0E0],"parents":[2147483647,0,0,1,1,2,2,3,3,4,4,5,5,6,6],"right_children":[2,4,6,8,10,12,14,-1,-1,-1,-1,-1,-1,-1,-1],"split_conditions":[1.0254195E5,-6.142927E1,1.1908527E5,-7.284142E1,-1.3923625E2,-2.0197543E2,1.20078375E5,1.4045402E0,4.0282196E-1,5.5283016E-1,1.4533703E-1,-2.2004683E-1,1.3812019E-2,-1.0969619E-1,-4.1848212E-1],"split_indices":[9,3,9,5,5,5,4,0,0,0,0,0,0,0,0],"split_type":[0,0,0,0,0,0,0,0,0,0,0,0,0,0,0],"sum_hessian":[1.7544E4,4.11E2,1.7133E4,2.8E1,3.83E2,1.5623E4,1.51E3,1.9E1,9E0,6.3E1,3.2E2,5.14E2,1.5109E4,1.371E3,1.39E2],"tree_param":{"num_deleted":"0","num_feature":"10","num_nodes":"15","size_leaf_vector":"1"}},{"base_weights":[2.5729234E-3,2.7436132E1,-6.570879E-1,1.0971003E2,2.115129E1,6.0391736E-1,-1.3705134E1,-1.3468498E-1,1.2444096E0,5.473882E-1,1.4388818E-1,-2.994336E-1,1.1511063E-2,-1.08637296E-1,-4.143272E-1],"categories":[],"categories_nodes":[],"categories_segments":[],"categories_sizes":[],"default_left":[0,0,0,0,0,0,0,0,0,0,0,0,0,0,0],"id":24,"left_children":[1,3,5,7,9,11,13,-1,-1,-1,-1,-1,-1,-1,-1],"loss_changes":[3.1752712E5,2.1071584E5,2.8192525E5,5.42975E4,8.643211E4,2.612084E5,1.1851569E5,0E0,0E0,0E0,0E0,0E0,0E0,0E0,0E0],"parents":[2147483647,0,0,1,1,2,2,3,3,4,4,5,5,6,6],"right_children":[2,4,6,8,10,12,14,-1,-1,-1,-1,-1,-1,-1,-1],"split_conditions":[1.0254195E5,-6.142927E1,1.1879999E5,-4.5672028E2,-1.3923625E2,1.027754E5,1.20078375E5,-1.3468498E-1,1.2444096E0,5.473882E-1,1.4388818E-1,-2.994336E-1,1.1511063E-2,-1.08637296E-1,-4.143272E-1],"split_indices":[9,3,8,5,5,7,4,0,0,0,0,0,0,0,0],"split_type":[0,0,0,0,0,0,0,0,0,0,0,0,0,0,0],"sum_hessian":[1.7544E4,4.11E2,1.7133E4,2.8E1,3.83E2,1.5624E4,1.509E3,3E0,2.5E1,6.3E1,3.2E2,2.74E2,1.535E4,1.37E3,1.39E2],"tree_param":{"num_deleted":"0","num_feature":"10","num_nodes":"15","size_leaf_vector":"1"}},{"base_weights":[2.604E-3,2.7166142E1,-6.50564E-1,1.0865119E2,2.0941578E1,5.99813E-1,-1.35792465E1,1.4067445E0,4.346092E-1,5.419999E-1,1.4245377E-1,-2.1759121E-1,1.3618414E-2,-1.4951149E-1,4.3045965E-1],"categories":[],"categories_nodes":[],"categories_segments":[],"categories_sizes":[],"default_left":[0,0,0,0,0,0,0,0,0,0,0,0,0,0,0],"id":25,"left_children":[1,3,5,7,9,11,13,-1,-1,-1,-1,-1,-1,-1,-1],"loss_changes":[3.1130728E5,2.0669472E5,2.769917E5,5.442672E4,8.474661E4,2.6623362E5,1.1802456E5,0E0,0E0,0E0,0E0,0E0,0E0,0E0,0E0],"parents":[2147483647,0,0,1,1,2,2,3,3,4,4,5,5,6,6],"right_children":[2,4,6,8,10,12,14,-1,-1,-1,-1,-1,-1,-1,-1],"split_conditions":[1.0254195E5,-6.142927E1,1.1908527E5,-8.579128E1,-1.3923625E2,-2.0197543E2,3.162349E2,1.4067445E0,4.346092E-1,5.419999E-1,1.4245377E-1,-2.1759121E-1,1.3618414E-2,-1.4951149E-1,4.3045965E-1],"split_indices":[9,3,9,5,5,5,6,0,0,0,0,0,0,0,0],"split_type":[0,0,0,0,0,0,0,0,0,0,0,0,0,0,0],"sum_hessian":[1.7544E4,4.11E2,1.7133E4,2.8E1,3.83E2,1.5623E4,1.51E3,1.8E1,1E1,6.3E1,3.2E2,5.14E2,1.5109E4,1.475E3,3.5E1],"tree_param":{"num_deleted":"0","num_feature":"10","num_nodes":"15","size_leaf_vector":"1"}},{"base_weights":[2.7261875E-3,2.6900612E1,-6.44054E-1,1.0762818E2,2.0733944E1,-1.3158831E-1,-3.1829983E1,-1.4422542E-1,1.2226567E0,5.4625845E-1,1.4289068E-1,-1.9418833E-1,6.7781657E-3,-3.896459E-1,2.8210437E-1],"categories":[],"categories_nodes":[],"categories_segments":[],"categories_sizes":[],"default_left":[0,0,0,0,0,0,0,0,0,0,0,0,0,0,0],"id":26,"left_children":[1,3,5,7,9,11,13,-1,-1,-1,-1,-1,-1,-1,-1],"loss_changes":[3.0524803E5,2.0287031E5,2.738266E5,5.3572312E4,8.309625E4,2.6318656E5,1.1975625E5,0E0,0E0,0E0,0E0,0E0,0E0,0E0,0E0],"parents":[2147483647,0,0,1,1,2,2,3,3,4,4,5,5,6,6],"right_children":[2,4,6,8,10,12,14,-1,-1,-1,-1,-1,-1,-1,-1],"split_conditions":[1.0254195E5,-6.142927E1,1.1958572E5,-4.5672028E2,-1.447871E2,-1.8015848E2,2.8044455E2,-1.4422542E-1,1.2226567E0,5.4625845E-1,1.4289068E-1,-1.9418833E-1,6.7781657E-3,-3.896459E-1,2.8210437E-1],"split_indices":[9,3,4,5,5,6,6,0,0,0,0,0,0,0,0],"split_type":[0,0,0,0,0,0,0,0,0,0,0,0,0,0,0],"sum_hessian":[1.7544E4,4.11E2,1.7133E4,2.8E1,3.83E2,1.6857E4,2.76E2,3E0,2.5E1,6E1,3.23E2,6.78E2,1.6179E4,2.47E2,2.9E1],"tree_param":{"num_deleted":"0","num_feature":"10","num_nodes":"15","size_leaf_vector":"1"}},{"base_weights":[2.7830026E-3,2.6635895E1,-6.376305E-1,1.0658909E2,2.05284E1,5.953213E-1,-1.3395402E1,1.3590009E0,3.7308148E-1,5.3147644E-1,1.3960923E-1,-2.956863E-1,1.13564385E-2,-1.0597284E-1,-4.0701282E-1],"categories":[],"categories_nodes":[],"categories_segments":[],"categories_sizes":[],"default_left":[0,0,0,0,0,0,0,0,0,0,0,0,0,0,0],"id":27,"left_children":[1,3,5,7,9,11,13,-1,-1,-1,-1,-1,-1,-1,-1],"loss_changes":[2.9926812E5,1.9899716E5,2.6952097E5,5.381997E4,8.152083E4,2.5469397E5,1.1494028E5,0E0,0E0,0E0,0E0,0E0,0E0,0E0,0E0],"parents":[2147483647,0,0,1,1,2,2,3,3,4,4,5,5,6,6],"right_children":[2,4,6,8,10,12,14,-1,-1,-1,-1,-1,-1,-1,-1],"split_conditions":[1.0254195E5,-6.142927E1,1.1879999E5,-7.284142E1,-1.3923625E2,1.027754E5,1.20078375E5,1.3590009E0,3.7308148E-1,5.3147644E-1,1.3960923E-1,-2.956863E-1,1.13564385E-2,-1.0597284E-1,-4.0701282E-1],"split_indices":[9,3,8,5,5,7,4,0,0,0,0,0,0,0,0],"split_type":[0,0,0,0,0,0,0,0,0,0,0,0,0,0,0],"sum_hessian":[1.7544E4,4.11E2,1.7133E4,2.8E1,3.83E2,1.5624E4,1.509E3,1.9E1,9E0,6.3E1,3.2E2,2.74E2,1.535E4,1.37E3,1.39E2],"tree_param":{"num_deleted":"0","num_feature":"10","num_nodes":"15","size_leaf_vector":"1"}},{"base_weights":[2.8464897E-3,2.6389791E1,-6.3164777E-1,2.9778986E1,-1.286796E0,5.897194E-1,-1.3260376E1,6.0347164E-1,1.7847535E-1,-2.9295626E-1,1.1250862E-2,-1.4616516E-1,4.2709738E-1],"categories":[],"categories_nodes":[],"categories_segments":[],"categories_sizes":[],"default_left":[0,0,0,0,0,0,0,0,0,0,0,0,0],"id":28,"left_children":[1,3,5,7,-1,9,11,-1,-1,-1,-1,-1,-1],"loss_changes":[2.9376144E5,2.2036278E5,2.6428803E5,1.4627097E5,0E0,2.5001108E5,1.1531422E5,0E0,0E0,0E0,0E0,0E0,0E0],"parents":[2147483647,0,0,1,1,2,2,3,3,5,5,6,6],"right_children":[2,4,6,8,-1,10,12,-1,-1,-1,-1,-1,-1],"split_conditions":[1.01859555E5,1.0334155E5,1.1908527E5,-1.06676186E2,-1.286796E0,1.027754E5,3.162349E2,6.0347164E-1,1.7847535E-1,-2.9295626E-1,1.1250862E-2,-1.4616516E-1,4.2709738E-1],"split_indices":[7,9,9,5,0,7,6,0,0,0,0,0,0],"split_type":[0,0,0,0,0,0,0,0,0,0,0,0,0],"sum_hessian":[1.7544E4,4.11E2,1.7133E4,4.03E2,8E0,1.5623E4,1.51E3,1.12E2,2.91E2,2.74E2,1.5349E4,1.475E3,3.5E1],"tree_param":{"num_deleted":"0","num_feature":"10","num_nodes":"13","size_leaf_vector":"1"}},{"base_weights":[2.7894806E-3,2.6150032E1,-6.259409E-1,1.0516146E2,2.0114925E1,-1.2409448E-1,-3.1165659E1,-1.5786228E-1,1.1972413E0,5.2972203E-1,1.386675E-1,-1.9184925E-1,6.7580836E-3,-3.8187012E-1,2.7916402E-1],"categories":[],"categories_nodes":[],"categories_segments":[],"categories_sizes":[],"default_left":[0,0,0,0,0,0,0,0,0,0,0,0,0,0,0],"id":29,"left_children":[1,3,5,7,9,11,13,-1,-1,-1,-1,-1,-1,-1,-1],"loss_changes":[2.8844856E5,1.9434381E5,2.625961E5,5.296828E4,7.809989E4,2.5704373E5,1.1597566E5,0E0,0E0,0E0,0E0,0E0,0E0,0E0,0E0],"parents":[2147483647,0,0,1,1,2,2,3,3,4,4,5,5,6,6],"right_children":[2,4,6,8,10,12,14,-1,-1,-1,-1,-1,-1,-1,-1],"split_conditions":[1.0254195E5,-6.142927E1,1.1958572E5,-4.5672028E2,-1.447871E2,-1.8015848E2,2.8044455E2,-1.5786228E-1,1.1972413E0,5.2972203E-1,1.386675E-1,-1.9184925E-1,6.7580836E-3,-3.8187012E-1,2.7916402E-1],"split_indices":[9,3,4,5,5,6,6,0,0,0,0,0,0,0,0],"split_type":[0,0,0,0,0,0,0,0,0,0,0,0,0,0,0],"sum_hessian":[1.7544E4,4.11E2,1.7133E4,2.8E1,3.83E2,1.6857E4,2.76E2,3E0,2.5E1,6E1,3.23E2,6.78E2,1.6179E4,2.47E2,2.9E1],"tree_param":{"num_deleted":"0","num_feature":"10","num_nodes":"15","size_leaf_vector":"1"}},{"base_weights":[2.8421965E-3,1.2359364E0,-1.3092457E1,2.5894423E1,5.8566236E-1,-1.4333114E1,4.6561237E1,2.924502E-1,-1.2738731E0,-2.900703E-1,1.1157519E-2,-1.0403064E-1,-4.3021438E-1,7.609224E-1,9.988683E-2],"categories":[],"categories_nodes":[],"categories_segments":[],"categories_sizes":[],"default_left":[0,0,0,0,0,0,0,0,0,0,0,0,0,0,0],"id":30,"left_children":[1,3,5,7,9,11,13,-1,-1,-1,-1,-1,-1,-1,-1],"loss_changes":[2.8332822E5,2.5711845E5,1.1242211E5,2.1532256E5,2.4513828E5,1.6641734E5,3.2720695E4,0E0,0E0,0E0,0E0,0E0,0E0,0E0,0E0],"parents":[2147483647,0,0,1,1,2,2,3,3,4,4,5,5,6,6],"right_children":[2,4,6,8,10,12,14,-1,-1,-1,-1,-1,-1,-1,-1],"split_conditions":[1.1879999E5,1.01859555E5,3.8343127E2,1.0334155E5,1.027754E5,1.2018241E5,1.2189539E5,2.924502E-1,-1.2738731E0,-2.900703E-1,1.1157519E-2,-1.0403064E-1,-4.3021438E-1,7.609224E-1,9.988683E-2],"split_indices":[8,7,5,9,7,0,1,0,0,0,0,0,0,0,0],"split_type":[0,0,0,0,0,0,0,0,0,0,0,0,0,0,0],"sum_hessian":[1.7544E4,1.6035E4,1.509E3,4.11E2,1.5624E4,1.479E3,3E1,4.03E2,8E0,2.74E2,1.535E4,1.302E3,1.77E2,1.6E1,1.4E1],"tree_param":{"num_deleted":"0","num_feature":"10","num_nodes":"15","size_leaf_vector":"1"}},{"base_weights":[2.7606213E-3,1.2234985E0,-1.2961316E1,2.5654665E1,5.792192E-1,-1.428987E1,4.1832527E1,1.0386332E0,1.9681473E-1,-1.941016E-1,1.3538805E-2,-1.0993046E-1,-5.2461606E-1,7.0076025E-1,1.832164E-1],"categories":[],"categories_nodes":[],"categories_segments":[],"categories_sizes":[],"default_left":[0,0,0,0,0,0,0,0,0,0,0,0,0,0,0],"id":31,"left_children":[1,3,5,7,9,11,13,-1,-1,-1,-1,-1,-1,-1,-1],"loss_changes":[2.7767847E5,2.5239969E5,1.1052061E5,1.9042381E5,2.4197938E5,1.8504531E5,2.2621164E4,0E0,0E0,0E0,0E0,0E0,0E0,0E0,0E0],"parents":[2147483647,0,0,1,1,2,2,3,3,4,4,5,5,6,6],"right_children":[2,4,6,8,10,12,14,-1,-1,-1,-1,-1,-1,-1,-1],"split_conditions":[1.1879999E5,1.0254195E5,3.162349E2,-6.142927E1,-2.0197543E2,1.20078375E5,1.2189539E5,1.0386332E0,1.9681473E-1,-1.941016E-1,1.3538805E-2,-1.0993046E-1,-5.2461606E-1,7.0076025E-1,1.832164E-1],"split_indices":[8,9,6,3,5,4,1,0,0,0,0,0,0,0,0],"split_type":[0,0,0,0,0,0,0,0,0,0,0,0,0,0,0],"sum_hessian":[1.7544E4,1.6035E4,1.509E3,4.11E2,1.5624E4,1.474E3,3.5E1,2.8E1,3.83E2,5.82E2,1.5042E4,1.358E3,1.16E2,1.5E1,2E1],"tree_param":{"num_deleted":"0","num_feature":"10","num_nodes":"15","size_leaf_vector":"1"}},{"base_weights":[2.80739E-3,2.5411068E1,-6.0815364E-1,2.8723024E1,-1.2608244E0,-1.1924733E-1,-3.0360407E1,5.881681E-1,1.6978776E-1,-1.9358607E-1,6.498122E-3,-3.7216198E-1,2.7326128E-1],"categories":[],"categories_nodes":[],"categories_segments":[],"categories_sizes":[],"default_left":[0,0,0,0,0,0,0,0,0,0,0,0,0],"id":32,"left_children":[1,3,5,7,-1,9,11,-1,-1,-1,-1,-1,-1],"loss_changes":[2.7237453E5,2.1033831E5,2.4922864E5,1.4178662E5,0E0,2.4944714E5,1.105668E5,0E0,0E0,0E0,0E0,0E0,0E0],"parents":[2147483647,0,0,1,1,2,2,3,3,5,5,6,6],"right_children":[2,4,6,8,-1,10,12,-1,-1,-1,-1,-1,-1],"split_conditions":[1.01859555E5,1.0334155E5,1.1958572E5,-1.06676186E2,-1.2608244E0,-1.8015848E2,2.8044455E2,5.881681E-1,1.6978776E-1,-1.9358607E-1,6.498122E-3,-3.7216198E-1,2.7326128E-1],"split_indices":[7,9,4,5,0,6,6,0,0,0,0,0,0],"split_type":[0,0,0,0,0,0,0,0,0,0,0,0,0],"sum_hessian":[1.7544E4,4.11E2,1.7133E4,4.03E2,8E0,1.6857E4,2.76E2,1.12E2,2.91E2,6.47E2,1.621E4,2.47E2,2.9E1],"tree_param":{"num_deleted":"0","num_feature":"10","num_nodes":"13","size_leaf_vector":"1"}},{"base_weights":[2.7344946E-3,1.2059495E0,-1.2775252E1,2.5157438E1,5.743195E-1,-1.3988358E1,4.5552876E1,1.0245131E0,1.9254626E-1,-2.8719112E-1,1.0990488E-2,-1.0158643E-1,-4.194414E-1,7.4711645E-1,9.4694085E-2],"categories":[],"categories_nodes":[],"categories_segments":[],"categories_sizes":[],"default_left":[0,0,0,0,0,0,0,0,0,0,0,0,0,0,0],"id":33,"left_children":[1,3,5,7,9,11,13,-1,-1,-1,-1,-1,-1,-1,-1],"loss_changes":[2.697639E5,2.4258586E5,1.0748209E5,1.8600286E5,2.4020533E5,1.5802669E5,3.190916E4,0E0,0E0,0E0,0E0,0E0,0E0,0E0,0E0],"parents":[2147483647,0,0,1,1,2,2,3,3,4,4,5,5,6,6],"right_children":[2,4,6,8,10,12,14,-1,-1,-1,-1,-1,-1,-1,-1],"split_conditions":[1.1879999E5,1.0254195E5,3.8343127E2,-6.142927E1,1.027754E5,1.2018241E5,1.2189539E5,1.0245131E0,1.9254626E-1,-2.8719112E-1,1.0990488E-2,-1.0158643E-1,-4.194414E-1,7.4711645E-1,9.4694085E-2],"split_indices":[8,9,5,3,7,0,1,0,0,0,0,0,0,0,0],"split_type":[0,0,0,0,0,0,0,0,0,0,0,0,0,0,0],"sum_hessian":[1.7544E4,1.6035E4,1.509E3,4.11E2,1.5624E4,1.479E3,3E1,2.8E1,3.83E2,2.74E2,1.535E4,1.302E3,1.77E2,1.6E1,1.4E1],"tree_param":{"num_deleted":"0","num_feature":"10","num_nodes":"15","size_leaf_vector":"1"}},{"base_weights":[2.7787702E-3,1.1950912E0,-1.2650255E1,2.4951365E1,5.685693E-1,-1.3949899E1,4.0986553E1,2.8223562E-1,-1.2470642E0,-2.8496706E-1,1.08924555E-2,-1.07378185E-1,-5.1167667E-1,6.866875E-1,1.794361E-1],"categories":[],"categories_nodes":[],"categories_segments":[],"categories_sizes":[],"default_left":[0,0,0,0,0,0,0,0,0,0,0,0,0,0,0],"id":34,"left_children":[1,3,5,7,9,11,13,-1,-1,-1,-1,-1,-1,-1,-1],"loss_changes":[2.647055E5,2.38648E5,1.059017E5,2.0528028E5,2.3647844E5,1.7590112E5,2.1731492E4,0E0,0E0,0E0,0E0,0E0,0E0,0E0,0E0],"parents":[2147483647,0,0,1,1,2,2,3,3,4,4,5,5,6,6],"right_children":[2,4,6,8,10,12,14,-1,-1,-1,-1,-1,-1,-1,-1],"split_conditions":[1.1908527E5,1.01859555E5,3.162349E2,1.0334155E5,1.027754E5,1.20078375E5,1.2189539E5,2.8223562E-1,-1.2470642E0,-2.8496706E-1,1.08924555E-2,-1.07378185E-1,-5.1167667E-1,6.866875E-1,1.794361E-1],"split_indices":[9,7,6,9,7,4,1,0,0,0,0,0,0,0,0],"split_type":[0,0,0,0,0,0,0,0,0,0,0,0,0,0,0],"sum_hessian":[1.7544E4,1.6034E4,1.51E3,4.11E2,1.5623E4,1.475E3,3.5E1,4.03E2,8E0,2.74E2,1.5349E4,1.359E3,1.16E2,1.5E1,2E1],"tree_param":{"num_deleted":"0","num_feature":"10","num_nodes":"15","size_leaf_vector":"1"}},{"base_weights":[2.694435E-3,1.1834102E0,-1.2536352E1,2.4699509E1,5.632619E-1,-1.3824759E1,4.0600746E1,2.794203E-1,-1.2359792E0,-2.8212774E-1,1.0787232E-2,-1.0643307E-1,-5.066036E-1,6.8024987E-1,1.777272E-1],"categories":[],"categories_nodes":[],"categories_segments":[],"categories_sizes":[],"default_left":[0,0,0,0,0,0,0,0,0,0,0,0,0,0,0],"id":35,"left_children":[1,3,5,7,9,11,13,-1,-1,-1,-1,-1,-1,-1,-1],"loss_changes":[2.597694E5,2.3384658E5,1.039392E5,2.0156672E5,2.3179502E5,1.7231697E5,2.1328488E4,0E0,0E0,0E0,0E0,0E0,0E0,0E0,0E0],"parents":[2147483647,0,0,1,1,2,2,3,3,4,4,5,5,6,6],"right_children":[2,4,6,8,10,12,14,-1,-1,-1,-1,-1,-1,-1,-1],"split_conditions":[1.1879999E5,1.01859555E5,3.162349E2,1.0334155E5,1.027754E5,1.20078375E5,1.2189539E5,2.794203E-1,-1.2359792E0,-2.8212774E-1,1.0787232E-2,-1.0643307E-1,-5.066036E-1,6.8024987E-1,1.777272E-1],"split_indices":[8,7,6,9,7,4,1,0,0,0,0,0,0,0,0],"split_type":[0,0,0,0,0,0,0,0,0,0,0,0,0,0,0],"sum_hessian":[1.7544E4,1.6035E4,1.509E3,4.11E2,1.5624E4,1.474E3,3.5E1,4.03E2,8E0,2.74E2,1.535E4,1.358E3,1.16E2,1.5E1,2E1],"tree_param":{"num_deleted":"0","num_feature":"10","num_nodes":"15","size_leaf_vector":"1"}},{"base_weights":[2.6113589E-3,1.1726216E0,-1.2413746E1,2.4452635E1,5.5865985E-1,8.3713615E1,-1.3109941E1,7.0347387E-1,1.4690538E-1,-2.0762835E-1,1.2853317E-2,1.1043742E-1,9.863539E-1,-1.4410566E-1,4.021857E-1],"categories":[],"categories_nodes":[],"categories_segments":[],"categories_sizes":[],"default_left":[0,0,0,0,0,0,0,0,0,0,0,0,0,0,0],"id":36,"left_children":[1,3,5,7,9,11,13,-1,-1,-1,-1,-1,-1,-1,-1],"loss_changes":[2.5489544E5,2.2917519E5,1.0221855E5,1.8355455E5,2.4210073E5,1.0838703E4,1.0468958E5,0E0,0E0,0E0,0E0,0E0,0E0,0E0,0E0],"parents":[2147483647,0,0,1,1,2,2,3,3,4,4,5,5,6,6],"right_children":[2,4,6,8,10,12,14,-1,-1,-1,-1,-1,-1,-1,-1],"split_conditions":[1.1908527E5,1.0254195E5,-1.2077488E2,-1.5012245E2,-2.0197543E2,1.1838967E5,3.162349E2,7.0347387E-1,1.4690538E-1,-2.0762835E-1,1.2853317E-2,1.1043742E-1,9.863539E-1,-1.4410566E-1,4.021857E-1],"split_indices":[9,9,3,5,5,0,6,0,0,0,0,0,0,0,0],"split_type":[0,0,0,0,0,0,0,0,0,0,0,0,0,0,0],"sum_hessian":[1.7544E4,1.6034E4,1.51E3,4.11E2,1.5623E4,1E1,1.5E3,7.1E1,3.4E2,5.14E2,1.5109E4,2E0,8E0,1.465E3,3.5E1],"tree_param":{"num_deleted":"0","num_feature":"10","num_nodes":"15","size_leaf_vector":"1"}},{"base_weights":[2.7001428E-3,1.1614072E0,-1.2302617E1,2.4235613E1,5.5291224E-1,-9.688422E0,-3.7815178E1,2.7440357E-1,-1.2231472E0,-2.7936545E-1,1.0632404E-2,-1.06089436E-1,7.423402E-1,-5.129172E-1,2.3247033E-1],"categories":[],"categories_nodes":[],"categories_segments":[],"categories_sizes":[],"default_left":[0,0,0,0,0,0,0,0,0,0,0,0,0,0,0],"id":37,"left_children":[1,3,5,7,9,11,13,-1,-1,-1,-1,-1,-1,-1,-1],"loss_changes":[2.5017544E5,2.251407E5,1.003428E5,1.9685488E5,2.2720116E5,1.0670063E5,1.1639944E5,0E0,0E0,0E0,0E0,0E0,0E0,0E0,0E0],"parents":[2147483647,0,0,1,1,2,2,3,3,4,4,5,5,6,6],"right_children":[2,4,6,8,10,12,14,-1,-1,-1,-1,-1,-1,-1,-1],"split_conditions":[1.1879999E5,1.01859555E5,1.20078375E5,1.0334155E5,1.027754E5,3.8343127E2,2.8044455E2,2.7440357E-1,-1.2231472E0,-2.7936545E-1,1.0632404E-2,-1.06089436E-1,7.423402E-1,-5.129172E-1,2.3247033E-1],"split_indices":[8,7,4,9,7,5,6,0,0,0,0,0,0,0,0],"split_type":[0,0,0,0,0,0,0,0,0,0,0,0,0,0,0],"sum_hessian":[1.7544E4,1.6035E4,1.509E3,4.11E2,1.5624E4,1.37E3,1.39E2,4.03E2,8E0,2.74E2,1.535E4,1.356E3,1.4E1,1.14E2,2.5E1],"tree_param":{"num_deleted":"0","num_feature":"10","num_nodes":"15","size_leaf_vector":"1"}},{"base_weights":[2.6242093E-3,1.1507099E0,-1.21810665E1,2.3990955E1,5.483461E-1,8.299835E1,-1.2870468E1,2.7166635E-1,-1.2122748E0,-2.7658194E-1,1.0536393E-2,1.0963029E-1,9.7788084E-1,-1.4146051E-1,3.9431587E-1],"categories":[],"categories_nodes":[],"categories_segments":[],"categories_sizes":[],"default_left":[0,0,0,0,0,0,0,0,0,0,0,0,0,0,0],"id":38,"left_children":[1,3,5,7,9,11,13,-1,-1,-1,-1,-1,-1,-1,-1],"loss_changes":[2.4543206E5,2.2059856E5,1.0021536E5,1.9329427E5,2.2271136E5,1.0647164E4,1.0069786E5,0E0,0E0,0E0,0E0,0E0,0E0,0E0,0E0],"parents":[2147483647,0,0,1,1,2,2,3,3,4,4,5,5,6,6],"right_children":[2,4,6,8,10,12,14,-1,-1,-1,-1,-1,-1,-1,-1],"split_conditions":[1.1908527E5,1.01859555E5,-1.2077488E2,1.0334155E5,1.027754E5,1.1838967E5,3.162349E2,2.7166635E-1,-1.2122748E0,-2.7658194E-1,1.0536393E-2,1.0963029E-1,9.7788084E-1,-1.4146051E-1,3.9431587E-1],"split_indices":[9,7,3,9,7,0,6,0,0,0,0,0,0,0,0],"split_type":[0,0,0,0,0,0,0,0,0,0,0,0,0,0,0],"sum_hessian":[1.7544E4,1.6034E4,1.51E3,4.11E2,1.5623E4,1E1,1.5E3,4.03E2,8E0,2.74E2,1.5349E4,2E0,8E0,1.465E3,3.5E1],"tree_param":{"num_deleted":"0","num_feature":"10","num_nodes":"15","size_leaf_vector":"1"}},{"base_weights":[2.6052608E-3,1.1396691E0,-1.2072864E1,2.376707E1,5.429568E-1,-9.479139E0,-3.73866E1,9.996288E-1,1.7950805E-1,-1.877364E-1,1.2915464E-2,-1.0386565E-1,7.3244584E-1,-5.064303E-1,2.2685568E-1],"categories":[],"categories_nodes":[],"categories_segments":[],"categories_sizes":[],"default_left":[0,0,0,0,0,0,0,0,0,0,0,0,0,0,0],"id":39,"left_children":[1,3,5,7,9,11,13,-1,-1,-1,-1,-1,-1,-1,-1],"loss_changes":[2.4091678E5,2.1650592E5,9.878745E4,1.8079369E5,2.2596497E5,1.0367573E5,1.1263684E5,0E0,0E0,0E0,0E0,0E0,0E0,0E0,0E0],"parents":[2147483647,0,0,1,1,2,2,3,3,4,4,5,5,6,6],"right_children":[2,4,6,8,10,12,14,-1,-1,-1,-1,-1,-1,-1,-1],"split_conditions":[1.1879999E5,1.0254195E5,1.20078375E5,-6.142927E1,-2.0197543E2,3.8343127E2,2.8044455E2,9.996288E-1,1.7950805E-1,-1.877364E-1,1.2915464E-2,-1.0386565E-1,7.3244584E-1,-5.064303E-1,2.2685568E-1],"split_indices":[8,9,4,3,5,5,6,0,0,0,0,0,0,0,0],"split_type":[0,0,0,0,0,0,0,0,0,0,0,0,0,0,0],"sum_hessian":[1.7544E4,1.6035E4,1.509E3,4.11E2,1.5624E4,1.37E3,1.39E2,2.8E1,3.83E2,5.82E2,1.5042E4,1.356E3,1.4E1,1.14E2,2.5E1],"tree_param":{"num_deleted":"0","num_feature":"10","num_nodes":"15","size_leaf_vector":"1"}},{"base_weights":[2.6565986E-3,1.1283354E0,-1.1951904E1,2.3543442E1,5.372216E-1,-9.38389E0,-3.7014732E1,2.6682538E-1,-1.1998302E0,-1.8253832E-1,1.2914296E-2,-1.02827765E-1,7.2560966E-1,-5.0141007E-1,2.2467437E-1],"categories":[],"categories_nodes":[],"categories_segments":[],"categories_sizes":[],"default_left":[0,0,0,0,0,0,0,0,0,0,0,0,0,0,0],"id":40,"left_children":[1,3,5,7,9,11,13,-1,-1,-1,-1,-1,-1,-1,-1],"loss_changes":[2.3611647E5,2.1246239E5,9.68388E4,1.8882533E5,2.2146675E5,1.0173278E5,1.1043567E5,0E0,0E0,0E0,0E0,0E0,0E0,0E0,0E0],"parents":[2147483647,0,0,1,1,2,2,3,3,4,4,5,5,6,6],"right_children":[2,4,6,8,10,12,14,-1,-1,-1,-1,-1,-1,-1,-1],"split_conditions":[1.1879999E5,1.01859555E5,1.20078375E5,1.0334155E5,-1.8015848E2,3.8343127E2,2.8044455E2,2.6682538E-1,-1.1998302E0,-1.8253832E-1,1.2914296E-2,-1.02827765E-1,7.2560966E-1,-5.0141007E-1,2.2467437E-1],"split_indices":[8,7,4,9,6,5,6,0,0,0,0,0,0,0,0],"split_type":[0,0,0,0,0,0,0,0,0,0,0,0,0,0,0],"sum_hessian":[1.7544E4,1.6035E4,1.509E3,4.11E2,1.5624E4,1.37E3,1.39E2,4.03E2,8E0,6.02E2,1.5022E4,1.356E3,1.4E1,1.14E2,2.5E1],"tree_param":{"num_deleted":"0","num_feature":"10","num_nodes":"15","size_leaf_vector":"1"}},{"base_weights":[2.5864271E-3,1.1179075E0,-1.18334E1,2.3305742E1,5.3274965E-1,8.2415665E1,-1.2516216E1,2.641637E-1,-1.189165E0,-2.7385974E-1,1.0328876E-2,1.1136792E-1,9.7018E-1,-1.366316E-1,4.2311916E-1],"categories":[],"categories_nodes":[],"categories_segments":[],"categories_sizes":[],"default_left":[0,0,0,0,0,0,0,0,0,0,0,0,0,0,0],"id":41,"left_children":[1,3,5,7,9,11,13,-1,-1,-1,-1,-1,-1,-1,-1],"loss_changes":[2.3162345E5,2.0817617E5,9.827155E4,1.8541048E5,2.181895E5,1.0368742E4,9.4968266E4,0E0,0E0,0E0,0E0,0E0,0E0,0E0,0E0],"parents":[2147483647,0,0,1,1,2,2,3,3,4,4,5,5,6,6],"right_children":[2,4,6,8,10,12,14,-1,-1,-1,-1,-1,-1,-1,-1],"split_conditions":[1.1908527E5,1.01859555E5,-1.2077488E2,1.0334155E5,1.027754E5,1.1838967E5,3.8343127E2,2.641637E-1,-1.189165E0,-2.7385974E-1,1.0328876E-2,1.1136792E-1,9.7018E-1,-1.366316E-1,4.2311916E-1],"split_indices":[9,7,3,9,7,0,5,0,0,0,0,0,0,0,0],"split_type":[0,0,0,0,0,0,0,0,0,0,0,0,0,0,0],"sum_hessian":[1.7544E4,1.6034E4,1.51E3,4.11E2,1.5623E4,1E1,1.5E3,4.03E2,8E0,2.74E2,1.5349E4,2E0,8E0,1.47E3,3E1],"tree_param":{"num_deleted":"0","num_feature":"10","num_nodes":"15","size_leaf_vector":"1"}},{"base_weights":[2.5712755E-3,1.1072053E0,-1.1728497E1,2.3075603E1,5.2787167E-1,-9.182749E0,-3.6574875E1,6.824371E-1,1.347097E-1,-1.8412495E-1,1.2618812E-2,-1.0067708E-1,7.1488816E-1,-4.950851E-1,2.2038318E-1],"categories":[],"categories_nodes":[],"categories_segments":[],"categories_sizes":[],"default_left":[0,0,0,0,0,0,0,0,0,0,0,0,0,0,0],"id":42,"left_children":[1,3,5,7,9,11,13,-1,-1,-1,-1,-1,-1,-1,-1],"loss_changes":[2.2737053E5,2.0407848E5,9.517561E4,1.7781581E5,2.1724836E5,9.8596945E4,1.0722253E5,0E0,0E0,0E0,0E0,0E0,0E0,0E0,0E0],"parents":[2147483647,0,0,1,1,2,2,3,3,4,4,5,5,6,6],"right_children":[2,4,6,8,10,12,14,-1,-1,-1,-1,-1,-1,-1,-1],"split_conditions":[1.1879999E5,1.0254195E5,1.20078375E5,-1.5012245E2,-2.0197543E2,3.8343127E2,2.8044455E2,6.824371E-1,1.347097E-1,-1.8412495E-1,1.2618812E-2,-1.0067708E-1,7.1488816E-1,-4.950851E-1,2.2038318E-1],"split_indices":[8,9,4,5,5,5,6,0,0,0,0,0,0,0,0],"split_type":[0,0,0,0,0,0,0,0,0,0,0,0,0,0,0],"sum_hessian":[1.7544E4,1.6035E4,1.509E3,4.11E2,1.5624E4,1.37E3,1.39E2,7.1E1,3.4E2,5.82E2,1.5042E4,1.356E3,1.4E1,1.14E2,2.5E1],"tree_param":{"num_deleted":"0","num_feature":"10","num_nodes":"15","size_leaf_vector":"1"}},{"base_weights":[2.6016182E-3,4.5438638E-1,-2.8163008E1,2.2866777E1,-9.338675E-2,-3.4410748E1,2.442376E1,2.594152E-1,-1.176958E0,-1.8467763E-1,6.410953E-3,4.503566E-2,-4.6313557E-1,3.6466095E-1,9.950349E-2],"categories":[],"categories_nodes":[],"categories_segments":[],"categories_sizes":[],"default_left":[0,0,0,0,0,0,0,0,0,0,0,0,0,0,0],"id":43,"left_children":[1,3,5,7,9,11,13,-1,-1,-1,-1,-1,-1,-1,-1],"loss_changes":[2.2326928E5,2.12012E5,9.184839E4,1.811171E5,2.2752152E5,1.1507959E5,4.865961E3,0E0,0E0,0E0,0E0,0E0,0E0,0E0,0E0],"parents":[2147483647,0,0,1,1,2,2,3,3,4,4,5,5,6,6],"right_children":[2,4,6,8,10,12,14,-1,-1,-1,-1,-1,-1,-1,-1],"split_conditions":[1.1958572E5,1.01859555E5,2.8044455E2,1.0334155E5,-1.8015848E2,-8.482248E1,4.1369992E2,2.594152E-1,-1.176958E0,-1.8467763E-1,6.410953E-3,4.503566E-2,-4.6313557E-1,3.6466095E-1,9.950349E-2],"split_indices":[4,7,6,9,6,6,6,0,0,0,0,0,0,0,0],"split_type":[0,0,0,0,0,0,0,0,0,0,0,0,0,0,0],"sum_hessian":[1.7544E4,1.7268E4,2.76E2,4.11E2,1.6857E4,2.47E2,2.9E1,4.03E2,8E0,6.47E2,1.621E4,5.8E1,1.89E2,1.5E1,1.4E1],"tree_param":{"num_deleted":"0","num_feature":"10","num_nodes":"15","size_leaf_vector":"1"}},{"base_weights":[2.515751E-3,7.3037505E0,-1.7268054E0,5.889287E0,6.3775967E1,-1.0179271E1,1.1578869E-1,2.3740193E-1,3.485312E-2,9.4683714E-2,1.1046278E0,-5.906044E-1,-8.27584E-2,2.8456965E-2,-7.452495E-2],"categories":[],"categories_nodes":[],"categories_segments":[],"categories_sizes":[],"default_left":[0,0,0,0,0,0,0,0,0,0,0,0,0,0,0],"id":44,"left_children":[1,3,5,7,9,11,13,-1,-1,-1,-1,-1,-1,-1,-1],"loss_changes":[2.2153895E5,2.680141E5,2.2094053E5,1.4062944E5,2.0686097E5,2.3574481E5,2.4067723E5,0E0,0E0,0E0,0E0,0E0,0E0,0E0,0E0],"parents":[2147483647,0,0,1,1,2,2,3,3,4,4,5,5,6,6],"right_children":[2,4,6,8,10,12,14,-1,-1,-1,-1,-1,-1,-1,-1],"split_conditions":[1.0537659E5,2.1202376E2,1.06527305E5,1.01859555E5,1.027754E5,-1.7250728E2,1.1815001E5,2.3740193E-1,3.485312E-2,9.4683714E-2,1.1046278E0,-5.906044E-1,-8.27584E-2,2.8456965E-2,-7.452495E-2],"split_indices":[9,6,7,7,7,6,8,0,0,0,0,0,0,0,0],"split_type":[0,0,0,0,0,0,0,0,0,0,0,0,0,0,0],"sum_hessian":[1.7544E4,3.359E3,1.4185E4,3.278E3,8.1E1,2.538E3,1.1647E4,3.88E2,2.89E3,3.8E1,4.3E1,9.4E1,2.444E3,8.56E3,3.087E3],"tree_param":{"num_deleted":"0","num_feature":"10","num_nodes":"15","size_leaf_vector":"1"}},{"base_weights":[2.533581E-3,1.0582525E0,-1.1769757E1,2.2407024E1,4.976284E-1,-9.168527E0,-3.5932877E1,2.5454056E-1,-1.1686064E0,-2.7142477E-1,9.906252E-3,-1.009045E-1,7.0789623E-1,-4.864824E-1,2.1690214E-1],"categories":[],"categories_nodes":[],"categories_segments":[],"categories_sizes":[],"default_left":[0,0,0,0,0,0,0,0,0,0,0,0,0,0,0],"id":45,"left_children":[1,3,5,7,9,11,13,-1,-1,-1,-1,-1,-1,-1,-1],"loss_changes":[2.1806577E5,1.9270781E5,9.0431484E4,1.7780819E5,2.1384003E5,9.691282E4,1.03633016E5,0E0,0E0,0E0,0E0,0E0,0E0,0E0,0E0],"parents":[2147483647,0,0,1,1,2,2,3,3,4,4,5,5,6,6],"right_children":[2,4,6,8,10,12,14,-1,-1,-1,-1,-1,-1,-1,-1],"split_conditions":[1.1884E5,1.01859555E5,1.20078375E5,1.0334155E5,1.027754E5,3.8343127E2,2.8044455E2,2.5454056E-1,-1.1686064E0,-2.7142477E-1,9.906252E-3,-1.009045E-1,7.0789623E-1,-4.864824E-1,2.1690214E-1],"split_indices":[8,7,4,9,7,5,6,0,0,0,0,0,0,0,0],"split_type":[0,0,0,0,0,0,0,0,0,0,0,0,0,0,0],"sum_hessian":[1.7544E4,1.6101E4,1.443E3,4.11E2,1.569E4,1.304E3,1.39E2,4.03E2,8E0,2.74E2,1.5416E4,1.29E3,1.4E1,1.14E2,2.5E1],"tree_param":{"num_deleted":"0","num_feature":"10","num_nodes":"15","size_leaf_vector":"1"}},{"base_weights":[2.4604958E-3,7.2176538E0,-1.7064816E0,5.8173203E0,6.312589E1,-1.00876465E1,1.2056885E-1,2.329473E-1,3.463626E-2,9.3303956E-2,1.0937358E0,-5.848586E-1,-8.203017E-2,2.8073382E-2,-7.328121E-2],"categories":[],"categories_nodes":[],"categories_segments":[],"categories_sizes":[],"default_left":[0,0,0,0,0,0,0,0,0,0,0,0,0,0,0],"id":46,"left_children":[1,3,5,7,9,11,13,-1,-1,-1,-1,-1,-1,-1,-1],"loss_changes":[2.1634827E5,2.6268772E5,2.1722875E5,1.3480584E5,2.0298869E5,2.3110927E5,2.3313098E5,0E0,0E0,0E0,0E0,0E0,0E0,0E0,0E0],"parents":[2147483647,0,0,1,1,2,2,3,3,4,4,5,5,6,6],"right_children":[2,4,6,8,10,12,14,-1,-1,-1,-1,-1,-1,-1,-1],"split_conditions":[1.0537659E5,2.1202376E2,1.06527305E5,1.0254195E5,1.027754E5,-1.7250728E2,1.1815001E5,2.329473E-1,3.463626E-2,9.3303956E-2,1.0937358E0,-5.848586E-1,-8.203017E-2,2.8073382E-2,-7.328121E-2],"split_indices":[9,6,7,9,7,6,8,0,0,0,0,0,0,0,0],"split_type":[0,0,0,0,0,0,0,0,0,0,0,0,0,0,0],"sum_hessian":[1.7544E4,3.359E3,1.4185E4,3.278E3,8.1E1,2.538E3,1.1647E4,3.88E2,2.89E3,3.8E1,4.3E1,9.4E1,2.444E3,8.56E3,3.087E3],"tree_param":{"num_deleted":"0","num_feature":"10","num_nodes":"15","size_leaf_vector":"1"}},{"base_weights":[2.4781572E-3,4.438679E-1,-2.7515074E1,2.197444E1,-8.2353435E-2,-3.364338E1,2.4062737E1,2.4990453E-1,-1.1585267E0,-1.8146011E-1,6.397077E-3,4.9455922E-2,-4.5449197E-1,3.5936698E-1,9.79299E-2],"categories":[],"categories_nodes":[],"categories_segments":[],"categories_sizes":[],"default_left":[0,0,0,0,0,0,0,0,0,0,0,0,0,0,0],"id":47,"left_children":[1,3,5,7,9,11,13,-1,-1,-1,-1,-1,-1,-1,-1],"loss_changes":[2.1311317E5,1.9565692E5,8.836494E4,1.7415884E5,2.1989158E5,1.1320728E5,4.7312266E3,0E0,0E0,0E0,0E0,0E0,0E0,0E0,0E0],"parents":[2147483647,0,0,1,1,2,2,3,3,4,4,5,5,6,6],"right_children":[2,4,6,8,10,12,14,-1,-1,-1,-1,-1,-1,-1,-1],"split_conditions":[1.1958572E5,1.01859555E5,2.8044455E2,1.0334155E5,-1.8015848E2,-8.482248E1,4.1369992E2,2.4990453E-1,-1.1585267E0,-1.8146011E-1,6.397077E-3,4.9455922E-2,-4.5449197E-1,3.5936698E-1,9.79299E-2],"split_indices":[4,7,6,9,6,6,6,0,0,0,0,0,0,0,0],"split_type":[0,0,0,0,0,0,0,0,0,0,0,0,0,0,0],"sum_hessian":[1.7544E4,1.7268E4,2.76E2,4.11E2,1.6857E4,2.47E2,2.9E1,4.03E2,8E0,6.47E2,1.621E4,5.8E1,1.89E2,1.5E1,1.4E1],"tree_param":{"num_deleted":"0","num_feature":"10","num_nodes":"15","size_leaf_vector":"1"}},{"base_weights":[2.3945111E-3,7.121804E0,-1.6838609E0,5.7363935E0,6.2434486E1,-9.987138E0,1.2620984E-1,2.284551E-1,3.4322828E-2,9.089644E-2,1.0829846E0,-5.7745403E-1,-8.1274144E-2,2.7799813E-2,-7.231E-2],"categories":[],"categories_nodes":[],"categories_segments":[],"categories_sizes":[],"default_left":[0,0,0,0,0,0,0,0,0,0,0,0,0,0,0],"id":48,"left_children":[1,3,5,7,9,11,13,-1,-1,-1,-1,-1,-1,-1,-1],"loss_changes":[2.1064225E5,2.5712128E5,2.1321E5,1.2918401E5,1.9963731E5,2.2503739E5,2.2743977E5,0E0,0E0,0E0,0E0,0E0,0E0,0E0,0E0],"parents":[2147483647,0,0,1,1,2,2,3,3,4,4,5,5,6,6],"right_children":[2,4,6,8,10,12,14,-1,-1,-1,-1,-1,-1,-1,-1],"split_conditions":[1.0537659E5,2.1202376E2,1.06527305E5,1.01859555E5,1.027754E5,-1.7250728E2,1.1815001E5,2.284551E-1,3.4322828E-2,9.089644E-2,1.0829846E0,-5.7745403E-1,-8.1274144E-2,2.7799813E-2,-7.231E-2],"split_indices":[9,6,7,7,7,6,8,0,0,0,0,0,0,0,0],"split_type":[0,0,0,0,0,0,0,0,0,0,0,0,0,0,0],"sum_hessian":[1.7544E4,3.359E3,1.4185E4,3.278E3,8.1E1,2.538E3,1.1647E4,3.88E2,2.89E3,3.8E1,4.3E1,9.4E1,2.444E3,8.56E3,3.087E3],"tree_param":{"num_deleted":"0","num_feature":"10","num_nodes":"15","size_leaf_vector":"1"}},{"base_weights":[2.4125508E-3,4.3822902E-1,-2.7167686E1,2.1542051E1,-7.756246E-2,-3.3236557E1,2.3907251E1,8.944368E-1,1.5197873E-1,-1.7413257E-1,6.4994153E-3,4.9680594E-2,-4.492517E-1,3.5667583E-1,9.769079E-2],"categories":[],"categories_nodes":[],"categories_segments":[],"categories_sizes":[],"default_left":[0,0,0,0,0,0,0,0,0,0,0,0,0,0,0],"id":49,"left_children":[1,3,5,7,9,11,13,-1,-1,-1,-1,-1,-1,-1,-1],"loss_changes":[2.0776536E5,1.8797772E5,8.6655516E4,1.7612197E5,2.1262084E5,1.1096978E5,4.6396484E3,0E0,0E0,0E0,0E0,0E0,0E0,0E0,0E0],"parents":[2147483647,0,0,1,1,2,2,3,3,4,4,5,5,6,6],"right_children":[2,4,6,8,10,12,14,-1,-1,-1,-1,-1,-1,-1,-1],"split_conditions":[1.1958572E5,1.0254195E5,2.8044455E2,-5.3037296E1,-1.8015848E2,-8.482248E1,4.1369992E2,8.944368E-1,1.5197873E-1,-1.7413257E-1,6.4994153E-3,4.9680594E-2,-4.492517E-1,3.5667583E-1,9.769079E-2],"split_indices":[4,9,6,3,6,6,6,0,0,0,0,0,0,0,0],"split_type":[0,0,0,0,0,0,0,0,0,0,0,0,0,0,0],"sum_hessian":[1.7544E4,1.7268E4,2.76E2,4.11E2,1.6857E4,2.47E2,2.9E1,3.4E1,3.77E2,6.78E2,1.6179E4,5.8E1,1.89E2,1.5E1,1.4E1],"tree_param":{"num_deleted":"0","num_feature":"10","num_nodes":"15","size_leaf_vector":"1"}},{"base_weights":[2.4415299E-3,7.029261E0,-1.6618836E0,5.6593595E0,6.1722908E1,-9.887976E0,1.313606E-1,2.2441219E-1,3.39931E-2,8.794725E-2,1.0723373E0,-5.701884E-1,-8.05267E-2,2.7525222E-2,-7.135445E-2],"categories":[],"categories_nodes":[],"categories_segments":[],"categories_sizes":[],"default_left":[0,0,0,0,0,0,0,0,0,0,0,0,0,0,0],"id":50,"left_children":[1,3,5,7,9,11,13,-1,-1,-1,-1,-1,-1,-1,-1],"loss_changes":[2.051989E5,2.513985E5,2.0926455E5,1.2428906E5,1.965789E5,2.191631E5,2.218846E5,0E0,0E0,0E0,0E0,0E0,0E0,0E0,0E0],"parents":[2147483647,0,0,1,1,2,2,3,3,4,4,5,5,6,6],"right_children":[2,4,6,8,10,12,14,-1,-1,-1,-1,-1,-1,-1,-1],"split_conditions":[1.0537659E5,2.1202376E2,1.06527305E5,1.01859555E5,1.027754E5,-1.7250728E2,1.1815001E5,2.2441219E-1,3.39931E-2,8.794725E-2,1.0723373E0,-5.701884E-1,-8.05267E-2,2.7525222E-2,-7.135445E-2],"split_indices":[9,6,7,7,7,6,8,0,0,0,0,0,0,0,0],"split_type":[0,0,0,0,0,0,0,0,0,0,0,0,0,0,0],"sum_hessian":[1.7544E4,3.359E3,1.4185E4,3.278E3,8.1E1,2.538E3,1.1647E4,3.88E2,2.89E3,3.8E1,4.3E1,9.4E1,2.444E3,8.56E3,3.087E3],"tree_param":{"num_deleted":"0","num_feature":"10","num_nodes":"15","size_leaf_vector":"1"}},{"base_weights":[2.4583866E-3,4.3277425E-1,-2.6824715E1,2.1130486E1,-7.3091805E-2,-3.2834736E1,2.37523E1,9.5675105E-1,1.5445785E-1,-1.7190576E-1,6.452546E-3,4.989366E-2,-4.4407302E-1,3.5400093E-1,9.744498E-2],"categories":[],"categories_nodes":[],"categories_segments":[],"categories_sizes":[],"default_left":[0,0,0,0,0,0,0,0,0,0,0,0,0,0,0],"id":51,"left_children":[1,3,5,7,9,11,13,-1,-1,-1,-1,-1,-1,-1,-1],"loss_changes":[2.0255384E5,1.8081262E5,8.497933E4,1.7311288E5,2.0730184E5,1.0877656E5,4.5498438E3,0E0,0E0,0E0,0E0,0E0,0E0,0E0,0E0],"parents":[2147483647,0,0,1,1,2,2,3,3,4,4,5,5,6,6],"right_children":[2,4,6,8,10,12,14,-1,-1,-1,-1,-1,-1,-1,-1],"split_conditions":[1.1958572E5,1.0254195E5,2.8044455E2,-6.142927E1,-1.8015848E2,-8.482248E1,4.1369992E2,9.5675105E-1,1.5445785E-1,-1.7190576E-1,6.452546E-3,4.989366E-2,-4.4407302E-1,3.5400093E-1,9.744498E-2],"split_indices":[4,9,6,3,6,6,6,0,0,0,0,0,0,0,0],"split_type":[0,0,0,0,0,0,0,0,0,0,0,0,0,0,0],"sum_hessian":[1.7544E4,1.7268E4,2.76E2,4.11E2,1.6857E4,2.47E2,2.9E1,2.8E1,3.83E2,6.78E2,1.6179E4,5.8E1,1.89E2,1.5E1,1.4E1],"tree_param":{"num_deleted":"0","num_feature":"10","num_nodes":"15","size_leaf_vector":"1"}},{"base_weights":[2.490957E-3,1.0143023E0,-1.1280188E1,2.094861E1,4.9082068E-1,-1.2414421E1,4.081937E1,2.3924373E-1,-1.1495771E0,-2.7011424E-1,9.813588E-3,-8.78893E-2,-3.7539807E-1,6.852444E-1,6.6989996E-2],"categories":[],"categories_nodes":[],"categories_segments":[],"categories_sizes":[],"default_left":[0,0,0,0,0,0,0,0,0,0,0,0,0,0,0],"id":52,"left_children":[1,3,5,7,9,11,13,-1,-1,-1,-1,-1,-1,-1,-1],"loss_changes":[2.0030414E5,1.68018E5,8.5837125E4,1.693734E5,2.1171225E5,1.28473984E5,2.8845484E4,0E0,0E0,0E0,0E0,0E0,0E0,0E0,0E0],"parents":[2147483647,0,0,1,1,2,2,3,3,4,4,5,5,6,6],"right_children":[2,4,6,8,10,12,14,-1,-1,-1,-1,-1,-1,-1,-1],"split_conditions":[1.1884E5,1.01859555E5,3.8343127E2,1.0334155E5,1.027754E5,1.2018241E5,1.2189539E5,2.3924373E-1,-1.1495771E0,-2.7011424E-1,9.813588E-3,-8.78893E-2,-3.7539807E-1,6.852444E-1,6.6989996E-2],"split_indices":[8,7,5,9,7,0,1,0,0,0,0,0,0,0,0],"split_type":[0,0,0,0,0,0,0,0,0,0,0,0,0,0,0],"sum_hessian":[1.7544E4,1.6101E4,1.443E3,4.11E2,1.569E4,1.413E3,3E1,4.03E2,8E0,2.74E2,1.5416E4,1.236E3,1.77E2,1.6E1,1.4E1],"tree_param":{"num_deleted":"0","num_feature":"10","num_nodes":"15","size_leaf_vector":"1"}},{"base_weights":[2.4157574E-3,6.9263363E0,-1.6375375E0,5.5719657E0,6.100018E1,-9.799641E0,1.4175671E-1,2.1834491E-1,3.3818256E-2,8.4754E-2,1.0616987E0,-5.6311166E-1,-7.988436E-2,2.715486E-2,-6.993554E-2],"categories":[],"categories_nodes":[],"categories_segments":[],"categories_sizes":[],"default_left":[0,0,0,0,0,0,0,0,0,0,0,0,0,0,0],"id":53,"left_children":[1,3,5,7,9,11,13,-1,-1,-1,-1,-1,-1,-1,-1],"loss_changes":[1.9923317E5,2.4573317E5,2.0602156E5,1.1671498E5,1.9364744E5,2.1344033E5,2.1392703E5,0E0,0E0,0E0,0E0,0E0,0E0,0E0,0E0],"parents":[2147483647,0,0,1,1,2,2,3,3,4,4,5,5,6,6],"right_children":[2,4,6,8,10,12,14,-1,-1,-1,-1,-1,-1,-1,-1],"split_conditions":[1.0537659E5,2.1202376E2,1.06527305E5,1.01859555E5,1.027754E5,-1.7250728E2,1.1815001E5,2.1834491E-1,3.3818256E-2,8.4754E-2,1.0616987E0,-5.6311166E-1,-7.988436E-2,2.715486E-2,-6.993554E-2],"split_indices":[9,6,7,7,7,6,8,0,0,0,0,0,0,0,0],"split_type":[0,0,0,0,0,0,0,0,0,0,0,0,0,0,0],"sum_hessian":[1.7544E4,3.359E3,1.4185E4,3.278E3,8.1E1,2.538E3,1.1647E4,3.88E2,2.89E3,3.8E1,4.3E1,9.4E1,2.444E3,8.56E3,3.087E3],"tree_param":{"num_deleted":"0","num_feature":"10","num_nodes":"15","size_leaf_vector":"1"}},{"base_weights":[2.4324257E-3,6.857489E0,-1.6212101E0,5.516323E0,6.040416E1,-9.701898E0,1.403357E-1,2.1627614E-1,3.3465516E-2,8.392819E-2,1.0513229E0,-5.575398E-1,-7.908584E-2,1.9071577E-2,-1.0065995E-1],"categories":[],"categories_nodes":[],"categories_segments":[],"categories_sizes":[],"default_left":[0,0,0,0,0,0,0,0,0,0,0,0,0,0,0],"id":54,"left_children":[1,3,5,7,9,11,13,-1,-1,-1,-1,-1,-1,-1,-1],"loss_changes":[1.952898E5,2.4096519E5,2.0193198E5,1.1455433E5,1.8988E5,2.092444E5,2.1006492E5,0E0,0E0,0E0,0E0,0E0,0E0,0E0,0E0],"parents":[2147483647,0,0,1,1,2,2,3,3,4,4,5,5,6,6],"right_children":[2,4,6,8,10,12,14,-1,-1,-1,-1,-1,-1,-1,-1],"split_conditions":[1.0537659E5,2.1202376E2,1.06527305E5,1.0254195E5,1.027754E5,-1.7250728E2,1.1855E5,2.1627614E-1,3.3465516E-2,8.392819E-2,1.0513229E0,-5.575398E-1,-7.908584E-2,1.9071577E-2,-1.0065995E-1],"split_indices":[9,6,7,9,7,6,2,0,0,0,0,0,0,0,0],"split_type":[0,0,0,0,0,0,0,0,0,0,0,0,0,0,0],"sum_hessian":[1.7544E4,3.359E3,1.4185E4,3.278E3,8.1E1,2.538E3,1.1647E4,3.88E2,2.89E3,3.8E1,4.3E1,9.4E1,2.444E3,9.929E3,1.718E3],"tree_param":{"num_deleted":"0","num_feature":"10","num_nodes":"15","size_leaf_vector":"1"}},{"base_weights":[2.4458389E-3,4.222044E-1,-2.6166555E1,6.7893267E0,-1.1158223E0,-3.2085915E1,2.3639042E1,5.4612353E-2,5.981396E-1,-9.605129E-2,7.7966354E-3,5.3990893E-2,-4.355712E-1,3.5154697E-1,9.77974E-2],"categories":[],"categories_nodes":[],"categories_segments":[],"categories_sizes":[],"default_left":[0,0,0,0,0,0,0,0,0,0,0,0,0,0,0],"id":55,"left_children":[1,3,5,7,9,11,13,-1,-1,-1,-1,-1,-1,-1,-1],"loss_changes":[1.9273694E5,1.6911952E5,8.242286E4,2.3628967E5,2.2383834E5,1.0687475E5,4.444164E3,0E0,0E0,0E0,0E0,0E0,0E0,0E0,0E0],"parents":[2147483647,0,0,1,1,2,2,3,3,4,4,5,5,6,6],"right_children":[2,4,6,8,10,12,14,-1,-1,-1,-1,-1,-1,-1,-1],"split_conditions":[1.1958572E5,1.0537659E5,2.8044455E2,2.1202376E2,1.06527305E5,-8.482248E1,4.1369992E2,5.4612353E-2,5.981396E-1,-9.605129E-2,7.7966354E-3,5.3990893E-2,-4.355712E-1,3.5154697E-1,9.77974E-2],"split_indices":[4,9,6,6,7,6,6,0,0,0,0,0,0,0,0],"split_type":[0,0,0,0,0,0,0,0,0,0,0,0,0,0,0],"sum_hessian":[1.7544E4,1.7268E4,2.76E2,3.359E3,1.3909E4,2.47E2,2.9E1,3.278E3,8.1E1,2.538E3,1.1371E4,5.8E1,1.89E2,1.5E1,1.4E1],"tree_param":{"num_deleted":"0","num_feature":"10","num_nodes":"15","size_leaf_vector":"1"}},{"base_weights":[2.45749E-3,1.0110778E0,-1.0701201E1,2.0250235E1,5.036825E-1,5.086076E1,-1.1729008E1,2.3195472E-1,-1.1420825E0,-2.6924184E-1,9.950284E-3,8.138579E-2,7.4383324E-1,-1.2831737E-1,4.0477625E-1],"categories":[],"categories_nodes":[],"categories_segments":[],"categories_sizes":[],"default_left":[0,0,0,0,0,0,0,0,0,0,0,0,0,0,0],"id":56,"left_children":[1,3,5,7,9,11,13,-1,-1,-1,-1,-1,-1,-1,-1],"loss_changes":[1.8942538E5,1.5652119E5,9.620319E4,1.6580614E5,2.1058473E5,2.4518008E4,8.612566E4,0E0,0E0,0E0,0E0,0E0,0E0,0E0,0E0],"parents":[2147483647,0,0,1,1,2,2,3,3,4,4,5,5,6,6],"right_children":[2,4,6,8,10,12,14,-1,-1,-1,-1,-1,-1,-1,-1],"split_conditions":[1.1908527E5,1.01859555E5,-1.016758E2,1.0334155E5,1.027754E5,-8.78667E1,3.8343127E2,2.3195472E-1,-1.1420825E0,-2.6924184E-1,9.950284E-3,8.138579E-2,7.4383324E-1,-1.2831737E-1,4.0477625E-1],"split_indices":[9,7,3,9,7,6,5,0,0,0,0,0,0,0,0],"split_type":[0,0,0,0,0,0,0,0,0,0,0,0,0,0,0],"sum_hessian":[1.7544E4,1.6034E4,1.51E3,4.11E2,1.5623E4,2.4E1,1.486E3,4.03E2,8E0,2.74E2,1.5349E4,9E0,1.5E1,1.456E3,3E1],"tree_param":{"num_deleted":"0","num_feature":"10","num_nodes":"15","size_leaf_vector":"1"}},{"base_weights":[2.4288984E-3,4.167163E-1,-2.5825483E1,6.7105627E0,-1.1036102E0,-3.165019E1,2.3186275E1,5.395828E-2,5.9202087E-1,-9.519062E-2,7.7538523E-3,5.4686017E-2,-4.300997E-1,3.4712192E-1,9.3462124E-2],"categories":[],"categories_nodes":[],"categories_segments":[],"categories_sizes":[],"default_left":[0,0,0,0,0,0,0,0,0,0,0,0,0,0,0],"id":57,"left_children":[1,3,5,7,9,11,13,-1,-1,-1,-1,-1,-1,-1,-1],"loss_changes":[1.8774539E5,1.6524933E5,7.981155E4,2.3156233E5,2.1996058E5,1.0480722E5,4.461157E3,0E0,0E0,0E0,0E0,0E0,0E0,0E0,0E0],"parents":[2147483647,0,0,1,1,2,2,3,3,4,4,5,5,6,6],"right_children":[2,4,6,8,10,12,14,-1,-1,-1,-1,-1,-1,-1,-1],"split_conditions":[1.1958572E5,1.0537659E5,2.8044455E2,2.1202376E2,1.06527305E5,-8.482248E1,4.1369992E2,5.395828E-2,5.9202087E-1,-9.519062E-2,7.7538523E-3,5.4686017E-2,-4.300997E-1,3.4712192E-1,9.3462124E-2],"split_indices":[4,9,6,6,7,6,6,0,0,0,0,0,0,0,0],"split_type":[0,0,0,0,0,0,0,0,0,0,0,0,0,0,0],"sum_hessian":[1.7544E4,1.7268E4,2.76E2,3.359E3,1.3909E4,2.47E2,2.9E1,3.278E3,8.1E1,2.538E3,1.1371E4,5.8E1,1.89E2,1.5E1,1.4E1],"tree_param":{"num_deleted":"0","num_feature":"10","num_nodes":"15","size_leaf_vector":"1"}},{"base_weights":[2.4405199E-3,9.97038E-1,-1.0552406E1,1.9974642E1,4.9654073E-1,5.0428383E1,-1.1570541E1,6.427249E-1,1.0562853E-1,-2.6758483E-1,9.8479055E-3,1.3911165E-1,7.8126824E-1,-1.2659119E-1,3.9965832E-1],"categories":[],"categories_nodes":[],"categories_segments":[],"categories_sizes":[],"default_left":[0,0,0,0,0,0,0,0,0,0,0,0,0,0,0],"id":58,"left_children":[1,3,5,7,9,11,13,-1,-1,-1,-1,-1,-1,-1,-1],"loss_changes":[1.8419484E5,1.5229433E5,9.4396484E4,1.7109297E5,2.0793902E5,2.4199922E4,8.392859E4,0E0,0E0,0E0,0E0,0E0,0E0,0E0,0E0],"parents":[2147483647,0,0,1,1,2,2,3,3,4,4,5,5,6,6],"right_children":[2,4,6,8,10,12,14,-1,-1,-1,-1,-1,-1,-1,-1],"split_conditions":[1.1908527E5,1.0254195E5,-1.016758E2,-1.5012245E2,1.027754E5,-7.234152E1,3.8343127E2,6.427249E-1,1.0562853E-1,-2.6758483E-1,9.8479055E-3,1.3911165E-1,7.8126824E-1,-1.2659119E-1,3.9965832E-1],"split_indices":[9,9,3,5,7,6,5,0,0,0,0,0,0,0,0],"split_type":[0,0,0,0,0,0,0,0,0,0,0,0,0,0,0],"sum_hessian":[1.7544E4,1.6034E4,1.51E3,4.11E2,1.5623E4,2.4E1,1.486E3,7.1E1,3.4E2,2.74E2,1.5349E4,1.1E1,1.3E1,1.456E3,3E1],"tree_param":{"num_deleted":"0","num_feature":"10","num_nodes":"15","size_leaf_vector":"1"}},{"base_weights":[2.5119735E-3,4.114138E-1,-2.5489647E1,6.6333632E0,-1.0915453E0,-3.1221174E1,2.2740637E1,5.3309917E-2,5.8631444E-1,-9.433753E-2,7.7109593E-3,5.5347845E-2,-4.2470545E-1,3.427521E-1,8.9210495E-2],"categories":[],"categories_nodes":[],"categories_segments":[],"categories_sizes":[],"default_left":[0,0,0,0,0,0,0,0,0,0,0,0,0,0,0],"id":59,"left_children":[1,3,5,7,9,11,13,-1,-1,-1,-1,-1,-1,-1,-1],"loss_changes":[1.8289589E5,1.6149547E5,7.7281984E4,2.2722936E5,2.1614839E5,1.0277845E5,4.4763203E3,0E0,0E0,0E0,0E0,0E0,0E0,0E0,0E0],"parents":[2147483647,0,0,1,1,2,2,3,3,4,4,5,5,6,6],"right_children":[2,4,6,8,10,12,14,-1,-1,-1,-1,-1,-1,-1,-1],"split_conditions":[1.1958572E5,1.0537659E5,2.8044455E2,2.1202376E2,1.06527305E5,-8.482248E1,4.1369992E2,5.3309917E-2,5.8631444E-1,-9.433753E-2,7.7109593E-3,5.5347845E-2,-4.2470545E-1,3.427521E-1,8.9210495E-2],"split_indices":[4,9,6,6,7,6,6,0,0,0,0,0,0,0,0],"split_type":[0,0,0,0,0,0,0,0,0,0,0,0,0,0,0],"sum_hessian":[1.7544E4,1.7268E4,2.76E2,3.359E3,1.3909E4,2.47E2,2.9E1,3.278E3,8.1E1,2.538E3,1.1371E4,5.8E1,1.89E2,1.5E1,1.4E1],"tree_param":{"num_deleted":"0","num_feature":"10","num_nodes":"15","size_leaf_vector":"1"}},{"base_weights":[2.5219421E-3,6.334229E0,-1.6131302E0,5.1783667E0,5.2509212E1,-1.0395028E1,1.4519729E-1,4.4422057E-1,4.371732E-2,6.587503E-2,8.7987524E-1,-3.3272257E-1,-6.487024E-2,2.6265955E-2,-6.73414E-2],"categories":[],"categories_nodes":[],"categories_segments":[],"categories_sizes":[],"default_left":[0,0,0,0,0,0,0,0,0,0,0,0,0,0,0],"id":60,"left_children":[1,3,5,7,9,11,13,-1,-1,-1,-1,-1,-1,-1,-1],"loss_changes":[1.794927E5,1.9010578E5,2.1585756E5,1.0999795E5,1.411629E5,2.08275E5,1.9885344E5,0E0,0E0,0E0,0E0,0E0,0E0,0E0,0E0],"parents":[2147483647,0,0,1,1,2,2,3,3,4,4,5,5,6,6],"right_children":[2,4,6,8,10,12,14,-1,-1,-1,-1,-1,-1,-1,-1],"split_conditions":[1.0544664E5,2.1202376E2,1.06527305E5,9.953538E4,1.027754E5,-8.482248E1,1.1815001E5,4.4422057E-1,4.371732E-2,6.587503E-2,8.7987524E-1,-3.3272257E-1,-6.487024E-2,2.6265955E-2,-6.73414E-2],"split_indices":[9,6,7,0,7,6,8,0,0,0,0,0,0,0,0],"split_type":[0,0,0,0,0,0,0,0,0,0,0,0,0,0,0],"sum_hessian":[1.7544E4,3.566E3,1.3978E4,3.48E3,8.6E1,2.331E3,1.1647E4,6.9E1,3.411E3,3.8E1,4.8E1,3.39E2,1.992E3,8.56E3,3.087E3],"tree_param":{"num_deleted":"0","num_feature":"10","num_nodes":"15","size_leaf_vector":"1"}},{"base_weights":[2.5535824E-3,4.0628755E-1,-2.5167427E1,1.9603292E1,-6.290052E-2,-3.0843382E1,2.2592726E1,2.2510795E-1,-1.1308942E0,-1.7307714E-1,6.2642787E-3,5.5465754E-2,-4.198109E-1,3.4017012E-1,8.900639E-2],"categories":[],"categories_nodes":[],"categories_segments":[],"categories_sizes":[],"default_left":[0,0,0,0,0,0,0,0,0,0,0,0,0,0,0],"id":61,"left_children":[1,3,5,7,9,11,13,-1,-1,-1,-1,-1,-1,-1,-1],"loss_changes":[1.7830211E5,1.5554322E5,7.578725E4,1.6149714E5,2.0040762E5,1.0074741E5,4.3898975E3,0E0,0E0,0E0,0E0,0E0,0E0,0E0,0E0],"parents":[2147483647,0,0,1,1,2,2,3,3,4,4,5,5,6,6],"right_children":[2,4,6,8,10,12,14,-1,-1,-1,-1,-1,-1,-1,-1],"split_conditions":[1.1958572E5,1.01859555E5,2.8044455E2,1.0334155E5,-1.8015848E2,-8.482248E1,4.1369992E2,2.2510795E-1,-1.1308942E0,-1.7307714E-1,6.2642787E-3,5.5465754E-2,-4.198109E-1,3.4017012E-1,8.900639E-2],"split_indices":[4,7,6,9,6,6,6,0,0,0,0,0,0,0,0],"split_type":[0,0,0,0,0,0,0,0,0,0,0,0,0,0,0],"sum_hessian":[1.7544E4,1.7268E4,2.76E2,4.11E2,1.6857E4,2.47E2,2.9E1,4.03E2,8E0,6.47E2,1.621E4,5.8E1,1.89E2,1.5E1,1.4E1],"tree_param":{"num_deleted":"0","num_feature":"10","num_nodes":"15","size_leaf_vector":"1"}},{"base_weights":[2.4705923E-3,9.2397285E-1,-1.086078E1,1.9405062E1,4.4087112E-1,-1.2013952E1,3.941078E1,2.2286245E-1,-1.1208417E0,-2.6637626E-1,9.216088E-3,-8.363786E-2,-3.583659E-1,6.684134E-1,5.6954253E-2],"categories":[],"categories_nodes":[],"categories_segments":[],"categories_sizes":[],"default_left":[0,0,0,0,0,0,0,0,0,0,0,0,0,0,0],"id":62,"left_children":[1,3,5,7,9,11,13,-1,-1,-1,-1,-1,-1,-1,-1],"loss_changes":[1.7564442E5,1.4439689E5,8.0010766E4,1.5858192E5,2.0522183E5,1.16395984E5,2.8289078E4,0E0,0E0,0E0,0E0,0E0,0E0,0E0,0E0],"parents":[2147483647,0,0,1,1,2,2,3,3,4,4,5,5,6,6],"right_children":[2,4,6,8,10,12,14,-1,-1,-1,-1,-1,-1,-1,-1],"split_conditions":[1.1874436E5,1.01859555E5,3.8343127E2,1.0334155E5,1.027754E5,1.2018241E5,1.2189539E5,2.2286245E-1,-1.1208417E0,-2.6637626E-1,9.216088E-3,-8.363786E-2,-3.583659E-1,6.684134E-1,5.6954253E-2],"split_indices":[2,7,5,9,7,0,1,0,0,0,0,0,0,0,0],"split_type":[0,0,0,0,0,0,0,0,0,0,0,0,0,0,0],"sum_hessian":[1.7544E4,1.6173E4,1.371E3,4.11E2,1.5762E4,1.341E3,3E1,4.03E2,8E0,2.74E2,1.5488E4,1.164E3,1.77E2,1.6E1,1.4E1],"tree_param":{"num_deleted":"0","num_feature":"10","num_nodes":"15","size_leaf_vector":"1"}},{"base_weights":[2.3961165E-3,6.2412486E0,-1.5895625E0,5.0979934E0,5.1912865E1,-1.0300492E1,1.5455483E-1,4.3542612E-1,4.307776E-2,6.359173E-2,8.7110436E-1,-3.2913223E-1,-6.4376585E-2,2.5916416E-2,-6.601939E-2],"categories":[],"categories_nodes":[],"categories_segments":[],"categories_sizes":[],"default_left":[0,0,0,0,0,0,0,0,0,0,0,0,0,0,0],"id":63,"left_children":[1,3,5,7,9,11,13,-1,-1,-1,-1,-1,-1,-1,-1],"loss_changes":[1.7426678E5,1.859838E5,2.123829E5,1.0556384E5,1.3894006E5,2.0348653E5,1.9181498E5,0E0,0E0,0E0,0E0,0E0,0E0,0E0,0E0],"parents":[2147483647,0,0,1,1,2,2,3,3,4,4,5,5,6,6],"right_children":[2,4,6,8,10,12,14,-1,-1,-1,-1,-1,-1,-1,-1],"split_conditions":[1.0544664E5,2.1202376E2,1.06527305E5,9.953538E4,1.027754E5,-8.482248E1,1.1815001E5,4.3542612E-1,4.307776E-2,6.359173E-2,8.7110436E-1,-3.2913223E-1,-6.4376585E-2,2.5916416E-2,-6.601939E-2],"split_indices":[9,6,7,0,7,6,8,0,0,0,0,0,0,0,0],"split_type":[0,0,0,0,0,0,0,0,0,0,0,0,0,0,0],"sum_hessian":[1.7544E4,3.566E3,1.3978E4,3.48E3,8.6E1,2.331E3,1.1647E4,6.9E1,3.411E3,3.8E1,4.8E1,3.39E2,1.992E3,8.56E3,3.087E3],"tree_param":{"num_deleted":"0","num_feature":"10","num_nodes":"15","size_leaf_vector":"1"}},{"base_weights":[2.4281824E-3,3.9770064E-1,-2.4640036E1,7.0059533E0,-9.24896E-1,-3.0230059E1,2.2392172E1,5.5848878E-2,5.256285E-1,1.8272445E-3,-1.0764282E-1,5.8347397E-2,-4.1270024E-1,3.3684963E-1,8.853715E-2],"categories":[],"categories_nodes":[],"categories_segments":[],"categories_sizes":[],"default_left":[0,0,0,0,0,0,0,0,0,0,0,0,0,0,0],"id":64,"left_children":[1,3,5,7,9,11,13,-1,-1,-1,-1,-1,-1,-1,-1],"loss_changes":[1.7090662E5,1.5093845E5,7.350333E4,1.861557E5,1.568286E5,9.8982984E4,4.288374E3,0E0,0E0,0E0,0E0,0E0,0E0,0E0,0E0],"parents":[2147483647,0,0,1,1,2,2,3,3,4,4,5,5,6,6],"right_children":[2,4,6,8,10,12,14,-1,-1,-1,-1,-1,-1,-1,-1],"split_conditions":[1.1958572E5,1.0490724E5,2.8044455E2,2.1202376E2,3.758195E1,-8.482248E1,4.1369992E2,5.5848878E-2,5.256285E-1,1.8272445E-3,-1.0764282E-1,5.8347397E-2,-4.1270024E-1,3.3684963E-1,8.853715E-2],"split_indices":[4,7,6,6,3,6,6,0,0,0,0,0,0,0,0],"split_type":[0,0,0,0,0,0,0,0,0,0,0,0,0,0,0],"sum_hessian":[1.7544E4,1.7268E4,2.76E2,2.879E3,1.4389E4,2.47E2,2.9E1,2.793E3,8.6E1,1.2934E4,1.455E3,5.8E1,1.89E2,1.5E1,1.4E1],"tree_param":{"num_deleted":"0","num_feature":"10","num_nodes":"15","size_leaf_vector":"1"}},{"base_weights":[2.4347631E-3,9.5216554E-1,-1.0076279E1,1.9017065E1,4.7573888E-1,5.020697E1,-1.1083007E1,2.1870328E-1,-1.111758E0,-2.6497528E-1,9.5894225E-3,1.3837415E-1,7.779466E-1,-1.2141238E-1,3.9011368E-1],"categories":[],"categories_nodes":[],"categories_segments":[],"categories_sizes":[],"default_left":[0,0,0,0,0,0,0,0,0,0,0,0,0,0,0],"id":65,"left_children":[1,3,5,7,9,11,13,-1,-1,-1,-1,-1,-1,-1,-1],"loss_changes":[1.6795147E5,1.379978E5,9.22573E4,1.5547902E5,2.03662E5,2.4007324E4,7.930164E4,0E0,0E0,0E0,0E0,0E0,0E0,0E0,0E0],"parents":[2147483647,0,0,1,1,2,2,3,3,4,4,5,5,6,6],"right_children":[2,4,6,8,10,12,14,-1,-1,-1,-1,-1,-1,-1,-1],"split_conditions":[1.1908527E5,1.01859555E5,-1.016758E2,1.0334155E5,1.027754E5,-7.234152E1,3.8343127E2,2.1870328E-1,-1.111758E0,-2.6497528E-1,9.5894225E-3,1.3837415E-1,7.779466E-1,-1.2141238E-1,3.9011368E-1],"split_indices":[9,7,3,9,7,6,5,0,0,0,0,0,0,0,0],"split_type":[0,0,0,0,0,0,0,0,0,0,0,0,0,0,0],"sum_hessian":[1.7544E4,1.6034E4,1.51E3,4.11E2,1.5623E4,2.4E1,1.486E3,4.03E2,8E0,2.74E2,1.5349E4,1.1E1,1.3E1,1.456E3,3E1],"tree_param":{"num_deleted":"0","num_feature":"10","num_nodes":"15","size_leaf_vector":"1"}},{"base_weights":[2.4126885E-3,6.1164365E0,-1.5576936E0,5.048945E0,5.3184303E1,-1.0202176E1,1.7311786E-1,4.2842776E-1,4.2739104E-2,6.728365E-2,9.192117E-1,-3.2595196E-1,-6.376874E-2,2.6735323E-2,-6.1663765E-2],"categories":[],"categories_nodes":[],"categories_segments":[],"categories_sizes":[],"default_left":[0,0,0,0,0,0,0,0,0,0,0,0,0,0,0],"id":66,"left_children":[1,3,5,7,9,11,13,-1,-1,-1,-1,-1,-1,-1,-1],"loss_changes":[1.6736298E5,1.7895378E5,2.0915516E5,1.0201499E5,1.415466E5,1.9955142E5,1.8465316E5,0E0,0E0,0E0,0E0,0E0,0E0,0E0,0E0],"parents":[2147483647,0,0,1,1,2,2,3,3,4,4,5,5,6,6],"right_children":[2,4,6,8,10,12,14,-1,-1,-1,-1,-1,-1,-1,-1],"split_conditions":[1.0544664E5,2.2088953E2,1.06527305E5,9.953538E4,1.027754E5,-8.482248E1,1.1803323E5,4.2842776E-1,4.2739104E-2,6.728365E-2,9.192117E-1,-3.2595196E-1,-6.376874E-2,2.6735323E-2,-6.1663765E-2],"split_indices":[9,6,7,0,7,6,1,0,0,0,0,0,0,0,0],"split_type":[0,0,0,0,0,0,0,0,0,0,0,0,0,0,0],"sum_hessian":[1.7544E4,3.566E3,1.3978E4,3.488E3,7.8E1,2.331E3,1.1647E4,6.9E1,3.419E3,3.6E1,4.2E1,3.39E2,1.992E3,8.353E3,3.294E3],"tree_param":{"num_deleted":"0","num_feature":"10","num_nodes":"15","size_leaf_vector":"1"}},{"base_weights":[2.447419E-3,3.916014E-1,-2.4258574E1,6.869929E0,-9.049916E-1,-2.9758778E1,2.2018387E1,5.475425E-2,5.1575357E-1,1.8985901E-3,-1.0630945E-1,5.952951E-2,-4.069158E-1,3.331701E-1,8.498629E-2],"categories":[],"categories_nodes":[],"categories_segments":[],"categories_sizes":[],"default_left":[0,0,0,0,0,0,0,0,0,0,0,0,0,0,0],"id":67,"left_children":[1,3,5,7,9,11,13,-1,-1,-1,-1,-1,-1,-1,-1],"loss_changes":[1.6565664E5,1.4506156E5,7.11608E4,1.7926222E5,1.5323347E5,9.706872E4,4.2994893E3,0E0,0E0,0E0,0E0,0E0,0E0,0E0,0E0],"parents":[2147483647,0,0,1,1,2,2,3,3,4,4,5,5,6,6],"right_children":[2,4,6,8,10,12,14,-1,-1,-1,-1,-1,-1,-1,-1],"split_conditions":[1.1958572E5,1.0490724E5,2.8044455E2,2.1202376E2,3.758195E1,-8.482248E1,4.1369992E2,5.475425E-2,5.1575357E-1,1.8985901E-3,-1.0630945E-1,5.952951E-2,-4.069158E-1,3.331701E-1,8.498629E-2],"split_indices":[4,7,6,6,3,6,6,0,0,0,0,0,0,0,0],"split_type":[0,0,0,0,0,0,0,0,0,0,0,0,0,0,0],"sum_hessian":[1.7544E4,1.7268E4,2.76E2,2.879E3,1.4389E4,2.47E2,2.9E1,2.793E3,8.6E1,1.2934E4,1.455E3,5.8E1,1.89E2,1.5E1,1.4E1],"tree_param":{"num_deleted":"0","num_feature":"10","num_nodes":"15","size_leaf_vector":"1"}},{"base_weights":[2.4535246E-3,3.877124E-1,-2.4015734E1,6.2287397E0,-1.0232323E0,-2.946259E1,2.1812141E1,4.9953964E-2,5.547146E-1,-9.080921E-2,7.7587906E-3,5.89443E-2,-4.0286806E-1,3.300466E-1,8.4193096E-2],"categories":[],"categories_nodes":[],"categories_segments":[],"categories_sizes":[],"default_left":[0,0,0,0,0,0,0,0,0,0,0,0,0,0,0],"id":68,"left_children":[1,3,5,7,9,11,13,-1,-1,-1,-1,-1,-1,-1,-1],"loss_changes":[1.6235703E5,1.4232655E5,6.97868E4,2.037864E5,2.0165586E5,9.515006E4,4.2191104E3,0E0,0E0,0E0,0E0,0E0,0E0,0E0,0E0],"parents":[2147483647,0,0,1,1,2,2,3,3,4,4,5,5,6,6],"right_children":[2,4,6,8,10,12,14,-1,-1,-1,-1,-1,-1,-1,-1],"split_conditions":[1.1958572E5,1.0537659E5,2.8044455E2,2.1202376E2,1.06527305E5,-8.482248E1,4.1369992E2,4.9953964E-2,5.547146E-1,-9.080921E-2,7.7587906E-3,5.89443E-2,-4.0286806E-1,3.300466E-1,8.4193096E-2],"split_indices":[4,9,6,6,7,6,6,0,0,0,0,0,0,0,0],"split_type":[0,0,0,0,0,0,0,0,0,0,0,0,0,0,0],"sum_hessian":[1.7544E4,1.7268E4,2.76E2,3.359E3,1.3909E4,2.47E2,2.9E1,3.278E3,8.1E1,2.538E3,1.1371E4,5.8E1,1.89E2,1.5E1,1.4E1],"tree_param":{"num_deleted":"0","num_feature":"10","num_nodes":"15","size_leaf_vector":"1"}},{"base_weights":[2.462725E-3,8.8108855E-1,-1.0355333E1,1.8568045E1,4.1874593E-1,-1.1475952E1,3.849064E1,9.176356E-1,1.2991904E-1,-2.644967E-1,8.957552E-3,-7.929386E-2,-3.4623548E-1,7.924964E-1,1.5307797E-1],"categories":[],"categories_nodes":[],"categories_segments":[],"categories_sizes":[],"default_left":[0,0,0,0,0,0,0,0,0,0,0,0,0,0,0],"id":69,"left_children":[1,3,5,7,9,11,13,-1,-1,-1,-1,-1,-1,-1,-1],"loss_changes":[1.5967964E5,1.3225403E5,7.554183E4,1.6696502E5,2.0204995E5,1.09896234E5,2.8079055E4,0E0,0E0,0E0,0E0,0E0,0E0,0E0,0E0],"parents":[2147483647,0,0,1,1,2,2,3,3,4,4,5,5,6,6],"right_children":[2,4,6,8,10,12,14,-1,-1,-1,-1,-1,-1,-1,-1],"split_conditions":[1.1874436E5,1.0254195E5,3.8343127E2,-6.142927E1,1.027754E5,1.2018241E5,1.1958572E5,9.176356E-1,1.2991904E-1,-2.644967E-1,8.957552E-3,-7.929386E-2,-3.4623548E-1,7.924964E-1,1.5307797E-1],"split_indices":[2,9,5,3,7,0,4,0,0,0,0,0,0,0,0],"split_type":[0,0,0,0,0,0,0,0,0,0,0,0,0,0,0],"sum_hessian":[1.7544E4,1.6173E4,1.371E3,4.11E2,1.5762E4,1.341E3,3E1,2.8E1,3.83E2,2.74E2,1.5488E4,1.164E3,1.77E2,1E1,2E1],"tree_param":{"num_deleted":"0","num_feature":"10","num_nodes":"15","size_leaf_vector":"1"}},{"base_weights":[2.5128168E-3,5.942213E0,-1.5131116E0,4.906437E0,5.1611595E1,-1.0013569E1,1.8886113E-1,4.2144182E-1,4.142826E-2,5.5590358E-2,9.003795E-1,-3.2189158E-1,-6.2254522E-2,2.6376426E-2,-6.0197305E-2],"categories":[],"categories_nodes":[],"categories_segments":[],"categories_sizes":[],"default_left":[0,0,0,0,0,0,0,0,0,0,0,0,0,0,0],"id":70,"left_children":[1,3,5,7,9,11,13,-1,-1,-1,-1,-1,-1,-1,-1],"loss_changes":[1.5795531E5,1.6847753E5,2.022437E5,9.903562E4,1.3930039E5,1.9569628E5,1.7710608E5,0E0,0E0,0E0,0E0,0E0,0E0,0E0,0E0],"parents":[2147483647,0,0,1,1,2,2,3,3,4,4,5,5,6,6],"right_children":[2,4,6,8,10,12,14,-1,-1,-1,-1,-1,-1,-1,-1],"split_conditions":[1.0544664E5,2.2088953E2,1.06527305E5,9.953538E4,1.027754E5,-8.482248E1,1.1803323E5,4.2144182E-1,4.142826E-2,5.5590358E-2,9.003795E-1,-3.2189158E-1,-6.2254522E-2,2.6376426E-2,-6.0197305E-2],"split_indices":[9,6,7,0,7,6,1,0,0,0,0,0,0,0,0],"split_type":[0,0,0,0,0,0,0,0,0,0,0,0,0,0,0],"sum_hessian":[1.7544E4,3.566E3,1.3978E4,3.488E3,7.8E1,2.331E3,1.1647E4,6.9E1,3.419E3,3.6E1,4.2E1,3.39E2,1.992E3,8.353E3,3.294E3],"tree_param":{"num_deleted":"0","num_feature":"10","num_nodes":"15","size_leaf_vector":"1"}},{"base_weights":[2.54498E-3,3.7965462E-1,-2.3507595E1,6.6796117E0,-8.8123876E-1,-2.8877577E1,2.166784E1,5.325863E-2,5.0078374E-1,2.0115047E-3,-1.04965016E-1,6.1636373E-2,-3.9606807E-1,3.2857826E-1,8.2873285E-2],"categories":[],"categories_nodes":[],"categories_segments":[],"categories_sizes":[],"default_left":[0,0,0,0,0,0,0,0,0,0,0,0,0,0,0],"id":71,"left_children":[1,3,5,7,9,11,13,-1,-1,-1,-1,-1,-1,-1,-1],"loss_changes":[1.5556114E5,1.3718347E5,6.78235E4,1.6893612E5,1.4976544E5,9.348353E4,4.2195283E3,0E0,0E0,0E0,0E0,0E0,0E0,0E0,0E0],"parents":[2147483647,0,0,1,1,2,2,3,3,4,4,5,5,6,6],"right_children":[2,4,6,8,10,12,14,-1,-1,-1,-1,-1,-1,-1,-1],"split_conditions":[1.1958572E5,1.0490724E5,2.8044455E2,2.1202376E2,3.758195E1,-8.482248E1,4.1369992E2,5.325863E-2,5.0078374E-1,2.0115047E-3,-1.04965016E-1,6.1636373E-2,-3.9606807E-1,3.2857826E-1,8.2873285E-2],"split_indices":[4,7,6,6,3,6,6,0,0,0,0,0,0,0,0],"split_type":[0,0,0,0,0,0,0,0,0,0,0,0,0,0,0],"sum_hessian":[1.7544E4,1.7268E4,2.76E2,2.879E3,1.4389E4,2.47E2,2.9E1,2.793E3,8.6E1,1.2934E4,1.455E3,5.8E1,1.89E2,1.5E1,1.4E1],"tree_param":{"num_deleted":"0","num_feature":"10","num_nodes":"15","size_leaf_vector":"1"}},{"base_weights":[2.549221E-3,9.093173E-1,-9.620236E0,-9.6926814E-1,5.2189174E0,4.9939972E1,-1.0615115E1,5.8324654E-2,-4.1606408E-2,2.699382E-1,3.4042133E-3,1.3702284E-1,7.7433705E-1,-1.17270656E-1,3.4528437E-1],"categories":[],"categories_nodes":[],"categories_segments":[],"categories_sizes":[],"default_left":[0,0,0,0,0,0,0,0,0,0,0,0,0,0,0],"id":72,"left_children":[1,3,5,7,9,11,13,-1,-1,-1,-1,-1,-1,-1,-1],"loss_changes":[1.5310003E5,1.2982366E5,9.006472E4,2.4244655E5,5.171125E5,2.3846715E4,7.5048484E4,0E0,0E0,0E0,0E0,0E0,0E0,0E0,0E0],"parents":[2147483647,0,0,1,1,2,2,3,3,4,4,5,5,6,6],"right_children":[2,4,6,8,10,12,14,-1,-1,-1,-1,-1,-1,-1,-1],"split_conditions":[1.1908527E5,1.1061617E5,-1.016758E2,1.0544664E5,1.1748167E5,-7.234152E1,3.162349E2,5.8324654E-2,-4.1606408E-2,2.699382E-1,3.4042133E-3,1.3702284E-1,7.7433705E-1,-1.17270656E-1,3.4528437E-1],"split_indices":[9,9,3,9,9,6,6,0,0,0,0,0,0,0,0],"split_type":[0,0,0,0,0,0,0,0,0,0,0,0,0,0,0],"sum_hessian":[1.7544E4,1.6034E4,1.51E3,1.1167E4,4.867E3,2.4E1,1.486E3,3.566E3,7.601E3,8.9E2,3.977E3,1.1E1,1.3E1,1.451E3,3.5E1],"tree_param":{"num_deleted":"0","num_feature":"10","num_nodes":"15","size_leaf_vector":"1"}},{"base_weights":[2.605425E-3,3.7495944E-1,-2.3211054E1,1.8169037E1,-5.994002E-2,-2.8485163E1,2.1161938E1,2.0984204E-1,-1.1021954E0,-1.7043832E-1,6.189584E-3,6.2140185E-2,-3.9110246E-1,3.2283896E-1,7.887716E-2],"categories":[],"categories_nodes":[],"categories_segments":[],"categories_sizes":[],"default_left":[0,0,0,0,0,0,0,0,0,0,0,0,0,0,0],"id":73,"left_children":[1,3,5,7,9,11,13,-1,-1,-1,-1,-1,-1,-1,-1],"loss_changes":[1.5166239E5,1.3363958E5,6.5428547E4,1.5122428E5,1.94389E5,9.1676125E4,4.174414E3,0E0,0E0,0E0,0E0,0E0,0E0,0E0,0E0],"parents":[2147483647,0,0,1,1,2,2,3,3,4,4,5,5,6,6],"right_children":[2,4,6,8,10,12,14,-1,-1,-1,-1,-1,-1,-1,-1],"split_conditions":[1.1958572E5,1.01859555E5,2.8044455E2,1.0334155E5,-1.8015848E2,-8.482248E1,4.1369992E2,2.0984204E-1,-1.1021954E0,-1.7043832E-1,6.189584E-3,6.2140185E-2,-3.9110246E-1,3.2283896E-1,7.887716E-2],"split_indices":[4,7,6,9,6,6,6,0,0,0,0,0,0,0,0],"split_type":[0,0,0,0,0,0,0,0,0,0,0,0,0,0,0],"sum_hessian":[1.7544E4,1.7268E4,2.76E2,4.11E2,1.6857E4,2.47E2,2.9E1,4.03E2,8E0,6.47E2,1.621E4,5.8E1,1.89E2,1.5E1,1.4E1],"tree_param":{"num_deleted":"0","num_feature":"10","num_nodes":"15","size_leaf_vector":"1"}},{"base_weights":[2.5233869E-3,9.622601E-1,-8.833867E0,-9.6730405E-1,5.5863824E0,-6.80833E0,-3.1630405E1,5.755369E-2,-4.12158E-2,2.6727915E-1,5.8832113E-3,-7.506273E-2,6.6510755E-1,-4.2799667E-1,1.8988657E-1],"categories":[],"categories_nodes":[],"categories_segments":[],"categories_sizes":[],"default_left":[0,0,0,0,0,0,0,0,0,0,0,0,0,0,0],"id":74,"left_children":[1,3,5,7,9,11,13,-1,-1,-1,-1,-1,-1,-1,-1],"loss_changes":[1.4880078E5,1.4122247E5,7.915991E4,2.3684305E5,4.9239094E5,8.135182E4,7.996556E4,0E0,0E0,0E0,0E0,0E0,0E0,0E0,0E0],"parents":[2147483647,0,0,1,1,2,2,3,3,4,4,5,5,6,6],"right_children":[2,4,6,8,10,12,14,-1,-1,-1,-1,-1,-1,-1,-1],"split_conditions":[1.1855E5,1.1061617E5,1.20078375E5,1.0544664E5,1.1748167E5,3.8343127E2,2.8044455E2,5.755369E-2,-4.12158E-2,2.6727915E-1,5.8832113E-3,-7.506273E-2,6.6510755E-1,-4.2799667E-1,1.8988657E-1],"split_indices":[2,9,4,9,9,5,6,0,0,0,0,0,0,0,0],"split_type":[0,0,0,0,0,0,0,0,0,0,0,0,0,0,0],"sum_hessian":[1.7544E4,1.5826E4,1.718E3,1.1167E4,4.659E3,1.579E3,1.39E2,3.566E3,7.601E3,8.9E2,3.769E3,1.565E3,1.4E1,1.14E2,2.5E1],"tree_param":{"num_deleted":"0","num_feature":"10","num_nodes":"15","size_leaf_vector":"1"}},{"base_weights":[2.534634E-3,3.681856E-1,-2.279324E1,1.7927767E1,-6.0982477E-2,6.448054E0,-3.0566952E1,2.0717472E-1,-1.0929097E0,-2.644715E-1,3.765632E-3,-1.4865686E-1,1.4051957E-1,-6.5423477E-1,-8.813163E-2],"categories":[],"categories_nodes":[],"categories_segments":[],"categories_sizes":[],"default_left":[0,0,0,0,0,0,0,0,0,0,0,0,0,0,0],"id":75,"left_children":[1,3,5,7,9,11,13,-1,-1,-1,-1,-1,-1,-1,-1],"loss_changes":[1.4625119E5,1.3014047E5,6.3162906E4,1.4848419E5,1.9463817E5,9.770884E3,1.654827E5,0E0,0E0,0E0,0E0,0E0,0E0,0E0,0E0],"parents":[2147483647,0,0,1,1,2,2,3,3,4,4,5,5,6,6],"right_children":[2,4,6,8,10,12,14,-1,-1,-1,-1,-1,-1,-1,-1],"split_conditions":[1.1958572E5,1.01859555E5,-8.482248E1,1.0334155E5,1.027754E5,-5.478286E1,1.4738457E1,2.0717472E-1,-1.0929097E0,-2.644715E-1,3.765632E-3,-1.4865686E-1,1.4051957E-1,-6.5423477E-1,-8.813163E-2],"split_indices":[4,7,6,9,7,3,5,0,0,0,0,0,0,0,0],"split_type":[0,0,0,0,0,0,0,0,0,0,0,0,0,0,0],"sum_hessian":[1.7544E4,1.7268E4,2.76E2,4.11E2,1.6857E4,5.8E1,2.18E2,4.03E2,8E0,2.74E2,1.6583E4,1.5E1,4.3E1,8.3E1,1.35E2],"tree_param":{"num_deleted":"0","num_feature":"10","num_nodes":"15","size_leaf_vector":"1"}},{"base_weights":[2.4011252E-3,5.6941504E0,-1.449954E0,4.679454E0,5.0435703E1,-9.829835E0,2.2787322E-1,4.115098E-1,3.931592E-2,4.7547255E-2,8.8569665E-1,-5.4807657E-1,-7.999856E-2,2.6082128E-2,-5.807206E-2],"categories":[],"categories_nodes":[],"categories_segments":[],"categories_sizes":[],"default_left":[0,0,0,0,0,0,0,0,0,0,0,0,0,0,0],"id":76,"left_children":[1,3,5,7,9,11,13,-1,-1,-1,-1,-1,-1,-1,-1],"loss_changes":[1.4504297E5,1.617026E5,1.9654686E5,9.500297E4,1.3719662E5,1.9150484E5,1.6734494E5,0E0,0E0,0E0,0E0,0E0,0E0,0E0,0E0],"parents":[2147483647,0,0,1,1,2,2,3,3,4,4,5,5,6,6],"right_children":[2,4,6,8,10,12,14,-1,-1,-1,-1,-1,-1,-1,-1],"split_conditions":[1.0544664E5,2.2088953E2,1.06527305E5,9.953538E4,1.027754E5,-1.7250728E2,1.1803323E5,4.115098E-1,3.931592E-2,4.7547255E-2,8.8569665E-1,-5.4807657E-1,-7.999856E-2,2.6082128E-2,-5.807206E-2],"split_indices":[9,6,7,0,7,6,1,0,0,0,0,0,0,0,0],"split_type":[0,0,0,0,0,0,0,0,0,0,0,0,0,0,0],"sum_hessian":[1.7544E4,3.566E3,1.3978E4,3.488E3,7.8E1,2.331E3,1.1647E4,6.9E1,3.419E3,3.6E1,4.2E1,9E1,2.241E3,8.353E3,3.294E3],"tree_param":{"num_deleted":"0","num_feature":"10","num_nodes":"15","size_leaf_vector":"1"}},{"base_weights":[2.4186296E-3,8.789263E-1,-9.299237E0,-9.7126913E-1,5.123401E0,8.010364E1,-9.948227E0,5.637597E-2,-4.0721443E-2,2.6431122E-1,3.495696E-3,1.1309323E-1,9.4134665E-1,-1.0939428E-1,3.7406787E-1],"categories":[],"categories_nodes":[],"categories_segments":[],"categories_sizes":[],"default_left":[0,0,0,0,0,0,0,0,0,0,0,0,0,0,0],"id":77,"left_children":[1,3,5,7,9,11,13,-1,-1,-1,-1,-1,-1,-1,-1],"loss_changes":[1.4305208E5,1.2592956E5,8.846733E4,2.288918E5,4.9516112E5,9.553211E3,7.086369E4,0E0,0E0,0E0,0E0,0E0,0E0,0E0,0E0],"parents":[2147483647,0,0,1,1,2,2,3,3,4,4,5,5,6,6],"right_children":[2,4,6,8,10,12,14,-1,-1,-1,-1,-1,-1,-1,-1],"split_conditions":[1.1908527E5,1.1061617E5,-1.2077488E2,1.0544664E5,1.1748167E5,1.1838967E5,3.8343127E2,5.637597E-2,-4.0721443E-2,2.6431122E-1,3.495696E-3,1.1309323E-1,9.4134665E-1,-1.0939428E-1,3.7406787E-1],"split_indices":[9,9,3,9,9,0,5,0,0,0,0,0,0,0,0],"split_type":[0,0,0,0,0,0,0,0,0,0,0,0,0,0,0],"sum_hessian":[1.7544E4,1.6034E4,1.51E3,1.1167E4,4.867E3,1E1,1.5E3,3.566E3,7.601E3,8.9E2,3.977E3,2E0,8E0,1.47E3,3E1],"tree_param":{"num_deleted":"0","num_feature":"10","num_nodes":"15","size_leaf_vector":"1"}},{"base_weights":[2.485684E-3,3.6240667E-1,-2.2436062E1,1.7588108E1,-5.860123E-2,6.5480633E0,-3.0142124E1,2.0351338E-1,-1.0840456E0,-2.6279402E-1,3.7620212E-3,-1.4569321E-1,1.4078292E-1,-6.4611566E-1,-8.630542E-2],"categories":[],"categories_nodes":[],"categories_segments":[],"categories_sizes":[],"default_left":[0,0,0,0,0,0,0,0,0,0,0,0,0,0,0],"id":78,"left_children":[1,3,5,7,9,11,13,-1,-1,-1,-1,-1,-1,-1,-1],"loss_changes":[1.4170336E5,1.252385E5,6.206628E4,1.4564278E5,1.9220616E5,9.587218E3,1.6182914E5,0E0,0E0,0E0,0E0,0E0,0E0,0E0,0E0],"parents":[2147483647,0,0,1,1,2,2,3,3,4,4,5,5,6,6],"right_children":[2,4,6,8,10,12,14,-1,-1,-1,-1,-1,-1,-1,-1],"split_conditions":[1.1958572E5,1.01859555E5,-8.482248E1,1.0334155E5,1.027754E5,-5.478286E1,1.4738457E1,2.0351338E-1,-1.0840456E0,-2.6279402E-1,3.7620212E-3,-1.4569321E-1,1.4078292E-1,-6.4611566E-1,-8.630542E-2],"split_indices":[4,7,6,9,7,3,5,0,0,0,0,0,0,0,0],"split_type":[0,0,0,0,0,0,0,0,0,0,0,0,0,0,0],"sum_hessian":[1.7544E4,1.7268E4,2.76E2,4.11E2,1.6857E4,5.8E1,2.18E2,4.03E2,8E0,2.74E2,1.6583E4,1.5E1,4.3E1,8.3E1,1.35E2],"tree_param":{"num_deleted":"0","num_feature":"10","num_nodes":"15","size_leaf_vector":"1"}},{"base_weights":[2.3539013E-3,6.3716908E0,-1.2484093E0,5.044566E0,4.8918972E1,-2.0955524E-1,-1.0552816E1,-3.6706977E-2,1.016687E-1,3.654132E-2,8.3947736E-1,2.2985565E-3,-2.2069441E-1,-2.7885842E-1,-6.8838425E-2],"categories":[],"categories_nodes":[],"categories_segments":[],"categories_sizes":[],"default_left":[0,0,0,0,0,0,0,0,0,0,0,0,0,0,0],"id":79,"left_children":[1,3,5,7,9,11,13,-1,-1,-1,-1,-1,-1,-1,-1],"loss_changes":[1.3978075E5,1.6237394E5,1.4175816E5,1.2476769E5,1.37638E5,1.2673968E5,9.348264E4,0E0,0E0,0E0,0E0,0E0,0E0,0E0,0E0],"parents":[2147483647,0,0,1,1,2,2,3,3,4,4,5,5,6,6],"right_children":[2,4,6,8,10,12,14,-1,-1,-1,-1,-1,-1,-1,-1],"split_conditions":[1.0490724E5,2.1202376E2,3.758195E1,1.03994164E5,1.027754E5,1.1958572E5,1.065625E5,-3.6706977E-2,1.016687E-1,3.654132E-2,8.3947736E-1,2.2985565E-3,-2.2069441E-1,-2.7885842E-1,-6.8838425E-2],"split_indices":[7,6,3,9,7,4,2,0,0,0,0,0,0,0,0],"split_type":[0,0,0,0,0,0,0,0,0,0,0,0,0,0,0],"sum_hessian":[1.7544E4,2.879E3,1.4665E4,2.793E3,8.6E1,1.3193E4,1.472E3,1.034E3,1.759E3,3.8E1,4.8E1,1.2934E4,2.59E2,2.56E2,1.216E3],"tree_param":{"num_deleted":"0","num_feature":"10","num_nodes":"15","size_leaf_vector":"1"}},{"base_weights":[2.3516773E-3,9.260302E-1,-8.502048E0,-9.74387E-1,5.4803076E0,-6.5423126E0,-3.0558327E1,5.534026E-2,-4.028127E-2,2.6174706E-1,5.8795013E-3,-7.230325E-2,6.5722334E-1,-5.415638E-1,-6.862241E-2],"categories":[],"categories_nodes":[],"categories_segments":[],"categories_sizes":[],"default_left":[0,0,0,0,0,0,0,0,0,0,0,0,0,0,0],"id":80,"left_children":[1,3,5,7,9,11,13,-1,-1,-1,-1,-1,-1,-1,-1],"loss_changes":[1.3782966E5,1.3698847E5,7.410292E4,2.2198633E5,4.717835E5,7.903118E4,7.791379E4,0E0,0E0,0E0,0E0,0E0,0E0,0E0,0E0],"parents":[2147483647,0,0,1,1,2,2,3,3,4,4,5,5,6,6],"right_children":[2,4,6,8,10,12,14,-1,-1,-1,-1,-1,-1,-1,-1],"split_conditions":[1.1855E5,1.1061617E5,1.20078375E5,1.0544664E5,1.1748167E5,3.8343127E2,1.2183869E5,5.534026E-2,-4.028127E-2,2.6174706E-1,5.8795013E-3,-7.230325E-2,6.5722334E-1,-5.415638E-1,-6.862241E-2],"split_indices":[2,9,4,9,9,5,7,0,0,0,0,0,0,0,0],"split_type":[0,0,0,0,0,0,0,0,0,0,0,0,0,0,0],"sum_hessian":[1.7544E4,1.5826E4,1.718E3,1.1167E4,4.659E3,1.579E3,1.39E2,3.566E3,7.601E3,8.9E2,3.769E3,1.565E3,1.4E1,6.9E1,7E1],"tree_param":{"num_deleted":"0","num_feature":"10","num_nodes":"15","size_leaf_vector":"1"}},{"base_weights":[2.3428104E-3,8.547035E-1,-9.043061E0,-9.6464187E-1,5.028408E0,4.949486E1,-1.0021142E1,5.478701E-2,-3.9878514E-2,2.591325E-1,3.4931712E-3,1.3688992E-1,7.665026E-1,-1.1097552E-1,3.3672455E-1],"categories":[],"categories_nodes":[],"categories_segments":[],"categories_sizes":[],"default_left":[0,0,0,0,0,0,0,0,0,0,0,0,0,0,0],"id":81,"left_children":[1,3,5,7,9,11,13,-1,-1,-1,-1,-1,-1,-1,-1],"loss_changes":[1.3527875E5,1.2176519E5,8.700796E4,2.1756977E5,4.7570203E5,2.3258809E4,7.031064E4,0E0,0E0,0E0,0E0,0E0,0E0,0E0,0E0],"parents":[2147483647,0,0,1,1,2,2,3,3,4,4,5,5,6,6],"right_children":[2,4,6,8,10,12,14,-1,-1,-1,-1,-1,-1,-1,-1],"split_conditions":[1.1908527E5,1.1061617E5,-1.016758E2,1.0544664E5,1.1748167E5,-7.234152E1,3.162349E2,5.478701E-2,-3.9878514E-2,2.591325E-1,3.4931712E-3,1.3688992E-1,7.665026E-1,-1.1097552E-1,3.3672455E-1],"split_indices":[9,9,3,9,9,6,6,0,0,0,0,0,0,0,0],"split_type":[0,0,0,0,0,0,0,0,0,0,0,0,0,0,0],"sum_hessian":[1.7544E4,1.6034E4,1.51E3,1.1167E4,4.867E3,2.4E1,1.486E3,3.566E3,7.601E3,8.9E2,3.977E3,1.1E1,1.3E1,1.451E3,3.5E1],"tree_param":{"num_deleted":"0","num_feature":"10","num_nodes":"15","size_leaf_vector":"1"}},{"base_weights":[2.3996092E-3,3.5163182E-1,-2.176978E1,1.7336176E1,-6.348172E-2,7.047188E0,-2.943385E1,8.9715225E-1,1.18249044E-1,-2.6099834E-1,3.6826336E-3,-1.38351E-1,1.4480583E-1,-6.340577E-1,-8.234767E-2],"categories":[],"categories_nodes":[],"categories_segments":[],"categories_sizes":[],"default_left":[0,0,0,0,0,0,0,0,0,0,0,0,0,0,0],"id":82,"left_children":[1,3,5,7,9,11,13,-1,-1,-1,-1,-1,-1,-1,-1],"loss_changes":[1.3341188E5,1.2175643E5,6.1384312E4,1.6328619E5,1.8951155E5,9.358692E3,1.5719586E5,0E0,0E0,0E0,0E0,0E0,0E0,0E0,0E0],"parents":[2147483647,0,0,1,1,2,2,3,3,4,4,5,5,6,6],"right_children":[2,4,6,8,10,12,14,-1,-1,-1,-1,-1,-1,-1,-1],"split_conditions":[1.1958572E5,1.0254195E5,-8.482248E1,-6.142927E1,1.027754E5,-5.478286E1,1.4738457E1,8.9715225E-1,1.18249044E-1,-2.6099834E-1,3.6826336E-3,-1.38351E-1,1.4480583E-1,-6.340577E-1,-8.234767E-2],"split_indices":[4,9,6,3,7,3,5,0,0,0,0,0,0,0,0],"split_type":[0,0,0,0,0,0,0,0,0,0,0,0,0,0,0],"sum_hessian":[1.7544E4,1.7268E4,2.76E2,4.11E2,1.6857E4,5.8E1,2.18E2,2.8E1,3.83E2,2.74E2,1.6583E4,1.5E1,4.3E1,8.3E1,1.35E2],"tree_param":{"num_deleted":"0","num_feature":"10","num_nodes":"15","size_leaf_vector":"1"}},{"base_weights":[2.3784428E-3,6.2006125E0,-1.2147849E0,4.887288E0,4.830668E1,-1.8318412E-1,-1.0454245E1,-1.5733323E-1,7.018244E-2,3.4420125E-2,8.302944E-1,2.435503E-3,-2.1412517E-1,-2.7578536E-1,-6.8294324E-2],"categories":[],"categories_nodes":[],"categories_segments":[],"categories_sizes":[],"default_left":[0,0,0,0,0,0,0,0,0,0,0,0,0,0,0],"id":83,"left_children":[1,3,5,7,9,11,13,-1,-1,-1,-1,-1,-1,-1,-1],"loss_changes":[1.3237162E5,1.590248E5,1.397861E5,1.2288332E5,1.35245E5,1.1953345E5,9.124422E4,0E0,0E0,0E0,0E0,0E0,0E0,0E0,0E0],"parents":[2147483647,0,0,1,1,2,2,3,3,4,4,5,5,6,6],"right_children":[2,4,6,8,10,12,14,-1,-1,-1,-1,-1,-1,-1,-1],"split_conditions":[1.0490724E5,2.1202376E2,3.758195E1,-2.0197543E2,1.027754E5,1.1958572E5,1.065625E5,-1.5733323E-1,7.018244E-2,3.4420125E-2,8.302944E-1,2.435503E-3,-2.1412517E-1,-2.7578536E-1,-6.8294324E-2],"split_indices":[7,6,3,5,7,4,2,0,0,0,0,0,0,0,0],"split_type":[0,0,0,0,0,0,0,0,0,0,0,0,0,0,0],"sum_hessian":[1.7544E4,2.879E3,1.4665E4,2.793E3,8.6E1,1.3193E4,1.472E3,2.61E2,2.532E3,3.8E1,4.8E1,1.2934E4,2.59E2,2.56E2,1.216E3],"tree_param":{"num_deleted":"0","num_feature":"10","num_nodes":"15","size_leaf_vector":"1"}},{"base_weights":[2.3672972E-3,9.007959E-1,-8.269553E0,-9.6728903E-1,5.3775926E0,-6.3554997E0,-2.9811947E1,5.375232E-2,-3.9431907E-2,2.5661874E-1,5.8218846E-3,-7.034517E-2,6.495762E-1,-5.306422E-1,-6.467276E-2],"categories":[],"categories_nodes":[],"categories_segments":[],"categories_sizes":[],"default_left":[0,0,0,0,0,0,0,0,0,0,0,0,0,0,0],"id":84,"left_children":[1,3,5,7,9,11,13,-1,-1,-1,-1,-1,-1,-1,-1],"loss_changes":[1.3039716E5,1.3236698E5,7.069055E4,2.108141E5,4.532694E5,7.696504E4,7.565117E4,0E0,0E0,0E0,0E0,0E0,0E0,0E0,0E0],"parents":[2147483647,0,0,1,1,2,2,3,3,4,4,5,5,6,6],"right_children":[2,4,6,8,10,12,14,-1,-1,-1,-1,-1,-1,-1,-1],"split_conditions":[1.1855E5,1.1061617E5,1.20078375E5,1.0544664E5,1.1748167E5,3.8343127E2,1.2183869E5,5.375232E-2,-3.9431907E-2,2.5661874E-1,5.8218846E-3,-7.034517E-2,6.495762E-1,-5.306422E-1,-6.467276E-2],"split_indices":[2,9,4,9,9,5,7,0,0,0,0,0,0,0,0],"split_type":[0,0,0,0,0,0,0,0,0,0,0,0,0,0,0],"sum_hessian":[1.7544E4,1.5826E4,1.718E3,1.1167E4,4.659E3,1.579E3,1.39E2,3.566E3,7.601E3,8.9E2,3.769E3,1.565E3,1.4E1,6.9E1,7E1],"tree_param":{"num_deleted":"0","num_feature":"10","num_nodes":"15","size_leaf_vector":"1"}},{"base_weights":[2.3583812E-3,8.312664E-1,-8.794162E0,-9.576149E-1,4.9350863E0,4.9143143E1,-9.762312E0,5.321495E-2,-3.9037645E-2,2.540554E-1,3.4883395E-3,1.3627154E-1,