{"learner":{"attributes":{"scikit_learn":"{\"_estimator_type\": \"regressor\"}"},"feature_names":["MACDh_12_26_9","MACD_12_26_9","BBU_20_2.0","BBM_20_2.0","ema_10","BBL_20_2.0","high","BBB_20_2.0","MACDs_12_26_9","low"],"feature_types":["float","float","float","float","float","float","float","float","float","float"],"gradient_booster":{"model":{"gbtree_model_param":{"num_parallel_tree":"1","num_trees":"100"},"iteration_indptr":[0,1,2,3,4,5,6,7,8,9,10,11,12,13,14,15,16,17,18,19,20,21,22,23,24,25,26,27,28,29,30,31,32,33,34,35,36,37,38,39,40,41,42,43,44,45,46,47,48,49,50,51,52,53,54,55,56,57,58,59,60,61,62,63,64,65,66,67,68,69,70,71,72,73,74,75,76,77,78,79,80,81,82,83,84,85,86,87,88,89,90,91,92,93,94,95,96,97,98,99,100],"tree_info":[0,0,0,0,0,0,0,0,0,0,0,0,0,0,0,0,0,0,0,0,0,0,0,0,0,0,0,0,0,0,0,0,0,0,0,0,0,0,0,0,0,0,0,0,0,0,0,0,0,0,0,0,0,0,0,0,0,0,0,0,0,0,0,0,0,0,0,0,0,0,0,0,0,0,0,0,0,0,0,0,0,0,0,0,0,0,0,0,0,0,0,0,0,0,0,0,0,0,0,0],"trees":[{"base_weights":[1.0224676E-11,3.415988E-4,-4.1904527E-4,-2.5965994E-5,5.514184E-4,-2.8367783E-3,-3.0755758E-4,-4.148594E-6,3.808852E-6,-4.3519913E-6,6.993732E-6,-2.8191178E-6,-5.2273175E-5,-2.6521866E-6,-2.5163707E-5],"categories":[],"categories_nodes":[],"categories_segments":[],"categories_sizes":[],"default_left":[0,0,0,0,0,0,0,0,0,0,0,0,0,0,0],"id":0,"left_children":[1,3,5,7,9,11,13,-1,-1,-1,-1,-1,-1,-1,-1],"loss_changes":[1.331395E-3,3.9518904E-4,1.1250274E-3,2.9492515E-4,4.7647418E-4,1.1223081E-3,3.7284658E-4,0E0,0E0,0E0,0E0,0E0,0E0,0E0,0E0],"parents":[2147483647,0,0,1,1,2,2,3,3,4,4,5,5,6,6],"right_children":[2,4,6,8,10,12,14,-1,-1,-1,-1,-1,-1,-1,-1],"split_conditions":[1.179873E5,3.692715E-1,-1.6801208E2,1.163216E5,-1.5305023E2,-2.5671478E2,1.2265919E5,-4.148594E-6,3.808852E-6,-4.3519913E-6,6.993732E-6,-2.8191178E-6,-5.2273175E-5,-2.6521866E-6,-2.5163707E-5],"split_indices":[9,7,8,9,8,1,5,0,0,0,0,0,0,0,0],"split_type":[0,0,0,0,0,0,0,0,0,0,0,0,0,0,0],"sum_hessian":[9.299E3,5.123E3,4.176E3,1.862E3,3.261E3,1.83E2,3.993E3,9.52E2,9.1E2,4.25E2,2.836E3,8.9E1,9.4E1,3.919E3,7.4E1],"tree_param":{"num_deleted":"0","num_feature":"10","num_nodes":"15","size_leaf_vector":"1"}},{"base_weights":[-8.665455E-9,3.3818325E-4,-4.1487467E-4,-2.5706515E-5,5.4590503E-4,-2.8087099E-3,-3.0448896E-4,-4.107152E-6,3.7708055E-6,-4.308574E-6,6.9238185E-6,-2.7912401E-6,-5.1755946E-5,-2.6256712E-6,-2.4915425E-5],"categories":[],"categories_nodes":[],"categories_segments":[],"categories_sizes":[],"default_left":[0,0,0,0,0,0,0,0,0,0,0,0,0,0,0],"id":1,"left_children":[1,3,5,7,9,11,13,-1,-1,-1,-1,-1,-1,-1,-1],"loss_changes":[1.3049706E-3,3.87326E-4,1.1028971E-3,2.8906245E-4,4.670028E-4,1.1002072E-3,3.6553672E-4,0E0,0E0,0E0,0E0,0E0,0E0,0E0,0E0],"parents":[2147483647,0,0,1,1,2,2,3,3,4,4,5,5,6,6],"right_children":[2,4,6,8,10,12,14,-1,-1,-1,-1,-1,-1,-1,-1],"split_conditions":[1.179873E5,3.692715E-1,-1.6801208E2,1.163216E5,-1.5305023E2,-2.5671478E2,1.2265919E5,-4.107152E-6,3.7708055E-6,-4.308574E-6,6.9238185E-6,-2.7912401E-6,-5.1755946E-5,-2.6256712E-6,-2.4915425E-5],"split_indices":[9,7,8,9,8,1,5,0,0,0,0,0,0,0,0],"split_type":[0,0,0,0,0,0,0,0,0,0,0,0,0,0,0],"sum_hessian":[9.299E3,5.123E3,4.176E3,1.862E3,3.261E3,1.83E2,3.993E3,9.52E2,9.1E2,4.25E2,2.836E3,8.9E1,9.4E1,3.919E3,7.4E1],"tree_param":{"num_deleted":"0","num_feature":"10","num_nodes":"15","size_leaf_vector":"1"}},{"base_weights":[-1.7157573E-8,3.3480188E-4,-4.107456E-4,-7.4470854E-6,5.515874E-4,-2.7809194E-3,-3.01451E-4,-4.2830534E-6,4.436681E-6,1.0742972E-5,2.1071032E-6,-2.763638E-6,-5.1243835E-5,-2.5994214E-6,-2.4669593E-5],"categories":[],"categories_nodes":[],"categories_segments":[],"categories_sizes":[],"default_left":[0,0,0,0,0,0,0,0,0,0,0,0,0,0,0],"id":2,"left_children":[1,3,5,7,9,11,13,-1,-1,-1,-1,-1,-1,-1,-1],"loss_changes":[1.2790707E-3,3.8017728E-4,1.081202E-3,3.776229E-4,5.5872364E-4,1.0785417E-3,3.5837022E-4,0E0,0E0,0E0,0E0,0E0,0E0,0E0,0E0],"parents":[2147483647,0,0,1,1,2,2,3,3,4,4,5,5,6,6],"right_children":[2,4,6,8,10,12,14,-1,-1,-1,-1,-1,-1,-1,-1],"split_conditions":[1.179873E5,3.851123E-1,-1.6801208E2,1.163216E5,1.141005E5,-2.5671478E2,1.2265919E5,-4.2830534E-6,4.436681E-6,1.0742972E-5,2.1071032E-6,-2.763638E-6,-5.1243835E-5,-2.5994214E-6,-2.4669593E-5],"split_indices":[9,7,8,9,2,1,5,0,0,0,0,0,0,0,0],"split_type":[0,0,0,0,0,0,0,0,0,0,0,0,0,0,0],"sum_hessian":[9.299E3,5.123E3,4.176E3,1.987E3,3.136E3,1.83E2,3.993E3,1.028E3,9.59E2,1.237E3,1.899E3,8.9E1,9.4E1,3.919E3,7.4E1],"tree_param":{"num_deleted":"0","num_feature":"10","num_nodes":"15","size_leaf_vector":"1"}},{"base_weights":[-2.4321693E-8,3.314564E-4,-4.0665758E-4,-7.372541E-6,5.460756E-4,-2.7534037E-3,-2.9844325E-4,-4.240265E-6,4.392361E-6,1.0635629E-5,2.0860432E-6,-2.736309E-6,-5.073679E-5,6.326265E-5,-3.11661E-6],"categories":[],"categories_nodes":[],"categories_segments":[],"categories_sizes":[],"default_left":[0,0,0,0,0,0,0,0,0,0,0,0,0,0,0],"id":3,"left_children":[1,3,5,7,9,11,13,-1,-1,-1,-1,-1,-1,-1,-1],"loss_changes":[1.2536919E-3,3.7261716E-4,1.0599338E-3,3.7011577E-4,5.476146E-4,1.0573026E-3,3.5170154E-4,0E0,0E0,0E0,0E0,0E0,0E0,0E0,0E0],"parents":[2147483647,0,0,1,1,2,2,3,3,4,4,5,5,6,6],"right_children":[2,4,6,8,10,12,14,-1,-1,-1,-1,-1,-1,-1,-1],"split_conditions":[1.179873E5,3.851123E-1,-1.6801208E2,1.163216E5,1.141005E5,-2.5671478E2,-1.2318007E2,-4.240265E-6,4.392361E-6,1.0635629E-5,2.0860432E-6,-2.736309E-6,-5.073679E-5,6.326265E-5,-3.11661E-6],"split_indices":[9,7,8,9,2,1,0,0,0,0,0,0,0,0,0],"split_type":[0,0,0,0,0,0,0,0,0,0,0,0,0,0,0],"sum_hessian":[9.299E3,5.123E3,4.176E3,1.987E3,3.136E3,1.83E2,3.993E3,1.028E3,9.59E2,1.237E3,1.899E3,8.9E1,9.4E1,7E0,3.986E3],"tree_param":{"num_deleted":"0","num_feature":"10","num_nodes":"15","size_leaf_vector":"1"}},{"base_weights":[-2.1972737E-8,3.2814432E-4,-4.025894E-4,-2.5406816E-5,5.2996457E-4,-2.7261602E-3,-2.9544378E-4,-3.98098E-6,3.6449453E-6,-4.3229693E-6,6.7426963E-6,-2.709249E-6,-5.023476E-5,-2.5434608E-6,-2.4395436E-5],"categories":[],"categories_nodes":[],"categories_segments":[],"categories_sizes":[],"default_left":[0,0,0,0,0,0,0,0,0,0,0,0,0,0,0],"id":4,"left_children":[1,3,5,7,9,11,13,-1,-1,-1,-1,-1,-1,-1,-1],"loss_changes":[1.2287465E-3,3.656302E-4,1.0391024E-3,2.7086286E-4,4.5325025E-4,1.0364823E-3,3.51321E-4,0E0,0E0,0E0,0E0,0E0,0E0,0E0,0E0],"parents":[2147483647,0,0,1,1,2,2,3,3,4,4,5,5,6,6],"right_children":[2,4,6,8,10,12,14,-1,-1,-1,-1,-1,-1,-1,-1],"split_conditions":[1.179873E5,3.692715E-1,-1.6801208E2,1.163216E5,-1.5305023E2,-2.5671478E2,1.2265919E5,-3.98098E-6,3.6449453E-6,-4.3229693E-6,6.7426963E-6,-2.709249E-6,-5.023476E-5,-2.5434608E-6,-2.4395436E-5],"split_indices":[9,7,8,9,8,1,5,0,0,0,0,0,0,0,0],"split_type":[0,0,0,0,0,0,0,0,0,0,0,0,0,0,0],"sum_hessian":[9.299E3,5.123E3,4.176E3,1.862E3,3.261E3,1.83E2,3.993E3,9.52E2,9.1E2,4.25E2,2.836E3,8.9E1,9.4E1,3.919E3,7.4E1],"tree_param":{"num_deleted":"0","num_feature":"10","num_nodes":"15","size_leaf_vector":"1"}},{"base_weights":[-3.012485E-8,3.248633E-4,-3.9858263E-4,-7.473646E-6,5.3537043E-4,-2.6991866E-3,-2.924961E-4,-4.166053E-6,4.310721E-6,9.695589E-6,1.4248437E-6,-2.6824578E-6,-4.9737704E-5,6.273136E-5,-3.055968E-6],"categories":[],"categories_nodes":[],"categories_segments":[],"categories_sizes":[],"default_left":[0,0,0,0,0,0,0,0,0,0,0,0,0,0,0],"id":5,"left_children":[1,3,5,7,9,11,13,-1,-1,-1,-1,-1,-1,-1,-1],"loss_changes":[1.2043593E-3,3.584755E-4,1.0186621E-3,3.568724E-4,5.3499214E-4,1.0160713E-3,3.4545883E-4,0E0,0E0,0E0,0E0,0E0,0E0,0E0,0E0],"parents":[2147483647,0,0,1,1,2,2,3,3,4,4,5,5,6,6],"right_children":[2,4,6,8,10,12,14,-1,-1,-1,-1,-1,-1,-1,-1],"split_conditions":[1.179873E5,3.851123E-1,-1.6801208E2,1.163216E5,1.155715E5,-2.5671478E2,-1.2318007E2,-4.166053E-6,4.310721E-6,9.695589E-6,1.4248437E-6,-2.6824578E-6,-4.9737704E-5,6.273136E-5,-3.055968E-6],"split_indices":[9,7,8,9,6,1,0,0,0,0,0,0,0,0,0],"split_type":[0,0,0,0,0,0,0,0,0,0,0,0,0,0,0],"sum_hessian":[9.299E3,5.123E3,4.176E3,1.987E3,3.136E3,1.83E2,3.993E3,1.028E3,9.59E2,1.489E3,1.647E3,8.9E1,9.4E1,7E0,3.986E3],"tree_param":{"num_deleted":"0","num_feature":"10","num_nodes":"15","size_leaf_vector":"1"}},{"base_weights":[-2.785278E-8,3.2161686E-4,-3.945951E-4,-2.5129671E-5,5.195528E-4,-2.6724795E-3,-2.8955622E-4,-3.899595E-6,3.5654755E-6,-4.3182663E-6,6.622275E-6,-2.6559314E-6,-4.9245562E-5,-2.488656E-6,-2.4124582E-5],"categories":[],"categories_nodes":[],"categories_segments":[],"categories_sizes":[],"default_left":[0,0,0,0,0,0,0,0,0,0,0,0,0,0,0],"id":6,"left_children":[1,3,5,7,9,11,13,-1,-1,-1,-1,-1,-1,-1,-1],"loss_changes":[1.1803941E-3,3.5169168E-4,9.986421E-4,2.5955666E-4,4.4306263E-4,9.960628E-4,3.4441007E-4,0E0,0E0,0E0,0E0,0E0,0E0,0E0,0E0],"parents":[2147483647,0,0,1,1,2,2,3,3,4,4,5,5,6,6],"right_children":[2,4,6,8,10,12,14,-1,-1,-1,-1,-1,-1,-1,-1],"split_conditions":[1.179873E5,3.692715E-1,-1.6801208E2,1.163216E5,-1.5305023E2,-2.5671478E2,1.2265919E5,-3.899595E-6,3.5654755E-6,-4.3182663E-6,6.622275E-6,-2.6559314E-6,-4.9245562E-5,-2.488656E-6,-2.4124582E-5],"split_indices":[9,7,8,9,8,1,5,0,0,0,0,0,0,0,0],"split_type":[0,0,0,0,0,0,0,0,0,0,0,0,0,0,0],"sum_hessian":[9.299E3,5.123E3,4.176E3,1.862E3,3.261E3,1.83E2,3.993E3,9.52E2,9.1E2,4.25E2,2.836E3,8.9E1,9.4E1,3.919E3,7.4E1],"tree_param":{"num_deleted":"0","num_feature":"10","num_nodes":"15","size_leaf_vector":"1"}},{"base_weights":[-3.578148E-8,3.1840106E-4,-3.906679E-4,-7.568886E-6,5.2487536E-4,-2.6460367E-3,-2.866673E-4,-4.0932455E-6,4.230709E-6,9.541625E-6,1.3642708E-6,-2.3012904E-6,-4.8582213E-5,6.220423E-5,-2.99652E-6],"categories":[],"categories_nodes":[],"categories_segments":[],"categories_sizes":[],"default_left":[0,0,0,0,0,0,0,0,0,0,0,0,0,0,0],"id":7,"left_children":[1,3,5,7,9,11,13,-1,-1,-1,-1,-1,-1,-1,-1],"loss_changes":[1.1569669E-3,3.4487183E-4,9.789977E-4,3.4412098E-4,5.2298297E-4,9.822579E-4,3.393278E-4,0E0,0E0,0E0,0E0,0E0,0E0,0E0,0E0],"parents":[2147483647,0,0,1,1,2,2,3,3,4,4,5,5,6,6],"right_children":[2,4,6,8,10,12,14,-1,-1,-1,-1,-1,-1,-1,-1],"split_conditions":[1.179873E5,3.851123E-1,-1.6801208E2,1.163216E5,1.155715E5,-2.4743651E2,-1.2318007E2,-4.0932455E-6,4.230709E-6,9.541625E-6,1.3642708E-6,-2.3012904E-6,-4.8582213E-5,6.220423E-5,-2.99652E-6],"split_indices":[9,7,8,9,6,8,0,0,0,0,0,0,0,0,0],"split_type":[0,0,0,0,0,0,0,0,0,0,0,0,0,0,0],"sum_hessian":[9.299E3,5.123E3,4.176E3,1.987E3,3.136E3,1.83E2,3.993E3,1.028E3,9.59E2,1.489E3,1.647E3,8.8E1,9.5E1,7E0,3.986E3],"tree_param":{"num_deleted":"0","num_feature":"10","num_nodes":"15","size_leaf_vector":"1"}},{"base_weights":[-3.3356105E-8,3.152192E-4,-3.8675923E-4,-2.4853438E-5,5.093455E-4,-2.619853E-3,-2.8378578E-4,-3.819751E-6,3.4875993E-6,-3.1406546E-6,6.706415E-6,-2.524633E-6,-4.8350652E-5,-2.4349822E-6,-2.3856986E-5],"categories":[],"categories_nodes":[],"categories_segments":[],"categories_sizes":[],"default_left":[0,0,0,0,0,0,0,0,0,0,0,0,0,0,0],"id":8,"left_children":[1,3,5,7,9,11,13,-1,-1,-1,-1,-1,-1,-1,-1],"loss_changes":[1.1339437E-3,3.38284E-4,9.5975504E-4,2.4870478E-4,4.3344632E-4,9.637255E-4,3.3763485E-4,0E0,0E0,0E0,0E0,0E0,0E0,0E0,0E0],"parents":[2147483647,0,0,1,1,2,2,3,3,4,4,5,5,6,6],"right_children":[2,4,6,8,10,12,14,-1,-1,-1,-1,-1,-1,-1,-1],"split_conditions":[1.179873E5,3.692715E-1,-1.6801208E2,1.163216E5,-1.306842E2,-2.5671478E2,1.2265919E5,-3.819751E-6,3.4875993E-6,-3.1406546E-6,6.706415E-6,-2.524633E-6,-4.8350652E-5,-2.4349822E-6,-2.3856986E-5],"split_indices":[9,7,8,9,8,1,5,0,0,0,0,0,0,0,0],"split_type":[0,0,0,0,0,0,0,0,0,0,0,0,0,0,0],"sum_hessian":[9.299E3,5.123E3,4.176E3,1.862E3,3.261E3,1.83E2,3.993E3,9.52E2,9.1E2,5.34E2,2.727E3,8.9E1,9.4E1,3.919E3,7.4E1],"tree_param":{"num_deleted":"0","num_feature":"10","num_nodes":"15","size_leaf_vector":"1"}},{"base_weights":[-4.095898E-8,3.1215552E-4,-3.830179E-4,-2.1003876E-5,5.054006E-4,-2.603952E-3,-2.706742E-4,-3.7815933E-6,3.4500704E-6,5.8640453E-6,-1.0092447E-5,-5.2767573E-6,-4.737816E-5,6.933463E-5,-2.887616E-6],"categories":[],"categories_nodes":[],"categories_segments":[],"categories_sizes":[],"default_left":[0,0,0,0,0,0,0,0,0,0,0,0,0,0,0],"id":9,"left_children":[1,3,5,7,9,11,13,-1,-1,-1,-1,-1,-1,-1,-1],"loss_changes":[1.1120653E-3,3.2990094E-4,1.0414898E-3,2.4615077E-4,3.9848266E-4,8.8802865E-4,5.2022084E-4,0E0,0E0,0E0,0E0,0E0,0E0,0E0,0E0],"parents":[2147483647,0,0,1,1,2,2,3,3,4,4,5,5,6,6],"right_children":[2,4,6,8,10,12,14,-1,-1,-1,-1,-1,-1,-1,-1],"split_conditions":[1.180253E5,3.692715E-1,-1.6801208E2,1.163216E5,2.1837634E2,-2.5671478E2,-1.2318007E2,-3.7815933E-6,3.4500704E-6,5.8640453E-6,-1.0092447E-5,-5.2767573E-6,-4.737816E-5,6.933463E-5,-2.887616E-6],"split_indices":[4,7,8,9,8,1,0,0,0,0,0,0,0,0,0],"split_type":[0,0,0,0,0,0,0,0,0,0,0,0,0,0,0],"sum_hessian":[9.299E3,5.123E3,4.176E3,1.881E3,3.242E3,2E2,3.976E3,9.52E2,9.29E2,3.078E3,1.64E2,1.02E2,9.8E1,9E0,3.967E3],"tree_param":{"num_deleted":"0","num_feature":"10","num_nodes":"15","size_leaf_vector":"1"}},{"base_weights":[-3.9563812E-8,3.0916728E-4,-3.7934908E-4,-7.664311E-6,5.098533E-4,-2.5680426E-3,-2.7842293E-4,-3.991216E-6,4.11937E-6,1.0098606E-5,1.8379063E-6,-2.0532066E-6,-4.7317317E-5,-2.38539E-6,-2.3593107E-5],"categories":[],"categories_nodes":[],"categories_segments":[],"categories_sizes":[],"default_left":[0,0,0,0,0,0,0,0,0,0,0,0,0,0,0],"id":10,"left_children":[1,3,5,7,9,11,13,-1,-1,-1,-1,-1,-1,-1,-1],"loss_changes":[1.0908686E-3,3.258066E-4,9.219691E-4,3.2670534E-4,5.112512E-4,9.3967246E-4,3.3091518E-4,0E0,0E0,0E0,0E0,0E0,0E0,0E0,0E0],"parents":[2147483647,0,0,1,1,2,2,3,3,4,4,5,5,6,6],"right_children":[2,4,6,8,10,12,14,-1,-1,-1,-1,-1,-1,-1,-1],"split_conditions":[1.179873E5,3.851123E-1,-1.6801208E2,1.163216E5,1.141005E5,-2.4743651E2,1.2265919E5,-3.991216E-6,4.11937E-6,1.0098606E-5,1.8379063E-6,-2.0532066E-6,-4.7317317E-5,-2.38539E-6,-2.3593107E-5],"split_indices":[9,7,8,9,2,8,5,0,0,0,0,0,0,0,0],"split_type":[0,0,0,0,0,0,0,0,0,0,0,0,0,0,0],"sum_hessian":[9.299E3,5.123E3,4.176E3,1.987E3,3.136E3,1.83E2,3.993E3,1.028E3,9.59E2,1.237E3,1.899E3,8.8E1,9.5E1,3.919E3,7.4E1],"tree_param":{"num_deleted":"0","num_feature":"10","num_nodes":"15","size_leaf_vector":"1"}},{"base_weights":[-4.5969504E-8,3.0611403E-4,-3.7561788E-4,-2.0614945E-5,4.9562927E-4,-2.5558008E-3,-2.6533564E-4,-3.7039467E-6,3.378374E-6,5.758335E-6,-1.00403495E-5,-5.1387665E-6,-4.6544108E-5,6.872364E-5,-2.8325692E-6],"categories":[],"categories_nodes":[],"categories_segments":[],"categories_sizes":[],"default_left":[0,0,0,0,0,0,0,0,0,0,0,0,0,0,0],"id":11,"left_children":[1,3,5,7,9,11,13,-1,-1,-1,-1,-1,-1,-1,-1],"loss_changes":[1.0694764E-3,3.1728885E-4,1.0036207E-3,2.3608912E-4,3.9064448E-4,8.5893366E-4,5.106715E-4,0E0,0E0,0E0,0E0,0E0,0E0,0E0,0E0],"parents":[2147483647,0,0,1,1,2,2,3,3,4,4,5,5,6,6],"right_children":[2,4,6,8,10,12,14,-1,-1,-1,-1,-1,-1,-1,-1],"split_conditions":[1.180253E5,3.692715E-1,-1.6801208E2,1.163216E5,2.1837634E2,-2.5671478E2,-1.2318007E2,-3.7039467E-6,3.378374E-6,5.758335E-6,-1.00403495E-5,-5.1387665E-6,-4.6544108E-5,6.872364E-5,-2.8325692E-6],"split_indices":[4,7,8,9,8,1,0,0,0,0,0,0,0,0,0],"split_type":[0,0,0,0,0,0,0,0,0,0,0,0,0,0,0],"sum_hessian":[9.299E3,5.123E3,4.176E3,1.881E3,3.242E3,2E2,3.976E3,9.52E2,9.29E2,3.078E3,1.64E2,1.02E2,9.8E1,9E0,3.967E3],"tree_param":{"num_deleted":"0","num_feature":"10","num_nodes":"15","size_leaf_vector":"1"}},{"base_weights":[-4.4494527E-8,3.0323304E-4,-3.7208042E-4,-7.5852013E-6,5.0011015E-4,-2.5172196E-3,-2.7316262E-4,-3.9213282E-6,4.046097E-6,9.204151E-6,1.1979787E-6,-1.9123106E-6,-4.6473837E-5,-2.3367822E-6,-2.3332375E-5],"categories":[],"categories_nodes":[],"categories_segments":[],"categories_sizes":[],"default_left":[0,0,0,0,0,0,0,0,0,0,0,0,0,0,0],"id":12,"left_children":[1,3,5,7,9,11,13,-1,-1,-1,-1,-1,-1,-1,-1],"loss_changes":[1.0494331E-3,3.1355672E-4,8.8564033E-4,3.152737E-4,5.013303E-4,9.107832E-4,3.2432986E-4,0E0,0E0,0E0,0E0,0E0,0E0,0E0,0E0],"parents":[2147483647,0,0,1,1,2,2,3,3,4,4,5,5,6,6],"right_children":[2,4,6,8,10,12,14,-1,-1,-1,-1,-1,-1,-1,-1],"split_conditions":[1.179873E5,3.851123E-1,-1.6801208E2,1.163216E5,1.155715E5,-2.4743651E2,1.2265919E5,-3.9213282E-6,4.046097E-6,9.204151E-6,1.1979787E-6,-1.9123106E-6,-4.6473837E-5,-2.3367822E-6,-2.3332375E-5],"split_indices":[9,7,8,9,6,8,5,0,0,0,0,0,0,0,0],"split_type":[0,0,0,0,0,0,0,0,0,0,0,0,0,0,0],"sum_hessian":[9.299E3,5.123E3,4.176E3,1.987E3,3.136E3,1.83E2,3.993E3,1.028E3,9.59E2,1.489E3,1.647E3,8.8E1,9.5E1,3.919E3,7.4E1],"tree_param":{"num_deleted":"0","num_feature":"10","num_nodes":"15","size_leaf_vector":"1"}},{"base_weights":[-5.086673E-8,3.0020278E-4,-3.683773E-4,-7.509285E-6,4.951124E-4,-2.4923105E-3,-2.704374E-4,-3.882153E-6,4.005678E-6,9.856876E-6,1.7520324E-6,-1.8934023E-6,-4.601394E-5,6.0514558E-5,-2.8305456E-6],"categories":[],"categories_nodes":[],"categories_segments":[],"categories_sizes":[],"default_left":[0,0,0,0,0,0,0,0,0,0,0,0,0,0,0],"id":13,"left_children":[1,3,5,7,9,11,13,-1,-1,-1,-1,-1,-1,-1,-1],"loss_changes":[1.0286102E-3,3.073209E-4,8.682167E-4,3.0900602E-4,4.9214665E-4,8.928457E-4,3.2029222E-4,0E0,0E0,0E0,0E0,0E0,0E0,0E0,0E0],"parents":[2147483647,0,0,1,1,2,2,3,3,4,4,5,5,6,6],"right_children":[2,4,6,8,10,12,14,-1,-1,-1,-1,-1,-1,-1,-1],"split_conditions":[1.179873E5,3.851123E-1,-1.6801208E2,1.163216E5,1.141005E5,-2.4743651E2,-1.2318007E2,-3.882153E-6,4.005678E-6,9.856876E-6,1.7520324E-6,-1.8934023E-6,-4.601394E-5,6.0514558E-5,-2.8305456E-6],"split_indices":[9,7,8,9,2,8,0,0,0,0,0,0,0,0,0],"split_type":[0,0,0,0,0,0,0,0,0,0,0,0,0,0,0],"sum_hessian":[9.299E3,5.123E3,4.176E3,1.987E3,3.136E3,1.83E2,3.993E3,1.028E3,9.59E2,1.237E3,1.899E3,8.8E1,9.5E1,7E0,3.986E3],"tree_param":{"num_deleted":"0","num_feature":"10","num_nodes":"15","size_leaf_vector":"1"}},{"base_weights":[-4.805088E-8,2.973557E-4,-3.648785E-4,3.2257044E-4,-2.0760011E-3,-1.8492499E-3,-2.1022544E-4,-1.7585261E-8,5.337914E-6,-6.0609967E-5,-1.7227465E-5,-9.054241E-6,-3.8495662E-5,6.769198E-5,-2.286583E-6],"categories":[],"categories_nodes":[],"categories_segments":[],"categories_sizes":[],"default_left":[0,0,0,0,0,0,0,0,0,0,0,0,0,0,0],"id":14,"left_children":[1,3,5,7,9,11,13,-1,-1,-1,-1,-1,-1,-1,-1],"loss_changes":[1.0091766E-3,3.0730804E-4,9.5849414E-4,3.4739025E-4,6.557521E-5,7.403669E-4,4.88362E-4,0E0,0E0,0E0,0E0,0E0,0E0,0E0,0E0],"parents":[2147483647,0,0,1,1,2,2,3,3,4,4,5,5,6,6],"right_children":[2,4,6,8,10,12,14,-1,-1,-1,-1,-1,-1,-1,-1],"split_conditions":[1.180253E5,4.812729E2,-1.139068E2,3.851123E-1,1.1108653E5,1.201638E5,-1.2318007E2,-1.7585261E-8,5.337914E-6,-6.0609967E-5,-1.7227465E-5,-9.054241E-6,-3.8495662E-5,6.769198E-5,-2.286583E-6],"split_indices":[4,1,8,7,4,6,0,0,0,0,0,0,0,0,0],"split_type":[0,0,0,0,0,0,0,0,0,0,0,0,0,0,0],"sum_hessian":[9.299E3,5.123E3,4.176E3,5.07E3,5.3E1,3.93E2,3.783E3,2E3,3.07E3,3E0,5E1,2.68E2,1.25E2,9E0,3.774E3],"tree_param":{"num_deleted":"0","num_feature":"10","num_nodes":"15","size_leaf_vector":"1"}},{"base_weights":[-5.344376E-8,2.943916E-4,-3.6125438E-4,3.1936963E-4,-2.0566827E-3,-2.4471967E-3,-2.6506642E-4,-5.8669492E-8,5.2857263E-6,-6.01554E-5,-1.7058568E-5,-1.9096585E-6,-4.5589186E-5,-2.2601246E-6,-2.3027535E-5],"categories":[],"categories_nodes":[],"categories_segments":[],"categories_sizes":[],"default_left":[0,0,0,0,0,0,0,0,0,0,0,0,0,0,0],"id":15,"left_children":[1,3,5,7,9,11,13,-1,-1,-1,-1,-1,-1,-1,-1],"loss_changes":[9.891969E-4,3.015648E-4,8.3743525E-4,3.4503627E-4,6.473728E-5,8.758034E-4,3.1732122E-4,0E0,0E0,0E0,0E0,0E0,0E0,0E0,0E0],"parents":[2147483647,0,0,1,1,2,2,3,3,4,4,5,5,6,6],"right_children":[2,4,6,8,10,12,14,-1,-1,-1,-1,-1,-1,-1,-1],"split_conditions":[1.179873E5,4.812729E2,-1.6801208E2,3.851123E-1,1.1108653E5,-2.5671478E2,1.2265919E5,-5.8669492E-8,5.2857263E-6,-6.01554E-5,-1.7058568E-5,-1.9096585E-6,-4.5589186E-5,-2.2601246E-6,-2.3027535E-5],"split_indices":[9,1,8,7,4,1,5,0,0,0,0,0,0,0,0],"split_type":[0,0,0,0,0,0,0,0,0,0,0,0,0,0,0],"sum_hessian":[9.299E3,5.123E3,4.176E3,5.07E3,5.3E1,1.83E2,3.993E3,1.985E3,3.085E3,3E0,5E1,8.9E1,9.4E1,3.919E3,7.4E1],"tree_param":{"num_deleted":"0","num_feature":"10","num_nodes":"15","size_leaf_vector":"1"}},{"base_weights":[-6.846444E-8,2.9161546E-4,-3.578823E-4,3.380058E-4,-9.627707E-4,-1.8189681E-3,-2.0565563E-4,2.824847E-5,3.063479E-6,-2.9124403E-5,-6.5016375E-6,-8.871201E-6,-3.793953E-5,6.7088E-5,-2.239176E-6],"categories":[],"categories_nodes":[],"categories_segments":[],"categories_sizes":[],"default_left":[0,0,0,0,0,0,0,0,0,0,0,0,0,0,0],"id":16,"left_children":[1,3,5,7,9,11,13,-1,-1,-1,-1,-1,-1,-1,-1],"loss_changes":[9.707318E-4,2.984981E-4,9.286584E-4,3.8820918E-4,1.0964133E-4,7.2174624E-4,4.7931372E-4,0E0,0E0,0E0,0E0,0E0,0E0,0E0,0E0],"parents":[2147483647,0,0,1,1,2,2,3,3,4,4,5,5,6,6],"right_children":[2,4,6,8,10,12,14,-1,-1,-1,-1,-1,-1,-1,-1],"split_conditions":[1.180253E5,2.1837634E2,-1.139068E2,-8.480132E1,1.08755414E5,1.201638E5,-1.2318007E2,2.824847E-5,3.063479E-6,-2.9124403E-5,-6.5016375E-6,-8.871201E-6,-3.793953E-5,6.7088E-5,-2.239176E-6],"split_indices":[4,8,8,0,5,6,0,0,0,0,0,0,0,0,0],"split_type":[0,0,0,0,0,0,0,0,0,0,0,0,0,0,0],"sum_hessian":[9.299E3,5.123E3,4.176E3,4.941E3,1.82E2,3.93E2,3.783E3,6.1E1,4.88E3,2.4E1,1.58E2,2.68E2,1.25E2,9E0,3.774E3],"tree_param":{"num_deleted":"0","num_feature":"10","num_nodes":"15","size_leaf_vector":"1"}},{"base_weights":[-6.630199E-8,2.0618745E-4,-4.972838E-4,-8.237395E-5,3.9404118E-4,-1.7610604E-3,-1.9801423E-4,-3.618834E-6,7.9999546E-7,6.982436E-6,8.020198E-8,-8.68809E-6,-3.42313E-5,6.677084E-6,-3.6496826E-6],"categories":[],"categories_nodes":[],"categories_segments":[],"categories_sizes":[],"default_left":[0,0,0,0,0,0,0,0,0,0,0,0,0,0,0],"id":17,"left_children":[1,3,5,7,9,11,13,-1,-1,-1,-1,-1,-1,-1,-1],"loss_changes":[9.538452E-4,3.5639142E-4,1.0310297E-3,1.17712065E-4,4.6759477E-4,7.711438E-4,3.1908992E-4,0E0,0E0,0E0,0E0,0E0,0E0,0E0,0E0],"parents":[2147483647,0,0,1,1,2,2,3,3,4,4,5,5,6,6],"right_children":[2,4,6,8,10,12,14,-1,-1,-1,-1,-1,-1,-1,-1],"split_conditions":[1.185387E5,3.692715E-1,-7.4886375E1,1.163216E5,1.17678984E5,1.201638E5,-3.3804604E1,-3.618834E-6,7.9999546E-7,6.982436E-6,8.020198E-8,-8.68809E-6,-3.42313E-5,6.677084E-6,-3.6496826E-6],"split_indices":[6,7,8,9,2,6,0,0,0,0,0,0,0,0,0],"split_type":[0,0,0,0,0,0,0,0,0,0,0,0,0,0,0],"sum_hessian":[9.299E3,6.573E3,2.726E3,2.592E3,3.981E3,5.21E2,2.205E3,9.52E2,1.64E3,2.226E3,1.755E3,3.4E2,1.81E2,3.56E2,1.849E3],"tree_param":{"num_deleted":"0","num_feature":"10","num_nodes":"15","size_leaf_vector":"1"}},{"base_weights":[-6.9486894E-8,2.0412622E-4,-4.9232563E-4,-8.155128E-5,3.9010253E-4,-1.6266314E-3,-1.6402344E-4,-3.5826836E-6,7.920003E-7,6.9126427E-6,7.940028E-8,-7.880472E-6,-3.2999367E-5,1.1462644E-5,-3.0518268E-6],"categories":[],"categories_nodes":[],"categories_segments":[],"categories_sizes":[],"default_left":[0,0,0,0,0,0,0,0,0,0,0,0,0,0,0],"id":18,"left_children":[1,3,5,7,9,11,13,-1,-1,-1,-1,-1,-1,-1,-1],"loss_changes":[9.3490473E-4,3.4930347E-4,1.0152545E-3,1.1537185E-4,4.5829377E-4,8.561624E-4,3.9172353E-4,0E0,0E0,0E0,0E0,0E0,0E0,0E0,0E0],"parents":[2147483647,0,0,1,1,2,2,3,3,4,4,5,5,6,6],"right_children":[2,4,6,8,10,12,14,-1,-1,-1,-1,-1,-1,-1,-1],"split_conditions":[1.185387E5,3.692715E-1,-6.392891E1,1.163216E5,1.17678984E5,1.201638E5,-4.0230747E1,-3.5826836E-6,7.920003E-7,6.9126427E-6,7.940028E-8,-7.880472E-6,-3.2999367E-5,1.1462644E-5,-3.0518268E-6],"split_indices":[6,7,1,9,2,6,0,0,0,0,0,0,0,0,0],"split_type":[0,0,0,0,0,0,0,0,0,0,0,0,0,0,0],"sum_hessian":[9.299E3,6.573E3,2.726E3,2.592E3,3.981E3,6.11E2,2.115E3,9.52E2,1.64E3,2.226E3,1.755E3,4.08E2,2.03E2,2.05E2,1.91E3],"tree_param":{"num_deleted":"0","num_feature":"10","num_nodes":"15","size_leaf_vector":"1"}},{"base_weights":[-7.18183E-8,2.8367978E-4,-3.4815492E-4,3.2976206E-4,-9.62344E-4,-2.3950082E-3,-2.4461816E-4,2.7891434E-5,2.9845464E-6,-2.8978202E-5,-6.519713E-6,-4.2783163E-6,-4.4174747E-5,6.648179E-5,-2.6192745E-6],"categories":[],"categories_nodes":[],"categories_segments":[],"categories_sizes":[],"default_left":[0,0,0,0,0,0,0,0,0,0,0,0,0,0,0],"id":19,"left_children":[1,3,5,7,9,11,13,-1,-1,-1,-1,-1,-1,-1,-1],"loss_changes":[9.1865164E-4,2.945355E-4,8.8462303E-4,3.796859E-4,1.0804225E-4,7.977985E-4,4.7623564E-4,0E0,0E0,0E0,0E0,0E0,0E0,0E0,0E0],"parents":[2147483647,0,0,1,1,2,2,3,3,4,4,5,5,6,6],"right_children":[2,4,6,8,10,12,14,-1,-1,-1,-1,-1,-1,-1,-1],"split_conditions":[1.180253E5,2.1837634E2,-1.6801208E2,-8.480132E1,1.08755414E5,-2.5671478E2,-1.2318007E2,2.7891434E-5,2.9845464E-6,-2.8978202E-5,-6.519713E-6,-4.2783163E-6,-4.4174747E-5,6.648179E-5,-2.6192745E-6],"split_indices":[4,8,8,0,5,1,0,0,0,0,0,0,0,0,0],"split_type":[0,0,0,0,0,0,0,0,0,0,0,0,0,0,0],"sum_hessian":[9.299E3,5.123E3,4.176E3,4.941E3,1.82E2,2E2,3.976E3,6.1E1,4.88E3,2.4E1,1.58E2,1.02E2,9.8E1,9E0,3.967E3],"tree_param":{"num_deleted":"0","num_feature":"10","num_nodes":"15","size_leaf_vector":"1"}},{"base_weights":[-6.9932874E-8,2.0049747E-4,-4.835793E-4,-8.2117695E-5,3.8448055E-4,-1.6021248E-3,-1.5983949E-4,-3.5767082E-6,7.795802E-7,6.8171717E-6,7.299154E-8,-7.730095E-6,-3.2565662E-5,1.13645765E-5,-2.9949272E-6],"categories":[],"categories_nodes":[],"categories_segments":[],"categories_sizes":[],"default_left":[0,0,0,0,0,0,0,0,0,0,0,0,0,0,0],"id":20,"left_children":[1,3,5,7,9,11,13,-1,-1,-1,-1,-1,-1,-1,-1],"loss_changes":[9.019757E-4,3.4185598E-4,9.872388E-4,1.1440346E-4,4.4642552E-4,8.369768E-4,3.834043E-4,0E0,0E0,0E0,0E0,0E0,0E0,0E0,0E0],"parents":[2147483647,0,0,1,1,2,2,3,3,4,4,5,5,6,6],"right_children":[2,4,6,8,10,12,14,-1,-1,-1,-1,-1,-1,-1,-1],"split_conditions":[1.185387E5,3.692715E-1,-6.392891E1,1.163216E5,1.17678984E5,1.201638E5,-4.0230747E1,-3.5767082E-6,7.795802E-7,6.8171717E-6,7.299154E-8,-7.730095E-6,-3.2565662E-5,1.13645765E-5,-2.9949272E-6],"split_indices":[6,7,1,9,2,6,0,0,0,0,0,0,0,0,0],"split_type":[0,0,0,0,0,0,0,0,0,0,0,0,0,0,0],"sum_hessian":[9.299E3,6.573E3,2.726E3,2.592E3,3.981E3,6.11E2,2.115E3,9.52E2,1.64E3,2.226E3,1.755E3,4.08E2,2.03E2,2.05E2,1.91E3],"tree_param":{"num_deleted":"0","num_feature":"10","num_nodes":"15","size_leaf_vector":"1"}},{"base_weights":[-7.2231714E-8,2.7852968E-4,-3.418381E-4,3.030812E-4,-2.0322E-3,-2.3278245E-3,-2.502599E-4,-8.416147E-8,5.034476E-6,-5.9423804E-5,-1.685672E-5,-8.5835126E-7,-4.382087E-5,-2.1188046E-6,-2.2528895E-5],"categories":[],"categories_nodes":[],"categories_segments":[],"categories_sizes":[],"default_left":[0,0,0,0,0,0,0,0,0,0,0,0,0,0,0],"id":21,"left_children":[1,3,5,7,9,11,13,-1,-1,-1,-1,-1,-1,-1,-1],"loss_changes":[8.856098E-4,2.9131057E-4,7.5910107E-4,3.1650366E-4,6.31524E-5,8.470607E-4,3.065009E-4,0E0,0E0,0E0,0E0,0E0,0E0,0E0,0E0],"parents":[2147483647,0,0,1,1,2,2,3,3,4,4,5,5,6,6],"right_children":[2,4,6,8,10,12,14,-1,-1,-1,-1,-1,-1,-1,-1],"split_conditions":[1.179873E5,4.812729E2,-1.6801208E2,3.851123E-1,1.1108653E5,-2.4743651E2,1.2265919E5,-8.416147E-8,5.034476E-6,-5.9423804E-5,-1.685672E-5,-8.5835126E-7,-4.382087E-5,-2.1188046E-6,-2.2528895E-5],"split_indices":[9,1,8,7,4,8,5,0,0,0,0,0,0,0,0],"split_type":[0,0,0,0,0,0,0,0,0,0,0,0,0,0,0],"sum_hessian":[9.299E3,5.123E3,4.176E3,5.07E3,5.3E1,1.83E2,3.993E3,1.985E3,3.085E3,3E0,5E1,8.8E1,9.5E1,3.919E3,7.4E1],"tree_param":{"num_deleted":"0","num_feature":"10","num_nodes":"15","size_leaf_vector":"1"}},{"base_weights":[-8.663952E-8,1.968481E-4,-4.748387E-4,-8.062694E-5,3.7748495E-4,-1.5779391E-3,-1.5557012E-4,-3.540138E-6,7.8189834E-7,6.7047026E-6,5.69908E-8,-7.5938283E-6,-3.211329E-5,1.12894095E-5,-2.9395512E-6],"categories":[],"categories_nodes":[],"categories_segments":[],"categories_sizes":[],"default_left":[0,0,0,0,0,0,0,0,0,0,0,0,0,0,0],"id":22,"left_children":[1,3,5,7,9,11,13,-1,-1,-1,-1,-1,-1,-1,-1],"loss_changes":[8.6959853E-4,3.2953388E-4,9.6016383E-4,1.12611655E-4,4.3374667E-4,8.1581867E-4,3.764658E-4,0E0,0E0,0E0,0E0,0E0,0E0,0E0,0E0],"parents":[2147483647,0,0,1,1,2,2,3,3,4,4,5,5,6,6],"right_children":[2,4,6,8,10,12,14,-1,-1,-1,-1,-1,-1,-1,-1],"split_conditions":[1.185387E5,3.692715E-1,-6.392891E1,1.163216E5,1.17678984E5,1.201638E5,-4.0230747E1,-3.540138E-6,7.8189834E-7,6.7047026E-6,5.69908E-8,-7.5938283E-6,-3.211329E-5,1.12894095E-5,-2.9395512E-6],"split_indices":[6,7,1,9,2,6,0,0,0,0,0,0,0,0,0],"split_type":[0,0,0,0,0,0,0,0,0,0,0,0,0,0,0],"sum_hessian":[9.299E3,6.573E3,2.726E3,2.592E3,3.981E3,6.11E2,2.115E3,9.52E2,1.64E3,2.226E3,1.755E3,4.08E2,2.03E2,2.05E2,1.91E3],"tree_param":{"num_deleted":"0","num_feature":"10","num_nodes":"15","size_leaf_vector":"1"}},{"base_weights":[-8.87244E-8,2.7337665E-4,-3.3555352E-4,-4.295486E-5,4.5274102E-4,-1.7200158E-3,-1.9131099E-4,8.394349E-7,-3.098224E-5,2.1628208E-5,2.1432768E-6,-8.965676E-6,-3.7346555E-5,6.59491E-5,-2.0923706E-6],"categories":[],"categories_nodes":[],"categories_segments":[],"categories_sizes":[],"default_left":[0,0,0,0,0,0,0,0,0,0,0,0,0,0,0],"id":23,"left_children":[1,3,5,7,9,11,13,-1,-1,-1,-1,-1,-1,-1,-1],"loss_changes":[8.532551E-4,2.9074802E-4,8.33811E-4,7.194596E-4,1.3327347E-3,6.502785E-4,4.6170445E-4,0E0,0E0,0E0,0E0,0E0,0E0,0E0,0E0],"parents":[2147483647,0,0,1,1,2,2,3,3,4,4,5,5,6,6],"right_children":[2,4,6,8,10,12,14,-1,-1,-1,-1,-1,-1,-1,-1],"split_conditions":[1.180253E5,1.1081752E5,-1.139068E2,1.09640734E5,1.141005E5,1.1986325E5,-1.2318007E2,8.394349E-7,-3.098224E-5,2.1628208E-5,2.1432768E-6,-8.965676E-6,-3.7346555E-5,6.59491E-5,-2.0923706E-6],"split_indices":[4,3,8,4,2,5,0,0,0,0,0,0,0,0,0],"split_type":[0,0,0,0,0,0,0,0,0,0,0,0,0,0,0],"sum_hessian":[9.299E3,5.123E3,4.176E3,1.854E3,3.269E3,3.93E2,3.783E3,1.781E3,7.3E1,3.99E2,2.87E3,2.8E2,1.13E2,9E0,3.774E3],"tree_param":{"num_deleted":"0","num_feature":"10","num_nodes":"15","size_leaf_vector":"1"}},{"base_weights":[-8.662097E-8,1.9324699E-4,-4.661574E-4,-8.148865E-5,3.7210088E-4,-1.6664995E-3,-1.8191227E-4,-3.544846E-6,7.7101623E-7,7.773071E-6,1.0968575E-6,-8.23724E-6,-3.2631968E-5,6.5726204E-6,-3.437519E-6],"categories":[],"categories_nodes":[],"categories_segments":[],"categories_sizes":[],"default_left":[0,0,0,0,0,0,0,0,0,0,0,0,0,0,0],"id":24,"left_children":[1,3,5,7,9,11,13,-1,-1,-1,-1,-1,-1,-1,-1],"loss_changes":[8.3808653E-4,3.2306058E-4,9.301259E-4,1.1229E-4,4.2332965E-4,6.99745E-4,2.9982647E-4,0E0,0E0,0E0,0E0,0E0,0E0,0E0,0E0],"parents":[2147483647,0,0,1,1,2,2,3,3,4,4,5,5,6,6],"right_children":[2,4,6,8,10,12,14,-1,-1,-1,-1,-1,-1,-1,-1],"split_conditions":[1.185387E5,3.692715E-1,-7.4886375E1,1.163216E5,1.155715E5,1.20147266E5,-3.3804604E1,-3.544846E-6,7.7101623E-7,7.773071E-6,1.0968575E-6,-8.23724E-6,-3.2631968E-5,6.5726204E-6,-3.437519E-6],"split_indices":[6,7,8,9,6,4,0,0,0,0,0,0,0,0,0],"split_type":[0,0,0,0,0,0,0,0,0,0,0,0,0,0,0],"sum_hessian":[9.299E3,6.573E3,2.726E3,2.592E3,3.981E3,5.21E2,2.205E3,9.52E2,1.64E3,1.564E3,2.417E3,3.42E2,1.79E2,3.56E2,1.849E3],"tree_param":{"num_deleted":"0","num_feature":"10","num_nodes":"15","size_leaf_vector":"1"}},{"base_weights":[-8.916172E-8,2.685222E-4,-3.2959948E-4,-5.13647E-4,3.4028327E-4,-2.2533003E-3,-2.4089377E-4,1.4064742E-5,-1.3476078E-5,-5.906912E-7,5.9433596E-6,-6.0701853E-7,-4.3067797E-5,-2.0308075E-6,-2.2140428E-5],"categories":[],"categories_nodes":[],"categories_segments":[],"categories_sizes":[],"default_left":[0,0,0,0,0,0,0,0,0,0,0,0,0,0,0],"id":25,"left_children":[1,3,5,7,9,11,13,-1,-1,-1,-1,-1,-1,-1,-1],"loss_changes":[8.2323345E-4,2.8778124E-4,7.1223394E-4,6.920582E-4,4.7627208E-4,8.281904E-4,2.9754572E-4,0E0,0E0,0E0,0E0,0E0,0E0,0E0,0E0],"parents":[2147483647,0,0,1,1,2,2,3,3,4,4,5,5,6,6],"right_children":[2,4,6,8,10,12,14,-1,-1,-1,-1,-1,-1,-1,-1],"split_conditions":[1.179873E5,-1.5305023E2,-1.6801208E2,1.15629E5,1.1081752E5,-2.5671478E2,1.2265919E5,1.4064742E-5,-1.3476078E-5,-5.906912E-7,5.9433596E-6,-6.0701853E-7,-4.3067797E-5,-2.0308075E-6,-2.2140428E-5],"split_indices":[9,8,8,6,3,1,5,0,0,0,0,0,0,0,0],"split_type":[0,0,0,0,0,0,0,0,0,0,0,0,0,0,0],"sum_hessian":[9.299E3,5.123E3,4.176E3,4.3E2,4.693E3,1.83E2,3.993E3,1.3E2,3E2,1.825E3,2.868E3,8.9E1,9.4E1,3.919E3,7.4E1],"tree_param":{"num_deleted":"0","num_feature":"10","num_nodes":"15","size_leaf_vector":"1"}},{"base_weights":[-9.492193E-8,1.8972458E-4,-4.5769423E-4,-8.2367456E-5,3.6685792E-4,-1.5306637E-3,-1.471484E-4,-3.5153955E-6,7.4002674E-7,-5.348758E-6,4.8247225E-6,-7.3392366E-6,-3.1205458E-5,1.11593745E-5,-2.8322822E-6],"categories":[],"categories_nodes":[],"categories_segments":[],"categories_sizes":[],"default_left":[0,0,0,0,0,0,0,0,0,0,0,0,0,0,0],"id":26,"left_children":[1,3,5,7,9,11,13,-1,-1,-1,-1,-1,-1,-1,-1],"loss_changes":[8.078967E-4,3.1687447E-4,9.084281E-4,1.0916662E-4,4.1539478E-4,7.729442E-4,3.6401526E-4,0E0,0E0,0E0,0E0,0E0,0E0,0E0,0E0],"parents":[2147483647,0,0,1,1,2,2,3,3,4,4,5,5,6,6],"right_children":[2,4,6,8,10,12,14,-1,-1,-1,-1,-1,-1,-1,-1],"split_conditions":[1.185387E5,3.692715E-1,-6.392891E1,1.163216E5,-1.5305023E2,1.201638E5,-4.0230747E1,-3.5153955E-6,7.4002674E-7,-5.348758E-6,4.8247225E-6,-7.3392366E-6,-3.1205458E-5,1.11593745E-5,-2.8322822E-6],"split_indices":[6,7,1,9,8,6,0,0,0,0,0,0,0,0,0],"split_type":[0,0,0,0,0,0,0,0,0,0,0,0,0,0,0],"sum_hessian":[9.299E3,6.573E3,2.726E3,2.592E3,3.981E3,6.11E2,2.115E3,9.52E2,1.64E3,4.52E2,3.529E3,4.08E2,2.03E2,2.05E2,1.91E3],"tree_param":{"num_deleted":"0","num_feature":"10","num_nodes":"15","size_leaf_vector":"1"}},{"base_weights":[-9.757319E-8,2.642E-4,-3.243161E-4,3.1001936E-4,-9.7461627E-4,-2.251453E-3,-2.2683585E-4,2.7360928E-5,2.791391E-6,-2.879603E-5,-6.6896037E-6,-3.4226002E-6,-4.215043E-5,6.533027E-5,-2.4381463E-6],"categories":[],"categories_nodes":[],"categories_segments":[],"categories_sizes":[],"default_left":[0,0,0,0,0,0,0,0,0,0,0,0,0,0,0],"id":27,"left_children":[1,3,5,7,9,11,13,-1,-1,-1,-1,-1,-1,-1,-1],"loss_changes":[7.970042E-4,2.9114936E-4,7.8417116E-4,3.694799E-4,1.0462914E-4,7.520807E-4,4.5804988E-4,0E0,0E0,0E0,0E0,0E0,0E0,0E0,0E0],"parents":[2147483647,0,0,1,1,2,2,3,3,4,4,5,5,6,6],"right_children":[2,4,6,8,10,12,14,-1,-1,-1,-1,-1,-1,-1,-1],"split_conditions":[1.180253E5,2.1837634E2,-1.6801208E2,-8.480132E1,1.08755414E5,-2.5671478E2,-1.2318007E2,2.7360928E-5,2.791391E-6,-2.879603E-5,-6.6896037E-6,-3.4226002E-6,-4.215043E-5,6.533027E-5,-2.4381463E-6],"split_indices":[4,8,8,0,5,1,0,0,0,0,0,0,0,0,0],"split_type":[0,0,0,0,0,0,0,0,0,0,0,0,0,0,0],"sum_hessian":[9.299E3,5.123E3,4.176E3,4.941E3,1.82E2,2E2,3.976E3,6.1E1,4.88E3,2.4E1,1.58E2,1.02E2,9.8E1,9E0,3.967E3],"tree_param":{"num_deleted":"0","num_feature":"10","num_nodes":"15","size_leaf_vector":"1"}},{"base_weights":[-9.531607E-8,2.6164702E-4,-3.2117925E-4,2.8590165E-4,-2.0208885E-3,-2.192151E-3,-2.3490483E-4,-3.4452515E-7,4.694403E-6,-5.8670128E-5,-1.6796062E-5,-7.824004E-8,-4.194369E-5,-1.9757304E-6,-2.1829812E-5],"categories":[],"categories_nodes":[],"categories_segments":[],"categories_sizes":[],"default_left":[0,0,0,0,0,0,0,0,0,0,0,0,0,0,0],"id":28,"left_children":[1,3,5,7,9,11,13,-1,-1,-1,-1,-1,-1,-1,-1],"loss_changes":[7.816677E-4,2.84253E-4,6.7372376E-4,2.981776E-4,6.1026847E-5,8.046911E-4,2.9003306E-4,0E0,0E0,0E0,0E0,0E0,0E0,0E0,0E0],"parents":[2147483647,0,0,1,1,2,2,3,3,4,4,5,5,6,6],"right_children":[2,4,6,8,10,12,14,-1,-1,-1,-1,-1,-1,-1,-1],"split_conditions":[1.179873E5,4.812729E2,-1.6801208E2,1.1081752E5,1.1108653E5,-2.4743651E2,1.2265919E5,-3.4452515E-7,4.694403E-6,-5.8670128E-5,-1.6796062E-5,-7.824004E-8,-4.194369E-5,-1.9757304E-6,-2.1829812E-5],"split_indices":[9,1,8,3,4,8,5,0,0,0,0,0,0,0,0],"split_type":[0,0,0,0,0,0,0,0,0,0,0,0,0,0,0],"sum_hessian":[9.299E3,5.123E3,4.176E3,5.07E3,5.3E1,1.83E2,3.993E3,1.847E3,3.223E3,3E0,5E1,8.8E1,9.5E1,3.919E3,7.4E1],"tree_param":{"num_deleted":"0","num_feature":"10","num_nodes":"15","size_leaf_vector":"1"}},{"base_weights":[-1.0908651E-7,9.877479E-5,-8.368497E-4,6.954891E-5,2.2991945E-3,-2.255058E-3,1.4830478E-4,2.604394E-6,-2.4716146E-6,1.6478903E-6,2.8999115E-5,1.6396352E-5,-2.6415662E-5,2.5364716E-6,-7.42855E-5],"categories":[],"categories_nodes":[],"categories_segments":[],"categories_sizes":[],"default_left":[0,0,0,0,0,0,0,0,0,0,0,0,0,0,0],"id":29,"left_children":[1,3,5,7,9,11,13,-1,-1,-1,-1,-1,-1,-1,-1],"loss_changes":[7.695661E-4,5.3476414E-4,1.3737369E-3,4.9641635E-4,1.39279E-4,6.1097974E-4,4.656175E-4,0E0,0E0,0E0,0E0,0E0,0E0,0E0,0E0],"parents":[2147483647,0,0,1,1,2,2,3,3,4,4,5,5,6,6],"right_children":[2,4,6,8,10,12,14,-1,-1,-1,-1,-1,-1,-1,-1],"split_conditions":[1.1922106E5,1.19662E5,-8.307222E0,1.179873E5,5.8764618E1,-2.8075525E2,7.9826454E1,2.604394E-6,-2.4716146E-6,1.6478903E-6,2.8999115E-5,1.6396352E-5,-2.6415662E-5,2.5364716E-6,-7.42855E-5],"split_indices":[5,6,8,9,8,8,0,0,0,0,0,0,0,0,0],"split_type":[0,0,0,0,0,0,0,0,0,0,0,0,0,0,0],"sum_hessian":[9.299E3,8.317E3,9.82E2,8.209E3,1.08E2,4.02E2,5.8E2,5.122E3,3.087E3,2.4E1,8.4E1,3.6E1,3.66E2,5.73E2,7E0],"tree_param":{"num_deleted":"0","num_feature":"10","num_nodes":"15","size_leaf_vector":"1"}},{"base_weights":[-1.13482024E-7,1.8331432E-4,-4.4230424E-4,-8.5289634E-5,3.5817787E-4,-1.487823E-3,-1.3970511E-4,-3.5398855E-6,7.080749E-7,8.167663E-6,1.3278433E-6,-7.0687393E-6,-3.046256E-5,-6.191851E-6,2.1499636E-6],"categories":[],"categories_nodes":[],"categories_segments":[],"categories_sizes":[],"default_left":[0,0,0,0,0,0,0,0,0,0,0,0,0,0,0],"id":30,"left_children":[1,3,5,7,9,11,13,-1,-1,-1,-1,-1,-1,-1,-1],"loss_changes":[7.544048E-4,3.0880497E-4,8.6254143E-4,1.0878359E-4,4.1148253E-4,7.426853E-4,3.60006E-4,0E0,0E0,0E0,0E0,0E0,0E0,0E0,0E0],"parents":[2147483647,0,0,1,1,2,2,3,3,4,4,5,5,6,6],"right_children":[2,4,6,8,10,12,14,-1,-1,-1,-1,-1,-1,-1,-1],"split_conditions":[1.185387E5,3.692715E-1,-6.392891E1,1.163216E5,1.141005E5,1.201638E5,1.1930533E5,-3.5398855E-6,7.080749E-7,8.167663E-6,1.3278433E-6,-7.0687393E-6,-3.046256E-5,-6.191851E-6,2.1499636E-6],"split_indices":[6,7,1,9,2,6,2,0,0,0,0,0,0,0,0],"split_type":[0,0,0,0,0,0,0,0,0,0,0,0,0,0,0],"sum_hessian":[9.299E3,6.573E3,2.726E3,2.592E3,3.981E3,6.11E2,2.115E3,9.52E2,1.64E3,1.311E3,2.67E3,4.08E2,2.03E2,8.99E2,1.216E3],"tree_param":{"num_deleted":"0","num_feature":"10","num_nodes":"15","size_leaf_vector":"1"}},{"base_weights":[-1.161048E-7,9.711827E-5,-8.228988E-4,6.819141E-5,2.2750301E-3,-2.216046E-3,1.4484848E-4,2.5577197E-6,-2.4302728E-6,1.6409306E-6,2.8691287E-5,1.6438371E-5,-2.5991512E-5,2.4926903E-6,-7.365431E-5],"categories":[],"categories_nodes":[],"categories_segments":[],"categories_sizes":[],"default_left":[0,0,0,0,0,0,0,0,0,0,0,0,0,0,0],"id":31,"left_children":[1,3,5,7,9,11,13,-1,-1,-1,-1,-1,-1,-1,-1],"loss_changes":[7.441056E-4,5.2388007E-4,1.3256159E-3,4.7935027E-4,1.3622665E-4,6.002055E-4,4.574721E-4,0E0,0E0,0E0,0E0,0E0,0E0,0E0,0E0],"parents":[2147483647,0,0,1,1,2,2,3,3,4,4,5,5,6,6],"right_children":[2,4,6,8,10,12,14,-1,-1,-1,-1,-1,-1,-1,-1],"split_conditions":[1.1922106E5,1.19662E5,-8.307222E0,1.179873E5,5.8764618E1,-2.8075525E2,7.9826454E1,2.5577197E-6,-2.4302728E-6,1.6409306E-6,2.8691287E-5,1.6438371E-5,-2.5991512E-5,2.4926903E-6,-7.365431E-5],"split_indices":[5,6,8,9,8,8,0,0,0,0,0,0,0,0,0],"split_type":[0,0,0,0,0,0,0,0,0,0,0,0,0,0,0],"sum_hessian":[9.299E3,8.317E3,9.82E2,8.209E3,1.08E2,4.02E2,5.8E2,5.122E3,3.087E3,2.4E1,8.4E1,3.6E1,3.66E2,5.73E2,7E0],"tree_param":{"num_deleted":"0","num_feature":"10","num_nodes":"15","size_leaf_vector":"1"}},{"base_weights":[-1.2035053E-7,9.615075E-5,-8.1475195E-4,6.7509514E-5,2.252558E-3,-2.1939091E-3,1.4327749E-4,2.5321474E-6,-2.405978E-6,1.6251777E-6,2.840775E-5,1.627843E-5,-2.5732304E-5,2.4678066E-6,-7.300984E-5],"categories":[],"categories_nodes":[],"categories_segments":[],"categories_sizes":[],"default_left":[0,0,0,0,0,0,0,0,0,0,0,0,0,0,0],"id":32,"left_children":[1,3,5,7,9,11,13,-1,-1,-1,-1,-1,-1,-1,-1],"loss_changes":[7.2943536E-4,5.1358563E-4,1.2991258E-3,4.6981362E-4,1.3354264E-4,5.884066E-4,4.4946492E-4,0E0,0E0,0E0,0E0,0E0,0E0,0E0,0E0],"parents":[2147483647,0,0,1,1,2,2,3,3,4,4,5,5,6,6],"right_children":[2,4,6,8,10,12,14,-1,-1,-1,-1,-1,-1,-1,-1],"split_conditions":[1.1922106E5,1.19662E5,-8.307222E0,1.179873E5,5.8764618E1,-2.8075525E2,7.9826454E1,2.5321474E-6,-2.405978E-6,1.6251777E-6,2.840775E-5,1.627843E-5,-2.5732304E-5,2.4678066E-6,-7.300984E-5],"split_indices":[5,6,8,9,8,8,0,0,0,0,0,0,0,0,0],"split_type":[0,0,0,0,0,0,0,0,0,0,0,0,0,0,0],"sum_hessian":[9.299E3,8.317E3,9.82E2,8.209E3,1.08E2,4.02E2,5.8E2,5.122E3,3.087E3,2.4E1,8.4E1,3.6E1,3.66E2,5.73E2,7E0],"tree_param":{"num_deleted":"0","num_feature":"10","num_nodes":"15","size_leaf_vector":"1"}},{"base_weights":[-1.2450046E-7,1.7858547E-4,-4.3094196E-4,-8.6727436E-5,3.5130716E-4,-1.5586648E-3,-1.638965E-4,-3.555369E-6,6.943476E-7,5.5029986E-6,-1.6664352E-6,-7.574314E-6,-3.0768002E-5,6.623158E-6,-3.2324456E-6],"categories":[],"categories_nodes":[],"categories_segments":[],"categories_sizes":[],"default_left":[0,0,0,0,0,0,0,0,0,0,0,0,0,0,0],"id":33,"left_children":[1,3,5,7,9,11,13,-1,-1,-1,-1,-1,-1,-1,-1],"loss_changes":[7.160968E-4,3.0128594E-4,8.2098943E-4,1.0887333E-4,4.1051023E-4,6.326203E-4,2.9064575E-4,0E0,0E0,0E0,0E0,0E0,0E0,0E0,0E0],"parents":[2147483647,0,0,1,1,2,2,3,3,4,4,5,5,6,6],"right_children":[2,4,6,8,10,12,14,-1,-1,-1,-1,-1,-1,-1,-1],"split_conditions":[1.185387E5,3.692715E-1,-7.4886375E1,1.163216E5,7.9957587E-1,1.20147266E5,-3.3804604E1,-3.555369E-6,6.943476E-7,5.5029986E-6,-1.6664352E-6,-7.574314E-6,-3.0768002E-5,6.623158E-6,-3.2324456E-6],"split_indices":[6,7,8,9,7,4,0,0,0,0,0,0,0,0,0],"split_type":[0,0,0,0,0,0,0,0,0,0,0,0,0,0,0],"sum_hessian":[9.299E3,6.573E3,2.726E3,2.592E3,3.981E3,5.21E2,2.205E3,9.52E2,1.64E3,2.876E3,1.105E3,3.42E2,1.79E2,3.56E2,1.849E3],"tree_param":{"num_deleted":"0","num_feature":"10","num_nodes":"15","size_leaf_vector":"1"}},{"base_weights":[-1.2691325E-7,2.482144E-4,-3.047716E-4,2.9332942E-4,-9.714935E-4,-2.1646393E-3,-2.106961E-4,2.6962745E-5,2.6274636E-6,-2.8562825E-5,-6.6903294E-6,-3.0650099E-6,-4.075989E-5,6.473119E-5,-2.274873E-6],"categories":[],"categories_nodes":[],"categories_segments":[],"categories_sizes":[],"default_left":[0,0,0,0,0,0,0,0,0,0,0,0,0,0,0],"id":34,"left_children":[1,3,5,7,9,11,13,-1,-1,-1,-1,-1,-1,-1,-1],"loss_changes":[7.0367515E-4,2.822439E-4,7.303852E-4,3.6247625E-4,1.0241264E-4,7.126126E-4,4.478083E-4,0E0,0E0,0E0,0E0,0E0,0E0,0E0,0E0],"parents":[2147483647,0,0,1,1,2,2,3,3,4,4,5,5,6,6],"right_children":[2,4,6,8,10,12,14,-1,-1,-1,-1,-1,-1,-1,-1],"split_conditions":[1.180253E5,2.1837634E2,-1.6801208E2,-8.480132E1,1.08755414E5,-2.5671478E2,-1.2318007E2,2.6962745E-5,2.6274636E-6,-2.8562825E-5,-6.6903294E-6,-3.0650099E-6,-4.075989E-5,6.473119E-5,-2.274873E-6],"split_indices":[4,8,8,0,5,1,0,0,0,0,0,0,0,0,0],"split_type":[0,0,0,0,0,0,0,0,0,0,0,0,0,0,0],"sum_hessian":[9.299E3,5.123E3,4.176E3,4.941E3,1.82E2,2E2,3.976E3,6.1E1,4.88E3,2.4E1,1.58E2,1.02E2,9.8E1,9E0,3.967E3],"tree_param":{"num_deleted":"0","num_feature":"10","num_nodes":"15","size_leaf_vector":"1"}},{"base_weights":[-1.2424067E-7,9.393515E-5,-7.9604075E-4,6.54822E-5,2.2361814E-3,-2.1490878E-3,1.4384564E-4,2.4672192E-6,-2.3521618E-6,1.6806056E-6,2.8181441E-5,1.6399874E-5,-2.5252368E-5,2.4639817E-6,-7.232281E-5],"categories":[],"categories_nodes":[],"categories_segments":[],"categories_sizes":[],"default_left":[0,0,0,0,0,0,0,0,0,0,0,0,0,0,0],"id":35,"left_children":[1,3,5,7,9,11,13,-1,-1,-1,-1,-1,-1,-1,-1],"loss_changes":[6.9630466E-4,5.0686253E-4,1.2504007E-3,4.4749066E-4,1.3071549E-4,5.785198E-4,4.4127402E-4,0E0,0E0,0E0,0E0,0E0,0E0,0E0,0E0],"parents":[2147483647,0,0,1,1,2,2,3,3,4,4,5,5,6,6],"right_children":[2,4,6,8,10,12,14,-1,-1,-1,-1,-1,-1,-1,-1],"split_conditions":[1.1922106E5,1.19662E5,-8.307222E0,1.179873E5,5.8764618E1,-2.8075525E2,7.9826454E1,2.4672192E-6,-2.3521618E-6,1.6806056E-6,2.8181441E-5,1.6399874E-5,-2.5252368E-5,2.4639817E-6,-7.232281E-5],"split_indices":[5,6,8,9,8,8,0,0,0,0,0,0,0,0,0],"split_type":[0,0,0,0,0,0,0,0,0,0,0,0,0,0,0],"sum_hessian":[9.299E3,8.317E3,9.82E2,8.209E3,1.08E2,4.02E2,5.8E2,5.122E3,3.087E3,2.4E1,8.4E1,3.6E1,3.66E2,5.73E2,7E0],"tree_param":{"num_deleted":"0","num_feature":"10","num_nodes":"15","size_leaf_vector":"1"}},{"base_weights":[-1.2825028E-7,9.29994E-5,-7.881604E-4,6.4827385E-5,2.2140935E-3,-2.1276188E-3,1.4228688E-4,2.4425517E-6,-2.328648E-6,1.6644716E-6,2.7902941E-5,1.6240308E-5,-2.5000532E-5,2.4393844E-6,-7.168998E-5],"categories":[],"categories_nodes":[],"categories_segments":[],"categories_sizes":[],"default_left":[0,0,0,0,0,0,0,0,0,0,0,0,0,0,0],"id":36,"left_children":[1,3,5,7,9,11,13,-1,-1,-1,-1,-1,-1,-1,-1],"loss_changes":[6.8257784E-4,4.969027E-4,1.2254112E-3,4.3858794E-4,1.2813974E-4,5.6714925E-4,4.335501E-4,0E0,0E0,0E0,0E0,0E0,0E0,0E0,0E0],"parents":[2147483647,0,0,1,1,2,2,3,3,4,4,5,5,6,6],"right_children":[2,4,6,8,10,12,14,-1,-1,-1,-1,-1,-1,-1,-1],"split_conditions":[1.1922106E5,1.19662E5,-8.307222E0,1.179873E5,5.8764618E1,-2.8075525E2,7.9826454E1,2.4425517E-6,-2.328648E-6,1.6644716E-6,2.7902941E-5,1.6240308E-5,-2.5000532E-5,2.4393844E-6,-7.168998E-5],"split_indices":[5,6,8,9,8,8,0,0,0,0,0,0,0,0,0],"split_type":[0,0,0,0,0,0,0,0,0,0,0,0,0,0,0],"sum_hessian":[9.299E3,8.317E3,9.82E2,8.209E3,1.08E2,4.02E2,5.8E2,5.122E3,3.087E3,2.4E1,8.4E1,3.6E1,3.66E2,5.73E2,7E0],"tree_param":{"num_deleted":"0","num_feature":"10","num_nodes":"15","size_leaf_vector":"1"}},{"base_weights":[-1.3214945E-7,9.207299E-5,-7.8035815E-4,6.417914E-5,2.1922237E-3,-2.1063644E-3,1.4074487E-4,2.418131E-6,-2.3053688E-6,1.6484923E-6,2.7627193E-5,1.6082295E-5,-2.4751207E-5,2.4150336E-6,-7.10627E-5],"categories":[],"categories_nodes":[],"categories_segments":[],"categories_sizes":[],"default_left":[0,0,0,0,0,0,0,0,0,0,0,0,0,0,0],"id":37,"left_children":[1,3,5,7,9,11,13,-1,-1,-1,-1,-1,-1,-1,-1],"loss_changes":[6.6912174E-4,4.871384E-4,1.2009214E-3,4.2986224E-4,1.2561493E-4,5.56002E-4,4.259614E-4,0E0,0E0,0E0,0E0,0E0,0E0,0E0,0E0],"parents":[2147483647,0,0,1,1,2,2,3,3,4,4,5,5,6,6],"right_children":[2,4,6,8,10,12,14,-1,-1,-1,-1,-1,-1,-1,-1],"split_conditions":[1.1922106E5,1.19662E5,-8.307222E0,1.179873E5,5.8764618E1,-2.8075525E2,7.9826454E1,2.418131E-6,-2.3053688E-6,1.6484923E-6,2.7627193E-5,1.6082295E-5,-2.4751207E-5,2.4150336E-6,-7.10627E-5],"split_indices":[5,6,8,9,8,8,0,0,0,0,0,0,0,0,0],"split_type":[0,0,0,0,0,0,0,0,0,0,0,0,0,0,0],"sum_hessian":[9.299E3,8.317E3,9.82E2,8.209E3,1.08E2,4.02E2,5.8E2,5.122E3,3.087E3,2.4E1,8.4E1,3.6E1,3.66E2,5.73E2,7E0],"tree_param":{"num_deleted":"0","num_feature":"10","num_nodes":"15","size_leaf_vector":"1"}},{"base_weights":[-1.3598383E-7,1.7123886E-4,-4.132706E-4,1.9982393E-4,-1.3943969E-3,-1.5000373E-3,-1.559245E-4,-8.678693E-7,3.9069837E-6,-3.2126263E-5,-1.0984156E-5,-7.2150206E-6,-2.9752458E-5,6.625407E-6,-3.1378186E-6],"categories":[],"categories_nodes":[],"categories_segments":[],"categories_sizes":[],"default_left":[0,0,0,0,0,0,0,0,0,0,0,0,0,0,0],"id":38,"left_children":[1,3,5,7,9,11,13,-1,-1,-1,-1,-1,-1,-1,-1],"loss_changes":[6.585189E-4,2.944901E-4,7.6244026E-4,3.5327504E-4,5.9974307E-5,5.9737125E-4,2.8522479E-4,0E0,0E0,0E0,0E0,0E0,0E0,0E0,0E0],"parents":[2147483647,0,0,1,1,2,2,3,3,4,4,5,5,6,6],"right_children":[2,4,6,8,10,12,14,-1,-1,-1,-1,-1,-1,-1,-1],"split_conditions":[1.185387E5,3.254921E2,-7.4886375E1,3.692715E-1,1.0865875E5,1.20147266E5,-3.3804604E1,-8.678693E-7,3.9069837E-6,-3.2126263E-5,-1.0984156E-5,-7.2150206E-6,-2.9752458E-5,6.625407E-6,-3.1378186E-6],"split_indices":[6,8,8,7,5,4,0,0,0,0,0,0,0,0,0],"split_type":[0,0,0,0,0,0,0,0,0,0,0,0,0,0,0],"sum_hessian":[9.299E3,6.573E3,2.726E3,6.456E3,1.17E2,5.21E2,2.205E3,2.581E3,3.875E3,1.5E1,1.02E2,3.42E2,1.79E2,3.56E2,1.849E3],"tree_param":{"num_deleted":"0","num_feature":"10","num_nodes":"15","size_leaf_vector":"1"}},{"base_weights":[-1.4253432E-7,1.6952038E-4,-4.0915018E-4,1.9782616E-4,-1.3808183E-3,-1.3843577E-3,-1.2690247E-4,-8.591939E-7,3.867924E-6,-3.182508E-5,-1.087538E-5,-6.4627598E-6,-2.857353E-5,-6.0736415E-6,2.0840512E-6],"categories":[],"categories_nodes":[],"categories_segments":[],"categories_sizes":[],"default_left":[0,0,0,0,0,0,0,0,0,0,0,0,0,0,0],"id":39,"left_children":[1,3,5,7,9,11,13,-1,-1,-1,-1,-1,-1,-1,-1],"loss_changes":[6.4542826E-4,2.887636E-4,7.504313E-4,3.4624676E-4,5.8890088E-5,6.6351425E-4,3.4101936E-4,0E0,0E0,0E0,0E0,0E0,0E0,0E0,0E0],"parents":[2147483647,0,0,1,1,2,2,3,3,4,4,5,5,6,6],"right_children":[2,4,6,8,10,12,14,-1,-1,-1,-1,-1,-1,-1,-1],"split_conditions":[1.185387E5,3.254921E2,-6.392891E1,3.692715E-1,1.0865875E5,1.201638E5,1.192839E5,-8.591939E-7,3.867924E-6,-3.182508E-5,-1.087538E-5,-6.4627598E-6,-2.857353E-5,-6.0736415E-6,2.0840512E-6],"split_indices":[6,8,1,7,5,6,2,0,0,0,0,0,0,0,0],"split_type":[0,0,0,0,0,0,0,0,0,0,0,0,0,0,0],"sum_hessian":[9.299E3,6.573E3,2.726E3,6.456E3,1.17E2,6.11E2,2.115E3,2.581E3,3.875E3,1.5E1,1.02E2,4.08E2,2.03E2,8.69E2,1.246E3],"tree_param":{"num_deleted":"0","num_feature":"10","num_nodes":"15","size_leaf_vector":"1"}},{"base_weights":[-1.4957844E-7,8.975392E-5,-7.608995E-4,6.209039E-5,2.1725781E-3,-2.054622E-3,1.3777704E-4,2.3576258E-6,-2.2605236E-6,1.6848109E-6,2.7364586E-5,1.6306218E-5,-2.4205605E-5,2.3761986E-6,-7.043168E-5],"categories":[],"categories_nodes":[],"categories_segments":[],"categories_sizes":[],"default_left":[0,0,0,0,0,0,0,0,0,0,0,0,0,0,0],"id":40,"left_children":[1,3,5,7,9,11,13,-1,-1,-1,-1,-1,-1,-1,-1],"loss_changes":[6.361332E-4,4.791339E-4,1.1431563E-3,4.109013E-4,1.2271677E-4,5.474215E-4,4.1823077E-4,0E0,0E0,0E0,0E0,0E0,0E0,0E0,0E0],"parents":[2147483647,0,0,1,1,2,2,3,3,4,4,5,5,6,6],"right_children":[2,4,6,8,10,12,14,-1,-1,-1,-1,-1,-1,-1,-1],"split_conditions":[1.1922106E5,1.19662E5,-8.307222E0,1.179873E5,5.8764618E1,-2.8075525E2,7.9826454E1,2.3576258E-6,-2.2605236E-6,1.6848109E-6,2.7364586E-5,1.6306218E-5,-2.4205605E-5,2.3761986E-6,-7.043168E-5],"split_indices":[5,6,8,9,8,8,0,0,0,0,0,0,0,0,0],"split_type":[0,0,0,0,0,0,0,0,0,0,0,0,0,0,0],"sum_hessian":[9.299E3,8.317E3,9.82E2,8.209E3,1.08E2,4.02E2,5.8E2,5.122E3,3.087E3,2.4E1,8.4E1,3.6E1,3.66E2,5.73E2,7E0],"tree_param":{"num_deleted":"0","num_feature":"10","num_nodes":"15","size_leaf_vector":"1"}},{"base_weights":[-1.5310702E-7,8.8859895E-5,-7.533678E-4,6.146951E-5,2.1511188E-3,-2.0340953E-3,1.3628215E-4,2.3340544E-6,-2.2379254E-6,1.6686371E-6,2.709416E-5,1.6147562E-5,-2.3964207E-5,2.352478E-6,-6.98154E-5],"categories":[],"categories_nodes":[],"categories_segments":[],"categories_sizes":[],"default_left":[0,0,0,0,0,0,0,0,0,0,0,0,0,0,0],"id":41,"left_children":[1,3,5,7,9,11,13,-1,-1,-1,-1,-1,-1,-1,-1],"loss_changes":[6.2359375E-4,4.6971889E-4,1.1203067E-3,4.0272647E-4,1.2029859E-4,5.366645E-4,4.109105E-4,0E0,0E0,0E0,0E0,0E0,0E0,0E0,0E0],"parents":[2147483647,0,0,1,1,2,2,3,3,4,4,5,5,6,6],"right_children":[2,4,6,8,10,12,14,-1,-1,-1,-1,-1,-1,-1,-1],"split_conditions":[1.1922106E5,1.19662E5,-8.307222E0,1.179873E5,5.8764618E1,-2.8075525E2,7.9826454E1,2.3340544E-6,-2.2379254E-6,1.6686371E-6,2.709416E-5,1.6147562E-5,-2.3964207E-5,2.352478E-6,-6.98154E-5],"split_indices":[5,6,8,9,8,8,0,0,0,0,0,0,0,0,0],"split_type":[0,0,0,0,0,0,0,0,0,0,0,0,0,0,0],"sum_hessian":[9.299E3,8.317E3,9.82E2,8.209E3,1.08E2,4.02E2,5.8E2,5.122E3,3.087E3,2.4E1,8.4E1,3.6E1,3.66E2,5.73E2,7E0],"tree_param":{"num_deleted":"0","num_feature":"10","num_nodes":"15","size_leaf_vector":"1"}},{"base_weights":[-1.565636E-7,1.65158E-4,-3.9868162E-4,1.9320125E-4,-1.3707777E-3,-1.4499439E-3,-1.4974344E-4,-5.232799E-7,4.0655323E-6,-3.1570704E-5,-1.0799868E-5,-6.9474713E-6,-2.8809578E-5,6.606818E-6,-3.0605268E-6],"categories":[],"categories_nodes":[],"categories_segments":[],"categories_sizes":[],"default_left":[0,0,0,0,0,0,0,0,0,0,0,0,0,0,0],"id":42,"left_children":[1,3,5,7,9,11,13,-1,-1,-1,-1,-1,-1,-1,-1],"loss_changes":[6.1276834E-4,2.834243E-4,7.134367E-4,3.3826573E-4,5.7884055E-5,5.6212244E-4,2.7965155E-4,0E0,0E0,0E0,0E0,0E0,0E0,0E0,0E0],"parents":[2147483647,0,0,1,1,2,2,3,3,4,4,5,5,6,6],"right_children":[2,4,6,8,10,12,14,-1,-1,-1,-1,-1,-1,-1,-1],"split_conditions":[1.185387E5,3.254921E2,-7.4886375E1,4.110791E-1,1.0865875E5,1.20147266E5,-3.3804604E1,-5.232799E-7,4.0655323E-6,-3.1570704E-5,-1.0799868E-5,-6.9474713E-6,-2.8809578E-5,6.606818E-6,-3.0605268E-6],"split_indices":[6,8,8,7,5,4,0,0,0,0,0,0,0,0,0],"split_type":[0,0,0,0,0,0,0,0,0,0,0,0,0,0,0],"sum_hessian":[9.299E3,6.573E3,2.726E3,6.456E3,1.17E2,5.21E2,2.205E3,3.002E3,3.454E3,1.5E1,1.02E2,3.42E2,1.79E2,3.56E2,1.849E3],"tree_param":{"num_deleted":"0","num_feature":"10","num_nodes":"15","size_leaf_vector":"1"}},{"base_weights":[-1.6264381E-7,8.722943E-5,-7.396612E-4,6.005516E-5,2.1332249E-3,-1.9989768E-3,1.3511302E-4,2.2929087E-6,-2.2072677E-6,1.6959917E-6,2.6856651E-5,1.617622E-5,-2.3581462E-5,2.331757E-6,-6.917774E-5],"categories":[],"categories_nodes":[],"categories_segments":[],"categories_sizes":[],"default_left":[0,0,0,0,0,0,0,0,0,0,0,0,0,0,0],"id":43,"left_children":[1,3,5,7,9,11,13,-1,-1,-1,-1,-1,-1,-1,-1],"loss_changes":[6.0108927E-4,4.6233964E-4,1.0831596E-3,3.901761E-4,1.1778617E-4,5.2730006E-4,4.0344722E-4,0E0,0E0,0E0,0E0,0E0,0E0,0E0,0E0],"parents":[2147483647,0,0,1,1,2,2,3,3,4,4,5,5,6,6],"right_children":[2,4,6,8,10,12,14,-1,-1,-1,-1,-1,-1,-1,-1],"split_conditions":[1.1922106E5,1.19662E5,-8.307222E0,1.179873E5,5.8764618E1,-2.8075525E2,7.9826454E1,2.2929087E-6,-2.2072677E-6,1.6959917E-6,2.6856651E-5,1.617622E-5,-2.3581462E-5,2.331757E-6,-6.917774E-5],"split_indices":[5,6,8,9,8,8,0,0,0,0,0,0,0,0,0],"split_type":[0,0,0,0,0,0,0,0,0,0,0,0,0,0,0],"sum_hessian":[9.299E3,8.317E3,9.82E2,8.209E3,1.08E2,4.02E2,5.8E2,5.122E3,3.087E3,2.4E1,8.4E1,3.6E1,3.66E2,5.73E2,7E0],"tree_param":{"num_deleted":"0","num_feature":"10","num_nodes":"15","size_leaf_vector":"1"}},{"base_weights":[-1.6592463E-7,-9.490206E-4,6.748453E-5,1.4277187E-3,-1.5593591E-3,2.8963105E-4,-1.9674457E-4,-1.0093793E-6,3.248033E-5,2.505407E-5,-1.8002476E-5,-9.569793E-7,5.332614E-6,5.653102E-5,-2.0851573E-6],"categories":[],"categories_nodes":[],"categories_segments":[],"categories_sizes":[],"default_left":[0,0,0,0,0,0,0,0,0,0,0,0,0,0,0],"id":44,"left_children":[1,3,5,7,9,11,13,-1,-1,-1,-1,-1,-1,-1,-1],"loss_changes":[5.970353E-4,9.001572E-4,5.096693E-4,3.5372266E-4,4.8723433E-4,4.4287278E-4,2.742755E-4,0E0,0E0,0E0,0E0,0E0,0E0,0E0,0E0],"parents":[2147483647,0,0,1,1,2,2,3,3,4,4,5,5,6,6],"right_children":[2,4,6,8,10,12,14,-1,-1,-1,-1,-1,-1,-1,-1],"split_conditions":[-1.5771089E2,1.15629E5,1.179873E5,1.14145336E5,-4.5529337E2,1.1081752E5,-1.2318007E2,-1.0093793E-6,3.248033E-5,2.505407E-5,-1.8002476E-5,-9.569793E-7,5.332614E-6,5.653102E-5,-2.0851573E-6],"split_indices":[8,6,9,5,1,3,0,0,0,0,0,0,0,0,0],"split_type":[0,0,0,0,0,0,0,0,0,0,0,0,0,0,0],"sum_hessian":[9.299E3,6.18E2,8.681E3,1.26E2,4.92E2,4.716E3,3.965E3,6.9E1,5.7E1,2.7E1,4.65E2,1.827E3,2.889E3,7E0,3.958E3],"tree_param":{"num_deleted":"0","num_feature":"10","num_nodes":"15","size_leaf_vector":"1"}},{"base_weights":[-1.537944E-7,-7.171952E-4,8.80695E-5,1.294924E-3,-1.2728412E-3,2.9999003E-4,-1.613571E-4,2.054146E-5,5.643019E-6,-9.4267825E-6,-3.2484455E-5,-1.7349056E-6,6.0981924E-6,5.6036373E-5,-1.7345784E-6],"categories":[],"categories_nodes":[],"categories_segments":[],"categories_sizes":[],"default_left":[0,0,0,0,0,0,0,0,0,0,0,0,0,0,0],"id":45,"left_children":[1,3,5,7,9,11,13,-1,-1,-1,-1,-1,-1,-1,-1],"loss_changes":[5.8837887E-4,1.1409168E-3,4.3782347E-4,1.21430494E-4,5.1810243E-4,6.5701985E-4,2.664114E-4,0E0,0E0,0E0,0E0,0E0,0E0,0E0,0E0],"parents":[2147483647,0,0,1,1,2,2,3,3,4,4,5,5,6,6],"right_children":[2,4,6,8,10,12,14,-1,-1,-1,-1,-1,-1,-1,-1],"split_conditions":[-1.139068E2,1.15629E5,1.179873E5,1.13531164E5,1.1986325E5,1.1081752E5,-1.2318007E2,2.054146E-5,5.643019E-6,-9.4267825E-6,-3.2484455E-5,-1.7349056E-6,6.0981924E-6,5.6036373E-5,-1.7345784E-6],"split_indices":[8,6,9,4,5,3,0,0,0,0,0,0,0,0,0],"split_type":[0,0,0,0,0,0,0,0,0,0,0,0,0,0,0],"sum_hessian":[9.299E3,1.018E3,8.281E3,2.2E2,7.98E2,4.477E3,3.804E3,1.07E2,1.13E2,6.85E2,1.13E2,1.771E3,2.706E3,7E0,3.797E3],"tree_param":{"num_deleted":"0","num_feature":"10","num_nodes":"15","size_leaf_vector":"1"}},{"base_weights":[-1.4763945E-7,-7.100387E-4,8.719589E-5,1.2820932E-3,-1.2601652E-3,2.9699111E-4,-1.5972926E-4,2.0337948E-5,5.5870837E-6,-9.332653E-6,-3.216246E-5,-1.7175663E-6,6.0372327E-6,5.5546057E-5,-1.7172372E-6],"categories":[],"categories_nodes":[],"categories_segments":[],"categories_sizes":[],"default_left":[0,0,0,0,0,0,0,0,0,0,0,0,0,0,0],"id":46,"left_children":[1,3,5,7,9,11,13,-1,-1,-1,-1,-1,-1,-1,-1],"loss_changes":[5.7670276E-4,1.1183629E-3,4.2908583E-4,1.1903676E-4,5.079132E-4,6.4395054E-4,2.6174987E-4,0E0,0E0,0E0,0E0,0E0,0E0,0E0,0E0],"parents":[2147483647,0,0,1,1,2,2,3,3,4,4,5,5,6,6],"right_children":[2,4,6,8,10,12,14,-1,-1,-1,-1,-1,-1,-1,-1],"split_conditions":[-1.139068E2,1.15629E5,1.179873E5,1.13531164E5,1.1986325E5,1.1081752E5,-1.2318007E2,2.0337948E-5,5.5870837E-6,-9.332653E-6,-3.216246E-5,-1.7175663E-6,6.0372327E-6,5.5546057E-5,-1.7172372E-6],"split_indices":[8,6,9,4,5,3,0,0,0,0,0,0,0,0,0],"split_type":[0,0,0,0,0,0,0,0,0,0,0,0,0,0,0],"sum_hessian":[9.299E3,1.018E3,8.281E3,2.2E2,7.98E2,4.477E3,3.804E3,1.07E2,1.13E2,6.85E2,1.13E2,1.771E3,2.706E3,7E0,3.797E3],"tree_param":{"num_deleted":"0","num_feature":"10","num_nodes":"15","size_leaf_vector":"1"}},{"base_weights":[-1.415885E-7,8.470793E-5,-7.1812543E-4,5.768221E-5,2.1195374E-3,-1.9501472E-3,1.3767986E-4,2.8205202E-6,-1.4060415E-6,1.8155627E-6,2.6645963E-5,1.6564074E-5,-2.308437E-5,2.3486268E-6,-6.852399E-5],"categories":[],"categories_nodes":[],"categories_segments":[],"categories_sizes":[],"default_left":[0,0,0,0,0,0,0,0,0,0,0,0,0,0,0],"id":47,"left_children":[1,3,5,7,9,11,13,-1,-1,-1,-1,-1,-1,-1,-1],"loss_changes":[5.666223E-4,4.5730727E-4,1.0367148E-3,3.6529827E-4,1.14654365E-4,5.2457734E-4,3.9629175E-4,0E0,0E0,0E0,0E0,0E0,0E0,0E0,0E0],"parents":[2147483647,0,0,1,1,2,2,3,3,4,4,5,5,6,6],"right_children":[2,4,6,8,10,12,14,-1,-1,-1,-1,-1,-1,-1,-1],"split_conditions":[1.1922106E5,1.19662E5,-8.307222E0,1.1781684E5,5.8764618E1,-2.8075525E2,7.9826454E1,2.8205202E-6,-1.4060415E-6,1.8155627E-6,2.6645963E-5,1.6564074E-5,-2.308437E-5,2.3486268E-6,-6.852399E-5],"split_indices":[5,6,8,2,8,8,0,0,0,0,0,0,0,0,0],"split_type":[0,0,0,0,0,0,0,0,0,0,0,0,0,0,0],"sum_hessian":[9.299E3,8.317E3,9.82E2,8.209E3,1.08E2,4.02E2,5.8E2,3.851E3,4.358E3,2.4E1,8.4E1,3.6E1,3.66E2,5.73E2,7E0],"tree_param":{"num_deleted":"0","num_feature":"10","num_nodes":"15","size_leaf_vector":"1"}},{"base_weights":[-1.4476758E-7,-1.0247293E-3,5.917208E-5,1.676553E-3,-1.6168185E-3,2.724848E-4,-1.9632748E-4,-6.6021394E-6,3.4867626E-5,-5.9678964E-6,-2.9754223E-5,-8.285436E-7,4.959587E-6,-1.6087298E-6,-2.0501078E-5],"categories":[],"categories_nodes":[],"categories_segments":[],"categories_sizes":[],"default_left":[0,0,0,0,0,0,0,0,0,0,0,0,0,0,0],"id":48,"left_children":[1,3,5,7,9,11,13,-1,-1,-1,-1,-1,-1,-1,-1],"loss_changes":[5.652694E-4,8.168053E-4,4.79229E-4,3.9146552E-4,5.774951E-4,3.8056922E-4,2.626354E-4,0E0,0E0,0E0,0E0,0E0,0E0,0E0,0E0],"parents":[2147483647,0,0,1,1,2,2,3,3,4,4,5,5,6,6],"right_children":[2,4,6,8,10,12,14,-1,-1,-1,-1,-1,-1,-1,-1],"split_conditions":[-1.7299876E2,1.15629E5,1.179873E5,1.14145336E5,-2.200667E2,1.1081752E5,1.2265919E5,-6.6021394E-6,3.4867626E-5,-5.9678964E-6,-2.9754223E-5,-8.285436E-7,4.959587E-6,-1.6087298E-6,-2.0501078E-5],"split_indices":[8,6,9,5,8,3,5,0,0,0,0,0,0,0,0],"split_type":[0,0,0,0,0,0,0,0,0,0,0,0,0,0,0],"sum_hessian":[9.299E3,5.08E2,8.791E3,9.1E1,4.17E2,4.791E3,4E3,4E1,5.1E1,2.39E2,1.78E2,1.85E3,2.941E3,3.926E3,7.4E1],"tree_param":{"num_deleted":"0","num_feature":"10","num_nodes":"15","size_leaf_vector":"1"}},{"base_weights":[-1.4606087E-7,-6.964503E-4,8.5525775E-5,1.2589045E-3,-1.2364214E-3,2.8947584E-4,-1.5451993E-4,2.011991E-5,5.3441117E-6,-9.155651E-6,-3.1563428E-5,-1.7203089E-6,5.9147083E-6,5.5062937E-5,-1.6640303E-6],"categories":[],"categories_nodes":[],"categories_segments":[],"categories_sizes":[],"default_left":[0,0,0,0,0,0,0,0,0,0,0,0,0,0,0],"id":49,"left_children":[1,3,5,7,9,11,13,-1,-1,-1,-1,-1,-1,-1,-1],"loss_changes":[5.5483857E-4,1.0774527E-3,4.055094E-4,1.1950373E-4,4.893092E-4,6.242129E-4,2.5687093E-4,0E0,0E0,0E0,0E0,0E0,0E0,0E0,0E0],"parents":[2147483647,0,0,1,1,2,2,3,3,4,4,5,5,6,6],"right_children":[2,4,6,8,10,12,14,-1,-1,-1,-1,-1,-1,-1,-1],"split_conditions":[-1.139068E2,1.15629E5,1.179873E5,1.13531164E5,1.1986325E5,1.1081752E5,-1.2318007E2,2.011991E-5,5.3441117E-6,-9.155651E-6,-3.1563428E-5,-1.7203089E-6,5.9147083E-6,5.5062937E-5,-1.6640303E-6],"split_indices":[8,6,9,4,5,3,0,0,0,0,0,0,0,0,0],"split_type":[0,0,0,0,0,0,0,0,0,0,0,0,0,0,0],"sum_hessian":[9.299E3,1.018E3,8.281E3,2.2E2,7.98E2,4.477E3,3.804E3,1.07E2,1.13E2,6.85E2,1.13E2,1.771E3,2.706E3,7E0,3.797E3],"tree_param":{"num_deleted":"0","num_feature":"10","num_nodes":"15","size_leaf_vector":"1"}},{"base_weights":[-1.400426E-7,-9.0677245E-4,6.4500084E-5,1.3668147E-3,-1.4906239E-3,2.736877E-4,-1.8431546E-4,-1.4336518E-6,3.1658798E-5,2.513576E-5,-1.7280208E-5,-9.3589557E-7,5.0590534E-6,-1.4877356E-6,-2.0262449E-5],"categories":[],"categories_nodes":[],"categories_segments":[],"categories_sizes":[],"default_left":[0,0,0,0,0,0,0,0,0,0,0,0,0,0,0],"id":50,"left_children":[1,3,5,7,9,11,13,-1,-1,-1,-1,-1,-1,-1,-1],"loss_changes":[5.450834E-4,8.237211E-4,4.5194096E-4,3.455017E-4,4.7298172E-4,4.0235213E-4,2.5933533E-4,0E0,0E0,0E0,0E0,0E0,0E0,0E0,0E0],"parents":[2147483647,0,0,1,1,2,2,3,3,4,4,5,5,6,6],"right_children":[2,4,6,8,10,12,14,-1,-1,-1,-1,-1,-1,-1,-1],"split_conditions":[-1.5771089E2,1.15629E5,1.179873E5,1.14145336E5,-4.5529337E2,1.1081752E5,1.2265919E5,-1.4336518E-6,3.1658798E-5,2.513576E-5,-1.7280208E-5,-9.3589557E-7,5.0590534E-6,-1.4877356E-6,-2.0262449E-5],"split_indices":[8,6,9,5,1,3,5,0,0,0,0,0,0,0,0],"split_type":[0,0,0,0,0,0,0,0,0,0,0,0,0,0,0],"sum_hessian":[9.299E3,6.18E2,8.681E3,1.26E2,4.92E2,4.716E3,3.965E3,6.9E1,5.7E1,2.7E1,4.65E2,1.827E3,2.889E3,3.891E3,7.4E1],"tree_param":{"num_deleted":"0","num_feature":"10","num_nodes":"15","size_leaf_vector":"1"}},{"base_weights":[-1.3644191E-7,-6.84485E-4,8.40644E-5,1.2380802E-3,-1.2154017E-3,1.125468E-4,-1.5731947E-3,1.9927988E-5,5.1222323E-6,-8.982525E-6,-3.1131993E-5,-9.2439495E-7,3.9225733E-6,-4.956987E-5,-1.0966007E-5],"categories":[],"categories_nodes":[],"categories_segments":[],"categories_sizes":[],"default_left":[0,0,0,0,0,0,0,0,0,0,0,0,0,0,0],"id":51,"left_children":[1,3,5,7,9,11,13,-1,-1,-1,-1,-1,-1,-1,-1],"loss_changes":[5.3594884E-4,1.0416205E-3,3.9111002E-4,1.20046985E-4,4.781097E-4,4.6693004E-4,2.2034146E-4,0E0,0E0,0E0,0E0,0E0,0E0,0E0,0E0],"parents":[2147483647,0,0,1,1,2,2,3,3,4,4,5,5,6,6],"right_children":[2,4,6,8,10,12,14,-1,-1,-1,-1,-1,-1,-1,-1],"split_conditions":[-1.139068E2,1.15629E5,1.8115653E0,1.13531164E5,1.1986325E5,4.818975E-1,1.08755414E5,1.9927988E-5,5.1222323E-6,-8.982525E-6,-3.1131993E-5,-9.2439495E-7,3.9225733E-6,-4.956987E-5,-1.0966007E-5],"split_indices":[8,6,7,4,5,7,5,0,0,0,0,0,0,0,0],"split_type":[0,0,0,0,0,0,0,0,0,0,0,0,0,0,0],"sum_hessian":[9.299E3,1.018E3,8.281E3,2.2E2,7.98E2,8.142E3,1.39E2,1.07E2,1.13E2,6.85E2,1.13E2,4.699E3,3.443E3,1.6E1,1.23E2],"tree_param":{"num_deleted":"0","num_feature":"10","num_nodes":"15","size_leaf_vector":"1"}},{"base_weights":[-1.4288827E-7,8.188508E-5,-6.9425127E-4,5.503308E-5,2.1036563E-3,-1.8979821E-3,1.4188948E-4,2.7216604E-6,-1.3685753E-6,1.922843E-6,2.6410757E-5,1.6987382E-5,-2.2554224E-5,2.3817402E-6,-6.784262E-5],"categories":[],"categories_nodes":[],"categories_segments":[],"categories_sizes":[],"default_left":[0,0,0,0,0,0,0,0,0,0,0,0,0,0,0],"id":52,"left_children":[1,3,5,7,9,11,13,-1,-1,-1,-1,-1,-1,-1,-1],"loss_changes":[5.2956445E-4,4.5145687E-4,9.896473E-4,3.4211326E-4,1.1145789E-4,5.219338E-4,3.8907392E-4,0E0,0E0,0E0,0E0,0E0,0E0,0E0,0E0],"parents":[2147483647,0,0,1,1,2,2,3,3,4,4,5,5,6,6],"right_children":[2,4,6,8,10,12,14,-1,-1,-1,-1,-1,-1,-1,-1],"split_conditions":[1.1922106E5,1.19662E5,-8.307222E0,1.1781684E5,5.8764618E1,-2.8075525E2,7.9826454E1,2.7216604E-6,-1.3685753E-6,1.922843E-6,2.6410757E-5,1.6987382E-5,-2.2554224E-5,2.3817402E-6,-6.784262E-5],"split_indices":[5,6,8,2,8,8,0,0,0,0,0,0,0,0,0],"split_type":[0,0,0,0,0,0,0,0,0,0,0,0,0,0,0],"sum_hessian":[9.299E3,8.317E3,9.82E2,8.209E3,1.08E2,4.02E2,5.8E2,3.851E3,4.358E3,2.4E1,8.4E1,3.6E1,3.66E2,5.73E2,7E0],"tree_param":{"num_deleted":"0","num_feature":"10","num_nodes":"15","size_leaf_vector":"1"}},{"base_weights":[-1.4590968E-7,-9.871348E-4,5.6994384E-5,1.6246573E-3,-1.5596173E-3,2.6194908E-4,-1.8849423E-4,-6.7750602E-6,3.408581E-5,-5.5443593E-6,-2.8986335E-5,-8.429876E-7,4.7970666E-6,5.456698E-5,-1.9975437E-6],"categories":[],"categories_nodes":[],"categories_segments":[],"categories_sizes":[],"default_left":[0,0,0,0,0,0,0,0,0,0,0,0,0,0,0],"id":53,"left_children":[1,3,5,7,9,11,13,-1,-1,-1,-1,-1,-1,-1,-1],"loss_changes":[5.2454683E-4,7.635934E-4,4.4241044E-4,3.801427E-4,5.610017E-4,3.613481E-4,2.5541644E-4,0E0,0E0,0E0,0E0,0E0,0E0,0E0,0E0],"parents":[2147483647,0,0,1,1,2,2,3,3,4,4,5,5,6,6],"right_children":[2,4,6,8,10,12,14,-1,-1,-1,-1,-1,-1,-1,-1],"split_conditions":[-1.7299876E2,1.15629E5,1.179873E5,1.14145336E5,-2.200667E2,1.1081752E5,-1.2318007E2,-6.7750602E-6,3.408581E-5,-5.5443593E-6,-2.8986335E-5,-8.429876E-7,4.7970666E-6,5.456698E-5,-1.9975437E-6],"split_indices":[8,6,9,5,8,3,0,0,0,0,0,0,0,0,0],"split_type":[0,0,0,0,0,0,0,0,0,0,0,0,0,0,0],"sum_hessian":[9.299E3,5.08E2,8.791E3,9.1E1,4.17E2,4.791E3,4E3,4E1,5.1E1,2.39E2,1.78E2,1.85E3,2.941E3,7E0,3.993E3],"tree_param":{"num_deleted":"0","num_feature":"10","num_nodes":"15","size_leaf_vector":"1"}},{"base_weights":[-1.3915472E-7,-6.713855E-4,8.244961E-5,1.2156797E-3,-1.1924994E-3,1.1070199E-4,-1.5614186E-3,1.9715533E-5,4.88925E-6,-8.811159E-6,-3.055803E-5,-9.214034E-7,3.874872E-6,-4.9121012E-5,-1.0894588E-5],"categories":[],"categories_nodes":[],"categories_segments":[],"categories_sizes":[],"default_left":[0,0,0,0,0,0,0,0,0,0,0,0,0,0,0],"id":54,"left_children":[1,3,5,7,9,11,13,-1,-1,-1,-1,-1,-1,-1,-1],"loss_changes":[5.1562325E-4,1.0035097E-3,3.8481536E-4,1.2043904E-4,4.6088884E-4,4.5721437E-4,2.1604271E-4,0E0,0E0,0E0,0E0,0E0,0E0,0E0,0E0],"parents":[2147483647,0,0,1,1,2,2,3,3,4,4,5,5,6,6],"right_children":[2,4,6,8,10,12,14,-1,-1,-1,-1,-1,-1,-1,-1],"split_conditions":[-1.139068E2,1.15629E5,1.8115653E0,1.13531164E5,1.1986325E5,4.818975E-1,1.08755414E5,1.9715533E-5,4.88925E-6,-8.811159E-6,-3.055803E-5,-9.214034E-7,3.874872E-6,-4.9121012E-5,-1.0894588E-5],"split_indices":[8,6,7,4,5,7,5,0,0,0,0,0,0,0,0],"split_type":[0,0,0,0,0,0,0,0,0,0,0,0,0,0,0],"sum_hessian":[9.299E3,1.018E3,8.281E3,2.2E2,7.98E2,8.142E3,1.39E2,1.07E2,1.13E2,6.85E2,1.13E2,4.699E3,3.443E3,1.6E1,1.23E2],"tree_param":{"num_deleted":"0","num_feature":"10","num_nodes":"15","size_leaf_vector":"1"}},{"base_weights":[-1.4547943E-7,8.041651E-5,-6.818489E-4,5.3808366E-5,2.0838336E-3,-1.9037832E-3,1.147825E-4,2.6666803E-6,-1.3430571E-6,1.9421434E-6,2.6150881E-5,1.7061693E-5,-2.2778298E-5,2.0740854E-6,-6.719158E-5],"categories":[],"categories_nodes":[],"categories_segments":[],"categories_sizes":[],"default_left":[0,0,0,0,0,0,0,0,0,0,0,0,0,0,0],"id":55,"left_children":[1,3,5,7,9,11,13,-1,-1,-1,-1,-1,-1,-1,-1],"loss_changes":[5.1080517E-4,4.4329726E-4,9.571014E-4,3.2877983E-4,1.0891384E-4,5.2779936E-4,3.786622E-4,0E0,0E0,0E0,0E0,0E0,0E0,0E0,0E0],"parents":[2147483647,0,0,1,1,2,2,3,3,4,4,5,5,6,6],"right_children":[2,4,6,8,10,12,14,-1,-1,-1,-1,-1,-1,-1,-1],"split_conditions":[1.1922106E5,1.19662E5,-1.33689375E1,1.1781684E5,5.8764618E1,-2.8075525E2,7.9826454E1,2.6666803E-6,-1.3430571E-6,1.9421434E-6,2.6150881E-5,1.7061693E-5,-2.2778298E-5,2.0740854E-6,-6.719158E-5],"split_indices":[5,6,8,2,8,8,0,0,0,0,0,0,0,0,0],"split_type":[0,0,0,0,0,0,0,0,0,0,0,0,0,0,0],"sum_hessian":[9.299E3,8.317E3,9.82E2,8.209E3,1.08E2,3.87E2,5.95E2,3.851E3,4.358E3,2.4E1,8.4E1,3.6E1,3.51E2,5.88E2,7E0],"tree_param":{"num_deleted":"0","num_feature":"10","num_nodes":"15","size_leaf_vector":"1"}},{"base_weights":[-1.4848041E-7,-8.724007E-4,6.2040446E-5,1.3159851E-3,-1.4343736E-3,2.635316E-4,-1.7762063E-4,-1.7202048E-6,3.0891642E-5,2.5110181E-5,-1.6683576E-5,-9.927193E-7,4.9292307E-6,-1.4263193E-6,-1.9909323E-5],"categories":[],"categories_nodes":[],"categories_segments":[],"categories_sizes":[],"default_left":[0,0,0,0,0,0,0,0,0,0,0,0,0,0,0],"id":56,"left_children":[1,3,5,7,9,11,13,-1,-1,-1,-1,-1,-1,-1,-1],"loss_changes":[5.0452736E-4,7.6314196E-4,4.1929705E-4,3.35621E-4,4.5930664E-4,3.9261678E-4,2.513405E-4,0E0,0E0,0E0,0E0,0E0,0E0,0E0,0E0],"parents":[2147483647,0,0,1,1,2,2,3,3,4,4,5,5,6,6],"right_children":[2,4,6,8,10,12,14,-1,-1,-1,-1,-1,-1,-1,-1],"split_conditions":[-1.5771089E2,1.15629E5,1.179873E5,1.14145336E5,-4.5529337E2,1.1081752E5,1.2265919E5,-1.7202048E-6,3.0891642E-5,2.5110181E-5,-1.6683576E-5,-9.927193E-7,4.9292307E-6,-1.4263193E-6,-1.9909323E-5],"split_indices":[8,6,9,5,1,3,5,0,0,0,0,0,0,0,0],"split_type":[0,0,0,0,0,0,0,0,0,0,0,0,0,0,0],"sum_hessian":[9.299E3,6.18E2,8.681E3,1.26E2,4.92E2,4.716E3,3.965E3,6.9E1,5.7E1,2.7E1,4.65E2,1.827E3,2.889E3,3.891E3,7.4E1],"tree_param":{"num_deleted":"0","num_feature":"10","num_nodes":"15","size_leaf_vector":"1"}},{"base_weights":[-1.4482215E-7,1.48583E-4,-3.5868408E-4,1.7639351E-4,-1.3744769E-3,-1.226691E-3,-1.0746531E-4,-9.961011E-7,3.60208E-6,-4.276242E-6,-1.8730918E-5,-5.2246783E-6,-2.5061641E-5,1.0927595E-5,-2.3678967E-6],"categories":[],"categories_nodes":[],"categories_segments":[],"categories_sizes":[],"default_left":[0,0,0,0,0,0,0,0,0,0,0,0,0,0,0],"id":57,"left_children":[1,3,5,7,9,11,13,-1,-1,-1,-1,-1,-1,-1,-1],"loss_changes":[4.959736E-4,2.7869787E-4,5.9451675E-4,3.2762185E-4,5.4908567E-5,5.5012386E-4,3.2870073E-4,0E0,0E0,0E0,0E0,0E0,0E0,0E0,0E0],"parents":[2147483647,0,0,1,1,2,2,3,3,4,4,5,5,6,6],"right_children":[2,4,6,8,10,12,14,-1,-1,-1,-1,-1,-1,-1,-1],"split_conditions":[1.185387E5,3.254921E2,-6.392891E1,3.692715E-1,1.136999E5,1.1961915E5,-4.0230747E1,-9.961011E-7,3.60208E-6,-4.276242E-6,-1.8730918E-5,-5.2246783E-6,-2.5061641E-5,1.0927595E-5,-2.3678967E-6],"split_indices":[6,8,1,7,6,5,0,0,0,0,0,0,0,0,0],"split_type":[0,0,0,0,0,0,0,0,0,0,0,0,0,0,0],"sum_hessian":[9.299E3,6.573E3,2.726E3,6.456E3,1.17E2,6.11E2,2.115E3,2.581E3,3.875E3,4.1E1,7.6E1,3.95E2,2.16E2,2.05E2,1.91E3],"tree_param":{"num_deleted":"0","num_feature":"10","num_nodes":"15","size_leaf_vector":"1"}},{"base_weights":[-1.479064E-7,-9.574467E-4,5.5273526E-5,1.5785544E-3,-1.5133191E-3,2.5295588E-4,-1.8150455E-4,-6.8625127E-6,3.3339096E-5,-5.223965E-6,-2.8334758E-5,-8.796069E-7,4.6736227E-6,5.408962E-5,-1.9265683E-6],"categories":[],"categories_nodes":[],"categories_segments":[],"categories_sizes":[],"default_left":[0,0,0,0,0,0,0,0,0,0,0,0,0,0,0],"id":58,"left_children":[1,3,5,7,9,11,13,-1,-1,-1,-1,-1,-1,-1,-1],"loss_changes":[4.934632E-4,7.199226E-4,4.1157167E-4,3.680375E-4,5.453361E-4,3.5031085E-4,2.5049035E-4,0E0,0E0,0E0,0E0,0E0,0E0,0E0,0E0],"parents":[2147483647,0,0,1,1,2,2,3,3,4,4,5,5,6,6],"right_children":[2,4,6,8,10,12,14,-1,-1,-1,-1,-1,-1,-1,-1],"split_conditions":[-1.7299876E2,1.15629E5,1.179873E5,1.14145336E5,-2.200667E2,1.1081752E5,-1.2318007E2,-6.8625127E-6,3.3339096E-5,-5.223965E-6,-2.8334758E-5,-8.796069E-7,4.6736227E-6,5.408962E-5,-1.9265683E-6],"split_indices":[8,6,9,5,8,3,0,0,0,0,0,0,0,0,0],"split_type":[0,0,0,0,0,0,0,0,0,0,0,0,0,0,0],"sum_hessian":[9.299E3,5.08E2,8.791E3,9.1E1,4.17E2,4.791E3,4E3,4E1,5.1E1,2.39E2,1.78E2,1.85E3,2.941E3,7E0,3.993E3],"tree_param":{"num_deleted":"0","num_feature":"10","num_nodes":"15","size_leaf_vector":"1"}},{"base_weights":[-1.411685E-7,-6.5223966E-4,8.009168E-5,1.1822977E-3,-1.1588485E-3,1.08037704E-4,-1.5459408E-3,1.9482088E-5,4.4632666E-6,-8.573458E-6,-2.9629886E-5,-9.2051516E-7,3.8106655E-6,-4.8663E-5,-1.0782629E-5],"categories":[],"categories_nodes":[],"categories_segments":[],"categories_sizes":[],"default_left":[0,0,0,0,0,0,0,0,0,0,0,0,0,0,0],"id":59,"left_children":[1,3,5,7,9,11,13,-1,-1,-1,-1,-1,-1,-1,-1],"loss_changes":[4.8662568E-4,9.4842154E-4,3.765105E-4,1.237056E-4,4.3207814E-4,4.4488825E-4,2.1215304E-4,0E0,0E0,0E0,0E0,0E0,0E0,0E0,0E0],"parents":[2147483647,0,0,1,1,2,2,3,3,4,4,5,5,6,6],"right_children":[2,4,6,8,10,12,14,-1,-1,-1,-1,-1,-1,-1,-1],"split_conditions":[-1.139068E2,1.15629E5,1.8115653E0,1.13531164E5,1.1986325E5,4.818975E-1,1.08755414E5,1.9482088E-5,4.4632666E-6,-8.573458E-6,-2.9629886E-5,-9.2051516E-7,3.8106655E-6,-4.8663E-5,-1.0782629E-5],"split_indices":[8,6,7,4,5,7,5,0,0,0,0,0,0,0,0],"split_type":[0,0,0,0,0,0,0,0,0,0,0,0,0,0,0],"sum_hessian":[9.299E3,1.018E3,8.281E3,2.2E2,7.98E2,8.142E3,1.39E2,1.07E2,1.13E2,6.85E2,1.13E2,4.699E3,3.443E3,1.6E1,1.23E2],"tree_param":{"num_deleted":"0","num_feature":"10","num_nodes":"15","size_leaf_vector":"1"}},{"base_weights":[-1.4736305E-7,7.776038E-5,-6.59391E-4,5.1316285E-5,2.0688456E-3,-1.8126159E-3,1.4165728E-4,9.1860846E-7,-9.080272E-6,2.0370496E-6,2.5930767E-5,1.7419115E-5,-2.1660351E-5,2.360872E-6,-6.6513974E-5],"categories":[],"categories_nodes":[],"categories_segments":[],"categories_sizes":[],"default_left":[0,0,0,0,0,0,0,0,0,0,0,0,0,0,0],"id":60,"left_children":[1,3,5,7,9,11,13,-1,-1,-1,-1,-1,-1,-1,-1],"loss_changes":[4.7770093E-4,4.3785688E-4,9.0834114E-4,3.194209E-4,1.0604819E-4,5.100372E-4,3.7426307E-4,0E0,0E0,0E0,0E0,0E0,0E0,0E0,0E0],"parents":[2147483647,0,0,1,1,2,2,3,3,4,4,5,5,6,6],"right_children":[2,4,6,8,10,12,14,-1,-1,-1,-1,-1,-1,-1,-1],"split_conditions":[1.1922106E5,1.19662E5,-8.307222E0,2.0079051E2,5.8764618E1,-2.8075525E2,7.9826454E1,9.1860846E-7,-9.080272E-6,2.0370496E-6,2.5930767E-5,1.7419115E-5,-2.1660351E-5,2.360872E-6,-6.6513974E-5],"split_indices":[5,6,8,1,8,8,0,0,0,0,0,0,0,0,0],"split_type":[0,0,0,0,0,0,0,0,0,0,0,0,0,0,0],"sum_hessian":[9.299E3,8.317E3,9.82E2,8.209E3,1.08E2,4.02E2,5.8E2,7.877E3,3.32E2,2.4E1,8.4E1,3.6E1,3.66E2,5.73E2,7E0],"tree_param":{"num_deleted":"0","num_feature":"10","num_nodes":"15","size_leaf_vector":"1"}},{"base_weights":[-1.511126E-7,-8.467343E-4,6.0207694E-5,1.2774293E-3,-1.3922151E-3,2.5585198E-4,-1.7249887E-4,-1.84811E-6,3.0201772E-5,2.500206E-5,-1.623107E-5,-1.0057472E-6,4.8121256E-6,5.3584183E-5,-1.8363169E-6],"categories":[],"categories_nodes":[],"categories_segments":[],"categories_sizes":[],"default_left":[0,0,0,0,0,0,0,0,0,0,0,0,0,0,0],"id":61,"left_children":[1,3,5,7,9,11,13,-1,-1,-1,-1,-1,-1,-1,-1],"loss_changes":[4.752694E-4,7.190079E-4,3.953157E-4,3.2419438E-4,4.47131E-4,3.7893918E-4,2.451893E-4,0E0,0E0,0E0,0E0,0E0,0E0,0E0,0E0],"parents":[2147483647,0,0,1,1,2,2,3,3,4,4,5,5,6,6],"right_children":[2,4,6,8,10,12,14,-1,-1,-1,-1,-1,-1,-1,-1],"split_conditions":[-1.5771089E2,1.15629E5,1.179873E5,1.14145336E5,-4.5529337E2,1.1081752E5,-1.2318007E2,-1.84811E-6,3.0201772E-5,2.500206E-5,-1.623107E-5,-1.0057472E-6,4.8121256E-6,5.3584183E-5,-1.8363169E-6],"split_indices":[8,6,9,5,1,3,0,0,0,0,0,0,0,0,0],"split_type":[0,0,0,0,0,0,0,0,0,0,0,0,0,0,0],"sum_hessian":[9.299E3,6.18E2,8.681E3,1.26E2,4.92E2,4.716E3,3.965E3,6.9E1,5.7E1,2.7E1,4.65E2,1.827E3,2.889E3,7E0,3.958E3],"tree_param":{"num_deleted":"0","num_feature":"10","num_nodes":"15","size_leaf_vector":"1"}},{"base_weights":[-1.3964474E-7,-6.3958816E-4,7.853678E-5,1.1618835E-3,-1.1370671E-3,1.0613203E-4,-1.5270823E-3,1.9289595E-5,4.2498787E-6,-8.41207E-6,-2.907443E-5,-9.20997E-7,3.7662653E-6,-4.811595E-5,-1.064471E-5],"categories":[],"categories_nodes":[],"categories_segments":[],"categories_sizes":[],"default_left":[0,0,0,0,0,0,0,0,0,0,0,0,0,0,0],"id":62,"left_children":[1,3,5,7,9,11,13,-1,-1,-1,-1,-1,-1,-1,-1],"loss_changes":[4.679288E-4,9.14543E-4,3.6711644E-4,1.2410161E-4,4.1605707E-4,4.3666718E-4,2.0760158E-4,0E0,0E0,0E0,0E0,0E0,0E0,0E0,0E0],"parents":[2147483647,0,0,1,1,2,2,3,3,4,4,5,5,6,6],"right_children":[2,4,6,8,10,12,14,-1,-1,-1,-1,-1,-1,-1,-1],"split_conditions":[-1.139068E2,1.15629E5,1.8115653E0,1.13531164E5,1.1986325E5,4.818975E-1,1.08755414E5,1.9289595E-5,4.2498787E-6,-8.41207E-6,-2.907443E-5,-9.20997E-7,3.7662653E-6,-4.811595E-5,-1.064471E-5],"split_indices":[8,6,7,4,5,7,5,0,0,0,0,0,0,0,0],"split_type":[0,0,0,0,0,0,0,0,0,0,0,0,0,0,0],"sum_hessian":[9.299E3,1.018E3,8.281E3,2.2E2,7.98E2,8.142E3,1.39E2,1.07E2,1.13E2,6.85E2,1.13E2,4.699E3,3.443E3,1.6E1,1.23E2],"tree_param":{"num_deleted":"0","num_feature":"10","num_nodes":"15","size_leaf_vector":"1"}},{"base_weights":[-1.4575939E-7,1.4398905E-4,-3.476126E-4,1.7113346E-4,-1.3425833E-3,-1.1822416E-3,-1.0605276E-4,4.6455087E-5,1.599939E-6,-3.9559136E-6,-1.8416882E-5,-4.992755E-6,-2.423128E-5,1.0791514E-5,-2.3375867E-6],"categories":[],"categories_nodes":[],"categories_segments":[],"categories_sizes":[],"default_left":[0,0,0,0,0,0,0,0,0,0,0,0,0,0,0],"id":63,"left_children":[1,3,5,7,9,11,13,-1,-1,-1,-1,-1,-1,-1,-1],"loss_changes":[4.6581324E-4,2.6550482E-4,5.496729E-4,3.2109063E-4,5.504393E-5,5.1745E-4,3.205249E-4,0E0,0E0,0E0,0E0,0E0,0E0,0E0,0E0],"parents":[2147483647,0,0,1,1,2,2,3,3,4,4,5,5,6,6],"right_children":[2,4,6,8,10,12,14,-1,-1,-1,-1,-1,-1,-1,-1],"split_conditions":[1.185387E5,3.254921E2,-6.392891E1,-1.2318007E2,1.136999E5,1.1961915E5,-4.0230747E1,4.6455087E-5,1.599939E-6,-3.9559136E-6,-1.8416882E-5,-4.992755E-6,-2.423128E-5,1.0791514E-5,-2.3375867E-6],"split_indices":[6,8,1,0,6,5,0,0,0,0,0,0,0,0,0],"split_type":[0,0,0,0,0,0,0,0,0,0,0,0,0,0,0],"sum_hessian":[9.299E3,6.573E3,2.726E3,6.456E3,1.17E2,6.11E2,2.115E3,1.5E1,6.441E3,4.1E1,7.6E1,3.95E2,2.16E2,2.05E2,1.91E3],"tree_param":{"num_deleted":"0","num_feature":"10","num_nodes":"15","size_leaf_vector":"1"}},{"base_weights":[-1.4376978E-7,1.4255306E-4,-3.4414406E-4,-1.0500171E-4,3.0372007E-4,-1.170467E-3,-1.04988234E-4,-3.736063E-6,5.105263E-7,7.4609025E-6,8.631332E-7,-5.2474793E-6,-2.4593328E-5,-5.5627065E-6,2.2883194E-6],"categories":[],"categories_nodes":[],"categories_segments":[],"categories_sizes":[],"default_left":[0,0,0,0,0,0,0,0,0,0,0,0,0,0,0],"id":64,"left_children":[1,3,5,7,9,11,13,-1,-1,-1,-1,-1,-1,-1,-1],"loss_changes":[4.5656515E-4,2.623191E-4,5.3878676E-4,1.08709624E-4,3.829015E-4,5.080435E-4,3.1889672E-4,0E0,0E0,0E0,0E0,0E0,0E0,0E0,0E0],"parents":[2147483647,0,0,1,1,2,2,3,3,4,4,5,5,6,6],"right_children":[2,4,6,8,10,12,14,-1,-1,-1,-1,-1,-1,-1,-1],"split_conditions":[1.185387E5,3.692715E-1,-6.392891E1,1.163216E5,1.141005E5,1.201638E5,1.1930533E5,-3.736063E-6,5.105263E-7,7.4609025E-6,8.631332E-7,-5.2474793E-6,-2.4593328E-5,-5.5627065E-6,2.2883194E-6],"split_indices":[6,7,1,9,2,6,2,0,0,0,0,0,0,0,0],"split_type":[0,0,0,0,0,0,0,0,0,0,0,0,0,0,0],"sum_hessian":[9.299E3,6.573E3,2.726E3,2.592E3,3.981E3,6.11E2,2.115E3,9.52E2,1.64E3,1.311E3,2.67E3,4.08E2,2.03E2,8.99E2,1.216E3],"tree_param":{"num_deleted":"0","num_feature":"10","num_nodes":"15","size_leaf_vector":"1"}},{"base_weights":[-1.4534452E-7,-9.16339E-4,5.2896365E-5,1.5288113E-3,-1.4523139E-3,2.431694E-4,-1.7500698E-4,-7.037864E-6,3.2597287E-5,-4.7565068E-6,-2.753693E-5,-9.341506E-7,4.548535E-6,5.30551E-5,-1.8594066E-6],"categories":[],"categories_nodes":[],"categories_segments":[],"categories_sizes":[],"default_left":[0,0,0,0,0,0,0,0,0,0,0,0,0,0,0],"id":65,"left_children":[1,3,5,7,9,11,13,-1,-1,-1,-1,-1,-1,-1,-1],"loss_changes":[4.519957E-4,6.692846E-4,3.812976E-4,3.5782286E-4,5.2997196E-4,3.4147047E-4,2.4073536E-4,0E0,0E0,0E0,0E0,0E0,0E0,0E0,0E0],"parents":[2147483647,0,0,1,1,2,2,3,3,4,4,5,5,6,6],"right_children":[2,4,6,8,10,12,14,-1,-1,-1,-1,-1,-1,-1,-1],"split_conditions":[-1.7299876E2,1.15629E5,1.179873E5,1.14145336E5,-2.200667E2,1.1081752E5,-1.2318007E2,-7.037864E-6,3.2597287E-5,-4.7565068E-6,-2.753693E-5,-9.341506E-7,4.548535E-6,5.30551E-5,-1.8594066E-6],"split_indices":[8,6,9,5,8,3,0,0,0,0,0,0,0,0,0],"split_type":[0,0,0,0,0,0,0,0,0,0,0,0,0,0,0],"sum_hessian":[9.299E3,5.08E2,8.791E3,9.1E1,4.17E2,4.791E3,4E3,4E1,5.1E1,2.39E2,1.78E2,1.85E3,2.941E3,7E0,3.993E3],"tree_param":{"num_deleted":"0","num_feature":"10","num_nodes":"15","size_leaf_vector":"1"}},{"base_weights":[-1.3871444E-7,-6.2396185E-4,7.66152E-5,1.1383836E-3,-1.1106381E-3,1.0390852E-4,-1.5114285E-3,1.9035546E-5,4.034989E-6,-8.2298875E-6,-2.8143704E-5,-9.1650094E-7,3.7075567E-6,-4.7713434E-5,-1.0523157E-5],"categories":[],"categories_nodes":[],"categories_segments":[],"categories_sizes":[],"default_left":[0,0,0,0,0,0,0,0,0,0,0,0,0,0,0],"id":66,"left_children":[1,3,5,7,9,11,13,-1,-1,-1,-1,-1,-1,-1,-1],"loss_changes":[4.4533992E-4,8.7525236E-4,3.5912363E-4,1.23503E-4,3.8925582E-4,4.249704E-4,2.0451265E-4,0E0,0E0,0E0,0E0,0E0,0E0,0E0,0E0],"parents":[2147483647,0,0,1,1,2,2,3,3,4,4,5,5,6,6],"right_children":[2,4,6,8,10,12,14,-1,-1,-1,-1,-1,-1,-1,-1],"split_conditions":[-1.139068E2,1.15629E5,1.8115653E0,1.13531164E5,1.2012E5,4.818975E-1,1.08755414E5,1.9035546E-5,4.034989E-6,-8.2298875E-6,-2.8143704E-5,-9.1650094E-7,3.7075567E-6,-4.7713434E-5,-1.0523157E-5],"split_indices":[8,6,7,4,9,7,5,0,0,0,0,0,0,0,0],"split_type":[0,0,0,0,0,0,0,0,0,0,0,0,0,0,0],"sum_hessian":[9.299E3,1.018E3,8.281E3,2.2E2,7.98E2,8.142E3,1.39E2,1.07E2,1.13E2,6.84E2,1.14E2,4.699E3,3.443E3,1.6E1,1.23E2],"tree_param":{"num_deleted":"0","num_feature":"10","num_nodes":"15","size_leaf_vector":"1"}},{"base_weights":[-1.4472351E-7,1.2560085E-4,-3.7700313E-4,-1.0024347E-4,3.1339584E-4,-1.2210987E-3,-4.2075615E-5,-3.8693033E-6,5.060541E-7,8.70804E-6,6.401029E-7,-6.169694E-6,-2.4976884E-5,-9.166961E-6,2.204115E-6],"categories":[],"categories_nodes":[],"categories_segments":[],"categories_sizes":[],"default_left":[0,0,0,0,0,0,0,0,0,0,0,0,0,0,0],"id":67,"left_children":[1,3,5,7,9,11,13,-1,-1,-1,-1,-1,-1,-1,-1],"loss_changes":[4.407583E-4,2.9581573E-4,6.5781665E-4,1.369809E-4,5.2929256E-4,5.082389E-4,3.829063E-4,0E0,0E0,0E0,0E0,0E0,0E0,0E0,0E0],"parents":[2147483647,0,0,1,1,2,2,3,3,4,4,5,5,6,6],"right_children":[2,4,6,8,10,12,14,-1,-1,-1,-1,-1,-1,-1,-1],"split_conditions":[1.190163E5,4.019549E-1,-5.2266315E1,1.163216E5,1.141005E5,1.1961915E5,1.1925512E5,-3.8693033E-6,5.060541E-7,8.70804E-6,6.401029E-7,-6.169694E-6,-2.4976884E-5,-9.166961E-6,2.204115E-6],"split_indices":[2,7,8,9,2,5,2,0,0,0,0,0,0,0,0],"split_type":[0,0,0,0,0,0,0,0,0,0,0,0,0,0,0],"sum_hessian":[9.299E3,6.973E3,2.326E3,3.166E3,3.807E3,6.6E2,1.666E3,1.091E3,2.075E3,1.176E3,2.631E3,4.49E2,2.11E2,3.84E2,1.282E3],"tree_param":{"num_deleted":"0","num_feature":"10","num_nodes":"15","size_leaf_vector":"1"}},{"base_weights":[-1.4673275E-7,7.401109E-5,-6.276591E-4,4.7770773E-5,2.0497818E-3,-1.7261952E-3,1.354007E-4,8.769333E-7,-8.968469E-6,2.1467545E-6,2.5654039E-5,1.8250117E-5,-2.0795153E-5,2.2881593E-6,-6.584068E-5],"categories":[],"categories_nodes":[],"categories_segments":[],"categories_sizes":[],"default_left":[0,0,0,0,0,0,0,0,0,0,0,0,0,0,0],"id":68,"left_children":[1,3,5,7,9,11,13,-1,-1,-1,-1,-1,-1,-1,-1],"loss_changes":[4.328215E-4,4.3114758E-4,8.2423224E-4,3.0969054E-4,1.0258745E-4,5.094443E-4,3.6620072E-4,0E0,0E0,0E0,0E0,0E0,0E0,0E0,0E0],"parents":[2147483647,0,0,1,1,2,2,3,3,4,4,5,5,6,6],"right_children":[2,4,6,8,10,12,14,-1,-1,-1,-1,-1,-1,-1,-1],"split_conditions":[1.1922106E5,1.19662E5,-8.307222E0,2.0079051E2,5.8764618E1,-2.8075525E2,7.9826454E1,8.769333E-7,-8.968469E-6,2.1467545E-6,2.5654039E-5,1.8250117E-5,-2.0795153E-5,2.2881593E-6,-6.584068E-5],"split_indices":[5,6,8,1,8,8,0,0,0,0,0,0,0,0,0],"split_type":[0,0,0,0,0,0,0,0,0,0,0,0,0,0,0],"sum_hessian":[9.299E3,8.317E3,9.82E2,8.209E3,1.08E2,4.02E2,5.8E2,7.877E3,3.32E2,2.4E1,8.4E1,3.6E1,3.66E2,5.73E2,7E0],"tree_param":{"num_deleted":"0","num_feature":"10","num_nodes":"15","size_leaf_vector":"1"}},{"base_weights":[-1.502542E-7,-8.0709724E-4,5.7382615E-5,1.2271262E-3,-1.3294893E-3,2.4467584E-4,-1.6539085E-4,-2.1735561E-6,2.949309E-5,2.5053669E-5,-1.557057E-5,-1.0797341E-6,4.67651E-6,-1.3123745E-6,-1.9355193E-5],"categories":[],"categories_nodes":[],"categories_segments":[],"categories_sizes":[],"default_left":[0,0,0,0,0,0,0,0,0,0,0,0,0,0,0],"id":69,"left_children":[1,3,5,7,9,11,13,-1,-1,-1,-1,-1,-1,-1,-1],"loss_changes":[4.3180792E-4,6.5941934E-4,3.622879E-4,3.1657415E-4,4.3413672E-4,3.7095774E-4,2.3951406E-4,0E0,0E0,0E0,0E0,0E0,0E0,0E0,0E0],"parents":[2147483647,0,0,1,1,2,2,3,3,4,4,5,5,6,6],"right_children":[2,4,6,8,10,12,14,-1,-1,-1,-1,-1,-1,-1,-1],"split_conditions":[-1.5771089E2,1.15629E5,1.179873E5,1.14145336E5,-4.5529337E2,1.1081752E5,1.2265919E5,-2.1735561E-6,2.949309E-5,2.5053669E-5,-1.557057E-5,-1.0797341E-6,4.67651E-6,-1.3123745E-6,-1.9355193E-5],"split_indices":[8,6,9,5,1,3,5,0,0,0,0,0,0,0,0],"split_type":[0,0,0,0,0,0,0,0,0,0,0,0,0,0,0],"sum_hessian":[9.299E3,6.18E2,8.681E3,1.26E2,4.92E2,4.716E3,3.965E3,6.9E1,5.7E1,2.7E1,4.65E2,1.827E3,2.889E3,3.891E3,7.4E1],"tree_param":{"num_deleted":"0","num_feature":"10","num_nodes":"15","size_leaf_vector":"1"}},{"base_weights":[-1.4663043E-7,-6.085959E-4,7.471572E-5,1.1149356E-3,-1.0845558E-3,1.017017E-4,-1.4954382E-3,1.8779365E-5,3.8231246E-6,2.4812081E-5,-1.212479E-5,-9.094957E-7,3.6458184E-6,-4.7257545E-5,-1.04051205E-5],"categories":[],"categories_nodes":[],"categories_segments":[],"categories_sizes":[],"default_left":[0,0,0,0,0,0,0,0,0,0,0,0,0,0,0],"id":70,"left_children":[1,3,5,7,9,11,13,-1,-1,-1,-1,-1,-1,-1,-1],"loss_changes":[4.2365995E-4,8.371272E-4,3.510781E-4,1.2281933E-4,3.6746793E-4,4.1242887E-4,2.008205E-4,0E0,0E0,0E0,0E0,0E0,0E0,0E0,0E0],"parents":[2147483647,0,0,1,1,2,2,3,3,4,4,5,5,6,6],"right_children":[2,4,6,8,10,12,14,-1,-1,-1,-1,-1,-1,-1,-1],"split_conditions":[-1.139068E2,1.15629E5,1.8115653E0,1.13531164E5,-4.5529337E2,4.818975E-1,1.08755414E5,1.8779365E-5,3.8231246E-6,2.4812081E-5,-1.212479E-5,-9.094957E-7,3.6458184E-6,-4.7257545E-5,-1.04051205E-5],"split_indices":[8,6,7,4,1,7,5,0,0,0,0,0,0,0,0],"split_type":[0,0,0,0,0,0,0,0,0,0,0,0,0,0,0],"sum_hessian":[9.299E3,1.018E3,8.281E3,2.2E2,7.98E2,8.142E3,1.39E2,1.07E2,1.13E2,2.7E1,7.71E2,4.699E3,3.443E3,1.6E1,1.23E2],"tree_param":{"num_deleted":"0","num_feature":"10","num_nodes":"15","size_leaf_vector":"1"}},{"base_weights":[-1.4727621E-7,1.3713747E-4,-3.3110063E-4,1.636964E-4,-1.3173388E-3,-1.1193209E-3,-1.0297118E-4,4.5833513E-5,1.526939E-6,-3.7825366E-6,-1.8124587E-5,-4.6657824E-6,-2.3053428E-5,1.0643891E-5,-2.2875518E-6],"categories":[],"categories_nodes":[],"categories_segments":[],"categories_sizes":[],"default_left":[0,0,0,0,0,0,0,0,0,0,0,0,0,0,0],"id":71,"left_children":[1,3,5,7,9,11,13,-1,-1,-1,-1,-1,-1,-1,-1],"loss_changes":[4.2258945E-4,2.5416497E-4,4.9024366E-4,3.1328664E-4,5.4179676E-5,4.7271466E-4,3.109469E-4,0E0,0E0,0E0,0E0,0E0,0E0,0E0,0E0],"parents":[2147483647,0,0,1,1,2,2,3,3,4,4,5,5,6,6],"right_children":[2,4,6,8,10,12,14,-1,-1,-1,-1,-1,-1,-1,-1],"split_conditions":[1.185387E5,3.254921E2,-6.392891E1,-1.2318007E2,1.136999E5,1.1961915E5,-4.0230747E1,4.5833513E-5,1.526939E-6,-3.7825366E-6,-1.8124587E-5,-4.6657824E-6,-2.3053428E-5,1.0643891E-5,-2.2875518E-6],"split_indices":[6,8,1,0,6,5,0,0,0,0,0,0,0,0,0],"split_type":[0,0,0,0,0,0,0,0,0,0,0,0,0,0,0],"sum_hessian":[9.299E3,6.573E3,2.726E3,6.456E3,1.17E2,6.11E2,2.115E3,1.5E1,6.441E3,4.1E1,7.6E1,3.95E2,2.16E2,2.05E2,1.91E3],"tree_param":{"num_deleted":"0","num_feature":"10","num_nodes":"15","size_leaf_vector":"1"}},{"base_weights":[-1.4514013E-7,-8.772765E-4,5.0635117E-5,1.4811129E-3,-1.3942491E-3,2.3404455E-4,-1.6904711E-4,-7.2002154E-6,3.1881398E-5,-4.3297987E-6,-2.6753125E-5,-9.84524E-7,4.4316002E-6,5.2451178E-5,-1.7984938E-6],"categories":[],"categories_nodes":[],"categories_segments":[],"categories_sizes":[],"default_left":[0,0,0,0,0,0,0,0,0,0,0,0,0,0,0],"id":72,"left_children":[1,3,5,7,9,11,13,-1,-1,-1,-1,-1,-1,-1,-1],"loss_changes":[4.142753E-4,6.2264944E-4,3.5428503E-4,3.4797593E-4,5.135863E-4,3.3323266E-4,2.3494297E-4,0E0,0E0,0E0,0E0,0E0,0E0,0E0,0E0],"parents":[2147483647,0,0,1,1,2,2,3,3,4,4,5,5,6,6],"right_children":[2,4,6,8,10,12,14,-1,-1,-1,-1,-1,-1,-1,-1],"split_conditions":[-1.7299876E2,1.15629E5,1.179873E5,1.14145336E5,-2.200667E2,1.1081752E5,-1.2318007E2,-7.2002154E-6,3.1881398E-5,-4.3297987E-6,-2.6753125E-5,-9.84524E-7,4.4316002E-6,5.2451178E-5,-1.7984938E-6],"split_indices":[8,6,9,5,8,3,0,0,0,0,0,0,0,0,0],"split_type":[0,0,0,0,0,0,0,0,0,0,0,0,0,0,0],"sum_hessian":[9.299E3,5.08E2,8.791E3,9.1E1,4.17E2,4.791E3,4E3,4E1,5.1E1,2.39E2,1.78E2,1.85E3,2.941E3,7E0,3.993E3],"tree_param":{"num_deleted":"0","num_feature":"10","num_nodes":"15","size_leaf_vector":"1"}},{"base_weights":[-1.3856598E-7,1.3481062E-4,-3.2546153E-4,-1.5954435E-4,2.6438752E-4,-1.1037478E-3,-1.0020794E-4,-1.662059E-7,-6.5356103E-6,3.2143535E-6,-9.443158E-6,-4.579129E-6,-2.2772354E-5,-5.423221E-6,2.2682816E-6],"categories":[],"categories_nodes":[],"categories_segments":[],"categories_sizes":[],"default_left":[0,0,0,0,0,0,0,0,0,0,0,0,0,0,0],"id":73,"left_children":[1,3,5,7,9,11,13,-1,-1,-1,-1,-1,-1,-1,-1],"loss_changes":[4.083331E-4,2.507851E-4,4.7796455E-4,1.4190863E-4,3.1507804E-4,4.6277948E-4,3.0606973E-4,0E0,0E0,0E0,0E0,0E0,0E0,0E0,0E0],"parents":[2147483647,0,0,1,1,2,2,3,3,4,4,5,5,6,6],"right_children":[2,4,6,8,10,12,14,-1,-1,-1,-1,-1,-1,-1,-1],"split_conditions":[1.185387E5,3.1583777E-1,-6.392891E1,3.8466564E1,2.1837634E2,1.1961915E5,1.1930533E5,-1.662059E-7,-6.5356103E-6,3.2143535E-6,-9.443158E-6,-4.579129E-6,-2.2772354E-5,-5.423221E-6,2.2682816E-6],"split_indices":[6,7,1,8,8,5,2,0,0,0,0,0,0,0,0],"split_type":[0,0,0,0,0,0,0,0,0,0,0,0,0,0,0],"sum_hessian":[9.299E3,6.573E3,2.726E3,2.009E3,4.564E3,6.11E2,2.115E3,1.559E3,4.5E2,4.359E3,2.05E2,3.95E2,2.16E2,8.99E2,1.216E3],"tree_param":{"num_deleted":"0","num_feature":"10","num_nodes":"15","size_leaf_vector":"1"}},{"base_weights":[-1.4184312E-7,-7.8205945E-4,5.5606502E-5,1.190616E-3,-1.2886472E-3,2.3674793E-4,-1.598498E-4,-2.2899817E-6,2.8834156E-5,2.4658764E-5,-1.5114755E-5,-1.0984812E-6,4.55897E-6,-1.2614096E-6,-1.9069827E-5],"categories":[],"categories_nodes":[],"categories_segments":[],"categories_sizes":[],"default_left":[0,0,0,0,0,0,0,0,0,0,0,0,0,0,0],"id":74,"left_children":[1,3,5,7,9,11,13,-1,-1,-1,-1,-1,-1,-1,-1],"loss_changes":[4.0543624E-4,6.201214E-4,3.388795E-4,3.0585687E-4,4.1617802E-4,3.583355E-4,2.333324E-4,0E0,0E0,0E0,0E0,0E0,0E0,0E0,0E0],"parents":[2147483647,0,0,1,1,2,2,3,3,4,4,5,5,6,6],"right_children":[2,4,6,8,10,12,14,-1,-1,-1,-1,-1,-1,-1,-1],"split_conditions":[-1.5771089E2,1.15629E5,1.179873E5,1.14145336E5,-4.5529337E2,1.1081752E5,1.2265919E5,-2.2899817E-6,2.8834156E-5,2.4658764E-5,-1.5114755E-5,-1.0984812E-6,4.55897E-6,-1.2614096E-6,-1.9069827E-5],"split_indices":[8,6,9,5,1,3,5,0,0,0,0,0,0,0,0],"split_type":[0,0,0,0,0,0,0,0,0,0,0,0,0,0,0],"sum_hessian":[9.299E3,6.18E2,8.681E3,1.26E2,4.92E2,4.716E3,3.965E3,6.9E1,5.7E1,2.7E1,4.65E2,1.827E3,2.889E3,3.891E3,7.4E1],"tree_param":{"num_deleted":"0","num_feature":"10","num_nodes":"15","size_leaf_vector":"1"}},{"base_weights":[-1.3835796E-7,-5.9068855E-4,7.2521725E-5,1.0853283E-3,-1.0535284E-3,9.910834E-5,-1.4743881E-3,1.8574307E-5,3.443424E-6,-7.362674E-5,-9.804111E-6,-9.124043E-7,3.5884705E-6,-4.6730904E-5,-1.0239661E-5],"categories":[],"categories_nodes":[],"categories_segments":[],"categories_sizes":[],"default_left":[0,0,0,0,0,0,0,0,0,0,0,0,0,0,0],"id":75,"left_children":[1,3,5,7,9,11,13,-1,-1,-1,-1,-1,-1,-1,-1],"loss_changes":[3.991005E-4,7.9160964E-4,3.407608E-4,1.2579825E-4,3.6136684E-4,4.0263036E-4,1.9692208E-4,0E0,0E0,0E0,0E0,0E0,0E0,0E0,0E0],"parents":[2147483647,0,0,1,1,2,2,3,3,4,4,5,5,6,6],"right_children":[2,4,6,8,10,12,14,-1,-1,-1,-1,-1,-1,-1,-1],"split_conditions":[-1.139068E2,1.15629E5,1.8115653E0,1.13531164E5,3.6030883E-1,4.818975E-1,1.08755414E5,1.8574307E-5,3.443424E-6,-7.362674E-5,-9.804111E-6,-9.124043E-7,3.5884705E-6,-4.6730904E-5,-1.0239661E-5],"split_indices":[8,6,7,4,7,7,5,0,0,0,0,0,0,0,0],"split_type":[0,0,0,0,0,0,0,0,0,0,0,0,0,0,0],"sum_hessian":[9.299E3,1.018E3,8.281E3,2.2E2,7.98E2,8.142E3,1.39E2,1.07E2,1.13E2,8E0,7.9E2,4.699E3,3.443E3,1.6E1,1.23E2],"tree_param":{"num_deleted":"0","num_feature":"10","num_nodes":"15","size_leaf_vector":"1"}},{"base_weights":[-1.4941789E-7,1.1895412E-4,-3.5710167E-4,-1.0140818E-4,3.0219162E-4,-1.1590098E-3,-3.8914306E-5,-3.838293E-6,4.719746E-7,8.52674E-6,5.590745E-7,-5.806934E-6,-2.3811011E-5,-8.970165E-6,2.1861358E-6],"categories":[],"categories_nodes":[],"categories_segments":[],"categories_sizes":[],"default_left":[0,0,0,0,0,0,0,0,0,0,0,0,0,0,0],"id":76,"left_children":[1,3,5,7,9,11,13,-1,-1,-1,-1,-1,-1,-1,-1],"loss_changes":[3.9542528E-4,2.8163128E-4,5.937052E-4,1.3293512E-4,5.162223E-4,4.6578265E-4,3.685785E-4,0E0,0E0,0E0,0E0,0E0,0E0,0E0,0E0],"parents":[2147483647,0,0,1,1,2,2,3,3,4,4,5,5,6,6],"right_children":[2,4,6,8,10,12,14,-1,-1,-1,-1,-1,-1,-1,-1],"split_conditions":[1.190163E5,4.019549E-1,-5.2266315E1,1.163216E5,1.141005E5,1.1961915E5,1.1925512E5,-3.838293E-6,4.719746E-7,8.52674E-6,5.590745E-7,-5.806934E-6,-2.3811011E-5,-8.970165E-6,2.1861358E-6],"split_indices":[2,7,8,9,2,5,2,0,0,0,0,0,0,0,0],"split_type":[0,0,0,0,0,0,0,0,0,0,0,0,0,0,0],"sum_hessian":[9.299E3,6.973E3,2.326E3,3.166E3,3.807E3,6.6E2,1.666E3,1.091E3,2.075E3,1.176E3,2.631E3,4.49E2,2.11E2,3.84E2,1.282E3],"tree_param":{"num_deleted":"0","num_feature":"10","num_nodes":"15","size_leaf_vector":"1"}},{"base_weights":[-1.5122212E-7,7.022011E-5,-5.956228E-4,4.416242E-5,2.0322693E-3,-1.6451917E-3,1.3341657E-4,8.325101E-7,-8.807147E-6,2.287856E-6,2.5387964E-5,1.8989924E-5,-1.9980245E-5,2.2587174E-6,-6.516918E-5],"categories":[],"categories_nodes":[],"categories_segments":[],"categories_sizes":[],"default_left":[0,0,0,0,0,0,0,0,0,0,0,0,0,0,0],"id":77,"left_children":[1,3,5,7,9,11,13,-1,-1,-1,-1,-1,-1,-1,-1],"loss_changes":[3.897502E-4,4.251801E-4,7.523885E-4,2.9688244E-4,9.899211E-5,5.077475E-4,3.587044E-4,0E0,0E0,0E0,0E0,0E0,0E0,0E0,0E0],"parents":[2147483647,0,0,1,1,2,2,3,3,4,4,5,5,6,6],"right_children":[2,4,6,8,10,12,14,-1,-1,-1,-1,-1,-1,-1,-1],"split_conditions":[1.1922106E5,1.19662E5,-8.307222E0,2.0079051E2,5.8764618E1,-2.8075525E2,7.9826454E1,8.325101E-7,-8.807147E-6,2.287856E-6,2.5387964E-5,1.8989924E-5,-1.9980245E-5,2.2587174E-6,-6.516918E-5],"split_indices":[5,6,8,1,8,8,0,0,0,0,0,0,0,0,0],"split_type":[0,0,0,0,0,0,0,0,0,0,0,0,0,0,0],"sum_hessian":[9.299E3,8.317E3,9.82E2,8.209E3,1.08E2,4.02E2,5.8E2,7.877E3,3.32E2,2.4E1,8.4E1,3.6E1,3.66E2,5.73E2,7E0],"tree_param":{"num_deleted":"0","num_feature":"10","num_nodes":"15","size_leaf_vector":"1"}},{"base_weights":[-1.5446523E-7,-8.478364E-4,4.892086E-5,1.3531735E-3,-1.3693197E-3,2.2575948E-4,-1.6289107E-4,-7.270271E-6,2.8003295E-5,-4.2419074E-6,-2.6342417E-5,-1.0217084E-6,4.320046E-6,5.200421E-5,-1.7359303E-6],"categories":[],"categories_nodes":[],"categories_segments":[],"categories_sizes":[],"default_left":[0,0,0,0,0,0,0,0,0,0,0,0,0,0,0],"id":78,"left_children":[1,3,5,7,9,11,13,-1,-1,-1,-1,-1,-1,-1,-1],"loss_changes":[3.8692396E-4,5.8607804E-4,3.2935455E-4,2.9705267E-4,4.9143453E-4,3.2414644E-4,2.3055184E-4,0E0,0E0,0E0,0E0,0E0,0E0,0E0,0E0],"parents":[2147483647,0,0,1,1,2,2,3,3,4,4,5,5,6,6],"right_children":[2,4,6,8,10,12,14,-1,-1,-1,-1,-1,-1,-1,-1],"split_conditions":[-1.7299876E2,1.157194E5,1.179873E5,1.14145336E5,-2.200667E2,1.1081752E5,-1.2318007E2,-7.270271E-6,2.8003295E-5,-4.2419074E-6,-2.6342417E-5,-1.0217084E-6,4.320046E-6,5.200421E-5,-1.7359303E-6],"split_indices":[8,6,9,5,8,3,0,0,0,0,0,0,0,0,0],"split_type":[0,0,0,0,0,0,0,0,0,0,0,0,0,0,0],"sum_hessian":[9.299E3,5.08E2,8.791E3,9.7E1,4.11E2,4.791E3,4E3,4E1,5.7E1,2.36E2,1.75E2,1.85E3,2.941E3,7E0,3.993E3],"tree_param":{"num_deleted":"0","num_feature":"10","num_nodes":"15","size_leaf_vector":"1"}},{"base_weights":[-1.4822116E-7,-5.767784E-4,7.0799164E-5,1.0642693E-3,-1.0299633E-3,9.7089105E-5,-1.4588422E-3,1.8327799E-5,3.2687105E-6,-7.280162E-5,-9.575464E-6,-9.0326995E-7,3.528262E-6,-4.6284495E-5,-1.0125344E-5],"categories":[],"categories_nodes":[],"categories_segments":[],"categories_sizes":[],"default_left":[0,0,0,0,0,0,0,0,0,0,0,0,0,0,0],"id":79,"left_children":[1,3,5,7,9,11,13,-1,-1,-1,-1,-1,-1,-1,-1],"loss_changes":[3.8050755E-4,7.589244E-4,3.3319546E-4,1.2464126E-4,3.546722E-4,3.9031976E-4,1.933604E-4,0E0,0E0,0E0,0E0,0E0,0E0,0E0,0E0],"parents":[2147483647,0,0,1,1,2,2,3,3,4,4,5,5,6,6],"right_children":[2,4,6,8,10,12,14,-1,-1,-1,-1,-1,-1,-1,-1],"split_conditions":[-1.139068E2,1.15629E5,1.8115653E0,1.13531164E5,3.6030883E-1,4.818975E-1,1.08755414E5,1.8327799E-5,3.2687105E-6,-7.280162E-5,-9.575464E-6,-9.0326995E-7,3.528262E-6,-4.6284495E-5,-1.0125344E-5],"split_indices":[8,6,7,4,7,7,5,0,0,0,0,0,0,0,0],"split_type":[0,0,0,0,0,0,0,0,0,0,0,0,0,0,0],"sum_hessian":[9.299E3,1.018E3,8.281E3,2.2E2,7.98E2,8.142E3,1.39E2,1.07E2,1.13E2,8E0,7.9E2,4.699E3,3.443E3,1.6E1,1.23E2],"tree_param":{"num_deleted":"0","num_feature":"10","num_nodes":"15","size_leaf_vector":"1"}},{"base_weights":[-1.5905661E-7,1.2983718E-4,-3.1354194E-4,-1.5852838E-4,2.5677803E-4,-1.0569791E-3,-9.83732E-5,-1.7318709E-7,-6.466183E-6,4.021921E-6,-1.9836618E-6,-4.5891716E-6,-2.2508531E-5,1.050766E-5,-2.2219542E-6],"categories":[],"categories_nodes":[],"categories_segments":[],"categories_sizes":[],"default_left":[0,0,0,0,0,0,0,0,0,0,0,0,0,0,0],"id":80,"left_children":[1,3,5,7,9,11,13,-1,-1,-1,-1,-1,-1,-1,-1],"loss_changes":[3.789097E-4,2.4068437E-4,4.3611904E-4,1.3852406E-4,3.0221147E-4,4.3594162E-4,3.0131693E-4,0E0,0E0,0E0,0E0,0E0,0E0,0E0,0E0],"parents":[2147483647,0,0,1,1,2,2,3,3,4,4,5,5,6,6],"right_children":[2,4,6,8,10,12,14,-1,-1,-1,-1,-1,-1,-1,-1],"split_conditions":[1.185387E5,3.1583777E-1,-6.392891E1,3.8466564E1,7.9957587E-1,1.201638E5,-4.0230747E1,-1.7318709E-7,-6.466183E-6,4.021921E-6,-1.9836618E-6,-4.5891716E-6,-2.2508531E-5,1.050766E-5,-2.2219542E-6],"split_indices":[6,7,1,8,7,6,0,0,0,0,0,0,0,0,0],"split_type":[0,0,0,0,0,0,0,0,0,0,0,0,0,0,0],"sum_hessian":[9.299E3,6.573E3,2.726E3,2.009E3,4.564E3,6.11E2,2.115E3,1.559E3,4.5E2,3.459E3,1.105E3,4.08E2,2.03E2,2.05E2,1.91E3],"tree_param":{"num_deleted":"0","num_feature":"10","num_nodes":"15","size_leaf_vector":"1"}},{"base_weights":[-1.5998204E-7,6.855053E-5,-5.8157794E-4,4.2694242E-5,2.0154454E-3,-1.6082494E-3,1.3155484E-4,5.3682743E-7,-3.170221E-5,2.3310886E-6,2.5159508E-5,1.9085954E-5,-1.9584266E-5,2.2309216E-6,-6.4526925E-5],"categories":[],"categories_nodes":[],"categories_segments":[],"categories_sizes":[],"default_left":[0,0,0,0,0,0,0,0,0,0,0,0,0,0,0],"id":81,"left_children":[1,3,5,7,9,11,13,-1,-1,-1,-1,-1,-1,-1,-1],"loss_changes":[3.7157044E-4,4.1863765E-4,7.1991794E-4,2.9002535E-4,9.664908E-5,5.000398E-4,3.5161083E-4,0E0,0E0,0E0,0E0,0E0,0E0,0E0,0E0],"parents":[2147483647,0,0,1,1,2,2,3,3,4,4,5,5,6,6],"right_children":[2,4,6,8,10,12,14,-1,-1,-1,-1,-1,-1,-1,-1],"split_conditions":[1.1922106E5,1.19662E5,-8.307222E0,1.5459944E2,5.8764618E1,-2.8075525E2,7.9826454E1,5.3682743E-7,-3.170221E-5,2.3310886E-6,2.5159508E-5,1.9085954E-5,-1.9584266E-5,2.2309216E-6,-6.4526925E-5],"split_indices":[5,6,8,0,8,8,0,0,0,0,0,0,0,0,0],"split_type":[0,0,0,0,0,0,0,0,0,0,0,0,0,0,0],"sum_hessian":[9.299E3,8.317E3,9.82E2,8.209E3,1.08E2,4.02E2,5.8E2,8.182E3,2.7E1,2.4E1,8.4E1,3.6E1,3.66E2,5.73E2,7E0],"tree_param":{"num_deleted":"0","num_feature":"10","num_nodes":"15","size_leaf_vector":"1"}},{"base_weights":[-1.6552929E-7,1.2811416E-4,-3.0941033E-4,1.5379784E-4,-1.2783912E-3,-1.0388357E-3,-9.8296056E-5,4.5121367E-5,1.4294915E-6,-3.4455247E-6,-1.7711553E-5,-4.5040856E-6,-2.2134822E-5,1.0387716E-5,-2.2081708E-6],"categories":[],"categories_nodes":[],"categories_segments":[],"categories_sizes":[],"default_left":[0,0,0,0,0,0,0,0,0,0,0,0,0,0,0],"id":82,"left_children":[1,3,5,7,9,11,13,-1,-1,-1,-1,-1,-1,-1,-1],"loss_changes":[3.6896905E-4,2.376773E-4,4.1983437E-4,3.046564E-4,5.3688884E-5,4.220137E-4,2.950193E-4,0E0,0E0,0E0,0E0,0E0,0E0,0E0,0E0],"parents":[2147483647,0,0,1,1,2,2,3,3,4,4,5,5,6,6],"right_children":[2,4,6,8,10,12,14,-1,-1,-1,-1,-1,-1,-1,-1],"split_conditions":[1.185387E5,3.254921E2,-6.392891E1,-1.2318007E2,1.136999E5,1.201638E5,-4.0230747E1,4.5121367E-5,1.4294915E-6,-3.4455247E-6,-1.7711553E-5,-4.5040856E-6,-2.2134822E-5,1.0387716E-5,-2.2081708E-6],"split_indices":[6,8,1,0,6,6,0,0,0,0,0,0,0,0,0],"split_type":[0,0,0,0,0,0,0,0,0,0,0,0,0,0,0],"sum_hessian":[9.299E3,6.573E3,2.726E3,6.456E3,1.17E2,6.11E2,2.115E3,1.5E1,6.441E3,4.1E1,7.6E1,4.08E2,2.03E2,2.05E2,1.91E3],"tree_param":{"num_deleted":"0","num_feature":"10","num_nodes":"15","size_leaf_vector":"1"}},{"base_weights":[-1.6312926E-7,-7.433469E-4,5.282362E-5,1.1479273E-3,-1.2290437E-3,2.2624143E-4,-1.5344584E-4,-2.5415284E-6,2.8203009E-5,2.47038E-5,-1.4486891E-5,-1.160908E-6,4.426972E-6,5.1445488E-5,-1.641128E-6],"categories":[],"categories_nodes":[],"categories_segments":[],"categories_sizes":[],"default_left":[0,0,0,0,0,0,0,0,0,0,0,0,0,0,0],"id":83,"left_children":[1,3,5,7,9,11,13,-1,-1,-1,-1,-1,-1,-1,-1],"loss_changes":[3.6626298E-4,5.700154E-4,3.105968E-4,2.985066E-4,4.0417188E-4,3.4958008E-4,2.249769E-4,0E0,0E0,0E0,0E0,0E0,0E0,0E0,0E0],"parents":[2147483647,0,0,1,1,2,2,3,3,4,4,5,5,6,6],"right_children":[2,4,6,8,10,12,14,-1,-1,-1,-1,-1,-1,-1,-1],"split_conditions":[-1.5771089E2,1.15629E5,1.179873E5,1.14145336E5,-4.5529337E2,1.1081752E5,-1.2318007E2,-2.5415284E-6,2.8203009E-5,2.47038E-5,-1.4486891E-5,-1.160908E-6,4.426972E-6,5.1445488E-5,-1.641128E-6],"split_indices":[8,6,9,5,1,3,0,0,0,0,0,0,0,0,0],"split_type":[0,0,0,0,0,0,0,0,0,0,0,0,0,0,0],