{"learner":{"attributes":{"scikit_learn":"{\"_estimator_type\": \"regressor\"}"},"feature_names":["MACDh_12_26_9","log_return_1","rsi_14","MACDs_12_26_9","BBL_20_2.0","volume","log_return_5","BBU_20_2.0","open","log_return"],"feature_types":["float","float","float","float","float","float","float","float","float","float"],"gradient_booster":{"model":{"gbtree_model_param":{"num_parallel_tree":"1","num_trees":"100"},"iteration_indptr":[0,1,2,3,4,5,6,7,8,9,10,11,12,13,14,15,16,17,18,19,20,21,22,23,24,25,26,27,28,29,30,31,32,33,34,35,36,37,38,39,40,41,42,43,44,45,46,47,48,49,50,51,52,53,54,55,56,57,58,59,60,61,62,63,64,65,66,67,68,69,70,71,72,73,74,75,76,77,78,79,80,81,82,83,84,85,86,87,88,89,90,91,92,93,94,95,96,97,98,99,100],"tree_info":[0,0,0,0,0,0,0,0,0,0,0,0,0,0,0,0,0,0,0,0,0,0,0,0,0,0,0,0,0,0,0,0,0,0,0,0,0,0,0,0,0,0,0,0,0,0,0,0,0,0,0,0,0,0,0,0,0,0,0,0,0,0,0,0,0,0,0,0,0,0,0,0,0,0,0,0,0,0,0,0,0,0,0,0,0,0,0,0,0,0,0,0,0,0,0,0,0,0,0,0],"trees":[{"base_weights":[-3.5235684E-12,-6.1285704E-5,8.2521714E-5,1.9080806E-4,-7.6242126E-5,1.4378835E-4,-2.7348793E-5,2.7997125E-5,1.279298E-6,-1.1759952E-5,-7.2787316E-7,9.76601E-7,3.228836E-6,-1.4869316E-7,-1.2859174E-5],"categories":[],"categories_nodes":[],"categories_segments":[],"categories_sizes":[],"default_left":[0,0,0,0,0,0,0,0,0,0,0,0,0,0,0],"id":0,"left_children":[1,3,5,7,9,11,13,-1,-1,-1,-1,-1,-1,-1,-1],"loss_changes":[2.7021693E-5,1.1574657E-5,1.533132E-5,2.7857297E-5,1.0913756E-5,1.2046561E-5,1.2797202E-5,0E0,0E0,0E0,0E0,0E0,0E0,0E0,0E0],"parents":[2147483647,0,0,1,1,2,2,3,3,4,4,5,5,6,6],"right_children":[2,4,6,8,10,12,14,-1,-1,-1,-1,-1,-1,-1,-1],"split_conditions":[3.8823186E-5,-2.8394954E-3,1.179367E5,-3.4505252E-3,-2.7230692E-3,7.971784E1,8.1400734E1,2.7997125E-5,1.279298E-6,-1.1759952E-5,-7.2787316E-7,9.76601E-7,3.228836E-6,-1.4869316E-7,-1.2859174E-5],"split_indices":[9,6,8,9,1,3,2,0,0,0,0,0,0,0,0],"split_type":[0,0,0,0,0,0,0,0,0,0,0,0,0,0,0],"sum_hessian":[5.341E3,3.065E3,2.276E3,1.71E2,2.894E3,1.461E3,8.15E2,3E0,1.68E2,8E0,2.886E3,1.163E3,2.98E2,8.08E2,7E0],"tree_param":{"num_deleted":"0","num_feature":"10","num_nodes":"15","size_leaf_vector":"1"}},{"base_weights":[1.4960979E-9,-6.0667368E-5,8.169264E-5,1.8907021E-4,-7.5484015E-5,1.4235334E-4,-2.7091242E-5,2.7787148E-5,1.266581E-6,-1.1655419E-5,-7.205969E-7,9.668435E-7,3.1966556E-6,-1.4720804E-7,-1.2746656E-5],"categories":[],"categories_nodes":[],"categories_segments":[],"categories_sizes":[],"default_left":[0,0,0,0,0,0,0,0,0,0,0,0,0,0,0],"id":1,"left_children":[1,3,5,7,9,11,13,-1,-1,-1,-1,-1,-1,-1,-1],"loss_changes":[2.648049E-5,1.135931E-5,1.5029568E-5,2.7447593E-5,1.0722193E-5,1.180789E-5,1.2574599E-5,0E0,0E0,0E0,0E0,0E0,0E0,0E0,0E0],"parents":[2147483647,0,0,1,1,2,2,3,3,4,4,5,5,6,6],"right_children":[2,4,6,8,10,12,14,-1,-1,-1,-1,-1,-1,-1,-1],"split_conditions":[3.8823186E-5,-2.8394954E-3,1.179367E5,-3.4505252E-3,-2.7230692E-3,7.971784E1,8.1400734E1,2.7787148E-5,1.266581E-6,-1.1655419E-5,-7.205969E-7,9.668435E-7,3.1966556E-6,-1.4720804E-7,-1.2746656E-5],"split_indices":[9,6,8,9,1,3,2,0,0,0,0,0,0,0,0],"split_type":[0,0,0,0,0,0,0,0,0,0,0,0,0,0,0],"sum_hessian":[5.341E3,3.065E3,2.276E3,1.71E2,2.894E3,1.461E3,8.15E2,3E0,1.68E2,8E0,2.886E3,1.163E3,2.98E2,8.08E2,7E0],"tree_param":{"num_deleted":"0","num_feature":"10","num_nodes":"15","size_leaf_vector":"1"}},{"base_weights":[2.9656255E-9,-6.0055252E-5,8.087187E-5,1.8734844E-4,-7.473345E-5,1.4093265E-4,-2.6836144E-5,2.7578742E-5,1.2539901E-6,-1.1551815E-5,-7.133935E-7,9.571833E-7,3.1647962E-6,-1.457379E-7,-1.26351215E-5],"categories":[],"categories_nodes":[],"categories_segments":[],"categories_sizes":[],"default_left":[0,0,0,0,0,0,0,0,0,0,0,0,0,0,0],"id":2,"left_children":[1,3,5,7,9,11,13,-1,-1,-1,-1,-1,-1,-1,-1],"loss_changes":[2.5950108E-5,1.1147998E-5,1.4733759E-5,2.704389E-5,1.0533984E-5,1.1573946E-5,1.2355867E-5,0E0,0E0,0E0,0E0,0E0,0E0,0E0,0E0],"parents":[2147483647,0,0,1,1,2,2,3,3,4,4,5,5,6,6],"right_children":[2,4,6,8,10,12,14,-1,-1,-1,-1,-1,-1,-1,-1],"split_conditions":[3.8823186E-5,-2.8394954E-3,1.179367E5,-3.4505252E-3,-2.7230692E-3,7.971784E1,8.1400734E1,2.7578742E-5,1.2539901E-6,-1.1551815E-5,-7.133935E-7,9.571833E-7,3.1647962E-6,-1.457379E-7,-1.26351215E-5],"split_indices":[9,6,8,9,1,3,2,0,0,0,0,0,0,0,0],"split_type":[0,0,0,0,0,0,0,0,0,0,0,0,0,0,0],"sum_hessian":[5.341E3,3.065E3,2.276E3,1.71E2,2.894E3,1.461E3,8.15E2,3E0,1.68E2,8E0,2.886E3,1.163E3,2.98E2,8.08E2,7E0],"tree_param":{"num_deleted":"0","num_feature":"10","num_nodes":"15","size_leaf_vector":"1"}},{"base_weights":[4.4176827E-9,-5.94493E-5,8.0059355E-5,1.8564257E-4,-7.399035E-5,1.3952615E-4,-2.658344E-5,2.7371903E-5,1.2415243E-6,-1.1449132E-5,-7.0626197E-7,9.4761975E-7,3.133254E-6,-1.4428227E-7,-1.2524564E-5],"categories":[],"categories_nodes":[],"categories_segments":[],"categories_sizes":[],"default_left":[0,0,0,0,0,0,0,0,0,0,0,0,0,0,0],"id":3,"left_children":[1,3,5,7,9,11,13,-1,-1,-1,-1,-1,-1,-1,-1],"loss_changes":[2.5430345E-5,1.09406365E-5,1.44437745E-5,2.6646114E-5,1.034908E-5,1.1344642E-5,1.214094E-5,0E0,0E0,0E0,0E0,0E0,0E0,0E0,0E0],"parents":[2147483647,0,0,1,1,2,2,3,3,4,4,5,5,6,6],"right_children":[2,4,6,8,10,12,14,-1,-1,-1,-1,-1,-1,-1,-1],"split_conditions":[3.8823186E-5,-2.8394954E-3,1.179367E5,-3.4505252E-3,-2.7230692E-3,7.971784E1,8.1400734E1,2.7371903E-5,1.2415243E-6,-1.1449132E-5,-7.0626197E-7,9.4761975E-7,3.133254E-6,-1.4428227E-7,-1.2524564E-5],"split_indices":[9,6,8,9,1,3,2,0,0,0,0,0,0,0,0],"split_type":[0,0,0,0,0,0,0,0,0,0,0,0,0,0,0],"sum_hessian":[5.341E3,3.065E3,2.276E3,1.71E2,2.894E3,1.461E3,8.15E2,3E0,1.68E2,8E0,2.886E3,1.163E3,2.98E2,8.08E2,7E0],"tree_param":{"num_deleted":"0","num_feature":"10","num_nodes":"15","size_leaf_vector":"1"}},{"base_weights":[5.8485132E-9,-5.8849433E-5,7.925499E-5,1.839525E-4,-7.325465E-5,1.3813368E-4,-2.6333124E-5,2.7166614E-5,1.2291825E-6,-1.13473625E-5,-6.9920185E-7,9.381517E-7,3.102026E-6,-1.4284116E-7,-1.2414975E-5],"categories":[],"categories_nodes":[],"categories_segments":[],"categories_sizes":[],"default_left":[0,0,0,0,0,0,0,0,0,0,0,0,0,0,0],"id":4,"left_children":[1,3,5,7,9,11,13,-1,-1,-1,-1,-1,-1,-1,-1],"loss_changes":[2.4920984E-5,1.0737157E-5,1.4159497E-5,2.6254178E-5,1.0167421E-5,1.1119873E-5,1.1929751E-5,0E0,0E0,0E0,0E0,0E0,0E0,0E0,0E0],"parents":[2147483647,0,0,1,1,2,2,3,3,4,4,5,5,6,6],"right_children":[2,4,6,8,10,12,14,-1,-1,-1,-1,-1,-1,-1,-1],"split_conditions":[3.8823186E-5,-2.8394954E-3,1.179367E5,-3.4505252E-3,-2.7230692E-3,7.971784E1,8.1400734E1,2.7166614E-5,1.2291825E-6,-1.13473625E-5,-6.9920185E-7,9.381517E-7,3.102026E-6,-1.4284116E-7,-1.2414975E-5],"split_indices":[9,6,8,9,1,3,2,0,0,0,0,0,0,0,0],"split_type":[0,0,0,0,0,0,0,0,0,0,0,0,0,0,0],"sum_hessian":[5.341E3,3.065E3,2.276E3,1.71E2,2.894E3,1.461E3,8.15E2,3E0,1.68E2,8E0,2.886E3,1.163E3,2.98E2,8.08E2,7E0],"tree_param":{"num_deleted":"0","num_feature":"10","num_nodes":"15","size_leaf_vector":"1"}},{"base_weights":[7.259145E-9,-5.8255602E-5,7.8458695E-5,1.8227806E-4,-7.252625E-5,1.367551E-4,-2.608519E-5,2.6962864E-5,1.2169634E-6,-1.1246496E-5,-6.9221215E-7,9.287782E-7,3.0711094E-6,-1.4141457E-7,-1.2306344E-5],"categories":[],"categories_nodes":[],"categories_segments":[],"categories_sizes":[],"default_left":[0,0,0,0,0,0,0,0,0,0,0,0,0,0,0],"id":5,"left_children":[1,3,5,7,9,11,13,-1,-1,-1,-1,-1,-1,-1,-1],"loss_changes":[2.4421814E-5,1.0537486E-5,1.388082E-5,2.5867985E-5,9.988949E-6,1.0899561E-5,1.1722236E-5,0E0,0E0,0E0,0E0,0E0,0E0,0E0,0E0],"parents":[2147483647,0,0,1,1,2,2,3,3,4,4,5,5,6,6],"right_children":[2,4,6,8,10,12,14,-1,-1,-1,-1,-1,-1,-1,-1],"split_conditions":[3.8823186E-5,-2.8394954E-3,1.179367E5,-3.4505252E-3,-2.7230692E-3,7.971784E1,8.1400734E1,2.6962864E-5,1.2169634E-6,-1.1246496E-5,-6.9221215E-7,9.287782E-7,3.0711094E-6,-1.4141457E-7,-1.2306344E-5],"split_indices":[9,6,8,9,1,3,2,0,0,0,0,0,0,0,0],"split_type":[0,0,0,0,0,0,0,0,0,0,0,0,0,0,0],"sum_hessian":[5.341E3,3.065E3,2.276E3,1.71E2,2.894E3,1.461E3,8.15E2,3E0,1.68E2,8E0,2.886E3,1.163E3,2.98E2,8.08E2,7E0],"tree_param":{"num_deleted":"0","num_feature":"10","num_nodes":"15","size_leaf_vector":"1"}},{"base_weights":[8.643934E-9,-5.766775E-5,7.76704E-5,1.8061913E-4,-7.1805116E-5,1.3539029E-4,-2.583959E-5,2.6760643E-5,1.2048658E-6,-1.1146528E-5,-6.8529243E-7,9.194984E-7,3.0405013E-6,-1.4000216E-7,-1.2198663E-5],"categories":[],"categories_nodes":[],"categories_segments":[],"categories_sizes":[],"default_left":[0,0,0,0,0,0,0,0,0,0,0,0,0,0,0],"id":6,"left_children":[1,3,5,7,9,11,13,-1,-1,-1,-1,-1,-1,-1,-1],"loss_changes":[2.3932633E-5,1.0341553E-5,1.3607631E-5,2.5487456E-5,9.813608E-6,1.0683616E-5,1.1518329E-5,0E0,0E0,0E0,0E0,0E0,0E0,0E0,0E0],"parents":[2147483647,0,0,1,1,2,2,3,3,4,4,5,5,6,6],"right_children":[2,4,6,8,10,12,14,-1,-1,-1,-1,-1,-1,-1,-1],"split_conditions":[3.8823186E-5,-2.8394954E-3,1.179367E5,-3.4505252E-3,-2.7230692E-3,7.971784E1,8.1400734E1,2.6760643E-5,1.2048658E-6,-1.1146528E-5,-6.8529243E-7,9.194984E-7,3.0405013E-6,-1.4000216E-7,-1.2198663E-5],"split_indices":[9,6,8,9,1,3,2,0,0,0,0,0,0,0,0],"split_type":[0,0,0,0,0,0,0,0,0,0,0,0,0,0,0],"sum_hessian":[5.341E3,3.065E3,2.276E3,1.71E2,2.894E3,1.461E3,8.15E2,3E0,1.68E2,8E0,2.886E3,1.163E3,2.98E2,8.08E2,7E0],"tree_param":{"num_deleted":"0","num_feature":"10","num_nodes":"15","size_leaf_vector":"1"}},{"base_weights":[1.00017665E-8,-5.7085825E-5,7.689001E-5,1.7897553E-4,-7.109117E-5,1.340391E-4,-2.5596317E-5,2.655994E-5,1.1928886E-6,-1.10474475E-5,-6.7844206E-7,1.2864511E-5,1.2761069E-6,-1.386039E-7,-1.2091924E-5],"categories":[],"categories_nodes":[],"categories_segments":[],"categories_sizes":[],"default_left":[0,0,0,0,0,0,0,0,0,0,0,0,0,0,0],"id":7,"left_children":[1,3,5,7,9,11,13,-1,-1,-1,-1,-1,-1,-1,-1],"loss_changes":[2.3453249E-5,1.0149288E-5,1.333982E-5,2.5112511E-5,9.64134E-6,1.0666585E-5,1.13179685E-5,0E0,0E0,0E0,0E0,0E0,0E0,0E0,0E0],"parents":[2147483647,0,0,1,1,2,2,3,3,4,4,5,5,6,6],"right_children":[2,4,6,8,10,12,14,-1,-1,-1,-1,-1,-1,-1,-1],"split_conditions":[3.8823186E-5,-2.8394954E-3,1.179367E5,-3.4505252E-3,-2.7230692E-3,-1.1501607E2,8.1400734E1,2.655994E-5,1.1928886E-6,-1.10474475E-5,-6.7844206E-7,1.2864511E-5,1.2761069E-6,-1.386039E-7,-1.2091924E-5],"split_indices":[9,6,8,9,1,0,2,0,0,0,0,0,0,0,0],"split_type":[0,0,0,0,0,0,0,0,0,0,0,0,0,0,0],"sum_hessian":[5.341E3,3.065E3,2.276E3,1.71E2,2.894E3,1.461E3,8.15E2,3E0,1.68E2,8E0,2.886E3,7E0,1.454E3,8.08E2,7E0],"tree_param":{"num_deleted":"0","num_feature":"10","num_nodes":"15","size_leaf_vector":"1"}},{"base_weights":[1.3264858E-8,-5.650973E-5,7.6121956E-5,-5.0708037E-5,-6.2287867E-4,1.3270837E-4,-2.5355337E-5,-6.0922326E-7,3.8938947E-6,-2.0646416E-6,-1.7942622E-5,1.2751947E-5,1.2633546E-6,-1.3721952E-7,-1.198612E-5],"categories":[],"categories_nodes":[],"categories_segments":[],"categories_sizes":[],"default_left":[0,0,0,0,0,0,0,0,0,0,0,0,0,0,0],"id":8,"left_children":[1,3,5,7,9,11,13,-1,-1,-1,-1,-1,-1,-1,-1],"loss_changes":[2.2985003E-5,1.0042984E-5,1.30784365E-5,1.3671407E-5,1.4750765E-5,1.0483684E-5,1.1121095E-5,0E0,0E0,0E0,0E0,0E0,0E0,0E0,0E0],"parents":[2147483647,0,0,1,1,2,2,3,3,4,4,5,5,6,6],"right_children":[2,4,6,8,10,12,14,-1,-1,-1,-1,-1,-1,-1,-1],"split_conditions":[3.8823186E-5,7.861696E1,1.179367E5,2.6392963E1,9.175887E1,-1.1501607E2,8.1400734E1,-6.0922326E-7,3.8938947E-6,-2.0646416E-6,-1.7942622E-5,1.2751947E-5,1.2633546E-6,-1.3721952E-7,-1.198612E-5],"split_indices":[9,2,8,5,0,0,2,0,0,0,0,0,0,0,0],"split_type":[0,0,0,0,0,0,0,0,0,0,0,0,0,0,0],"sum_hessian":[5.341E3,3.065E3,2.276E3,3.035E3,3E1,1.461E3,8.15E2,2.967E3,6.8E1,2.3E1,7E0,7E0,1.454E3,8.08E2,7E0],"tree_param":{"num_deleted":"0","num_feature":"10","num_nodes":"15","size_leaf_vector":"1"}},{"base_weights":[1.0353321E-8,-5.5950088E-5,7.536156E-5,1.775601E-4,-6.980425E-5,1.3139087E-4,-2.511664E-5,2.636531E-5,1.1830896E-6,-1.0943832E-5,-6.658603E-7,8.8434365E-7,2.981801E-6,-1.35849E-7,-1.1881241E-5],"categories":[],"categories_nodes":[],"categories_segments":[],"categories_sizes":[],"default_left":[0,0,0,0,0,0,0,0,0,0,0,0,0,0,0],"id":9,"left_children":[1,3,5,7,9,11,13,-1,-1,-1,-1,-1,-1,-1,-1],"loss_changes":[2.2529759E-5,9.931175E-6,1.2822182E-5,2.474793E-5,9.472887E-6,1.0448395E-5,1.0927643E-5,0E0,0E0,0E0,0E0,0E0,0E0,0E0,0E0],"parents":[2147483647,0,0,1,1,2,2,3,3,4,4,5,5,6,6],"right_children":[2,4,6,8,10,12,14,-1,-1,-1,-1,-1,-1,-1,-1],"split_conditions":[3.8823186E-5,-2.8394954E-3,1.179367E5,-3.4505252E-3,-2.7230692E-3,7.971784E1,8.1400734E1,2.636531E-5,1.1830896E-6,-1.0943832E-5,-6.658603E-7,8.8434365E-7,2.981801E-6,-1.35849E-7,-1.1881241E-5],"split_indices":[9,6,8,9,1,3,2,0,0,0,0,0,0,0,0],"split_type":[0,0,0,0,0,0,0,0,0,0,0,0,0,0,0],"sum_hessian":[5.341E3,3.065E3,2.276E3,1.71E2,2.894E3,1.461E3,8.15E2,3E0,1.68E2,8E0,2.886E3,1.163E3,2.98E2,8.08E2,7E0],"tree_param":{"num_deleted":"0","num_feature":"10","num_nodes":"15","size_leaf_vector":"1"}},{"base_weights":[1.1708507E-8,-5.538539E-5,7.4604366E-5,-4.9636175E-5,-6.1665085E-4,1.3007961E-4,-2.4880204E-5,-5.9742604E-7,3.858063E-6,-2.0384743E-6,-1.77798E-5,1.2622141E-5,1.2376541E-6,-1.3449224E-7,-1.1777281E-5],"categories":[],"categories_nodes":[],"categories_segments":[],"categories_sizes":[],"default_left":[0,0,0,0,0,0,0,0,0,0,0,0,0,0,0],"id":10,"left_children":[1,3,5,7,9,11,13,-1,-1,-1,-1,-1,-1,-1,-1],"loss_changes":[2.2078435E-5,9.862871E-6,1.2569843E-5,1.33837875E-5,1.4498981E-5,1.0294918E-5,1.0737557E-5,0E0,0E0,0E0,0E0,0E0,0E0,0E0,0E0],"parents":[2147483647,0,0,1,1,2,2,3,3,4,4,5,5,6,6],"right_children":[2,4,6,8,10,12,14,-1,-1,-1,-1,-1,-1,-1,-1],"split_conditions":[3.8823186E-5,7.861696E1,1.179367E5,2.6392963E1,9.175887E1,-1.1501607E2,8.1400734E1,-5.9742604E-7,3.858063E-6,-2.0384743E-6,-1.77798E-5,1.2622141E-5,1.2376541E-6,-1.3449224E-7,-1.1777281E-5],"split_indices":[9,2,8,5,0,0,2,0,0,0,0,0,0,0,0],"split_type":[0,0,0,0,0,0,0,0,0,0,0,0,0,0,0],"sum_hessian":[5.341E3,3.065E3,2.276E3,3.035E3,3E1,1.461E3,8.15E2,2.967E3,6.8E1,2.3E1,7E0,7E0,1.454E3,8.08E2,7E0],"tree_param":{"num_deleted":"0","num_feature":"10","num_nodes":"15","size_leaf_vector":"1"}},{"base_weights":[8.859672E-9,-5.4836935E-5,7.3859184E-5,1.7615006E-4,-6.854157E-5,1.287883E-4,-2.4645991E-5,2.6172049E-5,1.173313E-6,-1.0841244E-5,-6.5351827E-7,8.628486E-7,2.9382245E-6,-3.9548702E-8,-6.531856E-6],"categories":[],"categories_nodes":[],"categories_segments":[],"categories_sizes":[],"default_left":[0,0,0,0,0,0,0,0,0,0,0,0,0,0,0],"id":11,"left_children":[1,3,5,7,9,11,13,-1,-1,-1,-1,-1,-1,-1,-1],"loss_changes":[2.1641179E-5,9.717781E-6,1.2323571E-5,2.4388648E-5,9.307352E-6,1.02298745E-5,1.060965E-5,0E0,0E0,0E0,0E0,0E0,0E0,0E0,0E0],"parents":[2147483647,0,0,1,1,2,2,3,3,4,4,5,5,6,6],"right_children":[2,4,6,8,10,12,14,-1,-1,-1,-1,-1,-1,-1,-1],"split_conditions":[3.8823186E-5,-2.8394954E-3,1.179367E5,-3.4505252E-3,-2.7230692E-3,7.971784E1,2.330946E1,2.6172049E-5,1.173313E-6,-1.0841244E-5,-6.5351827E-7,8.628486E-7,2.9382245E-6,-3.9548702E-8,-6.531856E-6],"split_indices":[9,6,8,9,1,3,5,0,0,0,0,0,0,0,0],"split_type":[0,0,0,0,0,0,0,0,0,0,0,0,0,0,0],"sum_hessian":[5.341E3,3.065E3,2.276E3,1.71E2,2.894E3,1.461E3,8.15E2,3E0,1.68E2,8E0,2.886E3,1.163E3,2.98E2,7.9E2,2.5E1],"tree_param":{"num_deleted":"0","num_feature":"10","num_nodes":"15","size_leaf_vector":"1"}},{"base_weights":[1.12187575E-8,-5.4283395E-5,7.311938E-5,-4.8586186E-5,-6.1049126E-4,1.2750302E-4,-2.4407589E-5,-5.858591E-7,3.8225103E-6,-2.0126758E-6,-1.7618508E-5,1.24937715E-5,1.21247E-6,-1.309884E-7,-1.1649538E-5],"categories":[],"categories_nodes":[],"categories_segments":[],"categories_sizes":[],"default_left":[0,0,0,0,0,0,0,0,0,0,0,0,0,0,0],"id":12,"left_children":[1,3,5,7,9,11,13,-1,-1,-1,-1,-1,-1,-1,-1],"loss_changes":[2.1208394E-5,9.68598E-6,1.2080028E-5,1.3102253E-5,1.4251466E-5,1.0109499E-5,1.0509631E-5,0E0,0E0,0E0,0E0,0E0,0E0,0E0,0E0],"parents":[2147483647,0,0,1,1,2,2,3,3,4,4,5,5,6,6],"right_children":[2,4,6,8,10,12,14,-1,-1,-1,-1,-1,-1,-1,-1],"split_conditions":[3.8823186E-5,7.861696E1,1.179367E5,2.6392963E1,9.175887E1,-1.1501607E2,8.1400734E1,-5.858591E-7,3.8225103E-6,-2.0126758E-6,-1.7618508E-5,1.24937715E-5,1.21247E-6,-1.309884E-7,-1.1649538E-5],"split_indices":[9,2,8,5,0,0,2,0,0,0,0,0,0,0,0],"split_type":[0,0,0,0,0,0,0,0,0,0,0,0,0,0,0],"sum_hessian":[5.341E3,3.065E3,2.276E3,3.035E3,3E1,1.461E3,8.15E2,2.967E3,6.8E1,2.3E1,7E0,7E0,1.454E3,8.08E2,7E0],"tree_param":{"num_deleted":"0","num_feature":"10","num_nodes":"15","size_leaf_vector":"1"}},{"base_weights":[8.39766E-9,-5.374591E-5,7.2389026E-5,-4.809926E-5,-6.0501957E-4,1.2623736E-4,-2.4177943E-5,-5.800025E-7,3.7848395E-6,-1.9933877E-6,-1.7464346E-5,8.4182244E-7,2.8953473E-6,-3.726299E-8,-6.4544997E-6],"categories":[],"categories_nodes":[],"categories_segments":[],"categories_sizes":[],"default_left":[0,0,0,0,0,0,0,0,0,0,0,0,0,0,0],"id":13,"left_children":[1,3,5,7,9,11,13,-1,-1,-1,-1,-1,-1,-1,-1],"loss_changes":[2.078839E-5,9.514895E-6,1.18433845E-5,1.2844792E-5,1.4006424E-5,1.0015896E-5,1.03657185E-5,0E0,0E0,0E0,0E0,0E0,0E0,0E0,0E0],"parents":[2147483647,0,0,1,1,2,2,3,3,4,4,5,5,6,6],"right_children":[2,4,6,8,10,12,14,-1,-1,-1,-1,-1,-1,-1,-1],"split_conditions":[3.8823186E-5,7.861696E1,1.179367E5,2.6392963E1,9.175887E1,7.971784E1,2.330946E1,-5.800025E-7,3.7848395E-6,-1.9933877E-6,-1.7464346E-5,8.4182244E-7,2.8953473E-6,-3.726299E-8,-6.4544997E-6],"split_indices":[9,2,8,5,0,3,5,0,0,0,0,0,0,0,0],"split_type":[0,0,0,0,0,0,0,0,0,0,0,0,0,0,0],"sum_hessian":[5.341E3,3.065E3,2.276E3,3.035E3,3E1,1.461E3,8.15E2,2.967E3,6.8E1,2.3E1,7E0,1.163E3,2.98E2,7.9E2,2.5E1],"tree_param":{"num_deleted":"0","num_feature":"10","num_nodes":"15","size_leaf_vector":"1"}},{"base_weights":[4.7547326E-9,-5.3213753E-5,7.1663926E-5,1.7494151E-4,-6.675071E-5,1.2497754E-4,-2.3944127E-5,2.5984502E-5,1.165452E-6,-1.0734515E-5,-6.358928E-7,1.2366817E-5,1.1877918E-6,-1.2756287E-7,-1.1523213E-5],"categories":[],"categories_nodes":[],"categories_segments":[],"categories_sizes":[],"default_left":[0,0,0,0,0,0,0,0,0,0,0,0,0,0,0],"id":14,"left_children":[1,3,5,7,9,11,13,-1,-1,-1,-1,-1,-1,-1,-1],"loss_changes":[2.0376032E-5,9.481106E-6,1.1609341E-5,2.4039284E-5,9.145417E-6,9.927371E-6,1.0286569E-5,0E0,0E0,0E0,0E0,0E0,0E0,0E0,0E0],"parents":[2147483647,0,0,1,1,2,2,3,3,4,4,5,5,6,6],"right_children":[2,4,6,8,10,12,14,-1,-1,-1,-1,-1,-1,-1,-1],"split_conditions":[3.8823186E-5,-2.8394954E-3,1.179367E5,-3.4505252E-3,-2.7230692E-3,-1.1501607E2,8.1400734E1,2.5984502E-5,1.165452E-6,-1.0734515E-5,-6.358928E-7,1.2366817E-5,1.1877918E-6,-1.2756287E-7,-1.1523213E-5],"split_indices":[9,6,8,9,1,0,2,0,0,0,0,0,0,0,0],"split_type":[0,0,0,0,0,0,0,0,0,0,0,0,0,0,0],"sum_hessian":[5.341E3,3.065E3,2.276E3,1.71E2,2.894E3,1.461E3,8.15E2,3E0,1.68E2,8E0,2.886E3,7E0,1.454E3,8.08E2,7E0],"tree_param":{"num_deleted":"0","num_feature":"10","num_nodes":"15","size_leaf_vector":"1"}},{"base_weights":[8.020913E-9,-5.267646E-5,7.0948125E-5,-4.7080895E-5,-5.989817E-4,1.2373705E-4,-2.3718969E-5,-5.6877303E-7,3.7498903E-6,-1.9681906E-6,-1.7305969E-5,8.2125564E-7,2.853157E-6,-3.5040678E-8,-6.3780617E-6],"categories":[],"categories_nodes":[],"categories_segments":[],"categories_sizes":[],"default_left":[0,0,0,0,0,0,0,0,0,0,0,0,0,0,0],"id":15,"left_children":[1,3,5,7,9,11,13,-1,-1,-1,-1,-1,-1,-1,-1],"loss_changes":[1.9969157E-5,9.344214E-6,1.1381952E-5,1.257449E-5,1.3767278E-5,9.806365E-6,1.01273545E-5,0E0,0E0,0E0,0E0,0E0,0E0,0E0,0E0],"parents":[2147483647,0,0,1,1,2,2,3,3,4,4,5,5,6,6],"right_children":[2,4,6,8,10,12,14,-1,-1,-1,-1,-1,-1,-1,-1],"split_conditions":[3.8823186E-5,7.861696E1,1.179367E5,2.6392963E1,9.175887E1,7.971784E1,2.330946E1,-5.6877303E-7,3.7498903E-6,-1.9681906E-6,-1.7305969E-5,8.2125564E-7,2.853157E-6,-3.5040678E-8,-6.3780617E-6],"split_indices":[9,2,8,5,0,3,5,0,0,0,0,0,0,0,0],"split_type":[0,0,0,0,0,0,0,0,0,0,0,0,0,0,0],"sum_hessian":[5.341E3,3.065E3,2.276E3,3.035E3,3E1,1.461E3,8.15E2,2.967E3,6.8E1,2.3E1,7E0,1.163E3,2.98E2,7.9E2,2.5E1],"tree_param":{"num_deleted":"0","num_feature":"10","num_nodes":"15","size_leaf_vector":"1"}},{"base_weights":[4.4114823E-9,-5.2154952E-5,7.023744E-5,1.7353879E-4,-6.5546024E-5,1.2250218E-4,-2.3489634E-5,2.5793885E-5,1.1556874E-6,-1.063404E-5,-6.241258E-7,1.2241262E-5,1.1636095E-6,-1.2421393E-7,-1.1398292E-5],"categories":[],"categories_nodes":[],"categories_segments":[],"categories_sizes":[],"default_left":[0,0,0,0,0,0,0,0,0,0,0,0,0,0,0],"id":16,"left_children":[1,3,5,7,9,11,13,-1,-1,-1,-1,-1,-1,-1,-1],"loss_changes":[1.9573064E-5,9.277693E-6,1.1157038E-5,2.3690262E-5,8.985536E-6,9.74847E-6,1.006827E-5,0E0,0E0,0E0,0E0,0E0,0E0,0E0,0E0],"parents":[2147483647,0,0,1,1,2,2,3,3,4,4,5,5,6,6],"right_children":[2,4,6,8,10,12,14,-1,-1,-1,-1,-1,-1,-1,-1],"split_conditions":[3.8823186E-5,-2.8394954E-3,1.179367E5,-3.4505252E-3,-2.7230692E-3,-1.1501607E2,8.1400734E1,2.5793885E-5,1.1556874E-6,-1.063404E-5,-6.241258E-7,1.2241262E-5,1.1636095E-6,-1.2421393E-7,-1.1398292E-5],"split_indices":[9,6,8,9,1,0,2,0,0,0,0,0,0,0,0],"split_type":[0,0,0,0,0,0,0,0,0,0,0,0,0,0,0],"sum_hessian":[5.341E3,3.065E3,2.276E3,1.71E2,2.894E3,1.461E3,8.15E2,3E0,1.68E2,8E0,2.886E3,7E0,1.454E3,8.08E2,7E0],"tree_param":{"num_deleted":"0","num_feature":"10","num_nodes":"15","size_leaf_vector":"1"}},{"base_weights":[7.6569515E-9,-5.162828E-5,6.953589E-5,-4.6083336E-5,-5.9300964E-4,1.3945474E-4,6.5274617E-7,-5.577628E-7,3.7152165E-6,-1.9433476E-6,-1.7149081E-5,5.4690855E-7,3.1482264E-6,1.1090435E-7,-6.9441294E-6],"categories":[],"categories_nodes":[],"categories_segments":[],"categories_sizes":[],"default_left":[0,0,0,0,0,0,0,0,0,0,0,0,0,0,0],"id":17,"left_children":[1,3,5,7,9,11,13,-1,-1,-1,-1,-1,-1,-1,-1],"loss_changes":[1.91822E-5,9.176588E-6,1.0966466E-5,1.230991E-5,1.3532187E-5,1.6780084E-5,8.336303E-6,0E0,0E0,0E0,0E0,0E0,0E0,0E0,0E0],"parents":[2147483647,0,0,1,1,2,2,3,3,4,4,5,5,6,6],"right_children":[2,4,6,8,10,12,14,-1,-1,-1,-1,-1,-1,-1,-1],"split_conditions":[3.8823186E-5,7.861696E1,1.176981E5,2.6392963E1,9.175887E1,1.103025E5,4.2591164E1,-5.577628E-7,3.7152165E-6,-1.9433476E-6,-1.7149081E-5,5.4690855E-7,3.1482264E-6,1.1090435E-7,-6.9441294E-6],"split_indices":[9,2,7,5,0,8,5,0,0,0,0,0,0,0,0],"split_type":[0,0,0,0,0,0,0,0,0,0,0,0,0,0,0],"sum_hessian":[5.341E3,3.065E3,2.276E3,3.035E3,3E1,1.129E3,1.147E3,2.967E3,6.8E1,2.3E1,7E0,7.62E2,3.67E2,1.131E3,1.6E1],"tree_param":{"num_deleted":"0","num_feature":"10","num_nodes":"15","size_leaf_vector":"1"}},{"base_weights":[4.0128283E-9,-5.1117197E-5,6.883916E-5,1.7214194E-4,-6.436399E-5,1.2021476E-4,-2.3293162E-5,2.5604613E-5,1.1459508E-6,-1.0534557E-5,-6.125827E-7,1.2120701E-5,1.1412881E-6,-1.2347049E-7,-1.1273071E-5],"categories":[],"categories_nodes":[],"categories_segments":[],"categories_sizes":[],"default_left":[0,0,0,0,0,0,0,0,0,0,0,0,0,0,0],"id":18,"left_children":[1,3,5,7,9,11,13,-1,-1,-1,-1,-1,-1,-1,-1],"loss_changes":[1.8801675E-5,9.0786725E-6,1.0780645E-5,2.3346312E-5,8.828426E-6,9.5766245E-6,9.847165E-6,0E0,0E0,0E0,0E0,0E0,0E0,0E0,0E0],"parents":[2147483647,0,0,1,1,2,2,3,3,4,4,5,5,6,6],"right_children":[2,4,6,8,10,12,14,-1,-1,-1,-1,-1,-1,-1,-1],"split_conditions":[3.8823186E-5,-2.8394954E-3,1.179367E5,-3.4505252E-3,-2.7230692E-3,-1.1501607E2,8.1400734E1,2.5604613E-5,1.1459508E-6,-1.0534557E-5,-6.125827E-7,1.2120701E-5,1.1412881E-6,-1.2347049E-7,-1.1273071E-5],"split_indices":[9,6,8,9,1,0,2,0,0,0,0,0,0,0,0],"split_type":[0,0,0,0,0,0,0,0,0,0,0,0,0,0,0],"sum_hessian":[5.341E3,3.065E3,2.276E3,1.71E2,2.894E3,1.461E3,8.15E2,3E0,1.68E2,8E0,2.886E3,7E0,1.454E3,8.08E2,7E0],"tree_param":{"num_deleted":"0","num_feature":"10","num_nodes":"15","size_leaf_vector":"1"}},{"base_weights":[7.2388953E-9,-5.060094E-5,6.8151574E-5,-4.5106157E-5,-5.871026E-4,1.368746E-4,4.4672055E-7,-5.469674E-7,3.680817E-6,-1.9188533E-6,-1.6993667E-5,5.297609E-7,3.104553E-6,1.07587574E-7,-6.862399E-6],"categories":[],"categories_nodes":[],"categories_segments":[],"categories_sizes":[],"default_left":[0,0,0,0,0,0,0,0,0,0,0,0,0,0,0],"id":19,"left_children":[1,3,5,7,9,11,13,-1,-1,-1,-1,-1,-1,-1,-1],"loss_changes":[1.8426195E-5,9.011959E-6,1.0594554E-5,1.205093E-5,1.330108E-5,1.6439926E-5,8.13653E-6,0E0,0E0,0E0,0E0,0E0,0E0,0E0,0E0],"parents":[2147483647,0,0,1,1,2,2,3,3,4,4,5,5,6,6],"right_children":[2,4,6,8,10,12,14,-1,-1,-1,-1,-1,-1,-1,-1],"split_conditions":[3.8823186E-5,7.861696E1,1.176981E5,2.6392963E1,9.175887E1,1.103025E5,4.2591164E1,-5.469674E-7,3.680817E-6,-1.9188533E-6,-1.6993667E-5,5.297609E-7,3.104553E-6,1.07587574E-7,-6.862399E-6],"split_indices":[9,2,7,5,0,8,5,0,0,0,0,0,0,0,0],"split_type":[0,0,0,0,0,0,0,0,0,0,0,0,0,0,0],"sum_hessian":[5.341E3,3.065E3,2.276E3,3.035E3,3E1,1.129E3,1.147E3,2.967E3,6.8E1,2.3E1,7E0,7.62E2,3.67E2,1.131E3,1.6E1],"tree_param":{"num_deleted":"0","num_feature":"10","num_nodes":"15","size_leaf_vector":"1"}},{"base_weights":[3.626252E-9,-5.010008E-5,6.746869E-5,1.7075114E-4,-6.3204156E-5,1.1797042E-4,-2.3096247E-5,2.5416679E-5,1.136244E-6,-1.0436055E-5,-6.012594E-7,7.702512E-7,2.7697495E-6,-3.326523E-8,-6.2366375E-6],"categories":[],"categories_nodes":[],"categories_segments":[],"categories_sizes":[],"default_left":[0,0,0,0,0,0,0,0,0,0,0,0,0,0,0],"id":20,"left_children":[1,3,5,7,9,11,13,-1,-1,-1,-1,-1,-1,-1,-1],"loss_changes":[1.8060673E-5,8.883955E-6,1.0417008E-5,2.300736E-5,8.674041E-6,9.496998E-6,9.686338E-6,0E0,0E0,0E0,0E0,0E0,0E0,0E0,0E0],"parents":[2147483647,0,0,1,1,2,2,3,3,4,4,5,5,6,6],"right_children":[2,4,6,8,10,12,14,-1,-1,-1,-1,-1,-1,-1,-1],"split_conditions":[3.8823186E-5,-2.8394954E-3,1.179367E5,-3.4505252E-3,-2.7230692E-3,7.971784E1,2.330946E1,2.5416679E-5,1.136244E-6,-1.0436055E-5,-6.012594E-7,7.702512E-7,2.7697495E-6,-3.326523E-8,-6.2366375E-6],"split_indices":[9,6,8,9,1,3,5,0,0,0,0,0,0,0,0],"split_type":[0,0,0,0,0,0,0,0,0,0,0,0,0,0,0],"sum_hessian":[5.341E3,3.065E3,2.276E3,1.71E2,2.894E3,1.461E3,8.15E2,3E0,1.68E2,8E0,2.886E3,1.163E3,2.98E2,7.9E2,2.5E1],"tree_param":{"num_deleted":"0","num_feature":"10","num_nodes":"15","size_leaf_vector":"1"}},{"base_weights":[5.989062E-9,-4.959401E-5,6.679281E-5,-4.414894E-5,-5.812598E-4,1.1679313E-4,-2.2872957E-5,-5.363826E-7,3.6466906E-6,-1.8947021E-6,-1.683971E-5,1.1984672E-5,1.1076552E-6,-1.2068959E-7,-1.1125681E-5],"categories":[],"categories_nodes":[],"categories_segments":[],"categories_sizes":[],"default_left":[0,0,0,0,0,0,0,0,0,0,0,0,0,0,0],"id":21,"left_children":[1,3,5,7,9,11,13,-1,-1,-1,-1,-1,-1,-1,-1],"loss_changes":[1.7699364E-5,8.8502775E-6,1.0211184E-5,1.179743E-5,1.3073892E-5,9.399373E-6,9.593395E-6,0E0,0E0,0E0,0E0,0E0,0E0,0E0,0E0],"parents":[2147483647,0,0,1,1,2,2,3,3,4,4,5,5,6,6],"right_children":[2,4,6,8,10,12,14,-1,-1,-1,-1,-1,-1,-1,-1],"split_conditions":[3.8823186E-5,7.861696E1,1.179367E5,2.6392963E1,9.175887E1,-1.1501607E2,8.1400734E1,-5.363826E-7,3.6466906E-6,-1.8947021E-6,-1.683971E-5,1.1984672E-5,1.1076552E-6,-1.2068959E-7,-1.1125681E-5],"split_indices":[9,2,8,5,0,0,2,0,0,0,0,0,0,0,0],"split_type":[0,0,0,0,0,0,0,0,0,0,0,0,0,0,0],"sum_hessian":[5.341E3,3.065E3,2.276E3,3.035E3,3E1,1.461E3,8.15E2,2.967E3,6.8E1,2.3E1,7E0,7E0,1.454E3,8.08E2,7E0],"tree_param":{"num_deleted":"0","num_feature":"10","num_nodes":"15","size_leaf_vector":"1"}},{"base_weights":[3.344895E-9,-4.910317E-5,6.612569E-5,-4.3706434E-5,-5.7605153E-4,1.3310518E-4,1.3880182E-7,-5.3102065E-7,3.6107522E-6,-1.8765445E-6,-1.6692362E-5,5.012901E-7,3.0478373E-6,9.69342E-8,-7.2219955E-6],"categories":[],"categories_nodes":[],"categories_segments":[],"categories_sizes":[],"default_left":[0,0,0,0,0,0,0,0,0,0,0,0,0,0,0],"id":22,"left_children":[1,3,5,7,9,11,13,-1,-1,-1,-1,-1,-1,-1,-1],"loss_changes":[1.7348924E-5,8.6939235E-6,1.0063792E-5,1.1565622E-5,1.2849042E-5,1.6081833E-5,7.930115E-6,0E0,0E0,0E0,0E0,0E0,0E0,0E0,0E0],"parents":[2147483647,0,0,1,1,2,2,3,3,4,4,5,5,6,6],"right_children":[2,4,6,8,10,12,14,-1,-1,-1,-1,-1,-1,-1,-1],"split_conditions":[3.8823186E-5,7.861696E1,1.176981E5,2.6392963E1,9.175887E1,1.103025E5,2.487049E-3,-5.3102065E-7,3.6107522E-6,-1.8765445E-6,-1.6692362E-5,5.012901E-7,3.0478373E-6,9.69342E-8,-7.2219955E-6],"split_indices":[9,2,7,5,0,8,1,0,0,0,0,0,0,0,0],"split_type":[0,0,0,0,0,0,0,0,0,0,0,0,0,0,0],"sum_hessian":[5.341E3,3.065E3,2.276E3,3.035E3,3E1,1.129E3,1.147E3,2.967E3,6.8E1,2.3E1,7E0,7.62E2,3.67E2,1.133E3,1.4E1],"tree_param":{"num_deleted":"0","num_feature":"10","num_nodes":"15","size_leaf_vector":"1"}},{"base_weights":[-2.515495E-10,-4.8617185E-5,6.546287E-5,1.695332E-4,-6.156131E-5,1.3177727E-4,1.3121303E-7,2.5234061E-5,1.1281708E-6,-1.0333802E-5,-5.8510415E-7,4.962838E-7,3.0174417E-6,1.026956E-7,-6.7497112E-6],"categories":[],"categories_nodes":[],"categories_segments":[],"categories_sizes":[],"default_left":[0,0,0,0,0,0,0,0,0,0,0,0,0,0,0],"id":23,"left_children":[1,3,5,7,9,11,13,-1,-1,-1,-1,-1,-1,-1,-1],"loss_changes":[1.7004717E-5,8.668106E-6,9.864925E-6,2.267776E-5,8.52297E-6,1.5762755E-5,7.864328E-6,0E0,0E0,0E0,0E0,0E0,0E0,0E0,0E0],"parents":[2147483647,0,0,1,1,2,2,3,3,4,4,5,5,6,6],"right_children":[2,4,6,8,10,12,14,-1,-1,-1,-1,-1,-1,-1,-1],"split_conditions":[3.8823186E-5,-2.8394954E-3,1.176981E5,-3.4505252E-3,-2.7230692E-3,1.103025E5,4.2591164E1,2.5234061E-5,1.1281708E-6,-1.0333802E-5,-5.8510415E-7,4.962838E-7,3.0174417E-6,1.026956E-7,-6.7497112E-6],"split_indices":[9,6,7,9,1,8,5,0,0,0,0,0,0,0,0],"split_type":[0,0,0,0,0,0,0,0,0,0,0,0,0,0,0],"sum_hessian":[5.341E3,3.065E3,2.276E3,1.71E2,2.894E3,1.129E3,1.147E3,3E0,1.68E2,8E0,2.886E3,7.62E2,3.67E2,1.131E3,1.6E1],"tree_param":{"num_deleted":"0","num_feature":"10","num_nodes":"15","size_leaf_vector":"1"}},{"base_weights":[2.0552524E-9,-4.8125978E-5,6.480686E-5,-4.2778065E-5,-5.703238E-4,1.13594484E-4,-2.268372E-5,-4.871367E-7,5.966151E-6,-2.0332543E-5,-2.782876E-6,1.1854067E-5,1.0762328E-6,-1.1998033E-7,-1.1004383E-5],"categories":[],"categories_nodes":[],"categories_segments":[],"categories_sizes":[],"default_left":[0,0,0,0,0,0,0,0,0,0,0,0,0,0,0],"id":24,"left_children":[1,3,5,7,9,11,13,-1,-1,-1,-1,-1,-1,-1,-1],"loss_changes":[1.6664431E-5,8.537921E-6,9.721855E-6,1.1551244E-5,1.2678259E-5,9.229227E-6,9.3843E-6,0E0,0E0,0E0,0E0,0E0,0E0,0E0,0E0],"parents":[2147483647,0,0,1,1,2,2,3,3,4,4,5,5,6,6],"right_children":[2,4,6,8,10,12,14,-1,-1,-1,-1,-1,-1,-1,-1],"split_conditions":[3.8823186E-5,7.861696E1,1.179367E5,5.9107696E-3,-9.0922846E-4,-1.1501607E2,8.1400734E1,-4.871367E-7,5.966151E-6,-2.0332543E-5,-2.782876E-6,1.1854067E-5,1.0762328E-6,-1.1998033E-7,-1.1004383E-5],"split_indices":[9,2,8,6,9,0,2,0,0,0,0,0,0,0,0],"split_type":[0,0,0,0,0,0,0,0,0,0,0,0,0,0,0],"sum_hessian":[5.341E3,3.065E3,2.276E3,3.035E3,3E1,1.461E3,8.15E2,3.008E3,2.7E1,4E0,2.6E1,7E0,1.454E3,8.08E2,7E0],"tree_param":{"num_deleted":"0","num_feature":"10","num_nodes":"15","size_leaf_vector":"1"}},{"base_weights":[-9.332443E-10,-4.7650476E-5,6.415958E-5,1.6847544E-4,-6.0474656E-5,1.1246739E-4,-2.2470529E-5,2.504846E-5,1.1217983E-6,-1.0237617E-5,-5.7450734E-7,7.2178824E-7,2.689337E-6,-3.067593E-8,-6.119033E-6],"categories":[],"categories_nodes":[],"categories_segments":[],"categories_sizes":[],"default_left":[0,0,0,0,0,0,0,0,0,0,0,0,0,0,0],"id":25,"left_children":[1,3,5,7,9,11,13,-1,-1,-1,-1,-1,-1,-1,-1],"loss_changes":[1.6334721E-5,8.508031E-6,9.53157E-6,2.234172E-5,8.374038E-6,9.19675E-6,9.3304925E-6,0E0,0E0,0E0,0E0,0E0,0E0,0E0,0E0],"parents":[2147483647,0,0,1,1,2,2,3,3,4,4,5,5,6,6],"right_children":[2,4,6,8,10,12,14,-1,-1,-1,-1,-1,-1,-1,-1],"split_conditions":[3.8823186E-5,-2.8394954E-3,1.179367E5,-3.4505252E-3,-2.7230692E-3,7.971784E1,2.330946E1,2.504846E-5,1.1217983E-6,-1.0237617E-5,-5.7450734E-7,7.2178824E-7,2.689337E-6,-3.067593E-8,-6.119033E-6],"split_indices":[9,6,8,9,1,3,5,0,0,0,0,0,0,0,0],"split_type":[0,0,0,0,0,0,0,0,0,0,0,0,0,0,0],"sum_hessian":[5.341E3,3.065E3,2.276E3,1.71E2,2.894E3,1.461E3,8.15E2,3E0,1.68E2,8E0,2.886E3,1.163E3,2.98E2,7.9E2,2.5E1],"tree_param":{"num_deleted":"0","num_feature":"10","num_nodes":"15","size_leaf_vector":"1"}},{"base_weights":[1.441053E-9,-4.7168956E-5,6.351679E-5,-4.1867886E-5,-5.6481024E-4,1.2814662E-4,-1.5501902E-7,-4.774694E-7,5.9141603E-6,-1.8207788E-6,-1.642406E-5,4.6901394E-7,2.9624978E-6,9.3023544E-8,-7.1512213E-6],"categories":[],"categories_nodes":[],"categories_segments":[],"categories_sizes":[],"default_left":[0,0,0,0,0,0,0,0,0,0,0,0,0,0,0],"id":26,"left_children":[1,3,5,7,9,11,13,-1,-1,-1,-1,-1,-1,-1,-1],"loss_changes":[1.6007863E-5,8.3896175E-6,9.370098E-6,1.1331607E-5,1.2486306E-5,1.5419173E-5,7.769097E-6,0E0,0E0,0E0,0E0,0E0,0E0,0E0,0E0],"parents":[2147483647,0,0,1,1,2,2,3,3,4,4,5,5,6,6],"right_children":[2,4,6,8,10,12,14,-1,-1,-1,-1,-1,-1,-1,-1],"split_conditions":[3.8823186E-5,7.861696E1,1.176981E5,5.9107696E-3,9.175887E1,1.103025E5,2.487049E-3,-4.774694E-7,5.9141603E-6,-1.8207788E-6,-1.642406E-5,4.6901394E-7,2.9624978E-6,9.3023544E-8,-7.1512213E-6],"split_indices":[9,2,7,6,0,8,1,0,0,0,0,0,0,0,0],"split_type":[0,0,0,0,0,0,0,0,0,0,0,0,0,0,0],"sum_hessian":[5.341E3,3.065E3,2.276E3,3.035E3,3E1,1.129E3,1.147E3,3.008E3,2.7E1,2.3E1,7E0,7.62E2,3.67E2,1.133E3,1.4E1],"tree_param":{"num_deleted":"0","num_feature":"10","num_nodes":"15","size_leaf_vector":"1"}},{"base_weights":[-1.6477361E-9,-4.670144E-5,6.288002E-5,1.6741753E-4,-5.940671E-5,1.1035562E-4,-2.2257487E-5,2.4864177E-5,1.1153932E-6,-1.0142371E-5,-5.640952E-7,1.1721677E-5,1.0444163E-6,-1.1685367E-7,-1.0885808E-5],"categories":[],"categories_nodes":[],"categories_segments":[],"categories_sizes":[],"default_left":[0,0,0,0,0,0,0,0,0,0,0,0,0,0,0],"id":27,"left_children":[1,3,5,7,9,11,13,-1,-1,-1,-1,-1,-1,-1,-1],"loss_changes":[1.5690044E-5,8.350814E-6,9.205986E-6,2.20107E-5,8.227715E-6,9.058271E-6,9.18629E-6,0E0,0E0,0E0,0E0,0E0,0E0,0E0,0E0],"parents":[2147483647,0,0,1,1,2,2,3,3,4,4,5,5,6,6],"right_children":[2,4,6,8,10,12,14,-1,-1,-1,-1,-1,-1,-1,-1],"split_conditions":[3.8823186E-5,-2.8394954E-3,1.179367E5,-3.4505252E-3,-2.7230692E-3,-1.1501607E2,8.1400734E1,2.4864177E-5,1.1153932E-6,-1.0142371E-5,-5.640952E-7,1.1721677E-5,1.0444163E-6,-1.1685367E-7,-1.0885808E-5],"split_indices":[9,6,8,9,1,0,2,0,0,0,0,0,0,0,0],"split_type":[0,0,0,0,0,0,0,0,0,0,0,0,0,0,0],"sum_hessian":[5.341E3,3.065E3,2.276E3,1.71E2,2.894E3,1.461E3,8.15E2,3E0,1.68E2,8E0,2.886E3,7E0,1.454E3,8.08E2,7E0],"tree_param":{"num_deleted":"0","num_feature":"10","num_nodes":"15","size_leaf_vector":"1"}},{"base_weights":[1.5529138E-9,-4.6229452E-5,6.2251995E-5,-4.0976334E-5,-5.592047E-4,1.2577746E-4,-3.3164497E-7,-5.0249577E-7,3.5850135E-6,-2.0029382E-5,-2.711354E-6,4.536196E-7,2.921667E-6,9.037915E-8,-7.0864826E-6],"categories":[],"categories_nodes":[],"categories_segments":[],"categories_sizes":[],"default_left":[0,0,0,0,0,0,0,0,0,0,0,0,0,0,0],"id":28,"left_children":[1,3,5,7,9,11,13,-1,-1,-1,-1,-1,-1,-1,-1],"loss_changes":[1.5376623E-5,8.239095E-6,9.052606E-6,1.1264737E-5,1.23496875E-5,1.5106458E-5,7.625239E-6,0E0,0E0,0E0,0E0,0E0,0E0,0E0,0E0],"parents":[2147483647,0,0,1,1,2,2,3,3,4,4,5,5,6,6],"right_children":[2,4,6,8,10,12,14,-1,-1,-1,-1,-1,-1,-1,-1],"split_conditions":[3.8823186E-5,7.861696E1,1.176981E5,2.6392963E1,-9.0922846E-4,1.103025E5,2.487049E-3,-5.0249577E-7,3.5850135E-6,-2.0029382E-5,-2.711354E-6,4.536196E-7,2.921667E-6,9.037915E-8,-7.0864826E-6],"split_indices":[9,2,7,5,9,8,1,0,0,0,0,0,0,0,0],"split_type":[0,0,0,0,0,0,0,0,0,0,0,0,0,0,0],"sum_hessian":[5.341E3,3.065E3,2.276E3,3.035E3,3E1,1.129E3,1.147E3,2.967E3,6.8E1,4E0,2.6E1,7.62E2,3.67E2,1.133E3,1.4E1],"tree_param":{"num_deleted":"0","num_feature":"10","num_nodes":"15","size_leaf_vector":"1"}},{"base_weights":[-2.8198415E-9,-4.577357E-5,6.1627885E-5,1.660375E-4,-5.8342044E-5,1.0829007E-4,-2.2050714E-5,2.4681463E-5,1.1056724E-6,-1.004775E-5,-5.53714E-7,6.8625354E-7,2.623417E-6,-2.9031066E-8,-6.0373172E-6],"categories":[],"categories_nodes":[],"categories_segments":[],"categories_sizes":[],"default_left":[0,0,0,0,0,0,0,0,0,0,0,0,0,0,0],"id":29,"left_children":[1,3,5,7,9,11,13,-1,-1,-1,-1,-1,-1,-1,-1],"loss_changes":[1.5071981E-5,8.1718135E-6,8.893223E-6,2.169126E-5,8.0836935E-6,8.915422E-6,9.086691E-6,0E0,0E0,0E0,0E0,0E0,0E0,0E0,0E0],"parents":[2147483647,0,0,1,1,2,2,3,3,4,4,5,5,6,6],"right_children":[2,4,6,8,10,12,14,-1,-1,-1,-1,-1,-1,-1,-1],"split_conditions":[3.8823186E-5,-2.8394954E-3,1.179367E5,-3.4505252E-3,-2.7230692E-3,7.971784E1,2.330946E1,2.4681463E-5,1.1056724E-6,-1.004775E-5,-5.53714E-7,6.8625354E-7,2.623417E-6,-2.9031066E-8,-6.0373172E-6],"split_indices":[9,6,8,9,1,3,5,0,0,0,0,0,0,0,0],"split_type":[0,0,0,0,0,0,0,0,0,0,0,0,0,0,0],"sum_hessian":[5.341E3,3.065E3,2.276E3,1.71E2,2.894E3,1.461E3,8.15E2,3E0,1.68E2,8E0,2.886E3,1.163E3,2.98E2,7.9E2,2.5E1],"tree_param":{"num_deleted":"0","num_feature":"10","num_nodes":"15","size_leaf_vector":"1"}},{"base_weights":[-4.6199466E-10,-4.5310877E-5,6.10104E-5,-4.0103765E-5,-5.5381045E-4,1.2337245E-4,-4.2698653E-7,-4.5924384E-7,5.868376E-6,-1.9864716E-5,-2.679913E-6,4.3822445E-7,2.8797376E-6,2.6609678E-7,-2.4351816E-6],"categories":[],"categories_nodes":[],"categories_segments":[],"categories_sizes":[],"default_left":[0,0,0,0,0,0,0,0,0,0,0,0,0,0,0],"id":30,"left_children":[1,3,5,7,9,11,13,-1,-1,-1,-1,-1,-1,-1,-1],"loss_changes":[1.4770337E-5,8.095991E-6,8.724062E-6,1.1105889E-5,1.2161586E-5,1.4783638E-5,7.5515663E-6,0E0,0E0,0E0,0E0,0E0,0E0,0E0,0E0],"parents":[2147483647,0,0,1,1,2,2,3,3,4,4,5,5,6,6],"right_children":[2,4,6,8,10,12,14,-1,-1,-1,-1,-1,-1,-1,-1],"split_conditions":[3.8823186E-5,7.861696E1,1.176981E5,5.9107696E-3,-9.0922846E-4,1.103025E5,1.0915046E-3,-4.5924384E-7,5.868376E-6,-1.9864716E-5,-2.679913E-6,4.3822445E-7,2.8797376E-6,2.6609678E-7,-2.4351816E-6],"split_indices":[9,2,7,6,9,8,1,0,0,0,0,0,0,0,0],"split_type":[0,0,0,0,0,0,0,0,0,0,0,0,0,0,0],"sum_hessian":[5.341E3,3.065E3,2.276E3,3.035E3,3E1,1.129E3,1.147E3,3.008E3,2.7E1,4E0,2.6E1,7.62E2,3.67E2,1.033E3,1.14E2],"tree_param":{"num_deleted":"0","num_feature":"10","num_nodes":"15","size_leaf_vector":"1"}},{"base_weights":[-3.4488898E-9,-4.4863355E-5,6.0400802E-5,1.6498362E-4,-5.731545E-5,1.06242056E-4,-2.1805468E-5,2.4499797E-5,1.0992464E-6,-9.954354E-6,-5.437108E-7,1.1578545E-5,1.0038698E-6,-1.13464154E-7,-1.0767515E-5],"categories":[],"categories_nodes":[],"categories_segments":[],"categories_sizes":[],"default_left":[0,0,0,0,0,0,0,0,0,0,0,0,0,0,0],"id":31,"left_children":[1,3,5,7,9,11,13,-1,-1,-1,-1,-1,-1,-1,-1],"loss_changes":[1.4478082E-5,8.02102E-6,8.583051E-6,2.1369931E-5,7.942366E-6,8.885705E-6,8.991312E-6,0E0,0E0,0E0,0E0,0E0,0E0,0E0,0E0],"parents":[2147483647,0,0,1,1,2,2,3,3,4,4,5,5,6,6],"right_children":[2,4,6,8,10,12,14,-1,-1,-1,-1,-1,-1,-1,-1],"split_conditions":[3.8823186E-5,-2.8394954E-3,1.179367E5,-3.4505252E-3,-2.7230692E-3,-1.1501607E2,8.1400734E1,2.4499797E-5,1.0992464E-6,-9.954354E-6,-5.437108E-7,1.1578545E-5,1.0038698E-6,-1.13464154E-7,-1.0767515E-5],"split_indices":[9,6,8,9,1,0,2,0,0,0,0,0,0,0,0],"split_type":[0,0,0,0,0,0,0,0,0,0,0,0,0,0,0],"sum_hessian":[5.341E3,3.065E3,2.276E3,1.71E2,2.894E3,1.461E3,8.15E2,3E0,1.68E2,8E0,2.886E3,7E0,1.454E3,8.08E2,7E0],"tree_param":{"num_deleted":"0","num_feature":"10","num_nodes":"15","size_leaf_vector":"1"}},{"base_weights":[-2.7266867E-10,-4.44098E-5,5.9797538E-5,-3.924828E-5,-5.484734E-4,1.2109188E-4,-5.8783445E-7,-4.8412375E-7,3.5550938E-6,-1.7357403E-6,-1.6046122E-5,4.2354512E-7,2.8401446E-6,9.277898E-8,-6.57495E-6],"categories":[],"categories_nodes":[],"categories_segments":[],"categories_sizes":[],"default_left":[0,0,0,0,0,0,0,0,0,0,0,0,0,0,0],"id":32,"left_children":[1,3,5,7,9,11,13,-1,-1,-1,-1,-1,-1,-1,-1],"loss_changes":[1.418883E-5,7.955395E-6,8.42789E-6,1.1000233E-5,1.1995799E-5,1.4483721E-5,7.44614E-6,0E0,0E0,0E0,0E0,0E0,0E0,0E0,0E0],"parents":[2147483647,0,0,1,1,2,2,3,3,4,4,5,5,6,6],"right_children":[2,4,6,8,10,12,14,-1,-1,-1,-1,-1,-1,-1,-1],"split_conditions":[3.8823186E-5,7.861696E1,1.176981E5,2.6392963E1,9.175887E1,1.103025E5,4.2591164E1,-4.8412375E-7,3.5550938E-6,-1.7357403E-6,-1.6046122E-5,4.2354512E-7,2.8401446E-6,9.277898E-8,-6.57495E-6],"split_indices":[9,2,7,5,0,8,5,0,0,0,0,0,0,0,0],"split_type":[0,0,0,0,0,0,0,0,0,0,0,0,0,0,0],"sum_hessian":[5.341E3,3.065E3,2.276E3,3.035E3,3E1,1.129E3,1.147E3,2.967E3,6.8E1,2.3E1,7E0,7.62E2,3.67E2,1.131E3,1.6E1],"tree_param":{"num_deleted":"0","num_feature":"10","num_nodes":"15","size_leaf_vector":"1"}},{"base_weights":[-3.6251848E-9,-4.39705E-5,5.919815E-5,1.6361168E-4,-5.6288347E-5,1.04260835E-4,-2.16117E-5,2.431968E-5,1.0895465E-6,-9.861567E-6,-5.3370053E-7,1.1465292E-5,9.845849E-7,-1.12680624E-7,-1.0649106E-5],"categories":[],"categories_nodes":[],"categories_segments":[],"categories_sizes":[],"default_left":[0,0,0,0,0,0,0,0,0,0,0,0,0,0,0],"id":33,"left_children":[1,3,5,7,9,11,13,-1,-1,-1,-1,-1,-1,-1,-1],"loss_changes":[1.3907387E-5,7.848865E-6,8.293969E-6,2.1059863E-5,7.803315E-6,8.728703E-6,8.7938715E-6,0E0,0E0,0E0,0E0,0E0,0E0,0E0,0E0],"parents":[2147483647,0,0,1,1,2,2,3,3,4,4,5,5,6,6],"right_children":[2,4,6,8,10,12,14,-1,-1,-1,-1,-1,-1,-1,-1],"split_conditions":[3.8823186E-5,-2.8394954E-3,1.179367E5,-3.4505252E-3,-2.7230692E-3,-1.1501607E2,8.1400734E1,2.431968E-5,1.0895465E-6,-9.861567E-6,-5.3370053E-7,1.1465292E-5,9.845849E-7,-1.12680624E-7,-1.0649106E-5],"split_indices":[9,6,8,9,1,0,2,0,0,0,0,0,0,0,0],"split_type":[0,0,0,0,0,0,0,0,0,0,0,0,0,0,0],"sum_hessian":[5.341E3,3.065E3,2.276E3,1.71E2,2.894E3,1.461E3,8.15E2,3E0,1.68E2,8E0,2.886E3,7E0,1.454E3,8.08E2,7E0],"tree_param":{"num_deleted":"0","num_feature":"10","num_nodes":"15","size_leaf_vector":"1"}},{"base_weights":[-4.648358E-10,-4.35259E-5,5.8606904E-5,-3.8411064E-5,-5.4304575E-4,1.18853764E-4,-7.4636597E-7,-4.4173822E-7,5.8225173E-6,-1.956881E-5,-2.611116E-6,4.0920756E-7,2.801147E-6,8.498255E-8,-6.9959E-6],"categories":[],"categories_nodes":[],"categories_segments":[],"categories_sizes":[],"default_left":[0,0,0,0,0,0,0,0,0,0,0,0,0,0,0],"id":34,"left_children":[1,3,5,7,9,11,13,-1,-1,-1,-1,-1,-1,-1,-1],"loss_changes":[1.3629518E-5,7.812656E-6,8.142296E-6,1.0884677E-5,1.18458975E-5,1.4189867E-5,7.422651E-6,0E0,0E0,0E0,0E0,0E0,0E0,0E0,0E0],"parents":[2147483647,0,0,1,1,2,2,3,3,4,4,5,5,6,6],"right_children":[2,4,6,8,10,12,14,-1,-1,-1,-1,-1,-1,-1,-1],"split_conditions":[3.8823186E-5,7.861696E1,1.176981E5,5.9107696E-3,-9.0922846E-4,1.103025E5,2.487049E-3,-4.4173822E-7,5.8225173E-6,-1.956881E-5,-2.611116E-6,4.0920756E-7,2.801147E-6,8.498255E-8,-6.9959E-6],"split_indices":[9,2,7,6,9,8,1,0,0,0,0,0,0,0,0],"split_type":[0,0,0,0,0,0,0,0,0,0,0,0,0,0,0],"sum_hessian":[5.341E3,3.065E3,2.276E3,3.035E3,3E1,1.129E3,1.147E3,3.008E3,2.7E1,4E0,2.6E1,7.62E2,3.67E2,1.133E3,1.4E1],"tree_param":{"num_deleted":"0","num_feature":"10","num_nodes":"15","size_leaf_vector":"1"}},{"base_weights":[-4.2937933E-9,-4.3096115E-5,5.8019214E-5,1.6256246E-4,-5.5299977E-5,1.0231037E-4,-2.140688E-5,2.4140596E-5,1.0831068E-6,-9.769983E-6,-5.2407495E-7,6.3367486E-7,2.5357192E-6,-2.6259144E-8,-5.9195827E-6],"categories":[],"categories_nodes":[],"categories_segments":[],"categories_sizes":[],"default_left":[0,0,0,0,0,0,0,0,0,0,0,0,0,0,0],"id":35,"left_children":[1,3,5,7,9,11,13,-1,-1,-1,-1,-1,-1,-1,-1],"loss_changes":[1.3359308E-5,7.704124E-6,8.012388E-6,2.0747939E-5,7.666847E-6,8.595935E-6,8.7422995E-6,0E0,0E0,0E0,0E0,0E0,0E0,0E0,0E0],"parents":[2147483647,0,0,1,1,2,2,3,3,4,4,5,5,6,6],"right_children":[2,4,6,8,10,12,14,-1,-1,-1,-1,-1,-1,-1,-1],"split_conditions":[3.8823186E-5,-2.8394954E-3,1.179367E5,-3.4505252E-3,-2.7230692E-3,7.971784E1,2.330946E1,2.4140596E-5,1.0831068E-6,-9.769983E-6,-5.2407495E-7,6.3367486E-7,2.5357192E-6,-2.6259144E-8,-5.9195827E-6],"split_indices":[9,6,8,9,1,3,5,0,0,0,0,0,0,0,0],"split_type":[0,0,0,0,0,0,0,0,0,0,0,0,0,0,0],"sum_hessian":[5.341E3,3.065E3,2.276E3,1.71E2,2.894E3,1.461E3,8.15E2,3E0,1.68E2,8E0,2.886E3,1.163E3,2.98E2,7.9E2,2.5E1],"tree_param":{"num_deleted":"0","num_feature":"10","num_nodes":"15","size_leaf_vector":"1"}},{"base_weights":[-1.9766635E-9,-4.2660286E-5,5.7437803E-5,-3.7590216E-5,-5.3782365E-4,1.01289435E-4,-2.12001E-5,-4.6646568E-7,3.5250896E-6,-1.9408068E-5,-2.5809256E-6,1.1338176E-5,9.554268E-7,-1.0966388E-7,-1.05343415E-5],"categories":[],"categories_nodes":[],"categories_segments":[],"categories_sizes":[],"default_left":[0,0,0,0,0,0,0,0,0,0,0,0,0,0,0],"id":36,"left_children":[1,3,5,7,9,11,13,-1,-1,-1,-1,-1,-1,-1,-1],"loss_changes":[1.3091865E-5,7.677011E-6,7.854154E-6,1.0742254E-5,1.1665291E-5,8.566707E-6,8.608334E-6,0E0,0E0,0E0,0E0,0E0,0E0,0E0,0E0],"parents":[2147483647,0,0,1,1,2,2,3,3,4,4,5,5,6,6],"right_children":[2,4,6,8,10,12,14,-1,-1,-1,-1,-1,-1,-1,-1],"split_conditions":[3.8823186E-5,7.861696E1,1.179367E5,2.6392963E1,-9.0922846E-4,-1.1501607E2,8.1400734E1,-4.6646568E-7,3.5250896E-6,-1.9408068E-5,-2.5809256E-6,1.1338176E-5,9.554268E-7,-1.0966388E-7,-1.05343415E-5],"split_indices":[9,2,8,5,9,0,2,0,0,0,0,0,0,0,0],"split_type":[0,0,0,0,0,0,0,0,0,0,0,0,0,0,0],"sum_hessian":[5.341E3,3.065E3,2.276E3,3.035E3,3E1,1.461E3,8.15E2,2.967E3,6.8E1,4E0,2.6E1,7E0,1.454E3,8.08E2,7E0],"tree_param":{"num_deleted":"0","num_feature":"10","num_nodes":"15","size_leaf_vector":"1"}},{"base_weights":[-5.1944986E-9,-4.223986E-5,5.6864148E-5,-3.721331E-5,-5.3315476E-4,1.15578274E-4,-9.789077E-7,-4.291799E-7,5.771647E-6,-1.6592122E-6,-1.5682108E-5,3.8503978E-7,2.750677E-6,2.5629683E-7,-2.4021635E-6],"categories":[],"categories_nodes":[],"categories_segments":[],"categories_sizes":[],"default_left":[0,0,0,0,0,0,0,0,0,0,0,0,0,0,0],"id":37,"left_children":[1,3,5,7,9,11,13,-1,-1,-1,-1,-1,-1,-1,-1],"loss_changes":[1.2833126E-5,7.545844E-6,7.733271E-6,1.0665427E-5,1.1523128E-5,1.3879974E-5,7.3140623E-6,0E0,0E0,0E0,0E0,0E0,0E0,0E0,0E0],"parents":[2147483647,0,0,1,1,2,2,3,3,4,4,5,5,6,6],"right_children":[2,4,6,8,10,12,14,-1,-1,-1,-1,-1,-1,-1,-1],"split_conditions":[3.8823186E-5,7.861696E1,1.176981E5,5.9107696E-3,9.175887E1,1.103025E5,1.0915046E-3,-4.291799E-7,5.771647E-6,-1.6592122E-6,-1.5682108E-5,3.8503978E-7,2.750677E-6,2.5629683E-7,-2.4021635E-6],"split_indices":[9,2,7,6,0,8,1,0,0,0,0,0,0,0,0],"split_type":[0,0,0,0,0,0,0,0,0,0,0,0,0,0,0],"sum_hessian":[5.341E3,3.065E3,2.276E3,3.035E3,3E1,1.129E3,1.147E3,3.008E3,2.7E1,2.3E1,7E0,7.62E2,3.67E2,1.033E3,1.14E2],"tree_param":{"num_deleted":"0","num_feature":"10","num_nodes":"15","size_leaf_vector":"1"}},{"base_weights":[-7.2053594E-9,-4.182138E-5,5.6295943E-5,1.6162582E-4,-5.38943E-5,9.937921E-5,-2.0963913E-5,2.3966259E-5,1.0777005E-6,-9.675177E-6,-5.102748E-7,1.1227048E-5,9.368438E-7,-2.411105E-8,-5.8459104E-6],"categories":[],"categories_nodes":[],"categories_segments":[],"categories_sizes":[],"default_left":[0,0,0,0,0,0,0,0,0,0,0,0,0,0,0],"id":38,"left_children":[1,3,5,7,9,11,13,-1,-1,-1,-1,-1,-1,-1,-1],"loss_changes":[1.2578863E-5,7.5394255E-6,7.5813214E-6,2.0444953E-5,7.533192E-6,8.414876E-6,8.531393E-6,0E0,0E0,0E0,0E0,0E0,0E0,0E0,0E0],"parents":[2147483647,0,0,1,1,2,2,3,3,4,4,5,5,6,6],"right_children":[2,4,6,8,10,12,14,-1,-1,-1,-1,-1,-1,-1,-1],"split_conditions":[3.8823186E-5,-2.8394954E-3,1.179367E5,-3.4505252E-3,-2.7230692E-3,-1.1501607E2,2.330946E1,2.3966259E-5,1.0777005E-6,-9.675177E-6,-5.102748E-7,1.1227048E-5,9.368438E-7,-2.411105E-8,-5.8459104E-6],"split_indices":[9,6,8,9,1,0,5,0,0,0,0,0,0,0,0],"split_type":[0,0,0,0,0,0,0,0,0,0,0,0,0,0,0],"sum_hessian":[5.341E3,3.065E3,2.276E3,1.71E2,2.894E3,1.461E3,8.15E2,3E0,1.68E2,8E0,2.886E3,7E0,1.454E3,7.9E2,2.5E1],"tree_param":{"num_deleted":"0","num_feature":"10","num_nodes":"15","size_leaf_vector":"1"}},{"base_weights":[-3.1753875E-9,-4.139832E-5,5.573574E-5,-3.6417227E-5,-5.2788877E-4,1.1344372E-4,-1.1159539E-6,-4.537317E-7,3.4934599E-6,-1.9123263E-5,-2.5195998E-6,3.7156855E-7,2.7130632E-6,7.994917E-8,-6.8982336E-6],"categories":[],"categories_nodes":[],"categories_segments":[],"categories_sizes":[],"default_left":[0,0,0,0,0,0,0,0,0,0,0,0,0,0,0],"id":39,"left_children":[1,3,5,7,9,11,13,-1,-1,-1,-1,-1,-1,-1,-1],"loss_changes":[1.2328013E-5,7.4104746E-6,7.4705013E-6,1.0504849E-5,1.136036E-5,1.3598331E-5,7.2088988E-6,0E0,0E0,0E0,0E0,0E0,0E0,0E0,0E0],"parents":[2147483647,0,0,1,1,2,2,3,3,4,4,5,5,6,6],"right_children":[2,4,6,8,10,12,14,-1,-1,-1,-1,-1,-1,-1,-1],"split_conditions":[3.8823186E-5,7.861696E1,1.176981E5,2.6392963E1,-9.0922846E-4,1.103025E5,2.487049E-3,-4.537317E-7,3.4934599E-6,-1.9123263E-5,-2.5195998E-6,3.7156855E-7,2.7130632E-6,7.994917E-8,-6.8982336E-6],"split_indices":[9,2,7,5,9,8,1,0,0,0,0,0,0,0,0],"split_type":[0,0,0,0,0,0,0,0,0,0,0,0,0,0,0],"sum_hessian":[5.341E3,3.065E3,2.276E3,3.035E3,3E1,1.129E3,1.147E3,2.967E3,6.8E1,4E0,2.6E1,7.62E2,3.67E2,1.133E3,1.4E1],"tree_param":{"num_deleted":"0","num_feature":"10","num_nodes":"15","size_leaf_vector":"1"}},{"base_weights":[-7.319878E-9,-4.09904E-5,5.5176748E-5,1.6026205E-4,-5.2933206E-5,9.7519965E-5,-2.0755797E-5,2.3789915E-5,1.0679944E-6,-9.585143E-6,-5.009179E-7,5.9191683E-7,2.464049E-6,-1.0631565E-7,-1.04197425E-5],"categories":[],"categories_nodes":[],"categories_segments":[],"categories_sizes":[],"default_left":[0,0,0,0,0,0,0,0,0,0,0,0,0,0,0],"id":40,"left_children":[1,3,5,7,9,11,13,-1,-1,-1,-1,-1,-1,-1,-1],"loss_changes":[1.20837985E-5,7.3776723E-6,7.323098E-6,2.0148402E-5,7.4012005E-6,8.328321E-6,8.425589E-6,0E0,0E0,0E0,0E0,0E0,0E0,0E0,0E0],"parents":[2147483647,0,0,1,1,2,2,3,3,4,4,5,5,6,6],"right_children":[2,4,6,8,10,12,14,-1,-1,-1,-1,-1,-1,-1,-1],"split_conditions":[3.8823186E-5,-2.8394954E-3,1.179367E5,-3.4505252E-3,-2.7230692E-3,7.971784E1,8.1400734E1,2.3789915E-5,1.0679944E-6,-9.585143E-6,-5.009179E-7,5.9191683E-7,2.464049E-6,-1.0631565E-7,-1.04197425E-5],"split_indices":[9,6,8,9,1,3,2,0,0,0,0,0,0,0,0],"split_type":[0,0,0,0,0,0,0,0,0,0,0,0,0,0,0],"sum_hessian":[5.341E3,3.065E3,2.276E3,1.71E2,2.894E3,1.461E3,8.15E2,3E0,1.68E2,8E0,2.886E3,1.163E3,2.98E2,8.08E2,7E0],"tree_param":{"num_deleted":"0","num_feature":"10","num_nodes":"15","size_leaf_vector":"1"}},{"base_weights":[-5.8790746E-9,-4.0575673E-5,5.46217E-5,-3.5638175E-5,-5.2282325E-4,1.1127164E-4,-1.1875793E-6,-4.1286137E-7,5.7258885E-6,-1.6094747E-6,-1.5430978E-5,3.5806963E-7,2.6743544E-6,2.5031494E-7,-2.3692091E-6],"categories":[],"categories_nodes":[],"categories_segments":[],"categories_sizes":[],"default_left":[0,0,0,0,0,0,0,0,0,0,0,0,0,0,0],"id":41,"left_children":[1,3,5,7,9,11,13,-1,-1,-1,-1,-1,-1,-1,-1],"loss_changes":[1.1841315E-5,7.281813E-6,7.1990776E-6,1.0453039E-5,1.1197233E-5,1.3307306E-5,7.101384E-6,0E0,0E0,0E0,0E0,0E0,0E0,0E0,0E0],"parents":[2147483647,0,0,1,1,2,2,3,3,4,4,5,5,6,6],"right_children":[2,4,6,8,10,12,14,-1,-1,-1,-1,-1,-1,-1,-1],"split_conditions":[3.8823186E-5,7.861696E1,1.176981E5,5.9107696E-3,9.175887E1,1.103025E5,1.0915046E-3,-4.1286137E-7,5.7258885E-6,-1.6094747E-6,-1.5430978E-5,3.5806963E-7,2.6743544E-6,2.5031494E-7,-2.3692091E-6],"split_indices":[9,2,7,6,0,8,1,0,0,0,0,0,0,0,0],"split_type":[0,0,0,0,0,0,0,0,0,0,0,0,0,0,0],"sum_hessian":[5.341E3,3.065E3,2.276E3,3.035E3,3E1,1.129E3,1.147E3,3.008E3,2.7E1,2.3E1,7E0,7.62E2,3.67E2,1.033E3,1.14E2],"tree_param":{"num_deleted":"0","num_feature":"10","num_nodes":"15","size_leaf_vector":"1"}},{"base_weights":[-7.844328E-9,-4.017374E-5,5.4075885E-5,1.592144E-4,-5.2006068E-5,9.567505E-5,-2.0522233E-5,2.3614586E-5,1.0614817E-6,-5.6235926E-6,-4.7005406E-7,1.109142E-5,9.003697E-7,-2.2097817E-8,-5.76854E-6],"categories":[],"categories_nodes":[],"categories_segments":[],"categories_sizes":[],"default_left":[0,0,0,0,0,0,0,0,0,0,0,0,0,0,0],"id":42,"left_children":[1,3,5,7,9,11,13,-1,-1,-1,-1,-1,-1,-1,-1],"loss_changes":[1.1606714E-5,7.241666E-6,7.0679953E-6,1.985008E-5,7.361905E-6,8.25402E-6,8.311969E-6,0E0,0E0,0E0,0E0,0E0,0E0,0E0,0E0],"parents":[2147483647,0,0,1,1,2,2,3,3,4,4,5,5,6,6],"right_children":[2,4,6,8,10,12,14,-1,-1,-1,-1,-1,-1,-1,-1],"split_conditions":[3.8823186E-5,-2.8394954E-3,1.179367E5,-3.4505252E-3,-2.540451E2,-1.1501607E2,2.330946E1,2.3614586E-5,1.0614817E-6,-5.6235926E-6,-4.7005406E-7,1.109142E-5,9.003697E-7,-2.2097817E-8,-5.76854E-6],"split_indices":[9,6,8,9,3,0,5,0,0,0,0,0,0,0,0],"split_type":[0,0,0,0,0,0,0,0,0,0,0,0,0,0,0],"sum_hessian":[5.341E3,3.065E3,2.276E3,1.71E2,2.894E3,1.461E3,8.15E2,3E0,1.68E2,2.7E1,2.867E3,7E0,1.454E3,7.9E2,2.5E1],"tree_param":{"num_deleted":"0","num_feature":"10","num_nodes":"15","size_leaf_vector":"1"}},{"base_weights":[-3.1277527E-9,-3.9765946E-5,5.353785E-5,-3.487286E-5,-5.1768986E-4,1.0921694E-4,-1.3148642E-6,-4.372842E-7,3.465501E-6,-1.8839062E-5,-2.455131E-6,3.4523455E-7,2.6378736E-6,7.673134E-8,-6.807199E-6],"categories":[],"categories_nodes":[],"categories_segments":[],"categories_sizes":[],"default_left":[0,0,0,0,0,0,0,0,0,0,0,0,0,0,0],"id":43,"left_children":[1,3,5,7,9,11,13,-1,-1,-1,-1,-1,-1,-1,-1],"loss_changes":[1.13749265E-5,7.151857E-6,6.954441E-6,1.0269897E-5,1.1064898E-5,1.3037201E-5,7.0154756E-6,0E0,0E0,0E0,0E0,0E0,0E0,0E0,0E0],"parents":[2147483647,0,0,1,1,2,2,3,3,4,4,5,5,6,6],"right_children":[2,4,6,8,10,12,14,-1,-1,-1,-1,-1,-1,-1,-1],"split_conditions":[3.8823186E-5,7.861696E1,1.176981E5,2.6392963E1,-9.0922846E-4,1.103025E5,2.487049E-3,-4.372842E-7,3.465501E-6,-1.8839062E-5,-2.455131E-6,3.4523455E-7,2.6378736E-6,7.673134E-8,-6.807199E-6],"split_indices":[9,2,7,5,9,8,1,0,0,0,0,0,0,0,0],"split_type":[0,0,0,0,0,0,0,0,0,0,0,0,0,0,0],"sum_hessian":[5.341E3,3.065E3,2.276E3,3.035E3,3E1,1.129E3,1.147E3,2.967E3,6.8E1,4E0,2.6E1,7.62E2,3.67E2,1.133E3,1.4E1],"tree_param":{"num_deleted":"0","num_feature":"10","num_nodes":"15","size_leaf_vector":"1"}},{"base_weights":[-7.214618E-9,-3.937424E-5,5.300083E-5,1.578601E-4,-5.107888E-5,9.388581E-5,-2.031638E-5,2.3440758E-5,1.0518125E-6,-9.488206E-6,-4.8262547E-7,1.0983422E-5,8.829849E-7,-1.03004126E-7,-1.0306414E-5],"categories":[],"categories_nodes":[],"categories_segments":[],"categories_sizes":[],"default_left":[0,0,0,0,0,0,0,0,0,0,0,0,0,0,0],"id":44,"left_children":[1,3,5,7,9,11,13,-1,-1,-1,-1,-1,-1,-1,-1],"loss_changes":[1.1149607E-5,7.0860983E-6,6.82738E-6,1.9562221E-5,7.2737525E-6,8.108072E-6,8.246799E-6,0E0,0E0,0E0,0E0,0E0,0E0,0E0,0E0],"parents":[2147483647,0,0,1,1,2,2,3,3,4,4,5,5,6,6],"right_children":[2,4,6,8,10,12,14,-1,-1,-1,-1,-1,-1,-1,-1],"split_conditions":[3.8823186E-5,-2.8394954E-3,1.179367E5,-3.4505252E-3,-2.7230692E-3,-1.1501607E2,8.1400734E1,2.3440758E-5,1.0518125E-6,-9.488206E-6,-4.8262547E-7,1.0983422E-5,8.829849E-7,-1.03004126E-7,-1.0306414E-5],"split_indices":[9,6,8,9,1,0,2,0,0,0,0,0,0,0,0],"split_type":[0,0,0,0,0,0,0,0,0,0,0,0,0,0,0],"sum_hessian":[5.341E3,3.065E3,2.276E3,1.71E2,2.894E3,1.461E3,8.15E2,3E0,1.68E2,8E0,2.886E3,7E0,1.454E3,8.08E2,7E0],"tree_param":{"num_deleted":"0","num_feature":"10","num_nodes":"15","size_leaf_vector":"1"}},{"base_weights":[-4.1552064E-9,-3.897577E-5,5.2471456E-5,-3.412549E-5,-5.1273283E-4,1.0720052E-4,-1.4451904E-6,-3.9720507E-7,5.6835775E-6,-1.8684488E-5,-2.4268415E-6,3.3270373E-7,2.601937E-6,8.082643E-8,-6.358018E-6],"categories":[],"categories_nodes":[],"categories_segments":[],"categories_sizes":[],"default_left":[0,0,0,0,0,0,0,0,0,0,0,0,0,0,0],"id":45,"left_children":[1,3,5,7,9,11,13,-1,-1,-1,-1,-1,-1,-1,-1],"loss_changes":[1.0926751E-5,7.0277206E-6,6.719143E-6,1.0256639E-5,1.0895944E-5,1.2772561E-5,6.943701E-6,0E0,0E0,0E0,0E0,0E0,0E0,0E0,0E0],"parents":[2147483647,0,0,1,1,2,2,3,3,4,4,5,5,6,6],"right_children":[2,4,6,8,10,12,14,-1,-1,-1,-1,-1,-1,-1,-1],"split_conditions":[3.8823186E-5,7.861696E1,1.176981E5,5.9107696E-3,-9.0922846E-4,1.103025E5,4.2591164E1,-3.9720507E-7,5.6835775E-6,-1.8684488E-5,-2.4268415E-6,3.3270373E-7,2.601937E-6,8.082643E-8,-6.358018E-6],"split_indices":[9,2,7,6,9,8,5,0,0,0,0,0,0,0,0],"split_type":[0,0,0,0,0,0,0,0,0,0,0,0,0,0,0],"sum_hessian":[5.341E3,3.065E3,2.276E3,3.035E3,3E1,1.129E3,1.147E3,3.008E3,2.7E1,4E0,2.6E1,7.62E2,3.67E2,1.131E3,1.6E1],"tree_param":{"num_deleted":"0","num_feature":"10","num_nodes":"15","size_leaf_vector":"1"}},{"base_weights":[-7.701862E-9,-3.859117E-5,5.194527E-5,1.5681879E-4,-5.018769E-5,9.213657E-5,-2.0127802E-5,2.326793E-5,1.0453053E-6,-5.5651894E-6,-4.5226926E-7,7.415708E-7,4.018053E-6,-1.0222559E-7,-1.0192794E-5],"categories":[],"categories_nodes":[],"categories_segments":[],"categories_sizes":[],"default_left":[0,0,0,0,0,0,0,0,0,0,0,0,0,0,0],"id":46,"left_children":[1,3,5,7,9,11,13,-1,-1,-1,-1,-1,-1,-1,-1],"loss_changes":[1.0710182E-5,6.955657E-6,6.597665E-6,1.9272618E-5,7.246457E-6,8.110162E-6,8.065402E-6,0E0,0E0,0E0,0E0,0E0,0E0,0E0,0E0],"parents":[2147483647,0,0,1,1,2,2,3,3,4,4,5,5,6,6],"right_children":[2,4,6,8,10,12,14,-1,-1,-1,-1,-1,-1,-1,-1],"split_conditions":[3.8823186E-5,-2.8394954E-3,1.179367E5,-3.4505252E-3,-2.540451E2,2.1119379E1,8.1400734E1,2.326793E-5,1.0453053E-6,-5.5651894E-6,-4.5226926E-7,7.415708E-7,4.018053E-6,-1.0222559E-7,-1.0192794E-5],"split_indices":[9,6,8,9,3,5,2,0,0,0,0,0,0,0,0],"split_type":[0,0,0,0,0,0,0,0,0,0,0,0,0,0,0],"sum_hessian":[5.341E3,3.065E3,2.276E3,1.71E2,2.894E3,1.461E3,8.15E2,3E0,1.68E2,2.7E1,2.867E3,1.382E3,7.9E1,8.08E2,7E0],"tree_param":{"num_deleted":"0","num_feature":"10","num_nodes":"15","size_leaf_vector":"1"}},{"base_weights":[-5.2338325E-9,-3.8199287E-5,5.1423387E-5,-3.3391207E-5,-5.078488E-4,1.0521912E-4,-1.5736522E-6,-3.96124E-7,5.0116378E-6,-1.533801E-6,-1.5077739E-5,3.2038625E-7,2.566634E-6,7.33203E-8,-6.747383E-6],"categories":[],"categories_nodes":[],"categories_segments":[],"categories_sizes":[],"default_left":[0,0,0,0,0,0,0,0,0,0,0,0,0,0,0],"id":47,"left_children":[1,3,5,7,9,11,13,-1,-1,-1,-1,-1,-1,-1,-1],"loss_changes":[1.0495081E-5,6.9064163E-6,6.4919263E-6,1.0116289E-5,1.0756443E-5,1.2515306E-5,6.887197E-6,0E0,0E0,0E0,0E0,0E0,0E0,0E0,0E0],"parents":[2147483647,0,0,1,1,2,2,3,3,4,4,5,5,6,6],"right_children":[2,4,6,8,10,12,14,-1,-1,-1,-1,-1,-1,-1,-1],"split_conditions":[3.8823186E-5,7.861696E1,1.176981E5,7.498687E1,9.175887E1,1.103025E5,2.487049E-3,-3.96124E-7,5.0116378E-6,-1.533801E-6,-1.5077739E-5,3.2038625E-7,2.566634E-6,7.33203E-8,-6.747383E-6],"split_indices":[9,2,7,2,0,8,1,0,0,0,0,0,0,0,0],"split_type":[0,0,0,0,0,0,0,0,0,0,0,0,0,0,0],"sum_hessian":[5.341E3,3.065E3,2.276E3,3.035E3,3E1,1.129E3,1.147E3,3.001E3,3.4E1,2.3E1,7E0,7.62E2,3.67E2,1.133E3,1.4E1],"tree_param":{"num_deleted":"0","num_feature":"10","num_nodes":"15","size_leaf_vector":"1"}},{"base_weights":[-8.13773E-9,-3.782121E-5,5.0907493E-5,1.5578579E-4,-4.9310875E-5,9.0409194E-5,-1.992878E-5,2.3096392E-5,1.038852E-6,-9.392795E-6,-4.6519386E-7,5.2917113E-7,2.360626E-6,-1.9721012E-8,-5.654597E-6],"categories":[],"categories_nodes":[],"categories_segments":[],"categories_sizes":[],"default_left":[0,0,0,0,0,0,0,0,0,0,0,0,0,0,0],"id":48,"left_children":[1,3,5,7,9,11,13,-1,-1,-1,-1,-1,-1,-1,-1],"loss_changes":[1.02867525E-5,6.8279373E-6,6.3731964E-6,1.8987299E-5,7.148462E-6,7.971271E-6,7.992358E-6,0E0,0E0,0E0,0E0,0E0,0E0,0E0,0E0],"parents":[2147483647,0,0,1,1,2,2,3,3,4,4,5,5,6,6],"right_children":[2,4,6,8,10,12,14,-1,-1,-1,-1,-1,-1,-1,-1],"split_conditions":[3.8823186E-5,-2.8394954E-3,1.179367E5,-3.4505252E-3,-2.7230692E-3,7.971784E1,2.330946E1,2.3096392E-5,1.038852E-6,-9.392795E-6,-4.6519386E-7,5.2917113E-7,2.360626E-6,-1.9721012E-8,-5.654597E-6],"split_indices":[9,6,8,9,1,3,5,0,0,0,0,0,0,0,0],"split_type":[0,0,0,0,0,0,0,0,0,0,0,0,0,0,0],"sum_hessian":[5.341E3,3.065E3,2.276E3,1.71E2,2.894E3,1.461E3,8.15E2,3E0,1.68E2,8E0,2.886E3,1.163E3,2.98E2,7.9E2,2.5E1],"tree_param":{"num_deleted":"0","num_feature":"10","num_nodes":"15","size_leaf_vector":"1"}},{"base_weights":[-5.9024803E-9,-3.743834E-5,5.0397197E-5,-3.267372E-5,-5.02856E-4,1.0320155E-4,-1.6231138E-6,-4.1424028E-7,3.441899E-6,-1.840705E-5,-2.3648183E-6,3.0810918E-7,2.5301365E-6,2.408777E-7,-2.327834E-6],"categories":[],"categories_nodes":[],"categories_segments":[],"categories_sizes":[],"default_left":[0,0,0,0,0,0,0,0,0,0,0,0,0,0,0],"id":49,"left_children":[1,3,5,7,9,11,13,-1,-1,-1,-1,-1,-1,-1,-1],"loss_changes":[1.0080697E-5,6.7825417E-6,6.254856E-6,1.0025993E-5,1.0612129E-5,1.2247044E-5,6.8285563E-6,0E0,0E0,0E0,0E0,0E0,0E0,0E0,0E0],"parents":[2147483647,0,0,1,1,2,2,3,3,4,4,5,5,6,6],"right_children":[2,4,6,8,10,12,14,-1,-1,-1,-1,-1,-1,-1,-1],"split_conditions":[3.8823186E-5,7.861696E1,1.176981E5,2.6392963E1,-9.0922846E-4,1.103025E5,1.0915046E-3,-4.1424028E-7,3.441899E-6,-1.840705E-5,-2.3648183E-6,3.0810918E-7,2.5301365E-6,2.408777E-7,-2.327834E-6],"split_indices":[9,2,7,5,9,8,1,0,0,0,0,0,0,0,0],"split_type":[0,0,0,0,0,0,0,0,0,0,0,0,0,0,0],"sum_hessian":[5.341E3,3.065E3,2.276E3,3.035E3,3E1,1.129E3,1.147E3,2.967E3,6.8E1,4E0,2.6E1,7.62E2,3.67E2,1.033E3,1.14E2],"tree_param":{"num_deleted":"0","num_feature":"10","num_nodes":"15","size_leaf_vector":"1"}},{"base_weights":[-9.025127E-9,-3.7069745E-5,4.9893555E-5,1.544438E-4,-4.843529E-5,8.8698835E-5,-1.9693714E-5,2.2926277E-5,1.0292202E-6,-5.5033565E-6,-4.3518398E-7,1.083478E-5,8.316829E-7,-9.8944334E-8,-1.0081842E-5],"categories":[],"categories_nodes":[],"categories_segments":[],"categories_sizes":[],"default_left":[0,0,0,0,0,0,0,0,0,0,0,0,0,0,0],"id":50,"left_children":[1,3,5,7,9,11,13,-1,-1,-1,-1,-1,-1,-1,-1],"loss_changes":[9.88148E-6,6.681108E-6,6.150451E-6,1.8712079E-5,7.1203012E-6,7.953324E-6,7.894205E-6,0E0,0E0,0E0,0E0,0E0,0E0,0E0,0E0],"parents":[2147483647,0,0,1,1,2,2,3,3,4,4,5,5,6,6],"right_children":[2,4,6,8,10,12,14,-1,-1,-1,-1,-1,-1,-1,-1],"split_conditions":[3.8823186E-5,-2.8394954E-3,1.179367E5,-3.4505252E-3,-2.540451E2,-1.1501607E2,8.1400734E1,2.2926277E-5,1.0292202E-6,-5.5033565E-6,-4.3518398E-7,1.083478E-5,8.316829E-7,-9.8944334E-8,-1.0081842E-5],"split_indices":[9,6,8,9,3,0,2,0,0,0,0,0,0,0,0],"split_type":[0,0,0,0,0,0,0,0,0,0,0,0,0,0,0],"sum_hessian":[5.341E3,3.065E3,2.276E3,1.71E2,2.894E3,1.461E3,8.15E2,3E0,1.68E2,2.7E1,2.867E3,7E0,1.454E3,8.08E2,7E0],"tree_param":{"num_deleted":"0","num_feature":"10","num_nodes":"15","size_leaf_vector":"1"}},{"base_weights":[-5.285907E-9,-3.669317E-5,4.939527E-5,-3.1969994E-5,-4.980763E-4,1.0248942E-4,-6.6306814E-7,-3.7500826E-7,5.635388E-6,-1.2068263E-6,-1.407185E-5,4.2109812E-7,3.0155477E-6,-1.5723444E-5,4.7107683E-8],"categories":[],"categories_nodes":[],"categories_segments":[],"categories_sizes":[],"default_left":[0,0,0,0,0,0,0,0,0,0,0,0,0,0,0],"id":51,"left_children":[1,3,5,7,9,11,13,-1,-1,-1,-1,-1,-1,-1,-1],"loss_changes":[9.683664E-6,6.6654893E-6,6.0518896E-6,1.0020684E-5,1.0466029E-5,1.32688365E-5,9.914516E-6,0E0,0E0,0E0,0E0,0E0,0E0,0E0,0E0],"parents":[2147483647,0,0,1,1,2,2,3,3,4,4,5,5,6,6],"right_children":[2,4,6,8,10,12,14,-1,-1,-1,-1,-1,-1,-1,-1],"split_conditions":[3.8823186E-5,7.861696E1,1.1765468E5,5.9107696E-3,5.300837E-3,1.113237E5,1.15271555E5,-3.7500826E-7,5.635388E-6,-1.2068263E-6,-1.407185E-5,4.2109812E-7,3.0155477E-6,-1.5723444E-5,4.7107683E-8],"split_indices":[9,2,7,6,6,8,4,0,0,0,0,0,0,0,0],"split_type":[0,0,0,0,0,0,0,0,0,0,0,0,0,0,0],"sum_hessian":[5.341E3,3.065E3,2.276E3,3.035E3,3E1,1.104E3,1.172E3,3.008E3,2.7E1,2.2E1,8E0,8.48E2,2.56E2,3E0,1.169E3],"tree_param":{"num_deleted":"0","num_feature":"10","num_nodes":"15","size_leaf_vector":"1"}},{"base_weights":[-9.4007575E-9,-3.632951E-5,4.889594E-5,1.5341147E-4,-4.759E-5,2.0923813E-5,1.4313421E-4,2.2757142E-5,1.0227169E-6,-9.298419E-6,-4.4823162E-7,9.74166E-7,-4.581583E-7,1.6773623E-5,1.0057056E-6],"categories":[],"categories_nodes":[],"categories_segments":[],"categories_sizes":[],"default_left":[0,0,0,0,0,0,0,0,0,0,0,0,0,0,0],"id":52,"left_children":[1,3,5,7,9,11,13,-1,-1,-1,-1,-1,-1,-1,-1],"loss_changes":[9.490489E-6,6.558045E-6,5.999279E-6,1.8435121E-5,7.025152E-6,8.974128E-6,3.3853823E-5,0E0,0E0,0E0,0E0,0E0,0E0,0E0,0E0],"parents":[2147483647,0,0,1,1,2,2,3,3,4,4,5,5,6,6],"right_children":[2,4,6,8,10,12,14,-1,-1,-1,-1,-1,-1,-1,-1],"split_conditions":[3.8823186E-5,-2.8394954E-3,8.539275E1,-3.4505252E-3,-2.7230692E-3,-2.833624E1,8.726237E1,2.2757142E-5,1.0227169E-6,-9.298419E-6,-4.4823162E-7,9.74166E-7,-4.581583E-7,1.6773623E-5,1.0057056E-6],"split_indices":[9,6,3,9,1,3,3,0,0,0,0,0,0,0,0],"split_type":[0,0,0,0,0,0,0,0,0,0,0,0,0,0,0],"sum_hessian":[5.341E3,3.065E3,2.276E3,1.71E2,2.894E3,1.756E3,5.2E2,3E0,1.68E2,8E0,2.886E3,8.18E2,9.38E2,1.3E1,5.07E2],"tree_param":{"num_deleted":"0","num_feature":"10","num_nodes":"15","size_leaf_vector":"1"}},{"base_weights":[-3.2537848E-9,-3.5961635E-5,4.8415015E-5,-3.128148E-5,-4.931547E-4,8.661285E-5,-2.0082103E-5,-3.7426932E-7,4.967164E-6,-1.8140152E-5,-2.3028583E-6,6.887243E-7,3.922176E-6,-2.3324324E-8,-5.5930927E-6],"categories":[],"categories_nodes":[],"categories_segments":[],"categories_sizes":[],"default_left":[0,0,0,0,0,0,0,0,0,0,0,0,0,0,0],"id":53,"left_children":[1,3,5,7,9,11,13,-1,-1,-1,-1,-1,-1,-1,-1],"loss_changes":[9.30239E-6,6.544996E-6,5.9593763E-6,9.869758E-6,1.0345862E-5,7.899301E-6,7.808717E-6,0E0,0E0,0E0,0E0,0E0,0E0,0E0,0E0],"parents":[2147483647,0,0,1,1,2,2,3,3,4,4,5,5,6,6],"right_children":[2,4,6,8,10,12,14,-1,-1,-1,-1,-1,-1,-1,-1],"split_conditions":[3.8823186E-5,7.861696E1,1.179367E5,7.498687E1,-9.0922846E-4,2.1119379E1,2.330946E1,-3.7426932E-7,4.967164E-6,-1.8140152E-5,-2.3028583E-6,6.887243E-7,3.922176E-6,-2.3324324E-8,-5.5930927E-6],"split_indices":[9,2,8,2,9,5,5,0,0,0,0,0,0,0,0],"split_type":[0,0,0,0,0,0,0,0,0,0,0,0,0,0,0],"sum_hessian":[5.341E3,3.065E3,2.276E3,3.035E3,3E1,1.461E3,8.15E2,3.001E3,3.4E1,4E0,2.6E1,1.382E3,7.9E1,7.9E2,2.5E1],"tree_param":{"num_deleted":"0","num_feature":"10","num_nodes":"15","size_leaf_vector":"1"}},{"base_weights":[-6.375802E-9,-3.5607187E-5,4.7930425E-5,1.523877E-4,-4.6764184E-5,2.0205156E-5,1.4133804E-4,2.258927E-5,1.0162707E-6,-5.4430343E-6,-4.189045E-7,9.590569E-7,-4.584271E-7,1.661323E-5,9.917046E-7],"categories":[],"categories_nodes":[],"categories_segments":[],"categories_sizes":[],"default_left":[0,0,0,0,0,0,0,0,0,0,0,0,0,0,0],"id":54,"left_children":[1,3,5,7,9,11,13,-1,-1,-1,-1,-1,-1,-1,-1],"loss_changes":[9.118305E-6,6.4379346E-6,5.8940063E-6,1.8162262E-5,6.997206E-6,8.789149E-6,3.3228273E-5,0E0,0E0,0E0,0E0,0E0,0E0,0E0,0E0],"parents":[2147483647,0,0,1,1,2,2,3,3,4,4,5,5,6,6],"right_children":[2,4,6,8,10,12,14,-1,-1,-1,-1,-1,-1,-1,-1],"split_conditions":[3.8823186E-5,-2.8394954E-3,8.539275E1,-3.4505252E-3,-2.540451E2,-2.833624E1,8.726237E1,2.258927E-5,1.0162707E-6,-5.4430343E-6,-4.189045E-7,9.590569E-7,-4.584271E-7,1.661323E-5,9.917046E-7],"split_indices":[9,6,3,9,3,3,3,0,0,0,0,0,0,0,0],"split_type":[0,0,0,0,0,0,0,0,0,0,0,0,0,0,0],"sum_hessian":[5.341E3,3.065E3,2.276E3,1.71E2,2.894E3,1.756E3,5.2E2,3E0,1.68E2,2.7E1,2.867E3,8.18E2,9.38E2,1.3E1,5.07E2],"tree_param":{"num_deleted":"0","num_feature":"10","num_nodes":"15","size_leaf_vector":"1"}},{"base_weights":[3.992849E-10,-3.5245328E-5,4.745907E-5,-3.0605857E-5,-4.884772E-4,9.969991E-5,-1.7937687E-6,-3.9257174E-7,3.419697E-6,-1.435145E-6,-1.4623055E-5,4.0015917E-7,2.9647815E-6,-1.5625505E-5,3.5436845E-8],"categories":[],"categories_nodes":[],"categories_segments":[],"categories_sizes":[],"default_left":[0,0,0,0,0,0,0,0,0,0,0,0,0,0,0],"id":55,"left_children":[1,3,5,7,9,11,13,-1,-1,-1,-1,-1,-1,-1,-1],"loss_changes":[8.937319E-6,6.432099E-6,5.8589217E-6,9.799269E-6,1.0204104E-5,1.2965821E-5,9.777174E-6,0E0,0E0,0E0,0E0,0E0,0E0,0E0,0E0],"parents":[2147483647,0,0,1,1,2,2,3,3,4,4,5,5,6,6],"right_children":[2,4,6,8,10,12,14,-1,-1,-1,-1,-1,-1,-1,-1],"split_conditions":[3.8823186E-5,7.861696E1,1.1765468E5,2.6392963E1,9.175887E1,1.113237E5,1.15271555E5,-3.9257174E-7,3.419697E-6,-1.435145E-6,-1.4623055E-5,4.0015917E-7,2.9647815E-6,-1.5625505E-5,3.5436845E-8],"split_indices":[9,2,7,5,0,8,4,0,0,0,0,0,0,0,0],"split_type":[0,0,0,0,0,0,0,0,0,0,0,0,0,0,0],"sum_hessian":[5.341E3,3.065E3,2.276E3,3.035E3,3E1,1.104E3,1.172E3,2.967E3,6.8E1,2.3E1,7E0,8.48E2,2.56E2,3E0,1.169E3],"tree_param":{"num_deleted":"0","num_feature":"10","num_nodes":"15","size_leaf_vector":"1"}},{"base_weights":[-4.3353663E-9,-3.489713E-5,4.6979112E-5,-3.0298806E-5,-4.841104E-4,8.489208E-4,4.37775E-5,-3.5762298E-7,5.579138E-6,-1.7874696E-5,-2.2481756E-6,1.0698477E-5,-4.592472E-6,4.972057E-7,-4.5155903E-6],"categories":[],"categories_nodes":[],"categories_segments":[],"categories_sizes":[],"default_left":[0,0,0,0,0,0,0,0,0,0,0,0,0,0,0],"id":56,"left_children":[1,3,5,7,9,11,13,-1,-1,-1,-1,-1,-1,-1,-1],"loss_changes":[8.759227E-6,6.318547E-6,5.8090454E-6,9.776735E-6,1.0074649E-5,3.0924102E-6,6.70198E-6,0E0,0E0,0E0,0E0,0E0,0E0,0E0,0E0],"parents":[2147483647,0,0,1,1,2,2,3,3,4,4,5,5,6,6],"right_children":[2,4,6,8,10,12,14,-1,-1,-1,-1,-1,-1,-1,-1],"split_conditions":[3.8823186E-5,7.861696E1,-1.1501607E2,5.9107696E-3,-9.0922846E-4,-8.487383E-7,3.9721985E2,-3.5762298E-7,5.579138E-6,-1.7874696E-5,-2.2481756E-6,1.0698477E-5,-4.592472E-6,4.972057E-7,-4.5155903E-6],"split_indices":[9,2,0,6,9,1,3,0,0,0,0,0,0,0,0],"split_type":[0,0,0,0,0,0,0,0,0,0,0,0,0,0,0],"sum_hessian":[5.341E3,3.065E3,2.276E3,3.035E3,3E1,8E0,2.268E3,3.008E3,2.7E1,4E0,2.6E1,7E0,1E0,2.242E3,2.6E1],"tree_param":{"num_deleted":"0","num_feature":"10","num_nodes":"15","size_leaf_vector":"1"}},{"base_weights":[-6.692158E-9,-3.4252716E-5,4.692586E-5,-2.9725128E-5,-4.7991844E-4,2.1264993E-4,3.112749E-5,-3.5744748E-7,4.9139135E-6,-1.1239954E-6,-1.3658091E-5,2.3565256E-6,-9.503898E-6,-4.5551612E-8,1.3728874E-6],"categories":[],"categories_nodes":[],"categories_segments":[],"categories_sizes":[],"default_left":[0,0,0,0,0,0,0,0,0,0,0,0,0,0,0],"id":57,"left_children":[1,3,5,7,9,11,13,-1,-1,-1,-1,-1,-1,-1,-1],"loss_changes":[8.5875545E-6,6.218689E-6,5.894736E-6,9.613414E-6,9.939513E-6,5.4675456E-6,7.800354E-6,0E0,0E0,0E0,0E0,0E0,0E0,0E0,0E0],"parents":[2147483647,0,0,1,1,2,2,3,3,4,4,5,5,6,6],"right_children":[2,4,6,8,10,12,14,-1,-1,-1,-1,-1,-1,-1,-1],"split_conditions":[4.3504428E-5,7.861696E1,3.826762E1,7.498687E1,5.300837E-3,5.1333206E1,8.539275E1,-3.5744748E-7,4.9139135E-6,-1.1239954E-6,-1.3658091E-5,2.3565256E-6,-9.503898E-6,-4.5551612E-8,1.3728874E-6],"split_indices":[9,2,2,2,6,5,3,0,0,0,0,0,0,0,0],"split_type":[0,0,0,0,0,0,0,0,0,0,0,0,0,0,0],"sum_hessian":[5.341E3,3.088E3,2.253E3,3.058E3,3E1,1.95E2,2.058E3,3.024E3,3.4E1,2.2E1,8E0,1.92E2,3E0,1.541E3,5.17E2],"tree_param":{"num_deleted":"0","num_feature":"10","num_nodes":"15","size_leaf_vector":"1"}},{"base_weights":[-9.623403E-9,-3.4213932E-5,4.6046775E-5,1.517698E-4,-4.5251923E-5,8.364918E-5,-2.1380632E-5,2.2428156E-5,1.0137953E-6,-9.19887E-6,-4.2509643E-7,6.6108424E-7,3.858394E-6,-1.1686767E-7,-9.990003E-6],"categories":[],"categories_nodes":[],"categories_segments":[],"categories_sizes":[],"default_left":[0,0,0,0,0,0,0,0,0,0,0,0,0,0,0],"id":58,"left_children":[1,3,5,7,9,11,13,-1,-1,-1,-1,-1,-1,-1,-1],"loss_changes":[8.416973E-6,6.3010193E-6,5.774969E-6,1.789598E-5,6.904543E-6,7.724037E-6,7.721486E-6,0E0,0E0,0E0,0E0,0E0,0E0,0E0,0E0],"parents":[2147483647,0,0,1,1,2,2,3,3,4,4,5,5,6,6],"right_children":[2,4,6,8,10,12,14,-1,-1,-1,-1,-1,-1,-1,-1],"split_conditions":[3.8823186E-5,-2.8394954E-3,1.179367E5,-3.4505252E-3,-2.7230692E-3,2.1119379E1,8.1400734E1,2.2428156E-5,1.0137953E-6,-9.19887E-6,-4.2509643E-7,6.6108424E-7,3.858394E-6,-1.1686767E-7,-9.990003E-6],"split_indices":[9,6,8,9,1,5,2,0,0,0,0,0,0,0,0],"split_type":[0,0,0,0,0,0,0,0,0,0,0,0,0,0,0],"sum_hessian":[5.341E3,3.065E3,2.276E3,1.71E2,2.894E3,1.461E3,8.15E2,3E0,1.68E2,8E0,2.886E3,1.382E3,7.9E1,8.08E2,7E0],"tree_param":{"num_deleted":"0","num_feature":"10","num_nodes":"15","size_leaf_vector":"1"}},{"base_weights":[-7.9906215E-9,-3.277648E-5,4.713317E-5,1.4797672E-4,-4.3387303E-5,5.3452964E-5,-4.613665E-4,2.2259945E-5,9.87904E-7,-2.7043055E-7,-1.8653852E-6,4.5985954E-7,7.4685945E-6,-2.4437718E-6,-1.1800994E-5],"categories":[],"categories_nodes":[],"categories_segments":[],"categories_sizes":[],"default_left":[0,0,0,0,0,0,0,0,0,0,0,0,0,0,0],"id":59,"left_children":[1,3,5,7,9,11,13,-1,-1,-1,-1,-1,-1,-1,-1],"loss_changes":[8.25357E-6,6.051768E-6,7.06569E-6,1.7666856E-5,6.962579E-6,1.1175319E-5,3.922459E-6,0E0,0E0,0E0,0E0,0E0,0E0,0E0,0E0],"parents":[2147483647,0,0,1,1,2,2,3,3,4,4,5,5,6,6],"right_children":[2,4,6,8,10,12,14,-1,-1,-1,-1,-1,-1,-1,-1],"split_conditions":[6.186365E-5,-2.8394954E-3,3.9721985E2,-3.4505252E-3,1.1938167E5,3.4078903E2,1.7855798E-3,2.2259945E-5,9.87904E-7,-2.7043055E-7,-1.8653852E-6,4.5985954E-7,7.4685945E-6,-2.4437718E-6,-1.1800994E-5],"split_indices":[9,6,3,9,7,3,1,0,0,0,0,0,0,0,0],"split_type":[0,0,0,0,0,0,0,0,0,0,0,0,0,0,0],"sum_hessian":[5.341E3,3.151E3,2.19E3,1.74E2,2.977E3,2.164E3,2.6E1,3E0,1.71E2,2.673E3,3.04E2,2.142E3,2.2E1,2.1E1,5E0],"tree_param":{"num_deleted":"0","num_feature":"10","num_nodes":"15","size_leaf_vector":"1"}},{"base_weights":[-5.1396545E-9,-3.353344E-5,4.514101E-5,-2.9016504E-5,-4.748201E-4,8.383533E-4,4.1974832E-5,-3.7566653E-7,3.391844E-6,-1.7616869E-5,-2.1892547E-6,1.0574224E-5,-4.5709967E-6,4.5143946E-7,-8.593397E-6],"categories":[],"categories_nodes":[],"categories_segments":[],"categories_sizes":[],"default_left":[0,0,0,0,0,0,0,0,0,0,0,0,0,0,0],"id":60,"left_children":[1,3,5,7,9,11,13,-1,-1,-1,-1,-1,-1,-1,-1],"loss_changes":[8.087558E-6,6.09757E-6,5.68338E-6,9.570596E-6,9.822694E-6,3.0374904E-6,6.519899E-6,0E0,0E0,0E0,0E0,0E0,0E0,0E0,0E0],"parents":[2147483647,0,0,1,1,2,2,3,3,4,4,5,5,6,6],"right_children":[2,4,6,8,10,12,14,-1,-1,-1,-1,-1,-1,-1,-1],"split_conditions":[3.8823186E-5,7.861696E1,-1.1501607E2,2.6392963E1,-9.0922846E-4,-8.487383E-7,5.0197305E2,-3.7566653E-7,3.391844E-6,-1.7616869E-5,-2.1892547E-6,1.0574224E-5,-4.5709967E-6,4.5143946E-7,-8.593397E-6],"split_indices":[9,2,0,5,9,1,3,0,0,0,0,0,0,0,0],"split_type":[0,0,0,0,0,0,0,0,0,0,0,0,0,0,0],"sum_hessian":[5.341E3,3.065E3,2.276E3,3.035E3,3E1,8E0,2.268E3,2.967E3,6.8E1,4E0,2.6E1,7E0,1E0,2.261E3,7E0],"tree_param":{"num_deleted":"0","num_feature":"10","num_nodes":"15","size_leaf_vector":"1"}},{"base_weights":[-8.6312895E-9,-3.213347E-5,4.620657E-5,1.466662E-4,-4.2629712E-5,5.244513E-5,-4.557451E-4,2.2095814E-5,9.783872E-7,-5.3790513E-6,-3.791594E-7,4.5053807E-7,7.3884366E-6,-2.4087992E-6,-1.1676266E-5],"categories":[],"categories_nodes":[],"categories_segments":[],"categories_sizes":[],"default_left":[0,0,0,0,0,0,0,0,0,0,0,0,0,0,0],"id":61,"left_children":[1,3,5,7,9,11,13,-1,-1,-1,-1,-1,-1,-1,-1],"loss_changes":[7.932516E-6,5.921689E-6,6.884924E-6,1.7411036E-5,6.932091E-6,1.0950613E-5,3.8486232E-6,0E0,0E0,0E0,0E0,0E0,0E0,0E0,0E0],"parents":[2147483647,0,0,1,1,2,2,3,3,4,4,5,5,6,6],"right_children":[2,4,6,8,10,12,14,-1,-1,-1,-1,-1,-1,-1,-1],"split_conditions":[6.186365E-5,-2.8394954E-3,3.9721985E2,-3.4505252E-3,-2.540451E2,3.4078903E2,1.7855798E-3,2.2095814E-5,9.783872E-7,-5.3790513E-6,-3.791594E-7,4.5053807E-7,7.3884366E-6,-2.4087992E-6,-1.1676266E-5],"split_indices":[9,6,3,9,3,3,1,0,0,0,0,0,0,0,0],"split_type":[0,0,0,0,0,0,0,0,0,0,0,0,0,0,0],"sum_hessian":[5.341E3,3.151E3,2.19E3,1.74E2,2.977E3,2.164E3,2.6E1,3E0,1.71E2,2.7E1,2.95E3,2.142E3,2.2E1,2.1E1,5E0],"tree_param":{"num_deleted":"0","num_feature":"10","num_nodes":"15","size_leaf_vector":"1"}},{"base_weights":[-6.4725256E-9,2.0038311E-5,-7.309149E-5,2.8190893E-4,1.2121306E-5,-1.63759E-3,-6.62018E-5,8.43771E-6,1.3717698E-6,-8.874616E-6,1.4332952E-7,-2.1201975E-5,1.4642026E-6,2.016305E-5,-7.1605047E-7],"categories":[],"categories_nodes":[],"categories_segments":[],"categories_sizes":[],"default_left":[0,0,0,0,0,0,0,0,0,0,0,0,0,0,0],"id":62,"left_children":[1,3,5,7,9,11,13,-1,-1,-1,-1,-1,-1,-1,-1],"loss_changes":[7.8273515E-6,8.68964E-6,1.2287332E-5,9.886539E-6,8.112215E-6,4.6153236E-6,1.3039521E-5,0E0,0E0,0E0,0E0,0E0,0E0,0E0,0E0],"parents":[2147483647,0,0,1,1,2,2,3,3,4,4,5,5,6,6],"right_children":[2,4,6,8,10,12,14,-1,-1,-1,-1,-1,-1,-1,-1],"split_conditions":[1.1810746E5,-7.069007E1,-3.4505252E-3,2.9375374E1,-5.9491075E-3,1.1879695E5,-1.0486785E2,8.43771E-6,1.3717698E-6,-8.874616E-6,1.4332952E-7,-2.1201975E-5,1.4642026E-6,2.016305E-5,-7.1605047E-7],"split_indices":[4,0,1,2,6,4,0,0,0,0,0,0,0,0,0],"split_type":[0,0,0,0,0,0,0,0,0,0,0,0,0,0,0],"sum_hessian":[5.341E3,4.192E3,1.149E3,1.22E2,4.07E3,4E0,1.145E3,2.4E1,9.8E1,9E0,4.061E3,3E0,1E0,2E0,1.143E3],"tree_param":{"num_deleted":"0","num_feature":"10","num_nodes":"15","size_leaf_vector":"1"}},{"base_weights":[-6.256857E-9,-3.2899898E-5,4.4285316E-5,-2.8421557E-5,-4.7042713E-4,1.7095754E-5,1.3589332E-4,-3.3822303E-7,5.529809E-6,-1.3466787E-6,-1.4189015E-5,9.1708705E-7,-4.8000203E-7,1.6424126E-5,9.410756E-7],"categories":[],"categories_nodes":[],"categories_segments":[],"categories_sizes":[],"default_left":[0,0,0,0,0,0,0,0,0,0,0,0,0,0,0],"id":63,"left_children":[1,3,5,7,9,11,13,-1,-1,-1,-1,-1,-1,-1,-1],"loss_changes":[7.784276E-6,5.994139E-6,5.6691865E-6,9.551766E-6,9.681148E-6,8.538154E-6,3.264294E-5,0E0,0E0,0E0,0E0,0E0,0E0,0E0,0E0],"parents":[2147483647,0,0,1,1,2,2,3,3,4,4,5,5,6,6],"right_children":[2,4,6,8,10,12,14,-1,-1,-1,-1,-1,-1,-1,-1],"split_conditions":[3.8823186E-5,7.861696E1,8.539275E1,5.9107696E-3,9.175887E1,-2.833624E1,8.726237E1,-3.3822303E-7,5.529809E-6,-1.3466787E-6,-1.4189015E-5,9.1708705E-7,-4.8000203E-7,1.6424126E-5,9.410756E-7],"split_indices":[9,2,3,6,0,3,3,0,0,0,0,0,0,0,0],"split_type":[0,0,0,0,0,0,0,0,0,0,0,0,0,0,0],"sum_hessian":[5.341E3,3.065E3,2.276E3,3.035E3,3E1,1.756E3,5.2E2,3.008E3,2.7E1,2.3E1,7E0,8.18E2,9.38E2,1.3E1,5.07E2],"tree_param":{"num_deleted":"0","num_feature":"10","num_nodes":"15","size_leaf_vector":"1"}},{"base_weights":[-4.8014632E-9,1.9853022E-5,-7.240815E-5,2.7901877E-4,1.20177865E-5,-1.6251421E-3,-6.5570384E-5,8.358449E-6,1.3558773E-6,-8.799089E-6,1.421061E-7,-2.1043561E-5,1.4585728E-6,2.0030886E-5,-7.093787E-7],"categories":[],"categories_nodes":[],"categories_segments":[],"categories_sizes":[],"default_left":[0,0,0,0,0,0,0,0,0,0,0,0,0,0,0],"id":64,"left_children":[1,3,5,7,9,11,13,-1,-1,-1,-1,-1,-1,-1,-1],"loss_changes":[7.68202E-6,8.511056E-6,1.2103252E-5,9.710205E-6,7.9747215E-6,4.550375E-6,1.2866709E-5,0E0,0E0,0E0,0E0,0E0,0E0,0E0,0E0],"parents":[2147483647,0,0,1,1,2,2,3,3,4,4,5,5,6,6],"right_children":[2,4,6,8,10,12,14,-1,-1,-1,-1,-1,-1,-1,-1],"split_conditions":[1.1810746E5,-7.069007E1,-3.4505252E-3,2.9375374E1,-5.9491075E-3,1.1879695E5,-1.0486785E2,8.358449E-6,1.3558773E-6,-8.799089E-6,1.421061E-7,-2.1043561E-5,1.4585728E-6,2.0030886E-5,-7.093787E-7],"split_indices":[4,0,1,2,6,4,0,0,0,0,0,0,0,0,0],"split_type":[0,0,0,0,0,0,0,0,0,0,0,0,0,0,0],"sum_hessian":[5.341E3,4.192E3,1.149E3,1.22E2,4.07E3,4E0,1.145E3,2.4E1,9.8E1,9E0,4.061E3,3E0,1E0,2E0,1.143E3],"tree_param":{"num_deleted":"0","num_feature":"10","num_nodes":"15","size_leaf_vector":"1"}},{"base_weights":[-4.6062083E-9,-1.3565712E-5,1.0580331E-4,-9.645992E-6,-6.08167E-4,7.749142E-5,7.1111444E-4,3.353245E-6,-1.61401E-7,-1.7749464E-7,-1.32383475E-5,1.5916954E-6,-1.6920395E-6,-5.5622118E-6,1.024428E-5],"categories":[],"categories_nodes":[],"categories_segments":[],"categories_sizes":[],"default_left":[0,0,0,0,0,0,0,0,0,0,0,0,0,0,0],"id":65,"left_children":[1,3,5,7,9,11,13,-1,-1,-1,-1,-1,-1,-1,-1],"loss_changes":[7.666524E-6,1.1032193E-5,1.0347356E-5,1.0548151E-5,1.307533E-5,1.1733858E-5,1.129079E-5,0E0,0E0,0E0,0E0,0E0,0E0,0E0,0E0],"parents":[2147483647,0,0,1,1,2,2,3,3,4,4,5,5,6,6],"right_children":[2,4,6,8,10,12,14,-1,-1,-1,-1,-1,-1,-1,-1],"split_conditions":[8.962032E0,1.0039846E2,6.9021224E-3,-7.329062E1,5.784086E0,6.4541696E-4,1.0852691E5,3.353245E-6,-1.61401E-7,-1.7749464E-7,-1.32383475E-5,1.5916954E-6,-1.6920395E-6,-5.5622118E-6,1.024428E-5],"split_indices":[5,0,6,0,5,1,4,0,0,0,0,0,0,0,0],"split_type":[0,0,0,0,0,0,0,0,0,0,0,0,0,0,0],"sum_hessian":[5.341E3,4.735E3,6.06E2,4.705E3,3E1,5.8E2,2.6E1,8.6E1,4.619E3,1.7E1,1.3E1,4.36E2,1.44E2,5E0,2.1E1],"tree_param":{"num_deleted":"0","num_feature":"10","num_nodes":"15","size_leaf_vector":"1"}},{"base_weights":[-5.6136304E-9,-3.1535517E-5,4.5353703E-5,1.4289815E-4,-4.1775394E-5,5.1570234E-5,-4.547999E-4,2.1781889E-5,9.4735E-7,-5.3307217E-6,-3.7099664E-7,4.4251712E-7,7.3122355E-6,-2.4160472E-6,-1.1607157E-5],"categories":[],"categories_nodes":[],"categories_segments":[],"categories_sizes":[],"default_left":[0,0,0,0,0,0,0,0,0,0,0,0,0,0,0],"id":66,"left_children":[1,3,5,7,9,11,13,-1,-1,-1,-1,-1,-1,-1,-1],"loss_changes":[7.641424E-6,5.636007E-6,6.8357585E-6,1.6948201E-5,6.821201E-6,1.0736479E-5,3.7830082E-6,0E0,0E0,0E0,0E0,0E0,0E0,0E0,0E0],"parents":[2147483647,0,0,1,1,2,2,3,3,4,4,5,5,6,6],"right_children":[2,4,6,8,10,12,14,-1,-1,-1,-1,-1,-1,-1,-1],"split_conditions":[6.186365E-5,-2.8394954E-3,3.9721985E2,-3.4505252E-3,-2.540451E2,3.4078903E2,1.7855798E-3,2.1781889E-5,9.4735E-7,-5.3307217E-6,-3.7099664E-7,4.4251712E-7,7.3122355E-6,-2.4160472E-6,-1.1607157E-5],"split_indices":[9,6,3,9,3,3,1,0,0,0,0,0,0,0,0],"split_type":[0,0,0,0,0,0,0,0,0,0,0,0,0,0,0],"sum_hessian":[5.341E3,3.151E3,2.19E3,1.74E2,2.977E3,2.164E3,2.6E1,3E0,1.71E2,2.7E1,2.95E3,2.142E3,2.2E1,2.1E1,5E0],"tree_param":{"num_deleted":"0","num_feature":"10","num_nodes":"15","size_leaf_vector":"1"}},{"base_weights":[-3.5431333E-9,1.9661682E-5,-7.1704664E-5,2.7365115E-4,1.1982889E-5,-1.614476E-3,-6.491098E-5,8.246223E-6,1.3175286E-6,-8.7271665E-6,1.4157929E-7,-2.0895837E-5,1.4297768E-6,1.9805098E-5,-7.0218107E-7],"categories":[],"categories_nodes":[],"categories_segments":[],"categories_sizes":[],"default_left":[0,0,0,0,0,0,0,0,0,0,0,0,0,0,0],"id":67,"left_children":[1,3,5,7,9,11,13,-1,-1,-1,-1,-1,-1,-1,-1],"loss_changes":[7.53373E-6,8.174466E-6,1.1948468E-5,9.507721E-6,7.846006E-6,4.4736653E-6,1.25792485E-5,0E0,0E0,0E0,0E0,0E0,0E0,0E0,0E0],"parents":[2147483647,0,0,1,1,2,2,3,3,4,4,5,5,6,6],"right_children":[2,4,6,8,10,12,14,-1,-1,-1,-1,-1,-1,-1,-1],"split_conditions":[1.1810746E5,-7.069007E1,-3.4505252E-3,2.9375374E1,-5.9491075E-3,1.1879695E5,-1.0486785E2,8.246223E-6,1.3175286E-6,-8.7271665E-6,1.4157929E-7,-2.0895837E-5,1.4297768E-6,1.9805098E-5,-7.0218107E-7],"split_indices":[4,0,1,2,6,4,0,0,0,0,0,0,0,0,0],"split_type":[0,0,0,0,0,0,0,0,0,0,0,0,0,0,0],"sum_hessian":[5.341E3,4.192E3,1.149E3,1.22E2,4.07E3,4E0,1.145E3,2.4E1,9.8E1,9E0,4.061E3,3E0,1E0,2E0,1.143E3],"tree_param":{"num_deleted":"0","num_feature":"10","num_nodes":"15","size_leaf_vector":"1"}},{"base_weights":[-3.3905596E-9,-3.2290198E-5,4.347107E-5,-2.7854723E-5,-4.6563894E-4,9.319615E-5,-5.5122055E-6,-3.3840624E-7,4.863604E-6,-1.73316E-5,-2.1366693E-6,2.2586896E-7,2.3934194E-6,2.0027704E-7,-2.3510136E-6],"categories":[],"categories_nodes":[],"categories_segments":[],"categories_sizes":[],"default_left":[0,0,0,0,0,0,0,0,0,0,0,0,0,0,0],"id":68,"left_children":[1,3,5,7,9,11,13,-1,-1,-1,-1,-1,-1,-1,-1],"loss_changes":[7.49971E-6,5.8802116E-6,5.5465957E-6,9.36139E-6,9.530457E-6,1.1655342E-5,6.736221E-6,0E0,0E0,0E0,0E0,0E0,0E0,0E0,0E0],"parents":[2147483647,0,0,1,1,2,2,3,3,4,4,5,5,6,6],"right_children":[2,4,6,8,10,12,14,-1,-1,-1,-1,-1,-1,-1,-1],"split_conditions":[3.8823186E-5,7.861696E1,1.176981E5,7.498687E1,-9.0922846E-4,1.103025E5,1.0915046E-3,-3.3840624E-7,4.863604E-6,-1.73316E-5,-2.1366693E-6,2.2586896E-7,2.3934194E-6,2.0027704E-7,-2.3510136E-6],"split_indices":[9,2,7,2,9,8,1,0,0,0,0,0,0,0,0],"split_type":[0,0,0,0,0,0,0,0,0,0,0,0,0,0,0],"sum_hessian":[5.341E3,3.065E3,2.276E3,3.035E3,3E1,1.129E3,1.147E3,3.001E3,3.4E1,4E0,2.6E1,7.62E2,3.67E2,1.033E3,1.14E2],"tree_param":{"num_deleted":"0","num_feature":"10","num_nodes":"15","size_leaf_vector":"1"}},{"base_weights":[-6.07078E-9,-1.3401065E-5,1.04505794E-4,-9.523318E-6,-6.016357E-4,7.642501E-5,7.0489215E-4,3.3002136E-6,-1.591528E-7,-1.7283465E-7,-1.3099718E-5,1.0219024E-6,-6.9106204E-6,-5.469063E-6,1.0142511E-5],"categories":[],"categories_nodes":[],"categories_segments":[],"categories_sizes":[],"default_left":[0,0,0,0,0,0,0,0,0,0,0,0,0,0,0],"id":69,"left_children":[1,3,5,7,9,11,13,-1,-1,-1,-1,-1,-1,-1,-1],"loss_changes":[7.479858E-6,1.07972055E-5,1.0179736E-5,1.0218952E-5,1.2808812E-5,1.1559598E-5,1.1010588E-5,0E0,0E0,0E0,0E0,0E0,0E0,0E0,0E0],"parents":[2147483647,0,0,1,1,2,2,3,3,4,4,5,5,6,6],"right_children":[2,4,6,8,10,12,14,-1,-1,-1,-1,-1,-1,-1,-1],"split_conditions":[8.962032E0,1.0039846E2,6.9021224E-3,-7.329062E1,5.784086E0,2.487049E-3,1.0852691E5,3.3002136E-6,-1.591528E-7,-1.7283465E-7,-1.3099718E-5,1.0219024E-6,-6.9106204E-6,-5.469063E-6,1.0142511E-5],"split_indices":[5,0,6,0,5,1,4,0,0,0,0,0,0,0,0],"split_type":[0,0,0,0,0,0,0,0,0,0,0,0,0,0,0],"sum_hessian":[5.341E3,4.735E3,6.06E2,4.705E3,3E1,5.8E2,2.6E1,8.6E1,4.619E3,1.7E1,1.3E1,5.62E2,1.8E1,5E0,2.1E1],"tree_param":{"num_deleted":"0","num_feature":"10","num_nodes":"15","size_leaf_vector":"1"}},{"base_weights":[-8.130389E-9,-3.092732E-5,4.4472607E-5,1.4027276E-4,-4.0977382E-5,5.06649E-5,-4.537047E-4,2.1545868E-5,9.261271E-7,-9.04619E-6,-3.834649E-7,4.3415892E-7,7.2388025E-6,-2.4254743E-6,-1.1523305E-5],"categories":[],"categories_nodes":[],"categories_segments":[],"categories_sizes":[],"default_left":[0,0,0,0,0,0,0,0,0,0,0,0,0,0,0],"id":70,"left_children":[1,3,5,7,9,11,13,-1,-1,-1,-1,-1,-1,-1,-1],"loss_changes":[7.348273E-6,5.42899E-6,6.781915E-6,1.6600867E-5,6.73177E-6,1.0534078E-5,3.7035434E-6,0E0,0E0,0E0,0E0,0E0,0E0,0E0,0E0],"parents":[2147483647,0,0,1,1,2,2,3,3,4,4,5,5,6,6],"right_children":[2,4,6,8,10,12,14,-1,-1,-1,-1,-1,-1,-1,-1],"split_conditions":[6.186365E-5,-2.8394954E-3,3.9721985E2,-3.4505252E-3,-2.7230692E-3,3.4078903E2,1.7855798E-3,2.1545868E-5,9.261271E-7,-9.04619E-6,-3.834649E-7,4.3415892E-7,7.2388025E-6,-2.4254743E-6,-1.1523305E-5],"split_indices":[9,6,3,9,1,3,1,0,0,0,0,0,0,0,0],"split_type":[0,0,0,0,0,0,0,0,0,0,0,0,0,0,0],"sum_hessian":[5.341E3,3.151E3,2.19E3,1.74E2,2.977E3,2.164E3,2.6E1,3E0,1.71E2,8E0,2.969E3,2.142E3,2.2E1,2.1E1,5E0],"tree_param":{"num_deleted":"0","num_feature":"10","num_nodes":"15","size_leaf_vector":"1"}},{"base_weights":[-6.784955E-9,1.9415282E-5,-7.082133E-5,2.6841075E-4,1.1887437E-5,-1.6017464E-3,-6.40801E-5,8.138004E-6,1.2797486E-6,-8.659723E-6,1.4045662E-7,-2.0723424E-5,1.4031883E-6,1.9586007E-5,-6.9328314E-7],"categories":[],"categories_nodes":[],"categories_segments":[],"categories_sizes":[],"default_left":[0,0,0,0,0,0,0,0,0,0,0,0,0,0,0],"id":71,"left_children":[1,3,5,7,9,11,13,-1,-1,-1,-1,-1,-1,-1,-1],"loss_changes":[7.348573E-6,7.856167E-6,1.1765723E-5,9.316705E-6,7.725156E-6,4.3898344E-6,1.2301116E-5,0E0,0E0,0E0,0E0,0E0,0E0,0E0,0E0],"parents":[2147483647,0,0,1,1,2,2,3,3,4,4,5,5,6,6],"right_children":[2,4,6,8,10,12,14,-1,-1,-1,-1,-1,-1,-1,-1],"split_conditions":[1.1810746E5,-7.069007E1,-3.4505252E-3,2.9375374E1,-5.9491075E-3,1.1879695E5,-1.0486785E2,8.138004E-6,1.2797486E-6,-8.659723E-6,1.4045662E-7,-2.0723424E-5,1.4031883E-6,1.9586007E-5,-6.9328314E-7],"split_indices":[4,0,1,2,6,4,0,0,0,0,0,0,0,0,0],"split_type":[0,0,0,0,0,0,0,0,0,0,0,0,0,0,0],"sum_hessian":[5.341E3,4.192E3,1.149E3,1.22E2,4.07E3,4E0,1.145E3,2.4E1,9.8E1,9E0,4.061E3,3E0,1E0,2E0,1.143E3],"tree_param":{"num_deleted":"0","num_feature":"10","num_nodes":"15","size_leaf_vector":"1"}},{"base_weights":[-6.6273937E-9,-1.3246681E-5,1.0329634E-4,-9.404938E-6,-5.960208E-4,7.545858E-5,6.9849804E-4,3.2490254E-6,-1.5698303E-7,-1.7162375E-7,-1.2976943E-5,1.558804E-6,-1.6743659E-6,-5.4228244E-6,1.0051428E-5],"categories":[],"categories_nodes":[],"categories_segments":[],"categories_sizes":[],"default_left":[0,0,0,0,0,0,0,0,0,0,0,0,0,0,0],"id":72,"left_children":[1,3,5,7,9,11,13,-1,-1,-1,-1,-1,-1,-1,-1],"loss_changes":[7.3078186E-6,1.0597674E-5,1.0004727E-5,9.9061435E-6,1.25689885E-5,1.1375398E-5,1.0818002E-5,0E0,0E0,0E0,0E0,0E0,0E0,0E0,0E0],"parents":[2147483647,0,0,1,1,2,2,3,3,4,4,5,5,6,6],"right_children":[2,4,6,8,10,12,14,-1,-1,-1,-1,-1,-1,-1,-1],"split_conditions":[8.962032E0,1.0039846E2,6.9021224E-3,-7.329062E1,5.784086E0,6.4541696E-4,1.0852691E5,3.2490254E-6,-1.5698303E-7,-1.7162375E-7,-1.2976943E-5,1.558804E-6,-1.6743659E-6,-5.4228244E-6,1.0051428E-5],"split_indices":[5,0,6,0,5,1,4,0,0,0,0,0,0,0,0],"split_type":[0,0,0,0,0,0,0,0,0,0,0,0,0,0,0],"sum_hessian":[5.341E3,4.735E3,6.06E2,4.705E3,3E1,5.8E2,2.6E1,8.6E1,4.619E3,1.7E1,1.3E1,4.36E2,1.44E2,5E0,2.1E1],"tree_param":{"num_deleted":"0","num_feature":"10","num_nodes":"15","size_leaf_vector":"1"}},{"base_weights":[-7.59849E-9,-4.3438038E-5,3.119974E-5,-3.7458987E-5,-7.7744486E-4,9.3439687E-4,2.7691165E-5,-4.3665875E-7,7.2324215E-6,-1.713567E-5,-3.8758376E-6,1.6470683E-5,3.7217767E-6,3.2252882E-7,-4.7362078E-6],"categories":[],"categories_nodes":[],"categories_segments":[],"categories_sizes":[],"default_left":[0,0,0,0,0,0,0,0,0,0,0,0,0,0,0],"id":73,"left_children":[1,3,5,7,9,11,13,-1,-1,-1,-1,-1,-1,-1,-1],"loss_changes":[7.241627E-6,9.775156E-6,9.8263445E-6,1.0499346E-5,5.905088E-6,4.195129E-6,7.0999213E-6,0E0,0E0,0E0,0E0,0E0,0E0,0E0,0E0],"parents":[2147483647,0,0,1,1,2,2,3,3,4,4,5,5,6,6],"right_children":[2,4,6,8,10,12,14,-1,-1,-1,-1,-1,-1,-1,-1],"split_conditions":[-4.2173808E-5,7.861696E1,-1.1501607E2,7.498687E1,-9.0922846E-4,-9.43744E-4,3.9721985E2,-4.3665875E-7,7.2324215E-6,-1.713567E-5,-3.8758376E-6,1.6470683E-5,3.7217767E-6,3.2252882E-7,-4.7362078E-6],"split_indices":[9,2,0,2,9,1,3,0,0,0,0,0,0,0,0],"split_type":[0,0,0,0,0,0,0,0,0,0,0,0,0,0,0],"sum_hessian":[5.341E3,2.233E3,3.108E3,2.216E3,1.7E1,1.1E1,3.097E3,2.199E3,1.7E1,4E0,1.3E1,4E0,7E0,3.07E3,2.7E1],"tree_param":{"num_deleted":"0","num_feature":"10","num_nodes":"15","size_leaf_vector":"1"}},{"base_weights":[-7.2311965E-9,-1.3134612E-5,1.02416634E-4,-9.32943E-6,-5.903621E-4,7.47835E-5,6.932474E-4,3.214349E-6,-1.555609E-7,-1.797024E-7,-1.28412585E-5,1.1392957E-6,-4.176472E-6,-5.3323797E-6,9.962322E-6],"categories":[],"categories_nodes":[],"categories_segments":[],"categories_sizes":[],"default_left":[0,0,0,0,0,0,0,0,0,0,0,0,0,0,0],"id":74,"left_children":[1,3,5,7,9,11,13,-1,-1,-1,-1,-1,-1,-1,-1],"loss_changes":[7.183969E-6,1.0396907E-5,9.858345E-6,9.697275E-6,1.2287171E-5,1.1247363E-5,1.0564601E-5,0E0,0E0,0E0,0E0,0E0,0E0,0E0,0E0],"parents":[2147483647,0,0,1,1,2,2,3,3,4,4,5,5,6,6],"right_children":[2,4,6,8,10,12,14,-1,-1,-1,-1,-1,-1,-1,-1],"split_conditions":[8.962032E0,1.0039846E2,6.9021224E-3,-7.329062E1,5.784086E0,2.2344158E-3,1.0852691E5,3.214349E-6,-1.555609E-7,-1.797024E-7,-1.28412585E-5,1.1392957E-6,-4.176472E-6,-5.3323797E-6,9.962322E-6],"split_indices":[5,0,6,0,5,9,4,0,0,0,0,0,0,0,0],"split_type":[0,0,0,0,0,0,0,0,0,0,0,0,0,0,0],"sum_hessian":[5.341E3,4.735E3,6.06E2,4.705E3,3E1,5.8E2,2.6E1,8.6E1,4.619E3,1.7E1,1.3E1,5.38E2,4.2E1,5E0,2.1E1],"tree_param":{"num_deleted":"0","num_feature":"10","num_nodes":"15","size_leaf_vector":"1"}},{"base_weights":[-8.724758E-9,1.9191042E-5,-7.0012735E-5,1.1435587E-5,2.50459E-4,-3.93103E-5,-4.0290298E-4,1.6046374E-7,-4.2982556E-6,9.828865E-6,1.4461128E-6,-7.751537E-6,-2.3600845E-7,-1.6500269E-6,-8.19612E-6],"categories":[],"categories_nodes":[],"categories_segments":[],"categories_sizes":[],"default_left":[0,0,0,0,0,0,0,0,0,0,0,0,0,0,0],"id":75,"left_children":[1,3,5,7,9,11,13,-1,-1,-1,-1,-1,-1,-1,-1],"loss_changes":[7.181315E-6,7.5176513E-6,1.1737784E-5,8.263148E-6,1.0401368E-5,1.2165628E-5,9.480875E-6,0E0,0E0,0E0,0E0,0E0,0E0,0E0,0E0],"parents":[2147483647,0,0,1,1,2,2,3,3,4,4,5,5,6,6],"right_children":[2,4,6,8,10,12,14,-1,-1,-1,-1,-1,-1,-1,-1],"split_conditions":[1.1810746E5,2.4743387E1,1.0695817E-3,1.0039846E2,-1.681623E-3,-2.243914E-3,4.7346144E0,1.6046374E-7,-4.2982556E-6,9.828865E-6,1.4461128E-6,-7.751537E-6,-2.3600845E-7,-1.6500269E-6,-8.19612E-6],"split_indices":[4,5,1,0,1,1,5,0,0,0,0,0,0,0,0],"split_type":[0,0,0,0,0,0,0,0,0,0,0,0,0,0,0],"sum_hessian":[5.341E3,4.192E3,1.149E3,4.057E3,1.35E2,1.053E3,9.6E1,4.016E3,4.1E1,1.6E1,1.19E2,2.1E1,1.032E3,6.2E1,3.4E1],"tree_param":{"num_deleted":"0","num_feature":"10","num_nodes":"15","size_leaf_vector":"1"}},{"base_weights":[-1.0641097E-8,-3.0447965E-5,4.377688E-5,1.3675762E-4,-4.0263454E-5,4.9889706E-5,-4.4800257E-4,2.1304968E-5,8.9596494E-7,-5.2585515E-6,-3.5642364E-7,4.27161E-7,7.1611307E-6,-2.3880696E-6,-1.1403859E-5],"categories":[],"categories_nodes":[],"categories_segments":[],"categories_sizes":[],"default_left":[0,0,0,0,0,0,0,0,0,0,0,0,0,0,0],"id":76,"left_children":[1,3,5,7,9,11,13,-1,-1,-1,-1,-1,-1,-1,-1],"loss_changes":[7.1210166E-6,5.1785846E-6,6.608852E-6,1.6263837E-5,6.663775E-6,1.0316424E-5,3.638444E-6,0E0,0E0,0E0,0E0,0E0,0E0,0E0,0E0],"parents":[2147483647,0,0,1,1,2,2,3,3,4,4,5,5,6,6],"right_children":[2,4,6,8,10,12,14,-1,-1,-1,-1,-1,-1,-1,-1],"split_conditions":[6.186365E-5,-2.8394954E-3,3.9721985E2,-3.4505252E-3,-2.540451E2,3.4078903E2,1.7855798E-3,2.1304968E-5,8.9596494E-7,-5.2585515E-6,-3.5642364E-7,4.27161E-7,7.1611307E-6,-2.3880696E-6,-1.1403859E-5],"split_indices":[9,6,3,9,3,3,1,0,0,0,0,0,0,0,0],"split_type":[0,0,0,0,0,0,0,0,0,0,0,0,0,0,0],"sum_hessian":[5.341E3,3.151E3,2.19E3,1.74E2,2.977E3,2.164E3,2.6E1,3E0,1.71E2,2.7E1,2.95E3,2.142E3,2.2E1,2.1E1,5E0],"tree_param":{"num_deleted":"0","num_feature":"10","num_nodes":"15","size_leaf_vector":"1"}},{"base_weights":[-8.588436E-9,1.9014331E-5,-6.93678E-5,1.1333264E-5,2.4806403E-4,-1.5858762E-3,-6.269074E-5,1.5888122E-7,-4.2457623E-6,9.736607E-6,1.4320394E-6,-2.052361E-5,1.4003167E-6,1.9355377E-5,-6.7876056E-7],"categories":[],"categories_nodes":[],"categories_segments":[],"categories_sizes":[],"default_left":[0,0,0,0,0,0,0,0,0,0,0,0,0,0,0],"id":77,"left_children":[1,3,5,7,9,11,13,-1,-1,-1,-1,-1,-1,-1,-1],"loss_changes":[7.049633E-6,7.3741267E-6,1.154527E-5,8.063928E-6,1.0208281E-5,4.3129457E-6,1.200558E-5,0E0,0E0,0E0,0E0,0E0,0E0,0E0,0E0],"parents":[2147483647,0,0,1,1,2,2,3,3,4,4,5,5,6,6],"right_children":[2,4,6,8,10,12,14,-1,-1,-1,-1,-1,-1,-1,-1],"split_conditions":[1.1810746E5,2.4743387E1,-3.4505252E-3,1.0039846E2,-1.681623E-3,1.1879695E5,-1.0486785E2,1.5888122E-7,-4.2457623E-6,9.736607E-6,1.4320394E-6,-2.052361E-5,1.4003167E-6,1.9355377E-5,-6.7876056E-7],"split_indices":[4,5,1,0,1,4,0,0,0,0,0,0,0,0,0],"split_type":[0,0,0,0,0,0,0,0,0,0,0,0,0,0,0],"sum_hessian":[5.341E3,4.192E3,1.149E3,4.057E3,1.35E2,4E0,1.145E3,4.016E3,4.1E1,1.6E1,1.19E2,3E0,1E0,2E0,1.143E3],"tree_param":{"num_deleted":"0","num_feature":"10","num_nodes":"15","size_leaf_vector":"1"}},{"base_weights":[-7.261574E-9,-4.2732525E-5,3.0693365E-5,-3.6822265E-5,-7.6830544E-4,9.220262E-4,2.7230908E-5,-4.2969793E-7,7.165882E-6,-1.6968825E-5,-3.817918E-6,1.62642E-5,3.6652682E-6,3.1711275E-7,-4.6514187E-6],"categories":[],"categories_nodes":[],"categories_segments":[],"categories_sizes":[],"default_left":[0,0,0,0,0,0,0,0,0,0,0,0,0,0,0],"id":78,"left_children":[1,3,5,7,9,11,13,-1,-1,-1,-1,-1,-1,-1,-1],"loss_changes":[7.008371E-6,9.551826E-6,9.56989E-6,1.0299082E-5,5.8124824E-6,4.099358E-6,6.8489717E-6,0E0,0E0,0E0,0E0,0E0,0E0,0E0,0E0],"parents":[2147483647,0,0,1,1,2,2,3,3,4,4,5,5,6,6],"right_children":[2,4,6,8,10,12,14,-1,-1,-1,-1,-1,-1,-1,-1],"split_conditions":[-4.2173808E-5,7.861696E1,-1.1501607E2,7.498687E1,-9.0922846E-4,-9.43744E-4,3.9721985E2,-4.2969793E-7,7.165882E-6,-1.6968825E-5,-3.817918E-6,1.62642E-5,3.6652682E-6,3.1711275E-7,-4.6514187E-6],"split_indices":[9,2,0,2,9,1,3,0,0,0,0,0,0,0,0],"split_type":[0,0,0,0,0,0,0,0,0,0,0,0,0,0,0],"sum_hessian":[5.341E3,2.233E3,3.108E3,2.216E3,1.7E1,1.1E1,3.097E3,2.199E3,1.7E1,4E0,1.3E1,4E0,7E0,3.07E3,2.7E1],"tree_param":{"num_deleted":"0","num_feature":"10","num_nodes":"15","size_leaf_vector":"1"}},{"base_weights":[-6.901729E-9,-1.2965813E-5,1.011025E-4,-9.248998E-6,-5.76784E-4,7.358918E-5,6.894039E-4,3.1767356E-6,-1.5403329E-7,-1.0189836E-7,-1.2640634E-5,9.885422E-7,-6.789269E-6,-5.2421547E-6,9.890546E-6],"categories":[],"categories_nodes":[],"categories_segments":[],"categories_sizes":[],"default_left":[0,0,0,0,0,0,0,0,0,0,0,0,0,0,0],"id":79,"left_children":[1,3,5,7,9,11,13,-1,-1,-1,-1,-1,-1,-1,-1],"loss_changes":[7.0007613E-6,9.919464E-6,9.774247E-6,9.473319E-6,1.2058782E-5,1.1113288E-5,1.0337345E-5,0E0,0E0,0E0,0E0,0E0,0E0,0E0,0E0],"parents":[2147483647,0,0,1,1,2,2,3,3,4,4,5,5,6,6],"right_children":[2,4,6,8,10,12,14,-1,-1,-1,-1,-1,-1,-1,-1],"split_conditions":[8.962032E0,1.0039846E2,6.9021224E-3,-7.329062E1,5.784086E0,2.487049E-3,1.0852691E5,3.1767356E-6,-1.5403329E-7,-1.0189836E-7,-1.2640634E-5,9.885422E-7,-6.789269E-6,-5.2421547E-6,9.890546E-6],"split_indices":[5,0,6,0,5,1,4,0,0,0,0,0,0,0,0],"split_type":[0,0,0,0,0,0,0,0,0,0,0,0,0,0,0],"sum_hessian":[5.341E3,4.735E3,6.06E2,4.705E3,3E1,5.8E2,2.6E1,8.6E1,4.619E3,1.7E1,1.3E1,5.62E2,1.8E1,5E0,2.1E1],"tree_param":{"num_deleted":"0","num_feature":"10","num_nodes":"15","size_leaf_vector":"1"}},{"base_weights":[-8.865332E-9,1.8801322E-5,-6.859244E-5,2.570958E-4,1.1596945E-5,-3.823051E-5,-3.9779735E-4,7.953976E-6,1.1856404E-6,-8.617856E-6,1.3744219E-7,-1.5746476E-5,-3.0877828E-7,-1.6233901E-6,-8.102566E-6],"categories":[],"categories_nodes":[],"categories_segments":[],"categories_sizes":[],"default_left":[0,0,0,0,0,0,0,0,0,0,0,0,0,0,0],"id":80,"left_children":[1,3,5,7,9,11,13,-1,-1,-1,-1,-1,-1,-1,-1],"loss_changes":[6.8928425E-6,7.1954055E-6,1.1479382E-5,9.078035E-6,7.646566E-6,1.1858192E-5,9.288811E-6,0E0,0E0,0E0,0E0,0E0,0E0,0E0,0E0],"parents":[2147483647,0,0,1,1,2,2,3,3,4,4,5,5,6,6],"right_children":[2,4,6,8,10,12,14,-1,-1,-1,-1,-1,-1,-1,-1],"split_conditions":[1.1810746E5,-7.069007E1,1.0695817E-3,2.9375374E1,-5.9491075E-3,-3.4505252E-3,4.7346144E0,7.953976E-6,1.1856404E-6,-8.617856E-6,1.3744219E-7,-1.5746476E-5,-3.0877828E-7,-1.6233901E-6,-8.102566E-6],"split_indices":[4,0,1,2,6,1,5,0,0,0,0,0,0,0,0],"split_type":[0,0,0,0,0,0,0,0,0,0,0,0,0,0,0],"sum_hessian":[5.341E3,4.192E3,1.149E3,1.22E2,4.07E3,1.053E3,9.6E1,2.4E1,9.8E1,9E0,4.061E3,4E0,1.049E3,6.2E1,3.4E1],"tree_param":{"num_deleted":"0","num_feature":"10","num_nodes":"15","size_leaf_vector":"1"}},{"base_weights":[-1.3482088E-8,-2.9953218E-5,4.3058204E-5,-4.2733427E-5,9.5369156E-5,4.9070575E-5,-4.406399E-4,3.980966E-6,-5.007846E-7,1.7780329E-5,7.1749696E-7,4.1972532E-7,7.0828974E-6,-2.3414816E-6,-1.1243363E-5],"categories":[],"categories_nodes":[],"categories_segments":[],"categories_sizes":[],"default_left":[0,0,0,0,0,0,0,0,0,0,0,0,0,0,0],"id":81,"left_children":[1,3,5,7,9,11,13,-1,-1,-1,-1,-1,-1,-1,-1],"loss_changes":[6.8900918E-6,5.0524645E-6,6.3934326E-6,9.283605E-6,1.1477559E-5,1.0100669E-5,3.548534E-6,0E0,0E0,0E0,0E0,0E0,0E0,0E0,0E0],"parents":[2147483647,0,0,1,1,2,2,3,3,4,4,5,5,6,6],"right_children":[2,4,6,8,10,12,14,-1,-1,-1,-1,-1,-1,-1,-1],"split_conditions":[6.186365E-5,9.500917E0,3.9721985E2,-7.329062E1,-4.269583E2,3.4078903E2,1.7855798E-3,3.980966E-6,-5.007846E-7,1.7780329E-5,7.1749696E-7,4.1972532E-7,7.0828974E-6,-2.3414816E-6,-1.1243363E-5],"split_indices":[9,5,3,0,3,3,1,0,0,0,0,0,0,0,0],"split_type":[0,0,0,0,0,0,0,0,0,0,0,0,0,0,0],"sum_hessian":[5.341E3,3.151E3,2.19E3,2.86E3,2.91E2,2.164E3,2.6E1,4.6E1,2.814E3,3E0,2.88E2,2.142E3,2.2E1,2.1E1,5E0],"tree_param":{"num_deleted":"0","num_feature":"10","num_nodes":"15","size_leaf_vector":"1"}},{"base_weights":[-1.0372139E-8,-1.2787736E-5,9.968255E-5,-9.105599E-6,-5.7134725E-4,7.239569E-5,6.831633E-4,3.1117156E-6,-1.513482E-7,-1.0010596E-7,-1.2522552E-5,1.1119482E-6,-4.1563053E-6,-5.205098E-6,9.803849E-6],"categories":[],"categories_nodes":[],"categories_segments":[],"categories_sizes":[],"default_left":[0,0,0,0,0,0,0,0,0,0,0,0,0,0,0],"id":82,"left_children":[1,3,5,7,9,11,13,-1,-1,-1,-1,-1,-1,-1,-1],"loss_changes":[6.805982E-6,9.735291E-6,9.614804E-6,9.0921E-6,1.1836243E-5,1.10474475E-5,1.0169758E-5,0E0,0E0,0E0,0E0,0E0,0E0,0E0,0E0],"parents":[2147483647,0,0,1,1,2,2,3,3,4,4,5,5,6,6],"right_children":[2,4,6,8,10,12,14,-1,-1,-1,-1,-1,-1,-1,-1],"split_conditions":[8.962032E0,1.0039846E2,6.9021224E-3,-7.329062E1,5.784086E0,2.2344158E-3,1.0852691E5,3.1117156E-6,-1.513482E-7,-1.0010596E-7,-1.2522552E-5,1.1119482E-6,-4.1563053E-6,-5.205098E-6,9.803849E-6],"split_indices":[5,0,6,0,5,9,4,0,0,0,0,0,0,0,0],"split_type":[0,0,0,0,0,0,0,0,0,0,0,0,0,0,0],"sum_hessian":[5.341E3,4.735E3,6.06E2,4.705E3,3E1,5.8E2,2.6E1,8.6E1,4.619E3,1.7E1,1.3E1,5.38E2,4.2E1,5E0,2.1E1],"tree_param":{"num_deleted":"0","num_feature":"10","num_nodes":"15","size_leaf_vector":"1"}},{"base_weights":[-1.1785671E-8,-4.2140975E-5,3.0260526E-5,-3.6288307E-5,-7.60653E-4,9.0774015E-4,2.685187E-5,-4.2355043E-7,7.0721767E-6,-1.6784752E-5,-3.78527E-6,1.6053107E-5,3.5829105E-6,3.1280294E-7,-4.598104E-6],"categories":[],"categories_nodes":[],"categories_segments":[],"categories_sizes":[],"default_left":[0,0,0,0,0,0,0,0,0,0,0,0,0,0,0],"id":83,"left_children":[1,3,5,7,9,11,13,-1,-1,-1,-1,-1,-1,-1,-1],"loss_changes":[6.8141835E-6,9.366836E-6,9.274725E-6,1.0030076E-5,5.677678E-6,4.0241857E-6,6.6910297E-6,0E0,0E0,0E0,0E0,0E0,0E0,0E0,0E0],"parents":[2147483647,0,0,1,1,2,2,3,3,4,4,5,5,6,6],"right_children":[2,4,6,8,10,12,14,-1,-1,-1,-1,-1,-1,-1,-1],"split_conditions":[-4.2173808E-5,7.861696E1,-1.1501607E2,7.498687E1,-9.0922846E-4,-9.43744E-4,3.9721985E2,-4.2355043E-7,7.0721767E-6,-1.6784752E-5,-3.78527E-6,1.6053107E-5,3.5829105E-6,3.1280294E-7,-4.598104E-6],"split_indices":[9,2,0,2,9,1,3,0,0,0,0,0,0,0,0],"split_type":[0,0,0,0,0,0,0,0,0,0,0,0,0,0,0],"sum_hessian":[5.341E3,2.233E3,3.108E3,2.216E3,1.7E1,1.1E1,3.097E3,2.199E3,1.7E1,4E0,1.3E1,4E0,7E0,3.07E3,2.7E1],"tree_param":{"num_deleted":"0","num_feature":"10","num_nodes":"15","size_leaf_vector":"1"}},{"base_weights":[-1.1400522E-8,1.8605824E-5,-6.789141E-5,1.1088749E-5,2.427653E-4,-3.7833062E-5,-3.938049E-4,1.5556876E-7,-4.165197E-6,9.565878E-6,1.3961738E-6,