{"learner":{"attributes":{"scikit_learn":"{\"_estimator_type\": \"regressor\"}"},"feature_names":["ema_10","vwap","low","MACDh_12_26_9","BBM_20_2.0","BBB_20_2.0","BBU_20_2.0","high","MACDs_12_26_9","BBL_20_2.0"],"feature_types":["float","float","float","float","float","float","float","float","float","float"],"gradient_booster":{"model":{"gbtree_model_param":{"num_parallel_tree":"1","num_trees":"100"},"iteration_indptr":[0,1,2,3,4,5,6,7,8,9,10,11,12,13,14,15,16,17,18,19,20,21,22,23,24,25,26,27,28,29,30,31,32,33,34,35,36,37,38,39,40,41,42,43,44,45,46,47,48,49,50,51,52,53,54,55,56,57,58,59,60,61,62,63,64,65,66,67,68,69,70,71,72,73,74,75,76,77,78,79,80,81,82,83,84,85,86,87,88,89,90,91,92,93,94,95,96,97,98,99,100],"tree_info":[0,0,0,0,0,0,0,0,0,0,0,0,0,0,0,0,0,0,0,0,0,0,0,0,0,0,0,0,0,0,0,0,0,0,0,0,0,0,0,0,0,0,0,0,0,0,0,0,0,0,0,0,0,0,0,0,0,0,0,0,0,0,0,0,0,0,0,0,0,0,0,0,0,0,0,0,0,0,0,0,0,0,0,0,0,0,0,0,0,0,0,0,0,0,0,0,0,0,0,0],"trees":[{"base_weights":[-1.4315337E-11,2.532006E-4,-2.1418915E-3,7.9093425E-4,-2.0189787E-4,-4.9349205E-3,-2.8332312E-5,-2.0182611E-7,1.45698305E-5,-3.0285019E-6,3.906301E-5,-2.4234661E-5,-7.092725E-5,-1.5939539E-5,1.1338164E-5],"categories":[],"categories_nodes":[],"categories_segments":[],"categories_sizes":[],"default_left":[0,0,0,0,0,0,0,0,0,0,0,0,0,0,0],"id":0,"left_children":[1,3,5,7,9,11,13,-1,-1,-1,-1,-1,-1,-1,-1],"loss_changes":[5.037687E-3,2.0330632E-3,5.7968344E-3,2.0572764E-3,1.8674778E-3,2.2751447E-3,1.020719E-3,0E0,0E0,0E0,0E0,0E0,0E0,0E0,0E0],"parents":[2147483647,0,0,1,1,2,2,3,3,4,4,5,5,6,6],"right_children":[2,4,6,8,10,12,14,-1,-1,-1,-1,-1,-1,-1,-1],"split_conditions":[1.19221375E5,1.17785625E5,-2.0579572E0,4.111976E-1,1.196626E5,1.20341766E5,1.2029486E5,-2.0182611E-7,1.45698305E-5,-3.0285019E-6,3.906301E-5,-2.4234661E-5,-7.092725E-5,-1.5939539E-5,1.1338164E-5],"split_indices":[9,6,8,5,7,9,4,0,0,0,0,0,0,0,0],"split_type":[0,0,0,0,0,0,0,0,0,0,0,0,0,0,0],"sum_hessian":[9.287E3,8.306E3,9.81E2,3.807E3,4.499E3,4.22E2,5.59E2,1.717E3,2.09E3,4.392E3,1.07E2,1.96E2,2.26E2,2.38E2,3.21E2],"tree_param":{"num_deleted":"0","num_feature":"10","num_nodes":"15","size_leaf_vector":"1"}},{"base_weights":[-5.295835E-9,2.506747E-4,-2.1205742E-3,7.830287E-4,-1.9987083E-4,-4.8857965E-3,-2.805712E-5,-1.9980871E-7,1.4424201E-5,-2.9982232E-6,3.8675993E-5,-2.3993542E-5,-7.0221104E-5,-1.5780808E-5,1.12251355E-5],"categories":[],"categories_nodes":[],"categories_segments":[],"categories_sizes":[],"default_left":[0,0,0,0,0,0,0,0,0,0,0,0,0,0,0],"id":1,"left_children":[1,3,5,7,9,11,13,-1,-1,-1,-1,-1,-1,-1,-1],"loss_changes":[4.9378853E-3,1.992588E-3,5.6819837E-3,2.0163557E-3,1.8306333E-3,2.230052E-3,1.0004821E-3,0E0,0E0,0E0,0E0,0E0,0E0,0E0,0E0],"parents":[2147483647,0,0,1,1,2,2,3,3,4,4,5,5,6,6],"right_children":[2,4,6,8,10,12,14,-1,-1,-1,-1,-1,-1,-1,-1],"split_conditions":[1.19221375E5,1.17785625E5,-2.0579572E0,4.111976E-1,1.196626E5,1.20341766E5,1.2029486E5,-1.9980871E-7,1.4424201E-5,-2.9982232E-6,3.8675993E-5,-2.3993542E-5,-7.0221104E-5,-1.5780808E-5,1.12251355E-5],"split_indices":[9,6,8,5,7,9,4,0,0,0,0,0,0,0,0],"split_type":[0,0,0,0,0,0,0,0,0,0,0,0,0,0,0],"sum_hessian":[9.287E3,8.306E3,9.81E2,3.807E3,4.499E3,4.22E2,5.59E2,1.717E3,2.09E3,4.392E3,1.07E2,1.96E2,2.26E2,2.38E2,3.21E2],"tree_param":{"num_deleted":"0","num_feature":"10","num_nodes":"15","size_leaf_vector":"1"}},{"base_weights":[-1.05371205E-8,2.4817392E-4,-2.099469E-3,7.752022E-4,-1.9786425E-4,-4.837161E-3,-2.7784707E-5,2.8354947E-7,1.4823252E-5,-2.9682483E-6,3.8292816E-5,-2.3754825E-5,-6.952198E-5,-1.8345232E-5,9.501145E-6],"categories":[],"categories_nodes":[],"categories_segments":[],"categories_sizes":[],"default_left":[0,0,0,0,0,0,0,0,0,0,0,0,0,0,0],"id":2,"left_children":[1,3,5,7,9,11,13,-1,-1,-1,-1,-1,-1,-1,-1],"loss_changes":[4.8400606E-3,1.9529191E-3,5.56941E-3,2.0110116E-3,1.7945159E-3,2.1858513E-3,9.911555E-4,0E0,0E0,0E0,0E0,0E0,0E0,0E0,0E0],"parents":[2147483647,0,0,1,1,2,2,3,3,4,4,5,5,6,6],"right_children":[2,4,6,8,10,12,14,-1,-1,-1,-1,-1,-1,-1,-1],"split_conditions":[1.19221375E5,1.17785625E5,-2.0579572E0,1.106775E5,1.196626E5,1.20341766E5,6.442823E1,2.8354947E-7,1.4823252E-5,-2.9682483E-6,3.8292816E-5,-2.3754825E-5,-6.952198E-5,-1.8345232E-5,9.501145E-6],"split_indices":[9,6,8,4,7,9,8,0,0,0,0,0,0,0,0],"split_type":[0,0,0,0,0,0,0,0,0,0,0,0,0,0,0],"sum_hessian":[9.287E3,8.306E3,9.81E2,3.807E3,4.499E3,4.22E2,5.59E2,1.852E3,1.955E3,4.392E3,1.07E2,1.96E2,2.26E2,1.96E2,3.63E2],"tree_param":{"num_deleted":"0","num_feature":"10","num_nodes":"15","size_leaf_vector":"1"}},{"base_weights":[-1.5994143E-8,2.4569826E-4,-2.0785783E-3,7.674541E-4,-1.9587773E-4,-4.78901E-3,-2.7522721E-5,-2.6860474E-7,1.41970895E-5,-2.9385724E-6,3.7913433E-5,-2.3518483E-5,-6.8829824E-5,-1.5553993E-5,1.10660785E-5],"categories":[],"categories_nodes":[],"categories_segments":[],"categories_sizes":[],"default_left":[0,0,0,0,0,0,0,0,0,0,0,0,0,0,0],"id":3,"left_children":[1,3,5,7,9,11,13,-1,-1,-1,-1,-1,-1,-1,-1],"loss_changes":[4.744193E-3,1.9140402E-3,5.459048E-3,1.972946E-3,1.7591108E-3,2.142528E-3,9.7209576E-4,0E0,0E0,0E0,0E0,0E0,0E0,0E0,0E0],"parents":[2147483647,0,0,1,1,2,2,3,3,4,4,5,5,6,6],"right_children":[2,4,6,8,10,12,14,-1,-1,-1,-1,-1,-1,-1,-1],"split_conditions":[1.19221375E5,1.17785625E5,-2.0579572E0,4.111976E-1,1.196626E5,1.20341766E5,1.2029486E5,-2.6860474E-7,1.41970895E-5,-2.9385724E-6,3.7913433E-5,-2.3518483E-5,-6.8829824E-5,-1.5553993E-5,1.10660785E-5],"split_indices":[9,6,8,5,7,9,4,0,0,0,0,0,0,0,0],"split_type":[0,0,0,0,0,0,0,0,0,0,0,0,0,0,0],"sum_hessian":[9.287E3,8.306E3,9.81E2,3.807E3,4.499E3,4.22E2,5.59E2,1.717E3,2.09E3,4.392E3,1.07E2,1.96E2,2.26E2,2.38E2,3.21E2],"tree_param":{"num_deleted":"0","num_feature":"10","num_nodes":"15","size_leaf_vector":"1"}},{"base_weights":[-2.1010184E-8,2.4324714E-4,-2.057891E-3,7.597832E-4,-1.939112E-4,-4.741338E-3,-2.725547E-5,2.1017325E-7,1.4592583E-5,-2.9091934E-6,3.7537808E-5,-2.3284494E-5,-6.814456E-5,-1.808228E-5,9.366975E-6],"categories":[],"categories_nodes":[],"categories_segments":[],"categories_sizes":[],"default_left":[0,0,0,0,0,0,0,0,0,0,0,0,0,0,0],"id":4,"left_children":[1,3,5,7,9,11,13,-1,-1,-1,-1,-1,-1,-1,-1],"loss_changes":[4.6502063E-3,1.8759349E-3,5.3508906E-3,1.967747E-3,1.7244045E-3,2.1000654E-3,9.6308714E-4,0E0,0E0,0E0,0E0,0E0,0E0,0E0,0E0],"parents":[2147483647,0,0,1,1,2,2,3,3,4,4,5,5,6,6],"right_children":[2,4,6,8,10,12,14,-1,-1,-1,-1,-1,-1,-1,-1],"split_conditions":[1.19221375E5,1.17785625E5,-2.0579572E0,1.106775E5,1.196626E5,1.20341766E5,6.442823E1,2.1017325E-7,1.4592583E-5,-2.9091934E-6,3.7537808E-5,-2.3284494E-5,-6.814456E-5,-1.808228E-5,9.366975E-6],"split_indices":[9,6,8,4,7,9,8,0,0,0,0,0,0,0,0],"split_type":[0,0,0,0,0,0,0,0,0,0,0,0,0,0,0],"sum_hessian":[9.287E3,8.306E3,9.81E2,3.807E3,4.499E3,4.22E2,5.59E2,1.852E3,1.955E3,4.392E3,1.07E2,1.96E2,2.26E2,1.96E2,3.63E2],"tree_param":{"num_deleted":"0","num_feature":"10","num_nodes":"15","size_leaf_vector":"1"}},{"base_weights":[-2.6235158E-8,2.4082065E-4,-2.0374143E-3,7.521893E-4,-1.9196438E-4,-4.694141E-3,-2.6998523E-5,-3.3524498E-7,1.3973849E-5,-2.880108E-6,3.7165904E-5,-2.305283E-5,-6.746611E-5,-1.5330443E-5,1.0909268E-5],"categories":[],"categories_nodes":[],"categories_segments":[],"categories_sizes":[],"default_left":[0,0,0,0,0,0,0,0,0,0,0,0,0,0,0],"id":5,"left_children":[1,3,5,7,9,11,13,-1,-1,-1,-1,-1,-1,-1,-1],"loss_changes":[4.5580985E-3,1.8385889E-3,5.2448586E-3,1.930471E-3,1.690383E-3,2.0584418E-3,9.445147E-4,0E0,0E0,0E0,0E0,0E0,0E0,0E0,0E0],"parents":[2147483647,0,0,1,1,2,2,3,3,4,4,5,5,6,6],"right_children":[2,4,6,8,10,12,14,-1,-1,-1,-1,-1,-1,-1,-1],"split_conditions":[1.19221375E5,1.17785625E5,-2.0579572E0,4.111976E-1,1.196626E5,1.20341766E5,1.2029486E5,-3.3524498E-7,1.3973849E-5,-2.880108E-6,3.7165904E-5,-2.305283E-5,-6.746611E-5,-1.5330443E-5,1.0909268E-5],"split_indices":[9,6,8,5,7,9,4,0,0,0,0,0,0,0,0],"split_type":[0,0,0,0,0,0,0,0,0,0,0,0,0,0,0],"sum_hessian":[9.287E3,8.306E3,9.81E2,3.807E3,4.499E3,4.22E2,5.59E2,1.717E3,2.09E3,4.392E3,1.07E2,1.96E2,2.26E2,2.38E2,3.21E2],"tree_param":{"num_deleted":"0","num_feature":"10","num_nodes":"15","size_leaf_vector":"1"}},{"base_weights":[-3.103219E-8,2.3841822E-4,-2.017137E-3,7.44671E-4,-1.900371E-4,-4.6474137E-3,-2.6736427E-5,1.3898998E-7,1.4365809E-5,-2.8513132E-6,3.6797686E-5,-2.282347E-5,-6.6794426E-5,-1.782311E-5,9.234694E-6],"categories":[],"categories_nodes":[],"categories_segments":[],"categories_sizes":[],"default_left":[0,0,0,0,0,0,0,0,0,0,0,0,0,0,0],"id":6,"left_children":[1,3,5,7,9,11,13,-1,-1,-1,-1,-1,-1,-1,-1],"loss_changes":[4.467799E-3,1.8019853E-3,5.1409435E-3,1.925413E-3,1.6570323E-3,2.0176452E-3,9.3581394E-4,0E0,0E0,0E0,0E0,0E0,0E0,0E0,0E0],"parents":[2147483647,0,0,1,1,2,2,3,3,4,4,5,5,6,6],"right_children":[2,4,6,8,10,12,14,-1,-1,-1,-1,-1,-1,-1,-1],"split_conditions":[1.19221375E5,1.17785625E5,-2.0579572E0,1.106775E5,1.196626E5,1.20341766E5,6.442823E1,1.3898998E-7,1.4365809E-5,-2.8513132E-6,3.6797686E-5,-2.282347E-5,-6.6794426E-5,-1.782311E-5,9.234694E-6],"split_indices":[9,6,8,4,7,9,8,0,0,0,0,0,0,0,0],"split_type":[0,0,0,0,0,0,0,0,0,0,0,0,0,0,0],"sum_hessian":[9.287E3,8.306E3,9.81E2,3.807E3,4.499E3,4.22E2,5.59E2,1.852E3,1.955E3,4.392E3,1.07E2,1.96E2,2.26E2,1.96E2,3.63E2],"tree_param":{"num_deleted":"0","num_feature":"10","num_nodes":"15","size_leaf_vector":"1"}},{"base_weights":[-3.6090718E-8,2.3603985E-4,-1.9970655E-3,7.37228E-4,-1.881292E-4,-4.601151E-3,-2.6484386E-5,-3.9978E-7,1.37544075E-5,-2.822807E-6,3.643312E-5,-2.2596396E-5,-6.6129425E-5,-1.5110111E-5,1.075467E-5],"categories":[],"categories_nodes":[],"categories_segments":[],"categories_sizes":[],"default_left":[0,0,0,0,0,0,0,0,0,0,0,0,0,0,0],"id":7,"left_children":[1,3,5,7,9,11,13,-1,-1,-1,-1,-1,-1,-1,-1],"loss_changes":[4.3793046E-3,1.7661114E-3,5.0390726E-3,1.8889096E-3,1.62434E-3,1.977655E-3,9.1771595E-4,0E0,0E0,0E0,0E0,0E0,0E0,0E0,0E0],"parents":[2147483647,0,0,1,1,2,2,3,3,4,4,5,5,6,6],"right_children":[2,4,6,8,10,12,14,-1,-1,-1,-1,-1,-1,-1,-1],"split_conditions":[1.19221375E5,1.17785625E5,-2.0579572E0,4.111976E-1,1.196626E5,1.20341766E5,1.2029486E5,-3.9978E-7,1.37544075E-5,-2.822807E-6,3.643312E-5,-2.2596396E-5,-6.6129425E-5,-1.5110111E-5,1.075467E-5],"split_indices":[9,6,8,5,7,9,4,0,0,0,0,0,0,0,0],"split_type":[0,0,0,0,0,0,0,0,0,0,0,0,0,0,0],"sum_hessian":[9.287E3,8.306E3,9.81E2,3.807E3,4.499E3,4.22E2,5.59E2,1.717E3,2.09E3,4.392E3,1.07E2,1.96E2,2.26E2,2.38E2,3.21E2],"tree_param":{"num_deleted":"0","num_feature":"10","num_nodes":"15","size_leaf_vector":"1"}},{"base_weights":[-4.0691518E-8,2.3368512E-4,-1.9771897E-3,5.987323E-4,-3.3826055E-4,-4.5553497E-3,-2.6227342E-5,7.1614186E-6,-1.7268903E-5,-4.7429035E-6,3.607216E-5,-2.2371578E-5,-6.5471046E-5,-1.756766E-5,9.104274E-6],"categories":[],"categories_nodes":[],"categories_segments":[],"categories_sizes":[],"default_left":[0,0,0,0,0,0,0,0,0,0,0,0,0,0,0],"id":8,"left_children":[1,3,5,7,9,11,13,-1,-1,-1,-1,-1,-1,-1,-1],"loss_changes":[4.2925463E-3,1.7345975E-3,4.9392357E-3,1.3858746E-3,1.7390162E-3,1.9384576E-3,9.093131E-4,0E0,0E0,0E0,0E0,0E0,0E0,0E0,0E0],"parents":[2147483647,0,0,1,1,2,2,3,3,4,4,5,5,6,6],"right_children":[2,4,6,8,10,12,14,-1,-1,-1,-1,-1,-1,-1,-1],"split_conditions":[1.19221375E5,1.180434E5,-2.0579572E0,5.828856E1,1.196626E5,1.20341766E5,6.442823E1,7.1614186E-6,-1.7268903E-5,-4.7429035E-6,3.607216E-5,-2.2371578E-5,-6.5471046E-5,-1.756766E-5,9.104274E-6],"split_indices":[9,7,8,3,7,9,8,0,0,0,0,0,0,0,0],"split_type":[0,0,0,0,0,0,0,0,0,0,0,0,0,0,0],"sum_hessian":[9.287E3,8.306E3,9.81E2,5.07E3,3.236E3,4.22E2,5.59E2,4.827E3,2.43E2,3.129E3,1.07E2,1.96E2,2.26E2,1.96E2,3.63E2],"tree_param":{"num_deleted":"0","num_feature":"10","num_nodes":"15","size_leaf_vector":"1"}},{"base_weights":[-4.8367113E-8,2.3135082E-4,-1.9575157E-3,7.239636E-4,-1.8556048E-4,-4.5100036E-3,-2.5980169E-5,4.568151E-9,1.4090014E-5,-2.778834E-6,3.571478E-5,-2.2148997E-5,-6.4819214E-5,-1.4892951E-5,1.0602255E-5],"categories":[],"categories_nodes":[],"categories_segments":[],"categories_sizes":[],"default_left":[0,0,0,0,0,0,0,0,0,0,0,0,0,0,0],"id":9,"left_children":[1,3,5,7,9,11,13,-1,-1,-1,-1,-1,-1,-1,-1],"loss_changes":[4.2075114E-3,1.7061912E-3,4.8413603E-3,1.8873569E-3,1.5618659E-3,1.9000378E-3,8.916772E-4,0E0,0E0,0E0,0E0,0E0,0E0,0E0,0E0],"parents":[2147483647,0,0,1,1,2,2,3,3,4,4,5,5,6,6],"right_children":[2,4,6,8,10,12,14,-1,-1,-1,-1,-1,-1,-1,-1],"split_conditions":[1.19221375E5,1.17785625E5,-2.0579572E0,1.106775E5,1.196626E5,1.20341766E5,1.2029486E5,4.568151E-9,1.4090014E-5,-2.778834E-6,3.571478E-5,-2.2148997E-5,-6.4819214E-5,-1.4892951E-5,1.0602255E-5],"split_indices":[9,6,8,4,7,9,4,0,0,0,0,0,0,0,0],"split_type":[0,0,0,0,0,0,0,0,0,0,0,0,0,0,0],"sum_hessian":[9.287E3,8.306E3,9.81E2,3.807E3,4.499E3,4.22E2,5.59E2,1.852E3,1.955E3,4.392E3,1.07E2,1.96E2,2.26E2,2.38E2,3.21E2],"tree_param":{"num_deleted":"0","num_feature":"10","num_nodes":"15","size_leaf_vector":"1"}},{"base_weights":[-5.264709E-8,1.8913831E-4,-2.3504496E-3,5.880014E-4,-3.8438698E-4,-4.9430304E-3,9.360837E-4,6.667572E-6,-2.842346E-5,-3.17733E-5,-2.7742199E-6,-5.5129498E-5,2.837626E-6,2.3271474E-5,-5.072409E-6],"categories":[],"categories_nodes":[],"categories_segments":[],"categories_sizes":[],"default_left":[0,0,0,0,0,0,0,0,0,0,0,0,0,0,0],"id":10,"left_children":[1,3,5,7,9,11,13,-1,-1,-1,-1,-1,-1,-1,-1],"loss_changes":[4.1305753E-3,1.9668587E-3,5.900884E-3,1.3718766E-3,1.0527995E-3,1.1543799E-3,6.155539E-4,0E0,0E0,0E0,0E0,0E0,0E0,0E0,0E0],"parents":[2147483647,0,0,1,1,2,2,3,3,4,4,5,5,6,6],"right_children":[2,4,6,8,10,12,14,-1,-1,-1,-1,-1,-1,-1,-1],"split_conditions":[1.1962083E5,1.180434E5,5.750829E1,1.077206E5,-1.6801208E2,1.119089E0,1.2176868E5,6.667572E-6,-2.842346E-5,-3.17733E-5,-2.7742199E-6,-5.5129498E-5,2.837626E-6,2.3271474E-5,-5.072409E-6],"split_indices":[9,7,8,1,8,5,4,0,0,0,0,0,0,0,0],"split_type":[0,0,0,0,0,0,0,0,0,0,0,0,0,0,0],"sum_hessian":[9.287E3,8.596E3,6.91E2,5.07E3,3.526E3,3.86E2,3.05E2,4.957E3,1.13E2,1.29E2,3.397E3,3.48E2,3.8E1,1.55E2,1.5E2],"tree_param":{"num_deleted":"0","num_feature":"10","num_nodes":"15","size_leaf_vector":"1"}},{"base_weights":[-6.1839394E-8,1.872404E-4,-2.3269942E-3,5.821171E-4,-3.8055293E-4,-4.893735E-3,9.2678244E-4,6.9855355E-6,-1.7241837E-5,-3.1458014E-5,-2.7464862E-6,-5.457978E-5,2.8099773E-6,2.3040251E-5,-5.02202E-6],"categories":[],"categories_nodes":[],"categories_segments":[],"categories_sizes":[],"default_left":[0,0,0,0,0,0,0,0,0,0,0,0,0,0,0],"id":11,"left_children":[1,3,5,7,9,11,13,-1,-1,-1,-1,-1,-1,-1,-1],"loss_changes":[4.0485146E-3,1.9277408E-3,5.7838433E-3,1.3629582E-3,1.0320239E-3,1.1315001E-3,6.0338294E-4,0E0,0E0,0E0,0E0,0E0,0E0,0E0,0E0],"parents":[2147483647,0,0,1,1,2,2,3,3,4,4,5,5,6,6],"right_children":[2,4,6,8,10,12,14,-1,-1,-1,-1,-1,-1,-1,-1],"split_conditions":[1.1962083E5,1.180434E5,5.750829E1,5.828856E1,-1.6801208E2,1.119089E0,1.2176868E5,6.9855355E-6,-1.7241837E-5,-3.1458014E-5,-2.7464862E-6,-5.457978E-5,2.8099773E-6,2.3040251E-5,-5.02202E-6],"split_indices":[9,7,8,3,8,5,4,0,0,0,0,0,0,0,0],"split_type":[0,0,0,0,0,0,0,0,0,0,0,0,0,0,0],"sum_hessian":[9.287E3,8.596E3,6.91E2,5.07E3,3.526E3,3.86E2,3.05E2,4.827E3,2.43E2,1.29E2,3.397E3,3.48E2,3.8E1,1.55E2,1.5E2],"tree_param":{"num_deleted":"0","num_feature":"10","num_nodes":"15","size_leaf_vector":"1"}},{"base_weights":[-6.965659E-8,2.2473451E-4,-1.901748E-3,7.0537283E-4,-1.8204225E-4,-4.394231E-3,-1.5637212E-5,-6.542598E-7,1.3383365E-5,-2.7364913E-6,3.5458383E-5,-2.1542352E-5,-6.318834E-5,-1.453444E-5,1.0516033E-5],"categories":[],"categories_nodes":[],"categories_segments":[],"categories_sizes":[],"default_left":[0,0,0,0,0,0,0,0,0,0,0,0,0,0,0],"id":12,"left_children":[1,3,5,7,9,11,13,-1,-1,-1,-1,-1,-1,-1,-1],"loss_changes":[3.9710957E-3,1.6242507E-3,4.6164105E-3,1.8579635E-3,1.5377183E-3,1.8099844E-3,8.6084055E-4,0E0,0E0,0E0,0E0,0E0,0E0,0E0,0E0],"parents":[2147483647,0,0,1,1,2,2,3,3,4,4,5,5,6,6],"right_children":[2,4,6,8,10,12,14,-1,-1,-1,-1,-1,-1,-1,-1],"split_conditions":[1.19221375E5,1.17785625E5,-2.0579572E0,4.111976E-1,1.196626E5,1.20341766E5,1.2029486E5,-6.542598E-7,1.3383365E-5,-2.7364913E-6,3.5458383E-5,-2.1542352E-5,-6.318834E-5,-1.453444E-5,1.0516033E-5],"split_indices":[9,6,8,5,7,9,4,0,0,0,0,0,0,0,0],"split_type":[0,0,0,0,0,0,0,0,0,0,0,0,0,0,0],"sum_hessian":[9.287E3,8.306E3,9.81E2,3.807E3,4.499E3,4.22E2,5.59E2,1.717E3,2.09E3,4.392E3,1.07E2,1.96E2,2.26E2,2.38E2,3.21E2],"tree_param":{"num_deleted":"0","num_feature":"10","num_nodes":"15","size_leaf_vector":"1"}},{"base_weights":[-7.360312E-8,1.8376602E-4,-2.2839888E-3,5.7168107E-4,-3.7401708E-4,-4.80405E-3,9.1061194E-4,6.4967344E-6,-2.8253175E-5,-3.1098803E-5,-2.692389E-6,-5.3623386E-5,3.1509853E-6,2.2775888E-5,-5.0765966E-6],"categories":[],"categories_nodes":[],"categories_segments":[],"categories_sizes":[],"default_left":[0,0,0,0,0,0,0,0,0,0,0,0,0,0,0],"id":13,"left_children":[1,3,5,7,9,11,13,-1,-1,-1,-1,-1,-1,-1,-1],"loss_changes":[3.9002104E-3,1.8603681E-3,5.575383E-3,1.3453461E-3,1.0102084E-3,1.1077216E-3,5.944121E-4,0E0,0E0,0E0,0E0,0E0,0E0,0E0,0E0],"parents":[2147483647,0,0,1,1,2,2,3,3,4,4,5,5,6,6],"right_children":[2,4,6,8,10,12,14,-1,-1,-1,-1,-1,-1,-1,-1],"split_conditions":[1.1962083E5,1.180434E5,5.750829E1,1.077206E5,-1.6801208E2,1.119089E0,1.2176868E5,6.4967344E-6,-2.8253175E-5,-3.1098803E-5,-2.692389E-6,-5.3623386E-5,3.1509853E-6,2.2775888E-5,-5.0765966E-6],"split_indices":[9,7,8,1,8,5,4,0,0,0,0,0,0,0,0],"split_type":[0,0,0,0,0,0,0,0,0,0,0,0,0,0,0],"sum_hessian":[9.287E3,8.596E3,6.91E2,5.07E3,3.526E3,3.86E2,3.05E2,4.957E3,1.13E2,1.29E2,3.397E3,3.48E2,3.8E1,1.55E2,1.5E2],"tree_param":{"num_deleted":"0","num_feature":"10","num_nodes":"15","size_leaf_vector":"1"}},{"base_weights":[-8.238248E-8,1.8192189E-4,-2.261196E-3,5.6595996E-4,-3.702865E-4,-4.75614E-3,9.015636E-4,6.8153636E-6,-1.7232573E-5,-3.079021E-5,-2.6654727E-6,-5.3088686E-5,3.120283E-6,2.254959E-5,-5.0261674E-6],"categories":[],"categories_nodes":[],"categories_segments":[],"categories_sizes":[],"default_left":[0,0,0,0,0,0,0,0,0,0,0,0,0,0,0],"id":14,"left_children":[1,3,5,7,9,11,13,-1,-1,-1,-1,-1,-1,-1,-1],"loss_changes":[3.8227239E-3,1.823367E-3,5.464796E-3,1.3428576E-3,9.902732E-4,1.0857685E-3,5.8265915E-4,0E0,0E0,0E0,0E0,0E0,0E0,0E0,0E0],"parents":[2147483647,0,0,1,1,2,2,3,3,4,4,5,5,6,6],"right_children":[2,4,6,8,10,12,14,-1,-1,-1,-1,-1,-1,-1,-1],"split_conditions":[1.1962083E5,1.180434E5,5.750829E1,5.828856E1,-1.6801208E2,1.119089E0,1.2176868E5,6.8153636E-6,-1.7232573E-5,-3.079021E-5,-2.6654727E-6,-5.3088686E-5,3.120283E-6,2.254959E-5,-5.0261674E-6],"split_indices":[9,7,8,3,8,5,4,0,0,0,0,0,0,0,0],"split_type":[0,0,0,0,0,0,0,0,0,0,0,0,0,0,0],"sum_hessian":[9.287E3,8.596E3,6.91E2,5.07E3,3.526E3,3.86E2,3.05E2,4.827E3,2.43E2,1.29E2,3.397E3,3.48E2,3.8E1,1.55E2,1.5E2],"tree_param":{"num_deleted":"0","num_feature":"10","num_nodes":"15","size_leaf_vector":"1"}},{"base_weights":[-8.976814E-8,2.1830494E-4,-1.8475488E-3,6.872891E-4,-1.7860839E-4,-4.2815777E-3,-5.6883036E-6,-2.74669E-7,1.3640558E-5,-2.6950142E-6,3.520204E-5,-2.0952131E-5,-6.1601335E-5,-1.4185814E-5,1.0430294E-5],"categories":[],"categories_nodes":[],"categories_segments":[],"categories_sizes":[],"default_left":[0,0,0,0,0,0,0,0,0,0,0,0,0,0,0],"id":15,"left_children":[1,3,5,7,9,11,13,-1,-1,-1,-1,-1,-1,-1,-1],"loss_changes":[3.7478816E-3,1.5464381E-3,4.4024214E-3,1.8420548E-3,1.513832E-3,1.7244434E-3,8.3124626E-4,0E0,0E0,0E0,0E0,0E0,0E0,0E0,0E0],"parents":[2147483647,0,0,1,1,2,2,3,3,4,4,5,5,6,6],"right_children":[2,4,6,8,10,12,14,-1,-1,-1,-1,-1,-1,-1,-1],"split_conditions":[1.19221375E5,1.17785625E5,-2.0579572E0,1.106775E5,1.196626E5,1.20341766E5,1.2029486E5,-2.74669E-7,1.3640558E-5,-2.6950142E-6,3.520204E-5,-2.0952131E-5,-6.1601335E-5,-1.4185814E-5,1.0430294E-5],"split_indices":[9,6,8,4,7,9,4,0,0,0,0,0,0,0,0],"split_type":[0,0,0,0,0,0,0,0,0,0,0,0,0,0,0],"sum_hessian":[9.287E3,8.306E3,9.81E2,3.807E3,4.499E3,4.22E2,5.59E2,1.852E3,1.955E3,4.392E3,1.07E2,1.96E2,2.26E2,2.38E2,3.21E2],"tree_param":{"num_deleted":"0","num_feature":"10","num_nodes":"15","size_leaf_vector":"1"}},{"base_weights":[-9.3228415E-8,1.7854785E-4,-2.2194246E-3,5.558111E-4,-3.6391895E-4,-4.6688793E-3,8.856682E-4,6.704048E-6,-1.7139198E-5,-3.043912E-5,-2.612812E-6,-5.215775E-5,3.4485352E-6,2.2289758E-5,-5.07985E-6],"categories":[],"categories_nodes":[],"categories_segments":[],"categories_sizes":[],"default_left":[0,0,0,0,0,0,0,0,0,0,0,0,0,0,0],"id":16,"left_children":[1,3,5,7,9,11,13,-1,-1,-1,-1,-1,-1,-1,-1],"loss_changes":[3.6827514E-3,1.7596023E-3,5.2673374E-3,1.3201005E-3,9.6937094E-4,1.0629492E-3,5.739964E-4,0E0,0E0,0E0,0E0,0E0,0E0,0E0,0E0],"parents":[2147483647,0,0,1,1,2,2,3,3,4,4,5,5,6,6],"right_children":[2,4,6,8,10,12,14,-1,-1,-1,-1,-1,-1,-1,-1],"split_conditions":[1.1962083E5,1.180434E5,5.750829E1,5.828856E1,-1.6801208E2,1.119089E0,1.2176868E5,6.704048E-6,-1.7139198E-5,-3.043912E-5,-2.612812E-6,-5.215775E-5,3.4485352E-6,2.2289758E-5,-5.07985E-6],"split_indices":[9,7,8,3,8,5,4,0,0,0,0,0,0,0,0],"split_type":[0,0,0,0,0,0,0,0,0,0,0,0,0,0,0],"sum_hessian":[9.287E3,8.596E3,6.91E2,5.07E3,3.526E3,3.86E2,3.05E2,4.827E3,2.43E2,1.29E2,3.397E3,3.48E2,3.8E1,1.55E2,1.5E2],"tree_param":{"num_deleted":"0","num_feature":"10","num_nodes":"15","size_leaf_vector":"1"}},{"base_weights":[-1.0038691E-7,1.767573E-4,-2.1972759E-3,5.5025093E-4,-3.6028915E-4,-4.6223165E-3,8.7686774E-4,6.2739346E-6,-2.8096003E-5,-3.0137071E-5,-2.5866916E-6,-5.1637668E-5,3.4149339E-6,2.2068289E-5,-5.029388E-6],"categories":[],"categories_nodes":[],"categories_segments":[],"categories_sizes":[],"default_left":[0,0,0,0,0,0,0,0,0,0,0,0,0,0,0],"id":17,"left_children":[1,3,5,7,9,11,13,-1,-1,-1,-1,-1,-1,-1,-1],"loss_changes":[3.609588E-3,1.724614E-3,5.162861E-3,1.3161028E-3,9.502417E-4,1.0418855E-3,5.626471E-4,0E0,0E0,0E0,0E0,0E0,0E0,0E0,0E0],"parents":[2147483647,0,0,1,1,2,2,3,3,4,4,5,5,6,6],"right_children":[2,4,6,8,10,12,14,-1,-1,-1,-1,-1,-1,-1,-1],"split_conditions":[1.1962083E5,1.180434E5,5.750829E1,1.077206E5,-1.6801208E2,1.119089E0,1.2176868E5,6.2739346E-6,-2.8096003E-5,-3.0137071E-5,-2.5866916E-6,-5.1637668E-5,3.4149339E-6,2.2068289E-5,-5.029388E-6],"split_indices":[9,7,8,1,8,5,4,0,0,0,0,0,0,0,0],"split_type":[0,0,0,0,0,0,0,0,0,0,0,0,0,0,0],"sum_hessian":[9.287E3,8.596E3,6.91E2,5.07E3,3.526E3,3.86E2,3.05E2,4.957E3,1.13E2,1.29E2,3.397E3,3.48E2,3.8E1,1.55E2,1.5E2],"tree_param":{"num_deleted":"0","num_feature":"10","num_nodes":"15","size_leaf_vector":"1"}},{"base_weights":[-1.0859535E-7,1.749834E-4,-2.175348E-3,5.4474414E-4,-3.5669553E-4,-4.576218E-3,8.6815475E-4,6.5821973E-6,-1.7028175E-5,-1.481629E-5,-1.2187496E-6,-5.1122774E-5,3.3816605E-6,2.184902E-5,-4.979428E-6],"categories":[],"categories_nodes":[],"categories_segments":[],"categories_sizes":[],"default_left":[0,0,0,0,0,0,0,0,0,0,0,0,0,0,0],"id":18,"left_children":[1,3,5,7,9,11,13,-1,-1,-1,-1,-1,-1,-1,-1],"loss_changes":[3.5378737E-3,1.6903128E-3,5.0604544E-3,1.2944463E-3,9.315029E-4,1.0212427E-3,5.515223E-4,0E0,0E0,0E0,0E0,0E0,0E0,0E0,0E0],"parents":[2147483647,0,0,1,1,2,2,3,3,4,4,5,5,6,6],"right_children":[2,4,6,8,10,12,14,-1,-1,-1,-1,-1,-1,-1,-1],"split_conditions":[1.1962083E5,1.180434E5,5.750829E1,5.828856E1,-6.956104E1,1.119089E0,1.2176868E5,6.5821973E-6,-1.7028175E-5,-1.481629E-5,-1.2187496E-6,-5.1122774E-5,3.3816605E-6,2.184902E-5,-4.979428E-6],"split_indices":[9,7,8,3,8,5,4,0,0,0,0,0,0,0,0],"split_type":[0,0,0,0,0,0,0,0,0,0,0,0,0,0,0],"sum_hessian":[9.287E3,8.596E3,6.91E2,5.07E3,3.526E3,3.86E2,3.05E2,4.827E3,2.43E2,6.08E2,2.918E3,3.48E2,3.8E1,1.55E2,1.5E2],"tree_param":{"num_deleted":"0","num_feature":"10","num_nodes":"15","size_leaf_vector":"1"}},{"base_weights":[-1.1370554E-7,2.1003009E-4,-1.777776E-3,6.643395E-4,-1.7446329E-4,-4.1379975E-3,8.208538E-6,-1.0087197E-6,1.292732E-5,-2.6468297E-6,3.4969216E-5,-2.0371126E-5,-5.9777223E-5,-1.3757137E-5,1.03538005E-5],"categories":[],"categories_nodes":[],"categories_segments":[],"categories_sizes":[],"default_left":[0,0,0,0,0,0,0,0,0,0,0,0,0,0,0],"id":19,"left_children":[1,3,5,7,9,11,13,-1,-1,-1,-1,-1,-1,-1,-1],"loss_changes":[3.4700425E-3,1.4511739E-3,4.1394774E-3,1.8312196E-3,1.4914663E-3,1.6227388E-3,7.974787E-4,0E0,0E0,0E0,0E0,0E0,0E0,0E0,0E0],"parents":[2147483647,0,0,1,1,2,2,3,3,4,4,5,5,6,6],"right_children":[2,4,6,8,10,12,14,-1,-1,-1,-1,-1,-1,-1,-1],"split_conditions":[1.19221375E5,1.17785625E5,-2.0579572E0,4.111976E-1,1.196626E5,1.20479E5,1.2029486E5,-1.0087197E-6,1.292732E-5,-2.6468297E-6,3.4969216E-5,-2.0371126E-5,-5.9777223E-5,-1.3757137E-5,1.03538005E-5],"split_indices":[9,6,8,5,7,2,4,0,0,0,0,0,0,0,0],"split_type":[0,0,0,0,0,0,0,0,0,0,0,0,0,0,0],"sum_hessian":[9.287E3,8.306E3,9.81E2,3.807E3,4.499E3,4.22E2,5.59E2,1.717E3,2.09E3,4.392E3,1.07E2,1.98E2,2.24E2,2.38E2,3.21E2],"tree_param":{"num_deleted":"0","num_feature":"10","num_nodes":"15","size_leaf_vector":"1"}},{"base_weights":[-1.16786964E-7,1.717443E-4,-2.1352174E-3,5.349674E-4,-3.505342E-4,-4.4921576E-3,8.5259654E-4,6.1135966E-6,-2.7921178E-5,-2.9646977E-5,-2.5041886E-6,-5.0225804E-5,3.6963606E-6,2.1595515E-5,-5.0328154E-6],"categories":[],"categories_nodes":[],"categories_segments":[],"categories_sizes":[],"default_left":[0,0,0,0,0,0,0,0,0,0,0,0,0,0,0],"id":20,"left_children":[1,3,5,7,9,11,13,-1,-1,-1,-1,-1,-1,-1,-1],"loss_changes":[3.4085114E-3,1.6310695E-3,4.876963E-3,1.29057E-3,9.223361E-4,9.998558E-4,5.433408E-4,0E0,0E0,0E0,0E0,0E0,0E0,0E0,0E0],"parents":[2147483647,0,0,1,1,2,2,3,3,4,4,5,5,6,6],"right_children":[2,4,6,8,10,12,14,-1,-1,-1,-1,-1,-1,-1,-1],"split_conditions":[1.1962083E5,1.180434E5,5.750829E1,1.077206E5,-1.6801208E2,1.119089E0,1.2176868E5,6.1135966E-6,-2.7921178E-5,-2.9646977E-5,-2.5041886E-6,-5.0225804E-5,3.6963606E-6,2.1595515E-5,-5.0328154E-6],"split_indices":[9,7,8,1,8,5,4,0,0,0,0,0,0,0,0],"split_type":[0,0,0,0,0,0,0,0,0,0,0,0,0,0,0],"sum_hessian":[9.287E3,8.596E3,6.91E2,5.07E3,3.526E3,3.86E2,3.05E2,4.957E3,1.13E2,1.29E2,3.397E3,3.48E2,3.8E1,1.55E2,1.5E2],"tree_param":{"num_deleted":"0","num_feature":"10","num_nodes":"15","size_leaf_vector":"1"}},{"base_weights":[-1.2466036E-7,1.7002058E-4,-2.1139085E-3,5.296134E-4,-3.4703795E-4,-4.4473563E-3,8.441247E-4,6.422548E-6,-1.7013785E-5,-2.9352788E-5,-2.479154E-6,-4.9724986E-5,3.6603446E-6,-1.9436215E-5,1.4763543E-5],"categories":[],"categories_nodes":[],"categories_segments":[],"categories_sizes":[],"default_left":[0,0,0,0,0,0,0,0,0,0,0,0,0,0,0],"id":21,"left_children":[1,3,5,7,9,11,13,-1,-1,-1,-1,-1,-1,-1,-1],"loss_changes":[3.3407907E-3,1.5986287E-3,4.7802255E-3,1.2754448E-3,9.041347E-4,9.80047E-4,5.4219324E-4,0E0,0E0,0E0,0E0,0E0,0E0,0E0,0E0],"parents":[2147483647,0,0,1,1,2,2,3,3,4,4,5,5,6,6],"right_children":[2,4,6,8,10,12,14,-1,-1,-1,-1,-1,-1,-1,-1],"split_conditions":[1.1962083E5,1.180434E5,5.750829E1,5.828856E1,-1.6801208E2,1.119089E0,1.2050111E5,6.422548E-6,-1.7013785E-5,-2.9352788E-5,-2.479154E-6,-4.9724986E-5,3.6603446E-6,-1.9436215E-5,1.4763543E-5],"split_indices":[9,7,8,3,8,5,4,0,0,0,0,0,0,0,0],"split_type":[0,0,0,0,0,0,0,0,0,0,0,0,0,0,0],"sum_hessian":[9.287E3,8.596E3,6.91E2,5.07E3,3.526E3,3.86E2,3.05E2,4.827E3,2.43E2,1.29E2,3.397E3,3.48E2,3.8E1,5.6E1,2.49E2],"tree_param":{"num_deleted":"0","num_feature":"10","num_nodes":"15","size_leaf_vector":"1"}},{"base_weights":[-1.3343741E-7,2.0401755E-4,-1.7271009E-3,6.473888E-4,-1.712184E-4,-4.0323036E-3,1.7234386E-5,-5.9348156E-7,1.3165791E-5,-2.6072707E-6,3.471215E-5,-1.9809164E-5,-5.8287194E-5,-1.3356876E-5,1.0213683E-5],"categories":[],"categories_nodes":[],"categories_segments":[],"categories_sizes":[],"default_left":[0,0,0,0,0,0,0,0,0,0,0,0,0,0,0],"id":22,"left_children":[1,3,5,7,9,11,13,-1,-1,-1,-1,-1,-1,-1,-1],"loss_changes":[3.274949E-3,1.3821367E-3,3.948737E-3,1.8010394E-3,1.4680371E-3,1.54727E-3,7.6213246E-4,0E0,0E0,0E0,0E0,0E0,0E0,0E0,0E0],"parents":[2147483647,0,0,1,1,2,2,3,3,4,4,5,5,6,6],"right_children":[2,4,6,8,10,12,14,-1,-1,-1,-1,-1,-1,-1,-1],"split_conditions":[1.19221375E5,1.17785625E5,-2.0579572E0,1.106775E5,1.196626E5,1.20479E5,1.2029486E5,-5.9348156E-7,1.3165791E-5,-2.6072707E-6,3.471215E-5,-1.9809164E-5,-5.8287194E-5,-1.3356876E-5,1.0213683E-5],"split_indices":[9,6,8,4,7,2,4,0,0,0,0,0,0,0,0],"split_type":[0,0,0,0,0,0,0,0,0,0,0,0,0,0,0],"sum_hessian":[9.287E3,8.306E3,9.81E2,3.807E3,4.499E3,4.22E2,5.59E2,1.852E3,1.955E3,4.392E3,1.07E2,1.98E2,2.24E2,2.38E2,3.21E2],"tree_param":{"num_deleted":"0","num_feature":"10","num_nodes":"15","size_leaf_vector":"1"}},{"base_weights":[-1.360619E-7,1.6687199E-4,-2.0749455E-3,5.2010553E-4,-3.4104247E-4,-4.3655685E-3,8.288001E-4,5.956461E-6,-2.7698085E-5,-1.4403175E-5,-1.1158046E-6,-4.8851914E-5,3.963296E-6,2.1320511E-5,-5.230938E-6],"categories":[],"categories_nodes":[],"categories_segments":[],"categories_sizes":[],"default_left":[0,0,0,0,0,0,0,0,0,0,0,0,0,0,0],"id":23,"left_children":[1,3,5,7,9,11,13,-1,-1,-1,-1,-1,-1,-1,-1],"loss_changes":[3.21873E-3,1.5425861E-3,4.606378E-3,1.2619045E-3,8.894963E-4,9.595263E-4,5.4024364E-4,0E0,0E0,0E0,0E0,0E0,0E0,0E0,0E0],"parents":[2147483647,0,0,1,1,2,2,3,3,4,4,5,5,6,6],"right_children":[2,4,6,8,10,12,14,-1,-1,-1,-1,-1,-1,-1,-1],"split_conditions":[1.1962083E5,1.180434E5,5.750829E1,1.077206E5,-6.956104E1,1.119089E0,1.2176868E5,5.956461E-6,-2.7698085E-5,-1.4403175E-5,-1.1158046E-6,-4.8851914E-5,3.963296E-6,2.1320511E-5,-5.230938E-6],"split_indices":[9,7,8,1,8,5,4,0,0,0,0,0,0,0,0],"split_type":[0,0,0,0,0,0,0,0,0,0,0,0,0,0,0],"sum_hessian":[9.287E3,8.596E3,6.91E2,5.07E3,3.526E3,3.86E2,3.05E2,4.957E3,1.13E2,6.08E2,2.918E3,3.48E2,3.8E1,1.55E2,1.5E2],"tree_param":{"num_deleted":"0","num_feature":"10","num_nodes":"15","size_leaf_vector":"1"}},{"base_weights":[-1.4179813E-7,1.6519894E-4,-2.0542375E-3,6.35962E-4,-2.0908723E-4,-4.3220287E-3,8.2056463E-4,-1.213711E-6,1.2578951E-5,-1.2400369E-5,4.8637486E-7,-4.8364796E-5,3.9246793E-6,-1.937726E-5,1.4461725E-5],"categories":[],"categories_nodes":[],"categories_segments":[],"categories_sizes":[],"default_left":[0,0,0,0,0,0,0,0,0,0,0,0,0,0,0],"id":24,"left_children":[1,3,5,7,9,11,13,-1,-1,-1,-1,-1,-1,-1,-1],"loss_changes":[3.154783E-3,1.5149253E-3,4.5150067E-3,1.7937612E-3,1.2727692E-3,9.405189E-4,5.3083856E-4,0E0,0E0,0E0,0E0,0E0,0E0,0E0,0E0],"parents":[2147483647,0,0,1,1,2,2,3,3,4,4,5,5,6,6],"right_children":[2,4,6,8,10,12,14,-1,-1,-1,-1,-1,-1,-1,-1],"split_conditions":[1.1962083E5,1.17785625E5,5.750829E1,4.111976E-1,-7.1008354E1,1.119089E0,1.2050111E5,-1.213711E-6,1.2578951E-5,-1.2400369E-5,4.8637486E-7,-4.8364796E-5,3.9246793E-6,-1.937726E-5,1.4461725E-5],"split_indices":[9,6,8,5,8,5,4,0,0,0,0,0,0,0,0],"split_type":[0,0,0,0,0,0,0,0,0,0,0,0,0,0,0],"sum_hessian":[9.287E3,8.596E3,6.91E2,3.807E3,4.789E3,3.86E2,3.05E2,1.717E3,2.09E3,9.57E2,3.832E3,3.48E2,3.8E1,5.6E1,2.49E2],"tree_param":{"num_deleted":"0","num_feature":"10","num_nodes":"15","size_leaf_vector":"1"}},{"base_weights":[-1.4575748E-7,1.2826272E-4,-2.5949934E-3,5.1092304E-4,-3.8498742E-4,-5.4100654E-3,7.206849E-4,6.2290337E-6,-1.7069133E-5,-7.162861E-6,6.640628E-6,-1.2994894E-4,-4.3729924E-5,4.6247424E-5,-4.9296314E-6],"categories":[],"categories_nodes":[],"categories_segments":[],"categories_sizes":[],"default_left":[0,0,0,0,0,0,0,0,0,0,0,0,0,0,0],"id":25,"left_children":[1,3,5,7,9,11,13,-1,-1,-1,-1,-1,-1,-1,-1],"loss_changes":[3.0950985E-3,1.7385371E-3,4.0921355E-3,1.260467E-3,1.3145586E-3,1.80742E-3,9.593865E-4,0E0,0E0,0E0,0E0,0E0,0E0,0E0,0E0],"parents":[2147483647,0,0,1,1,2,2,3,3,4,4,5,5,6,6],"right_children":[2,4,6,8,10,12,14,-1,-1,-1,-1,-1,-1,-1,-1],"split_conditions":[1.2054249E5,1.180434E5,4.45515E1,5.828856E1,8.353265E1,1.211431E5,1.2183553E5,6.2290337E-6,-1.7069133E-5,-7.162861E-6,6.640628E-6,-1.2994894E-4,-4.3729924E-5,4.6247424E-5,-4.9296314E-6],"split_indices":[9,7,8,3,8,7,0,0,0,0,0,0,0,0,0],"split_type":[0,0,0,0,0,0,0,0,0,0,0,0,0,0,0],"sum_hessian":[9.287E3,8.85E3,4.37E2,5.07E3,3.78E3,2.36E2,2.01E2,4.827E3,2.43E2,2.873E3,9.07E2,2.7E1,2.09E2,4.7E1,1.54E2],"tree_param":{"num_deleted":"0","num_feature":"10","num_nodes":"15","size_leaf_vector":"1"}},{"base_weights":[-1.5976018E-7,1.9660397E-4,-1.6646365E-3,6.6032476E-4,-1.3851185E-4,-3.8969596E-3,2.4537272E-5,-7.405953E-7,1.493242E-5,-2.2037348E-6,3.4373952E-5,-1.915825E-5,-5.631843E-5,-1.2967324E-5,1.005155E-5],"categories":[],"categories_nodes":[],"categories_segments":[],"categories_sizes":[],"default_left":[0,0,0,0,0,0,0,0,0,0,0,0,0,0,0],"id":26,"left_children":[1,3,5,7,9,11,13,-1,-1,-1,-1,-1,-1,-1,-1],"loss_changes":[3.0422274E-3,1.2910007E-3,3.7030035E-3,2.1318197E-3,1.4125925E-3,1.4430773E-3,7.2687335E-4,0E0,0E0,0E0,0E0,0E0,0E0,0E0,0E0],"parents":[2147483647,0,0,1,1,2,2,3,3,4,4,5,5,6,6],"right_children":[2,4,6,8,10,12,14,-1,-1,-1,-1,-1,-1,-1,-1],"split_conditions":[1.19221375E5,1.1761589E5,-2.0579572E0,1.106775E5,1.196626E5,1.20479E5,1.2029486E5,-7.405953E-7,1.493242E-5,-2.2037348E-6,3.4373952E-5,-1.915825E-5,-5.631843E-5,-1.2967324E-5,1.005155E-5],"split_indices":[9,6,8,4,7,2,4,0,0,0,0,0,0,0,0],"split_type":[0,0,0,0,0,0,0,0,0,0,0,0,0,0,0],"sum_hessian":[9.287E3,8.306E3,9.81E2,3.484E3,4.822E3,4.22E2,5.59E2,1.852E3,1.632E3,4.715E3,1.07E2,1.98E2,2.24E2,2.38E2,3.21E2],"tree_param":{"num_deleted":"0","num_feature":"10","num_nodes":"15","size_leaf_vector":"1"}},{"base_weights":[-1.6162183E-7,1.607649E-4,-1.9994176E-3,5.019657E-4,-3.298475E-4,-4.207312E-3,7.9945376E-4,6.1300793E-6,-1.6972717E-5,-2.8643379E-5,-2.327864E-6,-4.7156573E-5,4.4960625E-6,2.0882879E-5,-5.373514E-6],"categories":[],"categories_nodes":[],"categories_segments":[],"categories_sizes":[],"default_left":[0,0,0,0,0,0,0,0,0,0,0,0,0,0,0],"id":27,"left_children":[1,3,5,7,9,11,13,-1,-1,-1,-1,-1,-1,-1,-1],"loss_changes":[2.9885804E-3,1.4392805E-3,4.2796554E-3,1.2394206E-3,8.669769E-4,9.182738E-4,5.283357E-4,0E0,0E0,0E0,0E0,0E0,0E0,0E0,0E0],"parents":[2147483647,0,0,1,1,2,2,3,3,4,4,5,5,6,6],"right_children":[2,4,6,8,10,12,14,-1,-1,-1,-1,-1,-1,-1,-1],"split_conditions":[1.1962083E5,1.180434E5,5.750829E1,5.828856E1,-1.6801208E2,1.119089E0,1.2176868E5,6.1300793E-6,-1.6972717E-5,-2.8643379E-5,-2.327864E-6,-4.7156573E-5,4.4960625E-6,2.0882879E-5,-5.373514E-6],"split_indices":[9,7,8,3,8,5,4,0,0,0,0,0,0,0,0],"split_type":[0,0,0,0,0,0,0,0,0,0,0,0,0,0,0],"sum_hessian":[9.287E3,8.596E3,6.91E2,5.07E3,3.526E3,3.86E2,3.05E2,4.827E3,2.43E2,1.29E2,3.397E3,3.48E2,3.8E1,1.55E2,1.5E2],"tree_param":{"num_deleted":"0","num_feature":"10","num_nodes":"15","size_leaf_vector":"1"}},{"base_weights":[-1.6743434E-7,1.5915238E-4,-1.9794626E-3,6.1379746E-4,-2.0231892E-4,-4.165349E-3,7.915098E-4,-1.3738156E-6,1.2306849E-5,-1.2185484E-5,5.1724953E-7,-4.6686357E-5,4.452255E-6,-1.9350911E-5,1.4100088E-5],"categories":[],"categories_nodes":[],"categories_segments":[],"categories_sizes":[],"default_left":[0,0,0,0,0,0,0,0,0,0,0,0,0,0,0],"id":28,"left_children":[1,3,5,7,9,11,13,-1,-1,-1,-1,-1,-1,-1,-1],"loss_changes":[2.929202E-3,1.412965E-3,4.194763E-3,1.7647692E-3,1.2366823E-3,9.000893E-4,5.1876693E-4,0E0,0E0,0E0,0E0,0E0,0E0,0E0,0E0],"parents":[2147483647,0,0,1,1,2,2,3,3,4,4,5,5,6,6],"right_children":[2,4,6,8,10,12,14,-1,-1,-1,-1,-1,-1,-1,-1],"split_conditions":[1.1962083E5,1.17785625E5,5.750829E1,4.111976E-1,-7.1008354E1,1.119089E0,1.2050111E5,-1.3738156E-6,1.2306849E-5,-1.2185484E-5,5.1724953E-7,-4.6686357E-5,4.452255E-6,-1.9350911E-5,1.4100088E-5],"split_indices":[9,6,8,5,8,5,4,0,0,0,0,0,0,0,0],"split_type":[0,0,0,0,0,0,0,0,0,0,0,0,0,0,0],"sum_hessian":[9.287E3,8.596E3,6.91E2,3.807E3,4.789E3,3.86E2,3.05E2,1.717E3,2.09E3,9.57E2,3.832E3,3.48E2,3.8E1,5.6E1,2.49E2],"tree_param":{"num_deleted":"0","num_feature":"10","num_nodes":"15","size_leaf_vector":"1"}},{"base_weights":[-1.7093024E-7,1.2389715E-4,-2.5073087E-3,4.931123E-4,-3.7131947E-4,-5.2210144E-3,6.8900606E-4,5.6783174E-6,-2.7608536E-5,-6.9594694E-6,6.565999E-6,-1.2733457E-4,-4.194493E-5,4.535362E-5,-5.0656877E-6],"categories":[],"categories_nodes":[],"categories_segments":[],"categories_sizes":[],"default_left":[0,0,0,0,0,0,0,0,0,0,0,0,0,0,0],"id":29,"left_children":[1,3,5,7,9,11,13,-1,-1,-1,-1,-1,-1,-1,-1],"loss_changes":[2.8893966E-3,1.618513E-3,3.8027468E-3,1.2345029E-3,1.2621423E-3,1.774258E-3,9.31216E-4,0E0,0E0,0E0,0E0,0E0,0E0,0E0,0E0],"parents":[2147483647,0,0,1,1,2,2,3,3,4,4,5,5,6,6],"right_children":[2,4,6,8,10,12,14,-1,-1,-1,-1,-1,-1,-1,-1],"split_conditions":[1.2054249E5,1.180434E5,4.45515E1,1.077206E5,8.353265E1,1.211431E5,1.2183553E5,5.6783174E-6,-2.7608536E-5,-6.9594694E-6,6.565999E-6,-1.2733457E-4,-4.194493E-5,4.535362E-5,-5.0656877E-6],"split_indices":[9,7,8,1,8,7,0,0,0,0,0,0,0,0,0],"split_type":[0,0,0,0,0,0,0,0,0,0,0,0,0,0,0],"sum_hessian":[9.287E3,8.85E3,4.37E2,5.07E3,3.78E3,2.36E2,2.01E2,4.957E3,1.13E2,2.873E3,9.07E2,2.7E1,2.09E2,4.7E1,1.54E2],"tree_param":{"num_deleted":"0","num_feature":"10","num_nodes":"15","size_leaf_vector":"1"}},{"base_weights":[-1.8552376E-7,1.2265563E-4,-2.48253E-3,4.8817685E-4,-3.676064E-4,-5.1695183E-3,6.823155E-4,5.9840436E-6,-1.6948834E-5,-6.8898994E-6,6.500411E-6,-1.261067E-4,-4.152748E-5,4.490953E-5,-5.015357E-6],"categories":[],"categories_nodes":[],"categories_segments":[],"categories_sizes":[],"default_left":[0,0,0,0,0,0,0,0,0,0,0,0,0,0,0],"id":30,"left_children":[1,3,5,7,9,11,13,-1,-1,-1,-1,-1,-1,-1,-1],"loss_changes":[2.832532E-3,1.586289E-3,3.7282375E-3,1.2212659E-3,1.2370434E-3,1.7407588E-3,9.130423E-4,0E0,0E0,0E0,0E0,0E0,0E0,0E0,0E0],"parents":[2147483647,0,0,1,1,2,2,3,3,4,4,5,5,6,6],"right_children":[2,4,6,8,10,12,14,-1,-1,-1,-1,-1,-1,-1,-1],"split_conditions":[1.2054249E5,1.180434E5,4.45515E1,5.828856E1,8.353265E1,1.211431E5,1.2183553E5,5.9840436E-6,-1.6948834E-5,-6.8898994E-6,6.500411E-6,-1.261067E-4,-4.152748E-5,4.490953E-5,-5.015357E-6],"split_indices":[9,7,8,3,8,7,0,0,0,0,0,0,0,0,0],"split_type":[0,0,0,0,0,0,0,0,0,0,0,0,0,0,0],"sum_hessian":[9.287E3,8.85E3,4.37E2,5.07E3,3.78E3,2.36E2,2.01E2,4.827E3,2.43E2,2.873E3,9.07E2,2.7E1,2.09E2,4.7E1,1.54E2],"tree_param":{"num_deleted":"0","num_feature":"10","num_nodes":"15","size_leaf_vector":"1"}},{"base_weights":[-1.9864008E-7,1.8795657E-4,-1.5918536E-3,-9.731091E-4,3.1593884E-4,-3.7372846E-3,3.1555697E-5,1.0718941E-5,-1.7370901E-5,-1.2279064E-6,7.037792E-6,9.825092E-6,-4.4014672E-5,-1.2559993E-5,9.871274E-6],"categories":[],"categories_nodes":[],"categories_segments":[],"categories_sizes":[],"default_left":[0,0,0,0,0,0,0,0,0,0,0,0,0,0,0],"id":31,"left_children":[1,3,5,7,9,11,13,-1,-1,-1,-1,-1,-1,-1,-1],"loss_changes":[2.7818524E-3,1.2346929E-3,3.4203376E-3,1.2907956E-3,1.2733713E-3,1.3303477E-3,6.9023645E-4,0E0,0E0,0E0,0E0,0E0,0E0,0E0,0E0],"parents":[2147483647,0,0,1,1,2,2,3,3,4,4,5,5,6,6],"right_children":[2,4,6,8,10,12,14,-1,-1,-1,-1,-1,-1,-1,-1],"split_conditions":[1.19221375E5,-1.1586552E2,-2.0579572E0,1.1555E5,4.0418285E-1,-2.3222789E2,1.2029486E5,1.0718941E-5,-1.7370901E-5,-1.2279064E-6,7.037792E-6,9.825092E-6,-4.4014672E-5,-1.2559993E-5,9.871274E-6],"split_indices":[9,8,8,2,5,8,4,0,0,0,0,0,0,0,0],"split_type":[0,0,0,0,0,0,0,0,0,0,0,0,0,0,0],"sum_hessian":[9.287E3,8.306E3,9.81E2,8.24E2,7.482E3,4.22E2,5.59E2,2.24E2,6E2,3.511E3,3.971E3,5.2E1,3.7E2,2.38E2,3.21E2],"tree_param":{"num_deleted":"0","num_feature":"10","num_nodes":"15","size_leaf_vector":"1"}},{"base_weights":[-2.007092E-7,1.207318E-4,-2.4439755E-3,4.8141563E-4,-3.630419E-4,-5.084247E-3,6.6586747E-4,5.554192E-6,-2.7413125E-5,-6.79655E-6,6.3950124E-6,-1.050643E-4,-3.7233734E-5,4.4373137E-5,-5.0636027E-6],"categories":[],"categories_nodes":[],"categories_segments":[],"categories_sizes":[],"default_left":[0,0,0,0,0,0,0,0,0,0,0,0,0,0,0],"id":32,"left_children":[1,3,5,7,9,11,13,-1,-1,-1,-1,-1,-1,-1,-1],"loss_changes":[2.7451946E-3,1.54458E-3,3.5997285E-3,1.2109223E-3,1.2005935E-3,1.7096815E-3,8.952877E-4,0E0,0E0,0E0,0E0,0E0,0E0,0E0,0E0],"parents":[2147483647,0,0,1,1,2,2,3,3,4,4,5,5,6,6],"right_children":[2,4,6,8,10,12,14,-1,-1,-1,-1,-1,-1,-1,-1],"split_conditions":[1.2054249E5,1.180434E5,4.45515E1,1.077206E5,8.353265E1,1.21219E5,1.2183553E5,5.554192E-6,-2.7413125E-5,-6.79655E-6,6.3950124E-6,-1.050643E-4,-3.7233734E-5,4.4373137E-5,-5.0636027E-6],"split_indices":[9,7,8,1,8,2,0,0,0,0,0,0,0,0,0],"split_type":[0,0,0,0,0,0,0,0,0,0,0,0,0,0,0],"sum_hessian":[9.287E3,8.85E3,4.37E2,5.07E3,3.78E3,2.36E2,2.01E2,4.957E3,1.13E2,2.873E3,9.07E2,4.6E1,1.9E2,4.7E1,1.54E2],"tree_param":{"num_deleted":"0","num_feature":"10","num_nodes":"15","size_leaf_vector":"1"}},{"base_weights":[-2.1219196E-7,1.5252564E-4,-1.8977367E-3,5.9078244E-4,-1.9591577E-4,-3.993876E-3,7.594649E-4,-1.0020153E-6,1.24507815E-5,-1.1894965E-5,5.246572E-7,-4.487794E-5,5.284618E-6,-1.9188288E-5,1.367078E-5],"categories":[],"categories_nodes":[],"categories_segments":[],"categories_sizes":[],"default_left":[0,0,0,0,0,0,0,0,0,0,0,0,0,0,0],"id":33,"left_children":[1,3,5,7,9,11,13,-1,-1,-1,-1,-1,-1,-1,-1],"loss_changes":[2.6921728E-3,1.3129362E-3,3.857379E-3,1.7217515E-3,1.1821724E-3,8.668001E-4,5.005973E-4,0E0,0E0,0E0,0E0,0E0,0E0,0E0,0E0],"parents":[2147483647,0,0,1,1,2,2,3,3,4,4,5,5,6,6],"right_children":[2,4,6,8,10,12,14,-1,-1,-1,-1,-1,-1,-1,-1],"split_conditions":[1.1962083E5,1.17785625E5,5.750829E1,1.106775E5,-7.1008354E1,1.119089E0,1.2050111E5,-1.0020153E-6,1.24507815E-5,-1.1894965E-5,5.246572E-7,-4.487794E-5,5.284618E-6,-1.9188288E-5,1.367078E-5],"split_indices":[9,6,8,4,8,5,4,0,0,0,0,0,0,0,0],"split_type":[0,0,0,0,0,0,0,0,0,0,0,0,0,0,0],"sum_hessian":[9.287E3,8.596E3,6.91E2,3.807E3,4.789E3,3.86E2,3.05E2,1.852E3,1.955E3,9.57E2,3.832E3,3.48E2,3.8E1,5.6E1,2.49E2],"tree_param":{"num_deleted":"0","num_feature":"10","num_nodes":"15","size_leaf_vector":"1"}},{"base_weights":[-2.1491624E-7,1.1872834E-4,-2.4037915E-3,4.729165E-4,-3.5633295E-4,-4.9931263E-3,6.460901E-4,5.823031E-6,-1.6934428E-5,-6.687387E-6,6.3288576E-6,-1.230562E-4,-3.99435E-5,4.380479E-5,-5.145342E-6],"categories":[],"categories_nodes":[],"categories_segments":[],"categories_sizes":[],"default_left":[0,0,0,0,0,0,0,0,0,0,0,0,0,0,0],"id":34,"left_children":[1,3,5,7,9,11,13,-1,-1,-1,-1,-1,-1,-1,-1],"loss_changes":[2.6556246E-3,1.4894473E-3,3.462184E-3,1.2026649E-3,1.1688946E-3,1.681787E-3,8.7776687E-4,0E0,0E0,0E0,0E0,0E0,0E0,0E0,0E0],"parents":[2147483647,0,0,1,1,2,2,3,3,4,4,5,5,6,6],"right_children":[2,4,6,8,10,12,14,-1,-1,-1,-1,-1,-1,-1,-1],"split_conditions":[1.2054249E5,1.180434E5,4.45515E1,5.828856E1,8.353265E1,1.211431E5,1.2183553E5,5.823031E-6,-1.6934428E-5,-6.687387E-6,6.3288576E-6,-1.230562E-4,-3.99435E-5,4.380479E-5,-5.145342E-6],"split_indices":[9,7,8,3,8,7,0,0,0,0,0,0,0,0,0],"split_type":[0,0,0,0,0,0,0,0,0,0,0,0,0,0,0],"sum_hessian":[9.287E3,8.85E3,4.37E2,5.07E3,3.78E3,2.36E2,2.01E2,4.827E3,2.43E2,2.873E3,9.07E2,2.7E1,2.09E2,4.7E1,1.54E2],"tree_param":{"num_deleted":"0","num_feature":"10","num_nodes":"15","size_leaf_vector":"1"}},{"base_weights":[-2.2739619E-7,1.17539756E-4,-2.3800374E-3,4.681851E-4,-3.527697E-4,-4.9438826E-3,6.3982065E-4,5.4136303E-6,-2.7185193E-5,-6.620537E-6,6.265638E-6,-1.0277107E-4,-3.6056343E-5,4.337587E-5,-5.09422E-6],"categories":[],"categories_nodes":[],"categories_segments":[],"categories_sizes":[],"default_left":[0,0,0,0,0,0,0,0,0,0,0,0,0,0,0],"id":35,"left_children":[1,3,5,7,9,11,13,-1,-1,-1,-1,-1,-1,-1,-1],"loss_changes":[2.6033667E-3,1.4597998E-3,3.3943558E-3,1.1840106E-3,1.1456502E-3,1.6544559E-3,8.606351E-4,0E0,0E0,0E0,0E0,0E0,0E0,0E0,0E0],"parents":[2147483647,0,0,1,1,2,2,3,3,4,4,5,5,6,6],"right_children":[2,4,6,8,10,12,14,-1,-1,-1,-1,-1,-1,-1,-1],"split_conditions":[1.2054249E5,1.180434E5,4.45515E1,1.077206E5,8.353265E1,1.21219E5,1.2183553E5,5.4136303E-6,-2.7185193E-5,-6.620537E-6,6.265638E-6,-1.0277107E-4,-3.6056343E-5,4.337587E-5,-5.09422E-6],"split_indices":[9,7,8,1,8,2,0,0,0,0,0,0,0,0,0],"split_type":[0,0,0,0,0,0,0,0,0,0,0,0,0,0,0],"sum_hessian":[9.287E3,8.85E3,4.37E2,5.07E3,3.78E3,2.36E2,2.01E2,4.957E3,1.13E2,2.873E3,9.07E2,4.6E1,1.9E2,4.7E1,1.54E2],"tree_param":{"num_deleted":"0","num_feature":"10","num_nodes":"15","size_leaf_vector":"1"}},{"base_weights":[-2.3832433E-7,1.16361865E-4,-2.3564666E-3,4.63499E-4,-3.4924212E-4,-4.8950296E-3,6.3361187E-4,5.7181824E-6,-1.6817019E-5,-6.554354E-6,6.2030513E-6,-1.2087858E-4,-3.912676E-5,4.295115E-5,-5.043607E-6],"categories":[],"categories_nodes":[],"categories_segments":[],"categories_sizes":[],"default_left":[0,0,0,0,0,0,0,0,0,0,0,0,0,0,0],"id":36,"left_children":[1,3,5,7,9,11,13,-1,-1,-1,-1,-1,-1,-1,-1],"loss_changes":[2.5520283E-3,1.430735E-3,3.3277415E-3,1.179293E-3,1.1228678E-3,1.6273228E-3,8.438377E-4,0E0,0E0,0E0,0E0,0E0,0E0,0E0,0E0],"parents":[2147483647,0,0,1,1,2,2,3,3,4,4,5,5,6,6],"right_children":[2,4,6,8,10,12,14,-1,-1,-1,-1,-1,-1,-1,-1],"split_conditions":[1.2054249E5,1.180434E5,4.45515E1,5.828856E1,8.353265E1,1.211431E5,1.2183553E5,5.7181824E-6,-1.6817019E-5,-6.554354E-6,6.2030513E-6,-1.2087858E-4,-3.912676E-5,4.295115E-5,-5.043607E-6],"split_indices":[9,7,8,3,8,7,0,0,0,0,0,0,0,0,0],"split_type":[0,0,0,0,0,0,0,0,0,0,0,0,0,0,0],"sum_hessian":[9.287E3,8.85E3,4.37E2,5.07E3,3.78E3,2.36E2,2.01E2,4.827E3,2.43E2,2.873E3,9.07E2,2.7E1,2.09E2,4.7E1,1.54E2],"tree_param":{"num_deleted":"0","num_feature":"10","num_nodes":"15","size_leaf_vector":"1"}},{"base_weights":[-2.503307E-7,1.7849525E-4,-1.5123066E-3,-9.6636004E-4,3.0469158E-4,-3.5551398E-3,3.346258E-5,1.0376564E-5,-1.7150078E-5,-1.2810116E-6,6.8728555E-6,1.0618112E-5,-4.2051215E-5,-1.2206651E-5,9.6421745E-6],"categories":[],"categories_nodes":[],"categories_segments":[],"categories_sizes":[],"default_left":[0,0,0,0,0,0,0,0,0,0,0,0,0,0,0],"id":37,"left_children":[1,3,5,7,9,11,13,-1,-1,-1,-1,-1,-1,-1,-1],"loss_changes":[2.510569E-3,1.2004608E-3,3.1010285E-3,1.2395293E-3,1.2391525E-3,1.2738598E-3,6.5485685E-4,0E0,0E0,0E0,0E0,0E0,0E0,0E0,0E0],"parents":[2147483647,0,0,1,1,2,2,3,3,4,4,5,5,6,6],"right_children":[2,4,6,8,10,12,14,-1,-1,-1,-1,-1,-1,-1,-1],"split_conditions":[1.19221375E5,-1.1586552E2,-2.0579572E0,1.1555E5,4.0418285E-1,-2.3222789E2,1.2029486E5,1.0376564E-5,-1.7150078E-5,-1.2810116E-6,6.8728555E-6,1.0618112E-5,-4.2051215E-5,-1.2206651E-5,9.6421745E-6],"split_indices":[9,8,8,2,5,8,4,0,0,0,0,0,0,0,0],"split_type":[0,0,0,0,0,0,0,0,0,0,0,0,0,0,0],"sum_hessian":[9.287E3,8.306E3,9.81E2,8.24E2,7.482E3,4.22E2,5.59E2,2.24E2,6E2,3.511E3,3.971E3,5.2E1,3.7E2,2.38E2,3.21E2],"tree_param":{"num_deleted":"0","num_feature":"10","num_nodes":"15","size_leaf_vector":"1"}},{"base_weights":[-2.5160858E-7,1.461828E-4,-1.819466E-3,6.079572E-4,-1.6315999E-4,-3.8296646E-3,7.2878983E-4,-1.1609485E-6,1.4476945E-5,-1.2883473E-5,2.2118051E-7,-4.3144388E-5,6.0664074E-6,-1.9026184E-5,1.3258356E-5],"categories":[],"categories_nodes":[],"categories_segments":[],"categories_sizes":[],"default_left":[0,0,0,0,0,0,0,0,0,0,0,0,0,0,0],"id":38,"left_children":[1,3,5,7,9,11,13,-1,-1,-1,-1,-1,-1,-1,-1],"loss_changes":[2.4745483E-3,1.2281513E-3,3.5475604E-3,2.0972067E-3,1.0734533E-3,8.349023E-4,4.8327039E-4,0E0,0E0,0E0,0E0,0E0,0E0,0E0,0E0],"parents":[2147483647,0,0,1,1,2,2,3,3,4,4,5,5,6,6],"right_children":[2,4,6,8,10,12,14,-1,-1,-1,-1,-1,-1,-1,-1],"split_conditions":[1.1962083E5,1.1759822E5,5.750829E1,1.106775E5,-9.676171E1,1.119089E0,1.2050111E5,-1.1609485E-6,1.4476945E-5,-1.2883473E-5,2.2118051E-7,-4.3144388E-5,6.0664074E-6,-1.9026184E-5,1.3258356E-5],"split_indices":[9,6,8,4,8,5,4,0,0,0,0,0,0,0,0],"split_type":[0,0,0,0,0,0,0,0,0,0,0,0,0,0,0],"sum_hessian":[9.287E3,8.596E3,6.91E2,3.448E3,5.148E3,3.86E2,3.05E2,1.852E3,1.596E3,7.27E2,4.421E3,3.48E2,3.8E1,5.6E1,2.49E2],"tree_param":{"num_deleted":"0","num_feature":"10","num_nodes":"15","size_leaf_vector":"1"}},{"base_weights":[-2.536442E-7,1.1378321E-4,-2.3046827E-3,4.5051018E-4,-3.4671393E-4,-4.7749034E-3,6.049555E-4,5.222034E-6,-2.6978792E-5,-6.4744845E-6,5.9850267E-6,-1.001207E-4,-3.4611767E-5,4.230635E-5,-5.2173855E-6],"categories":[],"categories_nodes":[],"categories_segments":[],"categories_sizes":[],"default_left":[0,0,0,0,0,0,0,0,0,0,0,0,0,0,0],"id":39,"left_children":[1,3,5,7,9,11,13,-1,-1,-1,-1,-1,-1,-1,-1],"loss_changes":[2.4410544E-3,1.3726084E-3,3.150991E-3,1.1555054E-3,1.0632331E-3,1.5959549E-3,8.2738366E-4,0E0,0E0,0E0,0E0,0E0,0E0,0E0,0E0],"parents":[2147483647,0,0,1,1,2,2,3,3,4,4,5,5,6,6],"right_children":[2,4,6,8,10,12,14,-1,-1,-1,-1,-1,-1,-1,-1],"split_conditions":[1.2054249E5,1.18058E5,4.45515E1,1.077206E5,8.353265E1,1.21219E5,1.2183553E5,5.222034E-6,-2.6978792E-5,-6.4744845E-6,5.9850267E-6,-1.001207E-4,-3.4611767E-5,4.230635E-5,-5.2173855E-6],"split_indices":[9,7,8,1,8,2,0,0,0,0,0,0,0,0,0],"split_type":[0,0,0,0,0,0,0,0,0,0,0,0,0,0,0],"sum_hessian":[9.287E3,8.85E3,4.37E2,5.112E3,3.738E3,2.36E2,2.01E2,4.999E3,1.13E2,2.836E3,9.02E2,4.6E1,1.9E2,4.7E1,1.54E2],"tree_param":{"num_deleted":"0","num_feature":"10","num_nodes":"15","size_leaf_vector":"1"}},{"base_weights":[-2.6400807E-7,1.12642876E-4,-2.2818588E-3,4.4925566E-4,-3.3884513E-4,-4.7277226E-3,5.9908954E-4,5.5674586E-6,-1.6794816E-5,-2.8942553E-5,-2.2660415E-6,-1.17961135E-4,-3.7627575E-5,4.18921E-5,-5.1655484E-6],"categories":[],"categories_nodes":[],"categories_segments":[],"categories_sizes":[],"default_left":[0,0,0,0,0,0,0,0,0,0,0,0,0,0,0],"id":40,"left_children":[1,3,5,7,9,11,13,-1,-1,-1,-1,-1,-1,-1,-1],"loss_changes":[2.3929179E-3,1.3452974E-3,3.0891583E-3,1.1612733E-3,1.0838171E-3,1.5721321E-3,8.1123406E-4,0E0,0E0,0E0,0E0,0E0,0E0,0E0,0E0],"parents":[2147483647,0,0,1,1,2,2,3,3,4,4,5,5,6,6],"right_children":[2,4,6,8,10,12,14,-1,-1,-1,-1,-1,-1,-1,-1],"split_conditions":[1.2054249E5,1.180434E5,4.45515E1,5.828856E1,-1.6801208E2,1.211431E5,1.2183553E5,5.5674586E-6,-1.6794816E-5,-2.8942553E-5,-2.2660415E-6,-1.17961135E-4,-3.7627575E-5,4.18921E-5,-5.1655484E-6],"split_indices":[9,7,8,3,8,7,0,0,0,0,0,0,0,0,0],"split_type":[0,0,0,0,0,0,0,0,0,0,0,0,0,0,0],"sum_hessian":[9.287E3,8.85E3,4.37E2,5.07E3,3.78E3,2.36E2,2.01E2,4.827E3,2.43E2,1.58E2,3.622E3,2.7E1,2.09E2,4.7E1,1.54E2],"tree_param":{"num_deleted":"0","num_feature":"10","num_nodes":"15","size_leaf_vector":"1"}},{"base_weights":[-2.7872687E-7,1.1151166E-4,-2.2593117E-3,4.4156684E-4,-3.3986135E-4,-4.681102E-3,5.932804E-4,5.1256507E-6,-2.6762635E-5,-6.3723473E-6,5.947878E-6,-9.831103E-5,-3.3893157E-5,4.1481908E-5,-5.114226E-6],"categories":[],"categories_nodes":[],"categories_segments":[],"categories_sizes":[],"default_left":[0,0,0,0,0,0,0,0,0,0,0,0,0,0,0],"id":41,"left_children":[1,3,5,7,9,11,13,-1,-1,-1,-1,-1,-1,-1,-1],"loss_changes":[2.3458265E-3,1.3187543E-3,3.0286477E-3,1.1331876E-3,1.0395959E-3,1.5433691E-3,7.953997E-4,0E0,0E0,0E0,0E0,0E0,0E0,0E0,0E0],"parents":[2147483647,0,0,1,1,2,2,3,3,4,4,5,5,6,6],"right_children":[2,4,6,8,10,12,14,-1,-1,-1,-1,-1,-1,-1,-1],"split_conditions":[1.2054249E5,1.18058E5,4.45515E1,1.077206E5,8.353265E1,1.21219E5,1.2183553E5,5.1256507E-6,-2.6762635E-5,-6.3723473E-6,5.947878E-6,-9.831103E-5,-3.3893157E-5,4.1481908E-5,-5.114226E-6],"split_indices":[9,7,8,1,8,2,0,0,0,0,0,0,0,0,0],"split_type":[0,0,0,0,0,0,0,0,0,0,0,0,0,0,0],"sum_hessian":[9.287E3,8.85E3,4.37E2,5.112E3,3.738E3,2.36E2,2.01E2,4.999E3,1.13E2,2.836E3,9.02E2,4.6E1,1.9E2,4.7E1,1.54E2],"tree_param":{"num_deleted":"0","num_feature":"10","num_nodes":"15","size_leaf_vector":"1"}},{"base_weights":[-2.8864338E-7,1.4094601E-4,-1.7549042E-3,5.892248E-4,-1.5935591E-4,-3.615826E-3,8.218844E-4,-1.2636558E-6,1.4191557E-5,-1.2696477E-5,2.3469012E-7,-4.0664203E-5,6.8243394E-6,2.152876E-5,-4.7868775E-6],"categories":[],"categories_nodes":[],"categories_segments":[],"categories_sizes":[],"default_left":[0,0,0,0,0,0,0,0,0,0,0,0,0,0,0],"id":42,"left_children":[1,3,5,7,9,11,13,-1,-1,-1,-1,-1,-1,-1,-1],"loss_changes":[2.30193E-3,1.1574134E-3,3.3212514E-3,2.0485083E-3,1.0452204E-3,7.8135775E-4,5.047663E-4,0E0,0E0,0E0,0E0,0E0,0E0,0E0,0E0],"parents":[2147483647,0,0,1,1,2,2,3,3,4,4,5,5,6,6],"right_children":[2,4,6,8,10,12,14,-1,-1,-1,-1,-1,-1,-1,-1],"split_conditions":[1.1962083E5,1.1759822E5,6.442823E1,1.106775E5,-9.676171E1,1.119089E0,1.2176868E5,-1.2636558E-6,1.4191557E-5,-1.2696477E-5,2.3469012E-7,-4.0664203E-5,6.8243394E-6,2.152876E-5,-4.7868775E-6],"split_indices":[9,6,8,4,8,5,4,0,0,0,0,0,0,0,0],"split_type":[0,0,0,0,0,0,0,0,0,0,0,0,0,0,0],"sum_hessian":[9.287E3,8.596E3,6.91E2,3.448E3,5.148E3,4.01E2,2.9E2,1.852E3,1.596E3,7.27E2,4.421E3,3.63E2,3.8E1,1.43E2,1.47E2],"tree_param":{"num_deleted":"0","num_feature":"10","num_nodes":"15","size_leaf_vector":"1"}},{"base_weights":[-2.8755073E-7,1.0941017E-4,-2.2170322E-3,-1.0229683E-3,2.3787507E-4,-9.699127E-3,-1.3142887E-3,9.989067E-6,-1.6924356E-5,5.910822E-6,-2.027527E-6,-1.6302297E-4,-7.473883E-5,-3.3186298E-5,5.874112E-6],"categories":[],"categories_nodes":[],"categories_segments":[],"categories_sizes":[],"default_left":[0,0,0,0,0,0,0,0,0,0,0,0,0,0,0],"id":43,"left_children":[1,3,5,7,9,11,13,-1,-1,-1,-1,-1,-1,-1,-1],"loss_changes":[2.2588228E-3,1.2878062E-3,2.9456853E-3,1.2226191E-3,1.2374013E-3,5.687601E-4,1.496118E-3,0E0,0E0,0E0,0E0,0E0,0E0,0E0,0E0],"parents":[2147483647,0,0,1,1,2,2,3,3,4,4,5,5,6,6],"right_children":[2,4,6,8,10,12,14,-1,-1,-1,-1,-1,-1,-1,-1],"split_conditions":[1.2054249E5,-1.1586552E2,1.21219E5,1.1555E5,1.179624E5,-1.6801208E2,4.45515E1,9.989067E-6,-1.6924356E-5,5.910822E-6,-2.027527E-6,-1.6302297E-4,-7.473883E-5,-3.3186298E-5,5.874112E-6],"split_indices":[9,8,2,2,2,8,8,0,0,0,0,0,0,0,0],"split_type":[0,0,0,0,0,0,0,0,0,0,0,0,0,0,0],"sum_hessian":[9.287E3,8.85E3,4.37E2,9.01E2,7.949E3,4.6E1,3.91E2,2.24E2,6.77E2,4.412E3,3.537E3,1E1,3.6E1,1.9E2,2.01E2],"tree_param":{"num_deleted":"0","num_feature":"10","num_nodes":"15","size_leaf_vector":"1"}},{"base_weights":[-3.1354102E-7,1.6775561E-4,-1.4220551E-3,1.2529078E-4,3.3903844E-3,-3.3550572E-3,4.059122E-5,1.7406093E-6,-3.274985E-5,-3.53182E-6,4.2980635E-5,1.165427E-5,-3.991797E-5,-1.1787431E-5,9.4549905E-6],"categories":[],"categories_nodes":[],"categories_segments":[],"categories_sizes":[],"default_left":[0,0,0,0,0,0,0,0,0,0,0,0,0,0,0],"id":44,"left_children":[1,3,5,7,9,11,13,-1,-1,-1,-1,-1,-1,-1,-1],"loss_changes":[2.2196146E-3,1.136375E-3,2.776543E-3,1.3603923E-3,3.6849733E-4,1.2222044E-3,6.190102E-4,0E0,0E0,0E0,0E0,0E0,0E0,0E0,0E0],"parents":[2147483647,0,0,1,1,2,2,3,3,4,4,5,5,6,6],"right_children":[2,4,6,8,10,12,14,-1,-1,-1,-1,-1,-1,-1,-1],"split_conditions":[1.19221375E5,1.196626E5,-2.0579572E0,9.255315E1,1.1867484E5,-2.3222789E2,1.2029486E5,1.7406093E-6,-3.274985E-5,-3.53182E-6,4.2980635E-5,1.165427E-5,-3.991797E-5,-1.1787431E-5,9.4549905E-6],"split_indices":[9,7,8,3,9,8,4,0,0,0,0,0,0,0,0],"split_type":[0,0,0,0,0,0,0,0,0,0,0,0,0,0,0],"sum_hessian":[9.287E3,8.306E3,9.81E2,8.199E3,1.07E2,4.22E2,5.59E2,8.084E3,1.15E2,2.1E1,8.6E1,5.2E1,3.7E2,2.38E2,3.21E2],"tree_param":{"num_deleted":"0","num_feature":"10","num_nodes":"15","size_leaf_vector":"1"}},{"base_weights":[-3.127874E-7,1.0770637E-4,-2.1831377E-3,-1.0119963E-3,2.347333E-4,-9.568125E-3,-1.2921235E-3,9.875357E-6,-1.6740652E-5,5.8399523E-6,-2.0097266E-6,-1.6117805E-4,-7.362325E-5,-3.2570068E-5,5.7215802E-6],"categories":[],"categories_nodes":[],"categories_segments":[],"categories_sizes":[],"default_left":[0,0,0,0,0,0,0,0,0,0,0,0,0,0,0],"id":45,"left_children":[1,3,5,7,9,11,13,-1,-1,-1,-1,-1,-1,-1,-1],"loss_changes":[2.190224E-3,1.2591365E-3,2.8697336E-3,1.195746E-3,1.2099127E-3,5.6035817E-4,1.4377969E-3,0E0,0E0,0E0,0E0,0E0,0E0,0E0,0E0],"parents":[2147483647,0,0,1,1,2,2,3,3,4,4,5,5,6,6],"right_children":[2,4,6,8,10,12,14,-1,-1,-1,-1,-1,-1,-1,-1],"split_conditions":[1.2054249E5,-1.1586552E2,1.21219E5,1.1555E5,1.179624E5,-1.6801208E2,4.45515E1,9.875357E-6,-1.6740652E-5,5.8399523E-6,-2.0097266E-6,-1.6117805E-4,-7.362325E-5,-3.2570068E-5,5.7215802E-6],"split_indices":[9,8,2,2,2,8,8,0,0,0,0,0,0,0,0],"split_type":[0,0,0,0,0,0,0,0,0,0,0,0,0,0,0],"sum_hessian":[9.287E3,8.85E3,4.37E2,9.01E2,7.949E3,4.6E1,3.91E2,2.24E2,6.77E2,4.412E3,3.537E3,1E1,3.6E1,1.9E2,2.01E2],"tree_param":{"num_deleted":"0","num_feature":"10","num_nodes":"15","size_leaf_vector":"1"}},{"base_weights":[-3.3815925E-7,1.3616147E-4,-1.6961285E-3,5.751695E-4,-1.5283964E-4,-3.499192E-3,8.005299E-4,-1.3861729E-6,1.4221085E-5,-1.2175117E-5,2.2169984E-7,-3.9425646E-5,7.286747E-6,2.126325E-5,-4.9484165E-6],"categories":[],"categories_nodes":[],"categories_segments":[],"categories_sizes":[],"default_left":[0,0,0,0,0,0,0,0,0,0,0,0,0,0,0],"id":46,"left_children":[1,3,5,7,9,11,13,-1,-1,-1,-1,-1,-1,-1,-1],"loss_changes":[2.1501684E-3,1.090822E-3,3.117931E-3,2.0634711E-3,9.66137E-4,7.5643E-4,5.008147E-4,0E0,0E0,0E0,0E0,0E0,0E0,0E0,0E0],"parents":[2147483647,0,0,1,1,2,2,3,3,4,4,5,5,6,6],"right_children":[2,4,6,8,10,12,14,-1,-1,-1,-1,-1,-1,-1,-1],"split_conditions":[1.1962083E5,1.17564234E5,6.442823E1,1.106775E5,-9.676171E1,1.119089E0,1.2176868E5,-1.3861729E-6,1.4221085E-5,-1.2175117E-5,2.2169984E-7,-3.9425646E-5,7.286747E-6,2.126325E-5,-4.9484165E-6],"split_indices":[9,6,8,4,8,5,4,0,0,0,0,0,0,0,0],"split_type":[0,0,0,0,0,0,0,0,0,0,0,0,0,0,0],"sum_hessian":[9.287E3,8.596E3,6.91E2,3.412E3,5.184E3,4.01E2,2.9E2,1.852E3,1.56E3,7.31E2,4.453E3,3.63E2,3.8E1,1.43E2,1.47E2],"tree_param":{"num_deleted":"0","num_feature":"10","num_nodes":"15","size_leaf_vector":"1"}},{"base_weights":[-3.3637613E-7,1.0567415E-4,-2.1425711E-3,-9.972778E-4,2.3080081E-4,-9.442829E-3,-1.2618194E-3,9.693354E-6,-1.6484439E-5,5.7454313E-6,-1.9801935E-6,-1.5935439E-4,-7.257382E-5,-3.1888118E-5,5.6648455E-6],"categories":[],"categories_nodes":[],"categories_segments":[],"categories_sizes":[],"default_left":[0,0,0,0,0,0,0,0,0,0,0,0,0,0,0],"id":47,"left_children":[1,3,5,7,9,11,13,-1,-1,-1,-1,-1,-1,-1,-1],"loss_changes":[2.109526E-3,1.221745E-3,2.8042998E-3,1.1566922E-3,1.1719728E-3,5.5124564E-4,1.3828727E-3,0E0,0E0,0E0,0E0,0E0,0E0,0E0,0E0],"parents":[2147483647,0,0,1,1,2,2,3,3,4,4,5,5,6,6],"right_children":[2,4,6,8,10,12,14,-1,-1,-1,-1,-1,-1,-1,-1],"split_conditions":[1.2054249E5,-1.1586552E2,1.21219E5,1.1555E5,1.179624E5,-1.6801208E2,4.45515E1,9.693354E-6,-1.6484439E-5,5.7454313E-6,-1.9801935E-6,-1.5935439E-4,-7.257382E-5,-3.1888118E-5,5.6648455E-6],"split_indices":[9,8,2,2,2,8,8,0,0,0,0,0,0,0,0],"split_type":[0,0,0,0,0,0,0,0,0,0,0,0,0,0,0],"sum_hessian":[9.287E3,8.85E3,4.37E2,9.01E2,7.949E3,4.6E1,3.91E2,2.24E2,6.77E2,4.412E3,3.537E3,1E1,3.6E1,1.9E2,2.01E2],"tree_param":{"num_deleted":"0","num_feature":"10","num_nodes":"15","size_leaf_vector":"1"}},{"base_weights":[-3.6115367E-7,2.7236613E-4,-8.181907E-4,3.7311006E-4,-1.2373376E-3,-1.5401146E-3,6.831562E-4,-7.1976854E-7,8.172658E-6,-3.088133E-5,-1.3180111E-6,-1.0243277E-5,-4.0514635E-5,-1.7615559E-5,1.375149E-5],"categories":[],"categories_nodes":[],"categories_segments":[],"categories_sizes":[],"default_left":[0,0,0,0,0,0,0,0,0,0,0,0,0,0,0],"id":48,"left_children":[1,3,5,7,9,11,13,-1,-1,-1,-1,-1,-1,-1,-1],"loss_changes":[2.0718595E-3,1.0599446E-3,2.518855E-3,1.2911586E-3,8.9170213E-4,2.0282087E-3,1.2796735E-3,0E0,0E0,0E0,0E0,0E0,0E0,0E0,0E0],"parents":[2147483647,0,0,1,1,2,2,3,3,4,4,5,5,6,6],"right_children":[2,4,6,8,10,12,14,-1,-1,-1,-1,-1,-1,-1,-1],"split_conditions":[1.19013805E5,5.0784004E1,7.79693E1,4.111976E-1,1.1484697E5,1.20341766E5,1.193722E5,-7.1976854E-7,8.172658E-6,-3.088133E-5,-1.3180111E-6,-1.0243277E-5,-4.0514635E-5,-1.7615559E-5,1.375149E-5],"split_indices":[6,3,8,5,9,9,6,0,0,0,0,0,0,0,0],"split_type":[0,0,0,0,0,0,0,0,0,0,0,0,0,0,0],"sum_hessian":[9.287E3,6.965E3,2.322E3,6.53E3,4.35E2,1.568E3,7.54E2,3.262E3,3.268E3,1.62E2,2.73E2,1.302E3,2.66E2,1.66E2,5.88E2],"tree_param":{"num_deleted":"0","num_feature":"10","num_nodes":"15","size_leaf_vector":"1"}},{"base_weights":[-3.6608023E-7,1.3261763E-4,-1.6524767E-3,-9.049991E-4,2.4986122E-4,-3.407223E-3,7.772843E-4,9.5495025E-6,-1.5484253E-5,-1.4738217E-6,5.866175E-6,-3.8457867E-5,7.734046E-6,2.093742E-5,-5.088452E-6],"categories":[],"categories_nodes":[],"categories_segments":[],"categories_sizes":[],"default_left":[0,0,0,0,0,0,0,0,0,0,0,0,0,0,0],"id":49,"left_children":[1,3,5,7,9,11,13,-1,-1,-1,-1,-1,-1,-1,-1],"loss_changes":[2.0408279E-3,1.0460849E-3,2.9530695E-3,1.0462328E-3,1.0334924E-3,7.400303E-4,4.937676E-4,0E0,0E0,0E0,0E0,0E0,0E0,0E0,0E0],"parents":[2147483647,0,0,1,1,2,2,3,3,4,4,5,5,6,6],"right_children":[2,4,6,8,10,12,14,-1,-1,-1,-1,-1,-1,-1,-1],"split_conditions":[1.1962083E5,-1.1586552E2,6.442823E1,1.1555E5,4.0418285E-1,1.119089E0,1.2176868E5,9.5495025E-6,-1.5484253E-5,-1.4738217E-6,5.866175E-6,-3.8457867E-5,7.734046E-6,2.093742E-5,-5.088452E-6],"split_indices":[9,8,8,2,5,5,4,0,0,0,0,0,0,0,0],"split_type":[0,0,0,0,0,0,0,0,0,0,0,0,0,0,0],"sum_hessian":[9.287E3,8.596E3,6.91E2,8.72E2,7.724E3,4.01E2,2.9E2,2.24E2,6.48E2,3.544E3,4.18E3,3.63E2,3.8E1,1.43E2,1.47E2],"tree_param":{"num_deleted":"0","num_feature":"10","num_nodes":"15","size_leaf_vector":"1"}},{"base_weights":[-3.6419416E-7,2.6823033E-4,-8.058007E-4,3.6809174E-4,-1.2282449E-3,-1.5156842E-3,6.7050784E-4,-6.9931514E-7,8.051984E-6,-3.0635245E-5,-1.3197181E-6,-1.00996285E-5,-3.9780032E-5,-1.7481627E-5,1.3551386E-5],"categories":[],"categories_nodes":[],"categories_segments":[],"categories_sizes":[],"default_left":[0,0,0,0,0,0,0,0,0,0,0,0,0,0,0],"id":50,"left_children":[1,3,5,7,9,11,13,-1,-1,-1,-1,-1,-1,-1,-1],"loss_changes":[2.0095436E-3,1.0414522E-3,2.4355366E-3,1.2505006E-3,8.768136E-4,1.9497757E-3,1.2525707E-3,0E0,0E0,0E0,0E0,0E0,0E0,0E0,0E0],"parents":[2147483647,0,0,1,1,2,2,3,3,4,4,5,5,6,6],"right_children":[2,4,6,8,10,12,14,-1,-1,-1,-1,-1,-1,-1,-1],"split_conditions":[1.19013805E5,5.0784004E1,7.79693E1,4.111976E-1,1.1484697E5,1.20341766E5,1.193722E5,-6.9931514E-7,8.051984E-6,-3.0635245E-5,-1.3197181E-6,-1.00996285E-5,-3.9780032E-5,-1.7481627E-5,1.3551386E-5],"split_indices":[6,3,8,5,9,9,6,0,0,0,0,0,0,0,0],"split_type":[0,0,0,0,0,0,0,0,0,0,0,0,0,0,0],"sum_hessian":[9.287E3,6.965E3,2.322E3,6.53E3,4.35E2,1.568E3,7.54E2,3.262E3,3.268E3,1.62E2,2.73E2,1.302E3,2.66E2,1.66E2,5.88E2],"tree_param":{"num_deleted":"0","num_feature":"10","num_nodes":"15","size_leaf_vector":"1"}},{"base_weights":[-3.6898825E-7,1.4808001E-4,-1.433276E-3,-9.1319194E-4,2.6819383E-4,-3.3812735E-3,2.2796625E-5,9.407943E-6,-1.5717897E-5,2.4039193E-6,5.7666435E-5,1.2075926E-5,-3.982876E-5,-1.29031305E-5,1.0675548E-5],"categories":[],"categories_nodes":[],"categories_segments":[],"categories_sizes":[],"default_left":[0,0,0,0,0,0,0,0,0,0,0,0,0,0,0],"id":51,"left_children":[1,3,5,7,9,11,13,-1,-1,-1,-1,-1,-1,-1,-1],"loss_changes":[1.9758965E-3,1.0731887E-3,2.47344E-3,1.0466812E-3,1.1545967E-3,1.034541E-3,6.8731856E-4,0E0,0E0,0E0,0E0,0E0,0E0,0E0,0E0],"parents":[2147483647,0,0,1,1,2,2,3,3,4,4,5,5,6,6],"right_children":[2,4,6,8,10,12,14,-1,-1,-1,-1,-1,-1,-1,-1],"split_conditions":[1.1931653E5,-1.1586552E2,-2.0579572E0,1.1555E5,1.2013081E5,-2.3222789E2,1.20215664E5,9.407943E-6,-1.5717897E-5,2.4039193E-6,5.7666435E-5,1.2075926E-5,-3.982876E-5,-1.29031305E-5,1.0675548E-5],"split_indices":[9,8,8,2,6,8,9,0,0,0,0,0,0,0,0],"split_type":[0,0,0,0,0,0,0,0,0,0,0,0,0,0,0],"sum_hessian":[9.287E3,8.416E3,8.71E2,8.55E2,7.561E3,3.72E2,4.99E2,2.24E2,6.31E2,7.524E3,3.7E1,4.3E1,3.29E2,2.21E2,2.78E2],"tree_param":{"num_deleted":"0","num_feature":"10","num_nodes":"15","size_leaf_vector":"1"}},{"base_weights":[-3.6272664E-7,2.639693E-4,-7.9301733E-4,3.627557E-4,-1.216393E-3,-1.4909713E-3,6.584832E-4,-7.157967E-7,7.961829E-6,-3.0360858E-5,-1.2943557E-6,-9.940697E-6,-3.9103412E-5,-1.7331753E-5,1.3354755E-5],"categories":[],"categories_nodes":[],"categories_segments":[],"categories_sizes":[],"default_left":[0,0,0,0,0,0,0,0,0,0,0,0,0,0,0],"id":52,"left_children":[1,3,5,7,9,11,13,-1,-1,-1,-1,-1,-1,-1,-1],"loss_changes":[1.9462684E-3,1.0191466E-3,2.3543679E-3,1.2295358E-3,8.6198375E-4,1.8823473E-3,1.2247611E-3,0E0,0E0,0E0,0E0,0E0,0E0,0E0,0E0],"parents":[2147483647,0,0,1,1,2,2,3,3,4,4,5,5,6,6],"right_children":[2,4,6,8,10,12,14,-1,-1,-1,-1,-1,-1,-1,-1],"split_conditions":[1.19013805E5,5.0784004E1,7.79693E1,4.111976E-1,1.1484697E5,1.20341766E5,1.193722E5,-7.157967E-7,7.961829E-6,-3.0360858E-5,-1.2943557E-6,-9.940697E-6,-3.9103412E-5,-1.7331753E-5,1.3354755E-5],"split_indices":[6,3,8,5,9,9,6,0,0,0,0,0,0,0,0],"split_type":[0,0,0,0,0,0,0,0,0,0,0,0,0,0,0],"sum_hessian":[9.287E3,6.965E3,2.322E3,6.53E3,4.35E2,1.568E3,7.54E2,3.262E3,3.268E3,1.62E2,2.73E2,1.302E3,2.66E2,1.66E2,5.88E2],"tree_param":{"num_deleted":"0","num_feature":"10","num_nodes":"15","size_leaf_vector":"1"}},{"base_weights":[-3.6743916E-7,1.0065753E-4,-2.0418551E-3,-9.7043253E-4,2.2216981E-4,-9.163788E-3,-1.1827413E-3,-8.780296E-6,-1.4622926E-4,1.8943823E-6,4.6726556E-5,-1.5610858E-4,-6.999421E-5,-2.9750867E-5,5.1785637E-6],"categories":[],"categories_nodes":[],"categories_segments":[],"categories_sizes":[],"default_left":[0,0,0,0,0,0,0,0,0,0,0,0,0,0,0],"id":53,"left_children":[1,3,5,7,9,11,13,-1,-1,-1,-1,-1,-1,-1,-1],"loss_changes":[1.9157741E-3,1.1521785E-3,2.6690871E-3,1.1250607E-3,1.1572028E-3,5.465625E-4,1.1963795E-3,0E0,0E0,0E0,0E0,0E0,0E0,0E0,0E0],"parents":[2147483647,0,0,1,1,2,2,3,3,4,4,5,5,6,6],"right_children":[2,4,6,8,10,12,14,-1,-1,-1,-1,-1,-1,-1,-1],"split_conditions":[1.2054249E5,-1.1586552E2,1.21219E5,1.20686E5,1.20215664E5,-1.6801208E2,4.45515E1,-8.780296E-6,-1.4622926E-4,1.8943823E-6,4.6726556E-5,-1.5610858E-4,-6.999421E-5,-2.9750867E-5,5.1785637E-6],"split_indices":[9,8,2,2,9,8,8,0,0,0,0,0,0,0,0],"split_type":[0,0,0,0,0,0,0,0,0,0,0,0,0,0,0],"sum_hessian":[9.287E3,8.85E3,4.37E2,9.01E2,7.949E3,4.6E1,3.91E2,8.96E2,5E0,7.892E3,5.7E1,1E1,3.6E1,1.9E2,2.01E2],"tree_param":{"num_deleted":"0","num_feature":"10","num_nodes":"15","size_leaf_vector":"1"}},{"base_weights":[-4.0220743E-7,2.9095687E-4,-7.022299E-4,3.4338425E-4,-2.6783422E-3,-1.2864367E-3,6.0353935E-4,4.366172E-6,-1.1389915E-5,-3.795079E-5,-1.5346808E-5,-8.915923E-6,-3.8384183E-5,-8.322334E-6,1.3540276E-5],"categories":[],"categories_nodes":[],"categories_segments":[],"categories_sizes":[],"default_left":[0,0,0,0,0,0,0,0,0,0,0,0,0,0,0],"id":54,"left_children":[1,3,5,7,9,11,13,-1,-1,-1,-1,-1,-1,-1,-1],"loss_changes":[1.8994506E-3,1.0227547E-3,2.079513E-3,8.9206616E-4,1.3977307E-4,1.8939553E-3,9.094853E-4,0E0,0E0,0E0,0E0,0E0,0E0,0E0,0E0],"parents":[2147483647,0,0,1,1,2,2,3,3,4,4,5,5,6,6],"right_children":[2,4,6,8,10,12,14,-1,-1,-1,-1,-1,-1,-1,-1],"split_conditions":[1.185356E5,1.077206E5,8.900504E1,5.0784004E1,2.5446827E0,1.2054249E5,1.193722E5,4.366172E-6,-1.1389915E-5,-3.795079E-5,-1.5346808E-5,-8.915923E-6,-3.8384183E-5,-8.322334E-6,1.3540276E-5],"split_indices":[7,1,8,3,8,9,6,0,0,0,0,0,0,0,0],"split_type":[0,0,0,0,0,0,0,0,0,0,0,0,0,0,0],"sum_hessian":[9.287E3,6.563E3,2.724E3,6.45E3,1.13E2,1.882E3,8.42E2,6.069E3,3.81E2,5.6E1,5.7E1,1.631E3,2.51E2,2.89E2,5.53E2],"tree_param":{"num_deleted":"0","num_feature":"10","num_nodes":"15","size_leaf_vector":"1"}},{"base_weights":[-4.092176E-7,1.2671584E-4,-1.5797353E-3,5.4936577E-4,-1.515158E-4,-3.7714916E-3,1.6754166E-4,-1.5896429E-6,1.3898439E-5,-1.1622293E-5,1.4625617E-7,1.3243041E-5,-4.3486434E-5,-1.9526879E-5,1.131377E-5],"categories":[],"categories_nodes":[],"categories_segments":[],"categories_sizes":[],"default_left":[0,0,0,0,0,0,0,0,0,0,0,0,0,0,0],"id":55,"left_children":[1,3,5,7,9,11,13,-1,-1,-1,-1,-1,-1,-1,-1],"loss_changes":[1.8649697E-3,1.0110439E-3,2.6507187E-3,2.032102E-3,8.706893E-4,9.0866117E-4,7.910204E-4,0E0,0E0,0E0,0E0,0E0,0E0,0E0,0E0],"parents":[2147483647,0,0,1,1,2,2,3,3,4,4,5,5,6,6],"right_children":[2,4,6,8,10,12,14,-1,-1,-1,-1,-1,-1,-1,-1],"split_conditions":[1.1962083E5,1.17564234E5,1.3629777E1,1.106775E5,-9.676171E1,-2.3222789E2,1.20215664E5,-1.5896429E-6,1.3898439E-5,-1.1622293E-5,1.4625617E-7,1.3243041E-5,-4.3486434E-5,-1.9526879E-5,1.131377E-5],"split_indices":[9,6,8,4,8,8,9,0,0,0,0,0,0,0,0],"split_type":[0,0,0,0,0,0,0,0,0,0,0,0,0,0,0],"sum_hessian":[9.287E3,8.596E3,6.91E2,3.412E3,5.184E3,3.06E2,3.85E2,1.852E3,1.56E3,7.31E2,4.453E3,3.1E1,2.75E2,1.2E2,2.65E2],"tree_param":{"num_deleted":"0","num_feature":"10","num_nodes":"15","size_leaf_vector":"1"}},{"base_weights":[-4.0915853E-7,2.5628635E-4,-7.70164E-4,3.532838E-4,-1.1972608E-3,-1.4472387E-3,6.3791603E-4,-7.7311734E-7,7.829809E-6,-3.0021753E-5,-1.1916471E-6,-9.711438E-6,-3.7652328E-5,-1.709657E-5,1.3024436E-5],"categories":[],"categories_nodes":[],"categories_segments":[],"categories_sizes":[],"default_left":[0,0,0,0,0,0,0,0,0,0,0,0,0,0,0],"id":56,"left_children":[1,3,5,7,9,11,13,-1,-1,-1,-1,-1,-1,-1,-1],"loss_changes":[1.8354376E-3,9.82562E-4,2.215614E-3,1.2084632E-3,8.480421E-4,1.7278688E-3,1.1800474E-3,0E0,0E0,0E0,0E0,0E0,0E0,0E0,0E0],"parents":[2147483647,0,0,1,1,2,2,3,3,4,4,5,5,6,6],"right_children":[2,4,6,8,10,12,14,-1,-1,-1,-1,-1,-1,-1,-1],"split_conditions":[1.19013805E5,5.0784004E1,7.79693E1,4.111976E-1,1.1484697E5,1.20341766E5,1.193722E5,-7.7311734E-7,7.829809E-6,-3.0021753E-5,-1.1916471E-6,-9.711438E-6,-3.7652328E-5,-1.709657E-5,1.3024436E-5],"split_indices":[6,3,8,5,9,9,6,0,0,0,0,0,0,0,0],"split_type":[0,0,0,0,0,0,0,0,0,0,0,0,0,0,0],"sum_hessian":[9.287E3,6.965E3,2.322E3,6.53E3,4.35E2,1.568E3,7.54E2,3.262E3,3.268E3,1.62E2,2.73E2,1.302E3,2.66E2,1.66E2,5.88E2],"tree_param":{"num_deleted":"0","num_feature":"10","num_nodes":"15","size_leaf_vector":"1"}},{"base_weights":[-4.132112E-7,3.9804116E-4,-4.8827165E-4,4.6750854E-4,-2.6522651E-3,-8.466806E-4,5.2849157E-4,5.71491E-6,-1.5704185E-5,-3.7564692E-5,-1.5213704E-5,-5.754959E-6,-3.6521233E-5,-2.866207E-6,1.27117555E-5],"categories":[],"categories_nodes":[],"categories_segments":[],"categories_sizes":[],"default_left":[0,0,0,0,0,0,0,0,0,0,0,0,0,0,0],"id":57,"left_children":[1,3,5,7,9,11,13,-1,-1,-1,-1,-1,-1,-1,-1],"loss_changes":[1.8056824E-3,1.0846681E-3,1.5222528E-3,1.0604414E-3,1.3664126E-4,2.347227E-3,6.596133E-4,0E0,0E0,0E0,0E0,0E0,0E0,0E0,0E0],"parents":[2147483647,0,0,1,1,2,2,3,3,4,4,5,5,6,6],"right_children":[2,4,6,8,10,12,14,-1,-1,-1,-1,-1,-1,-1,-1],"split_conditions":[1.18058E5,1.077206E5,8.353265E1,5.828856E1,2.5446827E0,1.20341766E5,1.193722E5,5.71491E-6,-1.5704185E-5,-3.7564692E-5,-1.5213704E-5,-5.754959E-6,-3.6521233E-5,-2.866207E-6,1.27117555E-5],"split_indices":[7,1,8,3,8,9,6,0,0,0,0,0,0,0,0],"split_type":[0,0,0,0,0,0,0,0,0,0,0,0,0,0,0],"sum_hessian":[9.287E3,5.112E3,4.175E3,4.999E3,1.13E2,3.087E3,1.088E3,4.757E3,2.42E2,5.6E1,5.7E1,2.816E3,2.71E2,5.19E2,5.69E2],"tree_param":{"num_deleted":"0","num_feature":"10","num_nodes":"15","size_leaf_vector":"1"}},{"base_weights":[-4.193074E-7,2.8163125E-4,-6.798246E-4,3.3297396E-4,-2.6262056E-3,-1.2445274E-3,5.823524E-4,4.23679E-6,-1.109206E-5,-3.7195634E-5,-1.506419E-5,-8.654116E-6,-3.6948153E-5,-8.139241E-6,1.312204E-5],"categories":[],"categories_nodes":[],"categories_segments":[],"categories_sizes":[],"default_left":[0,0,0,0,0,0,0,0,0,0,0,0,0,0,0],"id":58,"left_children":[1,3,5,7,9,11,13,-1,-1,-1,-1,-1,-1,-1,-1],"loss_changes":[1.7800198E-3,9.808547E-4,1.9429816E-3,8.4434485E-4,1.3397005E-4,1.7460024E-3,8.6014805E-4,0E0,0E0,0E0,0E0,0E0,0E0,0E0,0E0],"parents":[2147483647,0,0,1,1,2,2,3,3,4,4,5,5,6,6],"right_children":[2,4,6,8,10,12,14,-1,-1,-1,-1,-1,-1,-1,-1],"split_conditions":[1.185356E5,1.077206E5,8.900504E1,5.0784004E1,2.5446827E0,1.2054249E5,1.193722E5,4.23679E-6,-1.109206E-5,-3.7195634E-5,-1.506419E-5,-8.654116E-6,-3.6948153E-5,-8.139241E-6,1.312204E-5],"split_indices":[7,1,8,3,8,9,6,0,0,0,0,0,0,0,0],"split_type":[0,0,0,0,0,0,0,0,0,0,0,0,0,0,0],"sum_hessian":[9.287E3,6.563E3,2.724E3,6.45E3,1.13E2,1.882E3,8.42E2,6.069E3,3.81E2,5.6E1,5.7E1,1.631E3,2.51E2,2.89E2,5.53E2],"tree_param":{"num_deleted":"0","num_feature":"10","num_nodes":"15","size_leaf_vector":"1"}},{"base_weights":[-4.258603E-7,1.3952138E-4,-1.3512693E-3,-8.9459453E-4,2.565623E-4,-3.1623398E-3,2.4918766E-6,9.192507E-6,-1.5389307E-5,-1.560431E-6,6.170684E-6,1.3197266E-5,-3.7503654E-5,-1.2706474E-5,1.0155184E-5],"categories":[],"categories_nodes":[],"categories_segments":[],"categories_sizes":[],"default_left":[0,0,0,0,0,0,0,0,0,0,0,0,0,0,0],"id":59,"left_children":[1,3,5,7,9,11,13,-1,-1,-1,-1,-1,-1,-1,-1],"loss_changes":[1.7560552E-3,1.0189719E-3,2.13794E-3,1.0018444E-3,1.1249194E-3,9.88018E-4,6.4615236E-4,0E0,0E0,0E0,0E0,0E0,0E0,0E0,0E0],"parents":[2147483647,0,0,1,1,2,2,3,3,4,4,5,5,6,6],"right_children":[2,4,6,8,10,12,14,-1,-1,-1,-1,-1,-1,-1,-1],"split_conditions":[1.1931653E5,-1.1586552E2,-2.0579572E0,1.1555E5,4.0418285E-1,-2.3222789E2,1.20215664E5,9.192507E-6,-1.5389307E-5,-1.560431E-6,6.170684E-6,1.3197266E-5,-3.7503654E-5,-1.2706474E-5,1.0155184E-5],"split_indices":[9,8,8,2,5,8,9,0,0,0,0,0,0,0,0],"split_type":[0,0,0,0,0,0,0,0,0,0,0,0,0,0,0],"sum_hessian":[9.287E3,8.416E3,8.71E2,8.55E2,7.561E3,3.72E2,4.99E2,2.24E2,6.31E2,3.526E3,4.035E3,4.3E1,3.29E2,2.21E2,2.78E2],"tree_param":{"num_deleted":"0","num_feature":"10","num_nodes":"15","size_leaf_vector":"1"}},{"base_weights":[-4.2466837E-7,3.8998816E-4,-4.784372E-4,4.5812986E-4,-2.602104E-3,-8.2838634E-4,5.1432813E-4,5.6041195E-6,-1.5464639E-5,-3.683645E-5,-1.4943465E-5,-5.647774E-6,-3.5554378E-5,-2.8405811E-6,1.2417782E-5],"categories":[],"categories_nodes":[],"categories_segments":[],"categories_sizes":[],"default_left":[0,0,0,0,0,0,0,0,0,0,0,0,0,0,0],"id":60,"left_children":[1,3,5,7,9,11,13,-1,-1,-1,-1,-1,-1,-1,-1],"loss_changes":[1.7335338E-3,1.0436627E-3,1.451241E-3,1.0260368E-3,1.3107713E-4,2.2178788E-3,6.328289E-4,0E0,0E0,0E0,0E0,0E0,0E0,0E0,0E0],"parents":[2147483647,0,0,1,1,2,2,3,3,4,4,5,5,6,6],"right_children":[2,4,6,8,10,12,14,-1,-1,-1,-1,-1,-1,-1,-1],"split_conditions":[1.18058E5,1.077206E5,8.353265E1,5.828856E1,2.5446827E0,1.20341766E5,1.193722E5,5.6041195E-6,-1.5464639E-5,-3.683645E-5,-1.4943465E-5,-5.647774E-6,-3.5554378E-5,-2.8405811E-6,1.2417782E-5],"split_indices":[7,1,8,3,8,9,6,0,0,0,0,0,0,0,0],"split_type":[0,0,0,0,0,0,0,0,0,0,0,0,0,0,0],"sum_hessian":[9.287E3,5.112E3,4.175E3,4.999E3,1.13E2,3.087E3,1.088E3,4.757E3,2.42E2,5.6E1,5.7E1,2.816E3,2.71E2,5.19E2,5.69E2],"tree_param":{"num_deleted":"0","num_feature":"10","num_nodes":"15","size_leaf_vector":"1"}},{"base_weights":[-4.3046415E-7,2.4722287E-4,-7.430705E-4,9.964645E-4,6.511507E-5,-1.3903743E-3,6.031053E-4,1.7879347E-5,5.814873E-6,1.1628932E-6,-2.8419372E-5,-9.375555E-6,-3.59499E-5,-1.6830174E-5,1.2502689E-5],"categories":[],"categories_nodes":[],"categories_segments":[],"categories_sizes":[],"default_left":[0,0,0,0,0,0,0,0,0,0,0,0,0,0,0],"id":61,"left_children":[1,3,5,7,9,11,13,-1,-1,-1,-1,-1,-1,-1,-1],"loss_changes":[1.7084075E-3,9.503952E-4,2.025065E-3,4.462984E-4,8.341653E-4,1.5629481E-3,1.1191233E-3,0E0,0E0,0E0,0E0,0E0,0E0,0E0,0E0],"parents":[2147483647,0,0,1,1,2,2,3,3,4,4,5,5,6,6],"right_children":[2,4,6,8,10,12,14,-1,-1,-1,-1,-1,-1,-1,-1],"split_conditions":[1.19013805E5,-2.221326E1,7.79693E1,1.1533769E5,1.077206E5,1.20341766E5,1.193722E5,1.7879347E-5,5.814873E-6,1.1628932E-6,-2.8419372E-5,-9.375555E-6,-3.59499E-5,-1.6830174E-5,1.2502689E-5],"split_indices":[6,3,8,6,1,9,6,0,0,0,0,0,0,0,0],"split_type":[0,0,0,0,0,0,0,0,0,0,0,0,0,0,0],"sum_hessian":[9.287E3,6.965E3,2.322E3,1.361E3,5.604E3,1.568E3,7.54E2,4.67E2,8.94E2,5.508E3,9.6E1,1.302E3,2.66E2,1.66E2,5.88E2],"tree_param":{"num_deleted":"0","num_feature":"10","num_nodes":"15","size_leaf_vector":"1"}},{"base_weights":[-4.318827E-7,1.202293E-4,-1.4994546E-3,1.5802127E-4,-2.8517535E-3,-3.5564026E-3,1.4039638E-4,5.8194023E-6,-1.2084264E-6,-6.0370196E-5,-1.1067975E-5,-4.9463466E-5,-1.4930726E-5,-1.9293628E-5,1.08137565E-5],"categories":[],"categories_nodes":[],"categories_segments":[],"categories_sizes":[],"default_left":[0,0,0,0,0,0,0,0,0,0,0,0,0,0,0],"id":62,"left_children":[1,3,5,7,9,11,13,-1,-1,-1,-1,-1,-1,-1,-1],"loss_changes":[1.6801365E-3,9.660409E-4,2.3346762E-3,1.0037217E-3,5.9359835E-4,8.730646E-4,7.5386016E-4,0E0,0E0,0E0,0E0,0E0,0E0,0E0,0E0],"parents":[2147483647,0,0,1,1,2,2,3,3,4,4,5,5,6,6],"right_children":[2,4,6,8,10,12,14,-1,-1,-1,-1,-1,-1,-1,-1],"split_conditions":[1.1962083E5,1.0088994E2,1.3629777E1,1.17564234E5,5.4370556E1,1.2208132E5,1.20215664E5,5.8194023E-6,-1.2084264E-6,-6.0370196E-5,-1.1067975E-5,-4.9463466E-5,-1.4930726E-5,-1.9293628E-5,1.08137565E-5],"split_indices":[9,3,8,6,8,6,9,0,0,0,0,0,0,0,0],"split_type":[0,0,0,0,0,0,0,0,0,0,0,0,0,0,0],"sum_hessian":[9.287E3,8.596E3,6.91E2,8.489E3,1.07E2,3.06E2,3.85E2,3.368E3,5.121E3,3.7E1,7E1,1.82E2,1.24E2,1.2E2,2.65E2],"tree_param":{"num_deleted":"0","num_feature":"10","num_nodes":"15","size_leaf_vector":"1"}},{"base_weights":[-4.426159E-7,2.710608E-4,-6.544418E-4,3.2106673E-4,-2.5610398E-3,-1.1973802E-3,5.590902E-4,4.098477E-6,-1.09050725E-5,-3.6260637E-5,-1.4702224E-5,-8.357277E-6,-3.5347595E-5,-7.9787715E-6,1.2684067E-5],"categories":[],"categories_nodes":[],"categories_segments":[],"categories_sizes":[],"default_left":[0,0,0,0,0,0,0,0,0,0,0,0,0,0,0],"id":63,"left_children":[1,3,5,7,9,11,13,-1,-1,-1,-1,-1,-1,-1,-1],"loss_changes":[1.6493828E-3,9.3042833E-4,1.7960987E-3,8.088918E-4,1.2710801E-4,1.5887818E-3,8.1241596E-4,0E0,0E0,0E0,0E0,0E0,0E0,0E0,0E0],"parents":[2147483647,0,0,1,1,2,2,3,3,4,4,5,5,6,6],"right_children":[2,4,6,8,10,12,14,-1,-1,-1,-1,-1,-1,-1,-1],"split_conditions":[1.185356E5,1.077206E5,8.900504E1,5.0784004E1,2.5446827E0,1.2054249E5,1.193722E5,4.098477E-6,-1.09050725E-5,-3.6260637E-5,-1.4702224E-5,-8.357277E-6,-3.5347595E-5,-7.9787715E-6,1.2684067E-5],"split_indices":[7,1,8,3,8,9,6,0,0,0,0,0,0,0,0],"split_type":[0,0,0,0,0,0,0,0,0,0,0,0,0,0,0],"sum_hessian":[9.287E3,6.563E3,2.724E3,6.45E3,1.13E2,1.882E3,8.42E2,6.069E3,3.81E2,5.6E1,5.7E1,1.631E3,2.51E2,2.89E2,5.53E2],"tree_param":{"num_deleted":"0","num_feature":"10","num_nodes":"15","size_leaf_vector":"1"}},{"base_weights":[-4.485996E-7,3.777498E-4,-4.6350606E-4,4.4410492E-4,-2.5358764E-3,-8.0308825E-4,4.998487E-4,5.441941E-6,-1.5174943E-5,-3.590439E-5,-1.4557737E-5,-5.496103E-6,-3.4253095E-5,-2.7247518E-6,1.2035479E-5],"categories":[],"categories_nodes":[],"categories_segments":[],"categories_sizes":[],"default_left":[0,0,0,0,0,0,0,0,0,0,0,0,0,0,0],"id":64,"left_children":[1,3,5,7,9,11,13,-1,-1,-1,-1,-1,-1,-1,-1],"loss_changes":[1.62676E-3,9.896432E-4,1.3665301E-3,9.825005E-4,1.2462324E-4,2.050635E-3,5.9218175E-4,0E0,0E0,0E0,0E0,0E0,0E0,0E0,0E0],"parents":[2147483647,0,0,1,1,2,2,3,3,4,4,5,5,6,6],"right_children":[2,4,6,8,10,12,14,-1,-1,-1,-1,-1,-1,-1,-1],"split_conditions":[1.18058E5,1.077206E5,8.353265E1,5.828856E1,2.5446827E0,1.20341766E5,1.193722E5,5.441941E-6,-1.5174943E-5,-3.590439E-5,-1.4557737E-5,-5.496103E-6,-3.4253095E-5,-2.7247518E-6,1.2035479E-5],"split_indices":[7,1,8,3,8,9,6,0,0,0,0,0,0,0,0],"split_type":[0,0,0,0,0,0,0,0,0,0,0,0,0,0,0],"sum_hessian":[9.287E3,5.112E3,4.175E3,4.999E3,1.13E2,3.087E3,1.088E3,4.757E3,2.42E2,5.6E1,5.7E1,2.816E3,2.71E2,5.19E2,5.69E2],"tree_param":{"num_deleted":"0","num_feature":"10","num_nodes":"15","size_leaf_vector":"1"}},{"base_weights":[-4.5388023E-7,1.4242707E-4,-1.2091215E-3,1.01236285E-4,3.268557E-3,-2.8260746E-3,1.4414642E-5,1.4706079E-6,-3.0935258E-5,-4.929256E-6,4.182167E-5,1.4573106E-5,-3.430369E-5,-1.1038007E-5,8.443495E-6],"categories":[],"categories_nodes":[],"categories_segments":[],"categories_sizes":[],"default_left":[0,0,0,0,0,0,0,0,0,0,0,0,0,0,0],"id":65,"left_children":[1,3,5,7,9,11,13,-1,-1,-1,-1,-1,-1,-1,-1],"loss_changes":[1.6041689E-3,1.0693427E-3,1.9428299E-3,1.2009218E-3,3.7320657E-4,1.0999043E-3,5.206377E-4,0E0,0E0,0E0,0E0,0E0,0E0,0E0,0E0],"parents":[2147483647,0,0,1,1,2,2,3,3,4,4,5,5,6,6],"right_children":[2,4,6,8,10,12,14,-1,-1,-1,-1,-1,-1,-1,-1],"split_conditions":[1.19221375E5,1.196626E5,-2.0579572E0,9.255315E1,1.1867484E5,-2.3222789E2,1.2029486E5,1.4706079E-6,-3.0935258E-5,-4.929256E-6,4.182167E-5,1.4573106E-5,-3.430369E-5,-1.1038007E-5,8.443495E-6],"split_indices":[9,7,8,3,9,8,4,0,0,0,0,0,0,0,0],"split_type":[0,0,0,0,0,0,0,0,0,0,0,0,0,0,0],"sum_hessian":[9.287E3,8.306E3,9.81E2,8.199E3,1.07E2,4.22E2,5.59E2,8.084E3,1.15E2,2.1E1,8.6E1,5.2E1,3.7E2,2.38E2,3.21E2],"tree_param":{"num_deleted":"0","num_feature":"10","num_nodes":"15","size_leaf_vector":"1"}},{"base_weights":[-4.5094305E-7,2.3844428E-4,-7.1682787E-4,9.759786E-4,5.918286E-5,-1.3384055E-3,5.758506E-4,1.7548002E-5,5.6763843E-6,1.0894142E-6,-2.767406E-5,-9.065965E-6,-3.4406854E-5,-1.6557968E-5,1.207615E-5],"categories":[],"categories_nodes":[],"categories_segments":[],"categories_sizes":[],"default_left":[0,0,0,0,0,0,0,0,0,0,0,0,0,0,0],"id":66,"left_children":[1,3,5,7,9,11,13,-1,-1,-1,-1,-1,-1,-1,-1],"loss_changes":[1.5897101E-3,9.2092727E-4,1.8673013E-3,4.3215277E-4,7.886279E-4,1.4211934E-3,1.0664556E-3,0E0,0E0,0E0,0E0,0E0,0E0,0E0,0E0],"parents":[2147483647,0,0,1,1,2,2,3,3,4,4,5,5,6,6],"right_children":[2,4,6,8,10,12,14,-1,-1,-1,-1,-1,-1,-1,-1],"split_conditions":[1.19013805E5,-2.221326E1,7.79693E1,1.1533769E5,1.077206E5,1.20341766E5,1.193722E5,1.7548002E-5,5.6763843E-6,1.0894142E-6,-2.767406E-5,-9.065965E-6,-3.4406854E-5,-1.6557968E-5,1.207615E-5],"split_indices":[6,3,8,6,1,9,6,0,0,0,0,0,0,0,0],"split_type":[0,0,0,0,0,0,0,0,0,0,0,0,0,0,0],"sum_hessian":[9.287E3,6.965E3,2.322E3,1.361E3,5.604E3,1.568E3,7.54E2,4.67E2,8.94E2,5.508E3,9.6E1,1.302E3,2.66E2,1.66E2,5.88E2],"tree_param":{"num_deleted":"0","num_feature":"10","num_nodes":"15","size_leaf_vector":"1"}},{"base_weights":[-4.519586E-7,3.7046647E-4,-4.5459598E-4,-2.7961266E-4,6.65818E-4,-7.863471E-4,4.8654442E-4,-1.6818402E-6,-4.8496255E-5,2.3109435E-5,2.6332414E-6,-5.4003413E-6,-3.3344248E-5,-2.6702753E-6,1.17315985E-5],"categories":[],"categories_nodes":[],"categories_segments":[],"categories_sizes":[],"default_left":[0,0,0,0,0,0,0,0,0,0,0,0,0,0,0],"id":67,"left_children":[1,3,5,7,9,11,13,-1,-1,-1,-1,-1,-1,-1,-1],"loss_changes":[1.5647357E-3,9.818916E-4,1.3042312E-3,8.1293436E-4,2.327521E-3,1.9363038E-3,5.637774E-4,0E0,0E0,0E0,0E0,0E0,0E0,0E0,0E0],"parents":[2147483647,0,0,1,1,2,2,3,3,4,4,5,5,6,6],"right_children":[2,4,6,8,10,12,14,-1,-1,-1,-1,-1,-1,-1,-1],"split_conditions":[1.18058E5,1.0892499E5,8.353265E1,1.09383555E5,1.1390107E5,1.20341766E5,1.193722E5,-1.6818402E-6,-4.8496255E-5,2.3109435E-5,2.6332414E-6,-5.4003413E-6,-3.3344248E-5,-2.6702753E-6,1.17315985E-5],"split_indices":[7,9,8,0,0,9,6,0,0,0,0,0,0,0,0],"split_type":[0,0,0,0,0,0,0,0,0,0,0,0,0,0,0],"sum_hessian":[9.287E3,5.112E3,4.175E3,1.597E3,3.515E3,3.087E3,1.088E3,1.56E3,3.7E1,6.9E2,2.825E3,2.816E3,2.71E2,5.19E2,5.69E2],"tree_param":{"num_deleted":"0","num_feature":"10","num_nodes":"15","size_leaf_vector":"1"}},{"base_weights":[-4.5327084E-7,2.3465592E-4,-7.05477E-4,9.631345E-4,5.7595716E-5,-1.3150173E-3,5.6217087E-4,1.7292801E-5,5.61437E-6,1.0681506E-6,-2.7383525E-5,-8.922647E-6,-3.373188E-5,-1.6366019E-5,1.1846375E-5],"categories":[],"categories_nodes":[],"categories_segments":[],"categories_sizes":[],"default_left":[0,0,0,0,0,0,0,0,0,0,0,0,0,0,0],"id":68,"left_children":[1,3,5,7,9,11,13,-1,-1,-1,-1,-1,-1,-1,-1],"loss_changes":[1.5397219E-3,8.98451E-4,1.7956805E-3,4.1819655E-4,7.7162334E-4,1.3621729E-3,1.0352792E-3,0E0,0E0,0E0,0E0,0E0,0E0,0E0,0E0],"parents":[2147483647,0,0,1,1,2,2,3,3,4,4,5,5,6,6],"right_children":[2,4,6,8,10,12,14,-1,-1,-1,-1,-1,-1,-1,-1],"split_conditions":[1.19013805E5,-2.221326E1,7.79693E1,1.1533769E5,1.077206E5,1.20341766E5,1.193722E5,1.7292801E-5,5.61437E-6,1.0681506E-6,-2.7383525E-5,-8.922647E-6,-3.373188E-5,-1.6366019E-5,1.1846375E-5],"split_indices":[6,3,8,6,1,9,6,0,0,0,0,0,0,0,0],"split_type":[0,0,0,0,0,0,0,0,0,0,0,0,0,0,0],"sum_hessian":[9.287E3,6.965E3,2.322E3,1.361E3,5.604E3,1.568E3,7.54E2,4.67E2,8.94E2,5.508E3,9.6E1,1.302E3,2.66E2,1.66E2,5.88E2],"tree_param":{"num_deleted":"0","num_feature":"10","num_nodes":"15","size_leaf_vector":"1"}},{"base_weights":[-4.5418926E-7,1.142316E-4,-1.4252422E-3,-8.6690806E-4,2.2509512E-4,-3.3555697E-3,1.1371063E-4,8.860289E-6,-1.4732931E-5,-2.1179874E-6,5.0817075E-6,-4.746089E-5,-1.2930043E-5,-1.9123408E-5,1.0349081E-5],"categories":[],"categories_nodes":[],"categories_segments":[],"categories_sizes":[],"default_left":[0,0,0,0,0,0,0,0,0,0,0,0,0,0,0],"id":69,"left_children":[1,3,5,7,9,11,13,-1,-1,-1,-1,-1,-1,-1,-1],"loss_changes":[1.5178494E-3,9.353132E-4,2.0560944E-3,9.29265E-4,9.554894E-4,8.74351E-4,7.2240696E-4,0E0,0E0,0E0,0E0,0E0,0E0,0E0,0E0],"parents":[2147483647,0,0,1,1,2,2,3,3,4,4,5,5,6,6],"right_children":[2,4,6,8,10,12,14,-1,-1,-1,-1,-1,-1,-1,-1],"split_conditions":[1.1962083E5,-1.1586552E2,1.3629777E1,1.1555E5,3.6944905E-1,1.2208132E5,1.20215664E5,8.860289E-6,-1.4732931E-5,-2.1179874E-6,5.0817075E-6,-4.746089E-5,-1.2930043E-5,-1.9123408E-5,1.0349081E-5],"split_indices":[9,8,8,2,5,6,9,0,0,0,0,0,0,0,0],"split_type":[0,0,0,0,0,0,0,0,0,0,0,0,0,0,0],"sum_hessian":[9.287E3,8.596E3,6.91E2,8.72E2,7.724E3,3.06E2,3.85E2,2.24E2,6.48E2,3.037E3,4.687E3,1.82E2,1.24E2,1.2E2,2.65E2],"tree_param":{"num_deleted":"0","num_feature":"10","num_nodes":"15","size_leaf_vector":"1"}},{"base_weights":[-4.574058E-7,3.6315483E-4,-4.456559E-4,-2.8106186E-4,6.55844E-4,-1.4714379E-3,-1.5374509E-4,-1.8476354E-6,-5.484762E-5,2.279575E-5,2.5858499E-6,-1.0504491E-5,-3.2953285E-5,-2.4301806E-7,-1.8154731E-5],"categories":[],"categories_nodes":[],"categories_segments":[],"categories_sizes":[],"default_left":[0,0,0,0,0,0,0,0,0,0,0,0,0,0,0],"id":70,"left_children":[1,3,5,7,9,11,13,-1,-1,-1,-1,-1,-1,-1,-1],"loss_changes":[1.5036997E-3,9.6426735E-4,1.2502221E-3,7.9975656E-4,2.2673775E-3,7.0678815E-4,6.994596E-4,0E0,0E0,0E0,0E0,0E0,0E0,0E0,0E0],"parents":[2147483647,0,0,1,1,2,2,3,3,4,4,5,5,6,6],"right_children":[2,4,6,8,10,12,14,-1,-1,-1,-1,-1,-1,-1,-1],"split_conditions":[1.18058E5,1.0892499E5,-5.6561626E1,1.094988E5,1.1390107E5,1.20479E5,1.21715766E5,-1.8476354E-6,-5.484762E-5,2.279575E-5,2.5858499E-6,-1.0504491E-5,-3.2953285E-5,-2.4301806E-7,-1.8154731E-5],"split_indices":[7,9,8,2,0,2,4,0,0,0,0,0,0,0,0],"split_type":[0,0,0,0,0,0,0,0,0,0,0,0,0,0,0],"sum_hessian":[9.287E3,5.112E3,4.175E3,1.597E3,3.515E3,9.24E2,3.251E3,1.569E3,2.8E1,6.9E2,2.825E3,7.52E2,1.72E2,3.017E3,2.34E2],"tree_param":{"num_deleted":"0","num_feature":"10","num_nodes":"15","size_leaf_vector":"1"}},{"base_weights":[-4.6286323E-7,3.5951714E-4,-4.4121416E-4,-2.7828675E-4,6.492928E-4,-7.6455664E-4,4.7607027E-4,-1.6864748E-6,-4.7748283E-5,2.2568123E-5,2.5600004E-6,-4.61783E-6,-2.6921005E-5,-2.6391324E-6,1.1503077E-5],"categories":[],"categories_nodes":[],"categories_segments":[],"categories_sizes":[],"default_left":[0,0,0,0,0,0,0,0,0,0,0,0,0,0,0],"id":71,"left_children":[1,3,5,7,9,11,13,-1,-1,-1,-1,-1,-1,-1,-1],"loss_changes":[1.4738081E-3,9.451655E-4,1.238953E-3,7.870047E-4,2.2223277E-3,1.8009428E-3,5.4363254E-4,0E0,0E0,0E0,0E0,0E0,0E0,0E0,0E0],"parents":[2147483647,0,0,1,1,2,2,3,3,4,4,5,5,6,6],"right_children":[2,4,6,8,10,12,14,-1,-1,-1,-1,-1,-1,-1,-1],"split_conditions":[1.18058E5,1.0892499E5,8.353265E1,1.09383555E5,1.1390107E5,1.1962083E5,1.193722E5,-1.6864748E-6,-4.7748283E-5,2.2568123E-5,2.5600004E-6,-4.61783E-6,-2.6921005E-5,-2.6391324E-6,1.1503077E-5],"split_indices":[7,9,8,0,0,9,6,0,0,0,0,0,0,0,0],"split_type":[0,0,0,0,0,0,0,0,0,0,0,0,0,0,0],"sum_hessian":[9.287E3,5.112E3,4.175E3,1.597E3,3.515E3,3.087E3,1.088E3,1.56E3,3.7E1,6.9E2,2.825E3,2.669E3,4.18E2,5.19E2,5.69E2],"tree_param":{"num_deleted":"0","num_feature":"10","num_nodes":"15","size_leaf_vector":"1"}},{"base_weights":[-4.6328904E-7,2.539949E-4,-6.134038E-4,3.0203996E-4,-2.466995E-3,-1.1193193E-3,5.173819E-4,3.882706E-6,-1.0689602E-5,-3.498626E-5,-1.4106164E-5,-7.875339E-6,-3.2635828E-5,-7.709869E-6,1.1908648E-5],"categories":[],"categories_nodes":[],"categories_segments":[],"categories_sizes":[],"default_left":[0,0,0,0,0,0,0,0,0,0,0,0,0,0,0],"id":72,"left_children":[1,3,5,7,9,11,13,-1,-1,-1,-1,-1,-1,-1,-1],"loss_changes":[1.4487841E-3,8.588581E-4,1.5595026E-3,7.630668E-4,1.193012E-4,1.3370626E-3,7.3238456E-4,0E0,0E0,0E0,0E0,0E0,0E0,0E0,0E0],"parents":[2147483647,0,0,1,1,2,2,3,3,4,4,5,5,6,6],"right_children":[2,4,6,8,10,12,14,-1,-1,-1,-1,-1,-1,-1,-1],"split_conditions":[1.185356E5,1.077206E5,8.900504E1,5.0784004E1,2.5446827E0,1.2054249E5,1.193722E5,3.882706E-6,-1.0689602E-5,-3.498626E-5,-1.4106164E-5,-7.875339E-6,-3.2635828E-5,-7.709869E-6,1.1908648E-5],"split_indices":[7,1,8,3,8,9,6,0,0,0,0,0,0,0,0],"split_type":[0,0,0,0,0,0,0,0,0,0,0,0,0,0,0],"sum_hessian":[9.287E3,6.563E3,2.724E3,6.45E3,1.13E2,1.882E3,8.42E2,6.069E3,3.81E2,5.6E1,5.7E1,1.631E3,2.51E2,2.89E2,5.53E2],"tree_param":{"num_deleted":"0","num_feature":"10","num_nodes":"15","size_leaf_vector":"1"}},{"base_weights":[-4.6857963E-7,3.5353936E-4,-4.339078E-4,-2.7689154E-4,6.399657E-4,-1.4382501E-3,-1.480989E-4,-1.8233832E-6,-5.3862583E-5,2.2312432E-5,2.506477E-6,-1.0305157E-5,-3.2046413E-5,-1.9899575E-7,-1.7938752E-5],"categories":[],"categories_nodes":[],"categories_segments":[],"categories_sizes":[],"default_left":[0,0,0,0,0,0,0,0,0,0,0,0,0,0,0],"id":73,"left_children":[1,3,5,7,9,11,13,-1,-1,-1,-1,-1,-1,-1,-1],"loss_changes":[1.4253126E-3,9.2344196E-4,1.1985076E-3,7.710229E-4,2.1776487E-3,6.6289946E-4,6.8609545E-4,0E0,0E0,0E0,0E0,0E0,0E0,0E0,0E0],"parents":[2147483647,0,0,1,1,2,2,3,3,4,4,5,5,6,6],"right_children":[2,4,6,8,10,12,14,-1,-1,-1,-1,-1,-1,-1,-1],"split_conditions":[1.18058E5,1.0892499E5,-5.6561626E1,1.094988E5,1.1390107E5,1.20479E5,1.21715766E5,-1.8233832E-6,-5.3862583E-5,2.2312432E-5,2.506477E-6,-1.0305157E-5,-3.2046413E-5,-1.9899575E-7,-1.7938752E-5],"split_indices":[7,9,8,2,0,2,4,0,0,0,0,0,0,0,0],"split_type":[0,0,0,0,0,0,0,0,0,0,0,0,0,0,0],"sum_hessian":[9.287E3,5.112E3,4.175E3,1.597E3,3.515E3,9.24E2,3.251E3,1.569E3,2.8E1,6.9E2,2.825E3,7.52E2,1.72E2,3.017E3,2.34E2],"tree_param":{"num_deleted":"0","num_feature":"10","num_nodes":"15","size_leaf_vector":"1"}},{"base_weights":[-4.7373658E-7,2.2356295E-4,-6.7229423E-4,9.374717E-4,5.0045142E-5,-1.2580925E-3,5.459701E-4,1.6813261E-5,5.474589E-6,9.813032E-7,-2.6814116E-5,-8.582272E-6,-3.2047825E-5,-1.6134227E-5,1.1572989E-5],"categories":[],"categories_nodes":[],"categories_segments":[],"categories_sizes":[],"default_left":[0,0,0,0,0,0,0,0,0,0,0,0,0,0,0],"id":74,"left_children":[1,3,5,7,9,11,13,-1,-1,-1,-1,-1,-1,-1,-1],"loss_changes":[1.3981098E-3,8.6287246E-4,1.6585122E-3,3.9421313E-4,7.364383E-4,1.2185804E-3,9.98542E-4,0E0,0E0,0E0,0E0,0E0,0E0,0E0,0E0],"parents":[2147483647,0,0,1,1,2,2,3,3,4,4,5,5,6,6],"right_children":[2,4,6,8,10,12,14,-1,-1,-1,-1,-1,-1,-1,-1],"split_conditions":[1.19013805E5,-2.221326E1,7.79693E1,1.1533769E5,1.077206E5,1.20341766E5,1.193722E5,1.6813261E-5,5.474589E-6,9.813032E-7,-2.6814116E-5,-8.582272E-6,-3.2047825E-5,-1.6134227E-5,1.1572989E-5],"split_indices":[6,3,8,6,1,9,6,0,0,0,0,0,0,0,0],"split_type":[0,0,0,0,0,0,0,0,0,0,0,0,0,0,0],"sum_hessian":[9.287E3,6.965E3,2.322E3,1.361E3,5.604E3,1.568E3,7.54E2,4.67E2,8.94E2,5.508E3,9.6E1,1.302E3,2.66E2,1.66E2,5.88E2],"tree_param":{"num_deleted":"0","num_feature":"10","num_nodes":"15","size_leaf_vector":"1"}},{"base_weights":[-4.742564E-7,3.475729E-4,-4.266152E-4,-2.760938E-4,6.309267E-4,-7.411145E-4,4.6557988E-4,-1.684085E-6,-4.6924273E-5,2.2036756E-5,2.4614233E-6,-4.487986E-6,-2.6020747E-5,-2.5381783E-6,1.1210556E-5],"categories":[],"categories_nodes":[],"categories_segments":[],"categories_sizes":[],"default_left":[0,0,0,0,0,0,0,0,0,0,0,0,0,0,0],"id":75,"left_children":[1,3,5,7,9,11,13,-1,-1,-1,-1,-1,-1,-1,-1],"loss_changes":[1.3777179E-3,9.03735E-4,1.1721086E-3,7.591774E-4,2.1272327E-3,1.678668E-3,5.1380007E-4,0E0,0E0,0E0,0E0,0E0,0E0,0E0,0E0],"parents":[2147483647,0,0,1,1,2,2,3,3,4,4,5,5,6,6],"right_children":[2,4,6,8,10,12,14,-1,-1,-1,-1,-1,-1,-1,-1],"split_conditions":[1.18058E5,1.0892499E5,8.353265E1,1.09383555E5,1.1390107E5,1.1962083E5,1.193722E5,-1.684085E-6,-4.6924273E-5,2.2036756E-5,2.4614233E-6,-4.487986E-6,-2.6020747E-5,-2.5381783E-6,1.1210556E-5],"split_indices":[7,9,8,0,0,9,6,0,0,0,0,0,0,0,0],"split_type":[0,0,0,0,0,0,0,0,0,0,0,0,0,0,0],"sum_hessian":[9.287E3,5.112E3,4.175E3,1.597E3,3.515E3,3.087E3,1.088E3,1.56E3,3.7E1,6.9E2,2.825E3,2.669E3,4.18E2,5.19E2,5.69E2],"tree_param":{"num_deleted":"0","num_feature":"10","num_nodes":"15","size_leaf_vector":"1"}},{"base_weights":[-4.7445585E-7,2.1988575E-4,-6.612703E-4,3.098219E-4,-1.1278042E-3,-1.2354866E-3,5.329107E-4,-1.015139E-6,7.2030793E-6,-2.9081126E-5,-6.459938E-7,-8.428609E-6,-3.1469313E-5,-1.5948037E-5,1.1352798E-5],"categories":[],"categories_nodes":[],"categories_segments":[],"categories_sizes":[],"default_left":[0,0,0,0,0,0,0,0,0,0,0,0,0,0,0],"id":76,"left_children":[1,3,5,7,9,11,13,-1,-1,-1,-1,-1,-1,-1,-1],"loss_changes":[1.3526E-3,8.446706E-4,1.5935818E-3,1.1028167E-3,8.2508713E-4,1.1748543E-3,9.69471E-4,0E0,0E0,0E0,0E0,0E0,0E0,0E0,0E0],"parents":[2147483647,0,0,1,1,2,2,3,3,4,4,5,5,6,6],"right_children":[2,4,6,8,10,12,14,-1,-1,-1,-1,-1,-1,-1,-1],"split_conditions":[1.19013805E5,5.0784004E1,7.79693E1,4.111976E-1,1.1484697E5,1.20341766E5,1.193722E5,-1.015139E-6,7.2030793E-6,-2.9081126E-5,-6.459938E-7,-8.428609E-6,-3.1469313E-5,-1.5948037E-5,1.1352798E-5],"split_indices":[6,3,8,5,9,9,6,0,0,0,0,0,0,0,0],"split_type":[0,0,0,0,0,0,0,0,0,0,0,0,0,0,0],"sum_hessian":[9.287E3,6.965E3,2.322E3,6.53E3,4.35E2,1.568E3,7.54E2,3.262E3,3.268E3,1.62E2,2.73E2,1.302E3,2.66E2,1.66E2,5.88E2],"tree_param":{"num_deleted":"0","num_feature":"10","num_nodes":"15","size_leaf_vector":"1"}},{"base_weights":[-4.7704583E-7,3.4188252E-4,-4.1965427E-4,4.048002E-4,-2.4206631E-3,-1.3957599E-3,-1.4188139E-4,5.007385E-6,-1.4753609E-5,-3.4351815E-5,-1.3819008E-5,-1.0060921E-5,-3.08376E-5,-1.4943951E-7,-1.7714785E-5],"categories":[],"categories_nodes":[],"categories_segments":[],"categories_sizes":[],"default_left":[0,0,0,0,0,0,0,0,0,0,0,0,0,0,0],"id":77,"left_children":[1,3,5,7,9,11,13,-1,-1,-1,-1,-1,-1,-1,-1],"loss_changes":[1.3330581E-3,8.8968535E-4,1.1320645E-3,9.02636E-4,1.1539116E-4,6.053245E-4,6.726722E-4,0E0,0E0,0E0,0E0,0E0,0E0,0E0,0E0],"parents":[2147483647,0,0,1,1,2,2,3,3,4,4,5,5,6,6],"right_children":[2,4,6,8,10,12,14,-1,-1,-1,-1,-1,-1,-1,-1],"split_conditions":[1.18058E5,1.077206E5,-5.6561626E1,5.828856E1,2.5446827E0,1.20479E5,1.21715766E5,5.007385E-6,-1.4753609E-5,-3.4351815E-5,-1.3819008E-5,-1.0060921E-5,-3.08376E-5,-1.4943951E-7,-1.7714785E-5],"split_indices":[7,1,8,3,8,2,4,0,0,0,0,0,0,0,0],"split_type":[0,0,0,0,0,0,0,0,0,0,0,0,0,0,0],"sum_hessian":[9.287E3,5.112E3,4.175E3,4.999E3,1.13E2,9.24E2,3.251E3,4.757E3,2.42E2,5.6E1,5.7E1,7.52E2,1.72E2,3.017E3,2.34E2],"tree_param":{"num_deleted":"0","num_feature":"10","num_nodes":"15","size_leaf_vector":"1"}},{"base_weights":[-4.848286E-7,3.384524E-4,-4.154718E-4,-2.7753893E-4,6.183203E-4,-7.236559E-4,4.5880562E-4,-1.7141608E-6,-4.6296496E-5,2.1759997E-5,2.3722519E-6,-4.388775E-6,-2.5366267E-5,9.546588E-6,-4.801921E-6],"categories":[],"categories_nodes":[],"categories_segments":[],"categories_sizes":[],"default_left":[0,0,0,0,0,0,0,0,0,0,0,0,0,0,0],"id":78,"left_children":[1,3,5,7,9,11,13,-1,-1,-1,-1,-1,-1,-1,-1],"loss_changes":[1.3065398E-3,8.816336E-4,1.125507E-3,7.372561E-4,2.0866664E-3,1.5932055E-3,5.0750235E-4,0E0,0E0,0E0,0E0,0E0,0E0,0E0,0E0],"parents":[2147483647,0,0,1,1,2,2,3,3,4,4,5,5,6,6],"right_children":[2,4,6,8,10,12,14,-1,-1,-1,-1,-1,-1,-1,-1],"split_conditions":[1.18058E5,1.0892499E5,8.353265E1,1.09383555E5,1.1390107E5,1.1962083E5,1.609398E2,-1.7141608E-6,-4.6296496E-5,2.1759997E-5,2.3722519E-6,-4.388775E-6,-2.5366267E-5,9.546588E-6,-4.801921E-6],"split_indices":[7,9,8,0,0,9,8,0,0,0,0,0,0,0,0],"split_type":[0,0,0,0,0,0,0,0,0,0,0,0,0,0,0],"sum_hessian":[9.287E3,5.112E3,4.175E3,1.597E3,3.515E3,3.087E3,1.088E3,1.56E3,3.7E1,6.9E2,2.825E3,2.669E3,4.18E2,7.12E2,3.76E2],"tree_param":{"num_deleted":"0","num_feature":"10","num_nodes":"15","size_leaf_vector":"1"}},{"base_weights":[-4.8524015E-7,2.3898816E-4,-5.7733036E-4,2.8550127E-4,-2.39518E-3,-1.058604E-3,4.983702E-4,3.6879978E-6,-1.0388638E-5,-3.3997483E-5,-1.3666354E-5,-7.4786312E-6,-3.06682E-5,-7.5221647E-6,1.1521099E-5],"categories":[],"categories_nodes":[],"categories_segments":[],"categories_sizes":[],"default_left":[0,0,0,0,0,0,0,0,0,0,0,0,0,0,0],"id":79,"left_children":[1,3,5,7,9,11,13,-1,-1,-1,-1,-1,-1,-1,-1],"loss_changes":[1.2831736E-3,8.0492743E-4,1.4112773E-3,7.1204215E-4,1.1314353E-4,1.172764E-3,6.900681E-4,0E0,0E0,0E0,0E0,0E0,0E0,0E0,0E0],"parents":[2147483647,0,0,1,1,2,2,3,3,4,4,5,5,6,6],"right_children":[2,4,6,8,10,12,14,-1,-1,-1,-1,-1,-1,-1,-1],"split_conditions":[1.185356E5,1.077206E5,8.900504E1,5.0784004E1,2.5446827E0,1.2054249E5,1.193722E5,3.6879978E-6,-1.0388638E-5,-3.3997483E-5,-1.3666354E-5,-7.4786312E-6,-3.06682E-5,-7.5221647E-6,1.1521099E-5],"split_indices":[7,1,8,3,8,9,6,0,0,0,0,0,0,0,0],"split_type":[0,0,0,0,0,0,0,0,0,0,0,0,0,0,0],"sum_hessian":[9.287E3,6.563E3,2.724E3,6.45E3,1.13E2,1.882E3,8.42E2,6.069E3,3.81E2,5.6E1,5.7E1,1.631E3,2.51E2,2.89E2,5.53E2],"tree_param":{"num_deleted":"0","num_feature":"10","num_nodes":"15","size_leaf_vector":"1"}},{"base_weights":[-4.8991456E-7,3.3283012E-4,-4.085993E-4,-2.760375E-4,6.09462E-4,-7.113185E-4,4.501752E-4,-1.8437814E-6,-5.228765E-5,2.1514035E-5,2.322181E-6,-4.3193054E-6,-2.4899686E-5,9.422204E-6,-4.815978E-6],"categories":[],"categories_nodes":[],"categories_segments":[],"categories_sizes":[],"default_left":[0,0,0,0,0,0,0,0,0,0,0,0,0,0,0],"id":80,"left_children":[1,3,5,7,9,11,13,-1,-1,-1,-1,-1,-1,-1,-1],"loss_changes":[1.2635923E-3,8.61362E-4,1.0859447E-3,7.2446995E-4,2.0447155E-3,1.5334547E-3,4.997325E-4,0E0,0E0,0E0,0E0,0E0,0E0,0E0,0E0],"parents":[2147483647,0,0,1,1,2,2,3,3,4,4,5,5,6,6],"right_children":[2,4,6,8,10,12,14,-1,-1,-1,-1,-1,-1,-1,-1],"split_conditions":[1.18058E5,1.0892499E5,8.353265E1,1.094988E5,1.1390107E5,1.1962083E5,1.609398E2,-1.8437814E-6,-5.228765E-5,2.1514035E-5,2.322181E-6,-4.3193054E-6,-2.4899686E-5,9.422204E-6,-4.815978E-6],"split_indices":[7,9,8,2,0,9,8,0,0,0,0,0,0,0,0],"split_type":[0,0,0,0,0,0,0,0,0,0,0,0,0,0,0],"sum_hessian":[9.287E3,5.112E3,4.175E3,1.597E3,3.515E3,3.087E3,1.088E3,1.569E3,2.8E1,6.9E2,2.825E3,2.669E3,4.18E2,7.12E2,3.76E2],"tree_param":{"num_deleted":"0","num_feature":"10","num_nodes":"15","size_leaf_vector":"1"}},{"base_weights":[-4.9092813E-7,3.2949587E-4,-4.045192E-4,3.9097434E-4,-2.3698185E-3,-1.3554569E-3,-1.3390975E-4,4.850051E-6,-1.4517804E-5,-3.7858637E-5,-1.640214E-5,-6.9616663E-6,-2.2783675E-5,-9.0789385E-8,-1.7364862E-5],"categories":[],"categories_nodes":[],"categories_segments":[],"categories_sizes":[],"default_left":[0,0,0,0,0,0,0,0,0,0,0,0,0,0,0],"id":81,"left_children":[1,3,5,7,9,11,13,-1,-1,-1,-1,-1,-1,-1,-1],"loss_changes":[1.2384466E-3,8.494275E-4,1.0744401E-3,8.6708256E-4,1.11569825E-4,5.612448E-4,6.505499E-4,0E0,0E0,0E0,0E0,0E0,0E0,0E0,0E0],"parents":[2147483647,0,0,1,1,2,2,3,3,4,4,5,5,6,6],"right_children":[2,4,6,8,10,12,14,-1,-1,-1,-1,-1,-1,-1,-1],"split_conditions":[1.18058E5,1.077206E5,-5.6561626E1,5.828856E1,-1.7018301E1,1.1982224E5,1.21715766E5,4.850051E-6,-1.4517804E-5,-3.7858637E-5,-1.640214E-5,-6.9616663E-6,-2.2783675E-5,-9.0789385E-8,-1.7364862E-5],"split_indices":[7,1,8,3,8,6,4,0,0,0,0,0,0,0,0],"split_type":[0,0,0,0,0,0,0,0,0,0,0,0,0,0,0],"sum_hessian":[9.287E3,5.112E3,4.175E3,4.999E3,1.13E2,9.24E2,3.251E3,4.757E3,2.42E2,3.7E1,7.6E1,5.4E2,3.84E2,3.017E3,2.34E2],"tree_param":{"num_deleted":"0","num_feature":"10","num_nodes":"15","size_leaf_vector":"1"}},{"base_weights":[-4.9797654E-7,2.3241763E-4,-5.615466E-4,2.779571E-4,-2.3465964E-3,-1.033124E-3,4.9247686E-4,-6.8359245E-6,3.89516E-6,-3.3344935E-5,-1.3352734E-5,-7.3010942E-6,-2.9914043E-5,-7.509754E-6,1.1424925E-5],"categories":[],"categories_nodes":[],"categories_segments":[],"categories_sizes":[],"default_left":[0,0,0,0,0,0,0,0,0,0,0,0,0,0,0],"id":82,"left_children":[1,3,5,7,9,11,13,-1,-1,-1,-1,-1,-1,-1,-1],"loss_changes":[1.2138584E-3,7.715741E-4,1.35498E-3,6.922611E-4,1.09442975E-4,1.1151643E-3,6.8222417E-4,0E0,0E0,0E0,0E0,0E0,0E0,0E0,0E0],"parents":[2147483647,0,0,1,1,2,2,3,3,4,4,5,5,6,6],"right_children":[2,4,6,8,10,12,14,-1,-1,-1,-1,-1,-1,-1,-1],"split_conditions":[1.185356E5,1.077206E5,8.900504E1,-1.1586552E2,2.5446827E0,1.2054249E5,1.193722E5,-6.8359245E-6,3.89516E-6,-3.3344935E-5,-1.3352734E-5,-7.3010942E-6,-2.9914043E-5,-7.509754E-6,1.1424925E-5],"split_indices":[7,1,8,8,8,9,6,0,0,0,0,0,0,0,0],"split_type":[0,0,0,0,0,0,0,0,0,0,0,0,0,0,0],"sum_hessian":[9.287E3,6.563E3,2.724E3,6.45E3,1.13E2,1.882E3,8.42E2,6.7E2,5.78E3,5.6E1,5.7E1,1.631E3,2.51E2,2.89E2,5.53E2],"tree_param":{"num_deleted":"0","num_feature":"10","num_nodes":"15","size_leaf_vector":"1"}},{"base_weights":[-5.0192057E-7,3.2415977E-4,-3.9801022E-4,-2.7719743E-4,5.973806E-4,-6.9480535E-4,4.4395617E-4,6.5300867E-7,-1.5984608E-5,2.1226691E-5,2.24213E-6,-4.2225593E-6,-2.429918E-5,9.314475E-6,-4.7918793E-6],"categories":[],"categories_nodes":[],"categories_segments":[],"categories_sizes":[],"default_left":[0,0,0,0,0,0,0,0,0,0,0,0,0,0,0],"id":83,"left_children":[1,3,5,7,9,11,13,-1,-1,-1,-1,-1,-1,-1,-1],"loss_changes":[1.1987984E-3,8.4024866E-4,1.0438554E-3,7.2324806E-4,2.0007906E-3,1.4593011E-3,4.9052347E-4,0E0,0E0,0E0,0E0,0E0,0E0,0E0,0E0],"parents":[2147483647,0,0,1,1,2,2,3,3,4,4,5,5,6,6],"right_children":[2,4,6,8,10,12,14,-1,-1,-1,-1,-1,-1,-1,-1],"split_conditions":[1.18058E5,1.0892499E5,8.353265E1,1.0863217E5,1.1390107E5,1.1962083E5,1.609398E2,6.5300867E-7,-1.5984608E-5,